################################################################################
# Neural network connection values (weights and biases).
################################################################################
# Col  Name       Description
################################################################################
# 1    connection Neural network connection value.
# 2    t          Connection type (a = weight, b = bias).
# 3    index      Index enumerating weights.
# 4    l_s        Starting point layer (end point layer for biases).
# 5    n_s        Starting point neuron in starting layer (end point neuron for biases).
# 6    l_e        End point layer.
# 7    n_e        End point neuron in end layer.
################################################################################
#                      1 2         3     4     5     6     7
#             connection t     index   l_s   n_s   l_e   n_e
############################################################
 -8.6496926665071494E-01 a         1     0     1     1     1
  4.4414968076382283E-01 a         2     0     1     1     2
  1.0187480675390830E+00 a         3     0     1     1     3
  1.0383501651673601E+00 a         4     0     1     1     4
  4.6555977011571936E-02 a         5     0     1     1     5
  4.3125567296501194E-01 a         6     0     1     1     6
 -2.3426704299169210E-01 a         7     0     1     1     7
  1.2734717503274826E-01 a         8     0     1     1     8
 -9.3994478017798289E-01 a         9     0     1     1     9
 -1.0159277827176090E+00 a        10     0     1     1    10
  4.9414694088683514E-01 a        11     0     1     1    11
  9.4235534166281010E-01 a        12     0     1     1    12
 -4.9634411618086918E-02 a        13     0     1     1    13
  3.3618291549655921E-01 a        14     0     1     1    14
  1.3238381386893236E-01 a        15     0     1     1    15
 -5.4814818195006865E-01 a        16     0     2     1     1
 -4.0251728451564561E-01 a        17     0     2     1     2
  9.3168927960881553E-01 a        18     0     2     1     3
 -1.0790417261998750E+00 a        19     0     2     1     4
  2.1225154139326010E+00 a        20     0     2     1     5
  1.0623866252428720E+00 a        21     0     2     1     6
  1.1906083149957505E+00 a        22     0     2     1     7
 -9.6572899588021094E-02 a        23     0     2     1     8
  4.9141693236763162E-01 a        24     0     2     1     9
  1.8142959687286386E+00 a        25     0     2     1    10
 -4.2523394224526678E-01 a        26     0     2     1    11
  5.0818520559597768E-01 a        27     0     2     1    12
 -9.9471495481885486E-01 a        28     0     2     1    13
 -1.9326184428803570E+00 a        29     0     2     1    14
  8.8023738793353068E-01 a        30     0     2     1    15
 -3.9988542124836451E-01 a        31     0     3     1     1
  1.4321246524157472E-02 a        32     0     3     1     2
  5.5367202870073362E-01 a        33     0     3     1     3
 -4.5859849609862691E-01 a        34     0     3     1     4
  4.6884589022424600E-01 a        35     0     3     1     5
  9.2123751546084154E-01 a        36     0     3     1     6
  8.8631479293050397E-01 a        37     0     3     1     7
 -9.0650042580930912E-01 a        38     0     3     1     8
  1.2242018624218234E+00 a        39     0     3     1     9
  5.6743975300021832E-01 a        40     0     3     1    10
 -4.9410502911335857E-01 a        41     0     3     1    11
 -6.7246023815171707E-01 a        42     0     3     1    12
 -5.1648254521224923E-01 a        43     0     3     1    13
 -2.4440553725763117E-01 a        44     0     3     1    14
 -7.0750546421361504E-01 a        45     0     3     1    15
 -5.3212404369342825E-01 a        46     0     4     1     1
 -4.0556158381430796E-01 a        47     0     4     1     2
  3.6500201653041497E-01 a        48     0     4     1     3
  4.5163246083258735E-01 a        49     0     4     1     4
 -2.1154063528112910E-01 a        50     0     4     1     5
 -3.0764941248176964E-01 a        51     0     4     1     6
 -3.2116838274466952E-01 a        52     0     4     1     7
  4.5664354603365509E-01 a        53     0     4     1     8
 -3.3868723506504711E-01 a        54     0     4     1     9
 -6.6732614156893655E-01 a        55     0     4     1    10
 -5.8173533538488295E-04 a        56     0     4     1    11
  1.4201611679965173E-01 a        57     0     4     1    12
 -3.8929173919235405E-01 a        58     0     4     1    13
  1.0910349423479582E-01 a        59     0     4     1    14
  7.5104091097495398E-02 a        60     0     4     1    15
 -5.4270689692847485E-01 a        61     0     5     1     1
 -5.6149300988900230E-01 a        62     0     5     1     2
 -5.8914004117549079E-01 a        63     0     5     1     3
  3.0650881217029435E-01 a        64     0     5     1     4
 -6.0971697504808886E-01 a        65     0     5     1     5
 -5.7015622789942622E-01 a        66     0     5     1     6
 -8.6397483493856186E-01 a        67     0     5     1     7
  1.0535486120862399E-01 a        68     0     5     1     8
  7.3837632732037217E-01 a        69     0     5     1     9
 -4.9467819227707799E-01 a        70     0     5     1    10
 -2.6951015943569245E-01 a        71     0     5     1    11
 -7.6392481223340869E-01 a        72     0     5     1    12
 -3.8411965057317587E-02 a        73     0     5     1    13
 -2.7868734099465831E-01 a        74     0     5     1    14
 -3.5047810085348674E-01 a        75     0     5     1    15
 -4.5698843148101298E-02 a        76     0     6     1     1
  3.9438455046352022E-01 a        77     0     6     1     2
 -5.1510445621474743E-01 a        78     0     6     1     3
 -6.6690660633363825E-03 a        79     0     6     1     4
 -9.0515047932941906E-01 a        80     0     6     1     5
  1.2010655912000125E-01 a        81     0     6     1     6
 -8.9309290845372014E-01 a        82     0     6     1     7
  3.0751504315964354E-02 a        83     0     6     1     8
  4.0566866279840558E-01 a        84     0     6     1     9
 -4.8453781089600984E-01 a        85     0     6     1    10
  7.2305802924756402E-01 a        86     0     6     1    11
  1.0727566225921314E-02 a        87     0     6     1    12
  5.9946884750216844E-01 a        88     0     6     1    13
  4.8740854679721296E-01 a        89     0     6     1    14
 -1.3425528217488525E+00 a        90     0     6     1    15
  2.8438134307301527E-01 a        91     0     7     1     1
  7.0504053754576884E-02 a        92     0     7     1     2
  6.2989559251508828E-02 a        93     0     7     1     3
  2.0760069820951471E-01 a        94     0     7     1     4
 -6.0547966847795624E-03 a        95     0     7     1     5
  2.6205800843824884E-01 a        96     0     7     1     6
 -4.3235542432146051E-01 a        97     0     7     1     7
  1.7660867461069871E-01 a        98     0     7     1     8
 -3.9752293716829111E-02 a        99     0     7     1     9
  1.7037602906355387E-01 a       100     0     7     1    10
  2.9716570059509767E-01 a       101     0     7     1    11
  1.2767522276660824E-02 a       102     0     7     1    12
 -1.7085856014182080E-01 a       103     0     7     1    13
  1.1616280788939545E-01 a       104     0     7     1    14
  1.7975349843350219E-01 a       105     0     7     1    15
  3.4443505188721364E-02 a       106     0     8     1     1
  1.0452052224281792E-01 a       107     0     8     1     2
 -1.7974439001042433E-01 a       108     0     8     1     3
 -6.7757340378592448E-02 a       109     0     8     1     4
 -1.5052272031546032E-01 a       110     0     8     1     5
  1.0660090973833103E-01 a       111     0     8     1     6
 -2.0443812718683921E-01 a       112     0     8     1     7
  2.4288444190734931E-01 a       113     0     8     1     8
 -5.7198751058423458E-01 a       114     0     8     1     9
 -4.2888351344973552E-01 a       115     0     8     1    10
  2.2282385602082561E-01 a       116     0     8     1    11
 -6.9660911175092460E-02 a       117     0     8     1    12
  2.9090711948171932E-01 a       118     0     8     1    13
  1.0842602033689309E-01 a       119     0     8     1    14
  3.6067490000434904E-01 a       120     0     8     1    15
  3.5488215048874151E-02 a       121     0     9     1     1
  2.8033517305621353E-01 a       122     0     9     1     2
 -7.7326407070325298E-01 a       123     0     9     1     3
 -1.7593241368636592E-01 a       124     0     9     1     4
  5.4757717206145008E-02 a       125     0     9     1     5
  1.5428946277080349E-01 a       126     0     9     1     6
  6.5171974503645969E-01 a       127     0     9     1     7
  3.8250635546951506E-01 a       128     0     9     1     8
 -4.4604034651987629E-01 a       129     0     9     1     9
 -6.1415212618477844E-01 a       130     0     9     1    10
 -1.2227950599868669E-01 a       131     0     9     1    11
 -2.2560429166298573E-01 a       132     0     9     1    12
  8.6860418016484187E-01 a       133     0     9     1    13
 -1.2467451513825274E+00 a       134     0     9     1    14
 -4.1889210067186750E-01 a       135     0     9     1    15
  9.4165592321771618E-01 a       136     0    10     1     1
 -5.4267031415376010E-01 a       137     0    10     1     2
  4.8819829558373667E-01 a       138     0    10     1     3
 -1.5657186173668430E-01 a       139     0    10     1     4
  5.6392868760079695E-01 a       140     0    10     1     5
 -9.4967079559304646E-01 a       141     0    10     1     6
  2.8370534137600162E-01 a       142     0    10     1     7
 -1.7184918902324525E-01 a       143     0    10     1     8
 -9.3429845880119888E-01 a       144     0    10     1     9
 -2.2841842046554423E-01 a       145     0    10     1    10
  2.1836792388099149E-01 a       146     0    10     1    11
 -6.1194450839781511E-01 a       147     0    10     1    12
  6.6400526644467073E-01 a       148     0    10     1    13
  1.4511524766029507E+00 a       149     0    10     1    14
  7.6074091840110003E-01 a       150     0    10     1    15
  1.8749438918271316E-01 a       151     0    11     1     1
  3.7400414448024094E-01 a       152     0    11     1     2
 -2.3626121668653671E-01 a       153     0    11     1     3
  1.3597048547815438E-01 a       154     0    11     1     4
 -2.9279581324635695E-01 a       155     0    11     1     5
 -7.6201090585329301E-01 a       156     0    11     1     6
 -4.3295873847554561E-01 a       157     0    11     1     7
 -2.1145029672728016E-01 a       158     0    11     1     8
  3.1822609833219168E-01 a       159     0    11     1     9
  6.9315541981535611E-01 a       160     0    11     1    10
 -2.9672860981978119E-02 a       161     0    11     1    11
  4.4563571557416282E-01 a       162     0    11     1    12
 -5.8215016026404642E-01 a       163     0    11     1    13
 -4.7006261906864952E-02 a       164     0    11     1    14
 -7.0863647982384104E-01 a       165     0    11     1    15
  3.9820213682171718E-01 a       166     0    12     1     1
 -6.0063075723733907E-02 a       167     0    12     1     2
 -7.6518331997173422E-02 a       168     0    12     1     3
 -3.5751571520786590E-01 a       169     0    12     1     4
 -2.0407710111429345E-01 a       170     0    12     1     5
 -4.8272148124901254E-01 a       171     0    12     1     6
 -4.1808718652392440E-01 a       172     0    12     1     7
 -6.2120346558410970E-02 a       173     0    12     1     8
  8.1583132359196966E-02 a       174     0    12     1     9
 -2.7274821730591986E-01 a       175     0    12     1    10
 -1.6974281775735792E-01 a       176     0    12     1    11
 -8.5710594543330861E-04 a       177     0    12     1    12
  6.4998063804126416E-01 a       178     0    12     1    13
 -1.6997824807842100E-02 a       179     0    12     1    14
  3.9000127203806628E-01 a       180     0    12     1    15
  1.1155014809636477E-01 a       181     0    13     1     1
 -9.4352806677333312E-02 a       182     0    13     1     2
  1.9339768003658189E-01 a       183     0    13     1     3
  1.6400724613700471E-01 a       184     0    13     1     4
  2.1309183306109700E-01 a       185     0    13     1     5
 -4.0827685180074308E-01 a       186     0    13     1     6
 -9.5781730292661155E-02 a       187     0    13     1     7
  1.0811529155522220E-01 a       188     0    13     1     8
 -8.5952293881329647E-02 a       189     0    13     1     9
  1.8545597835635899E-01 a       190     0    13     1    10
  2.9646213243634983E-01 a       191     0    13     1    11
  5.7823192200374163E-01 a       192     0    13     1    12
  2.1466243879423991E-01 a       193     0    13     1    13
  4.6921531485366041E-02 a       194     0    13     1    14
  1.4175829531450357E-01 a       195     0    13     1    15
 -1.3088174524348621E-02 a       196     0    14     1     1
  2.2856646007257292E-01 a       197     0    14     1     2
 -2.1538552416006318E-01 a       198     0    14     1     3
  2.9114466556996388E-01 a       199     0    14     1     4
  7.9741082525423168E-02 a       200     0    14     1     5
  2.2246004862844376E-01 a       201     0    14     1     6
  1.8864911116028954E-01 a       202     0    14     1     7
 -2.2356737375864508E-01 a       203     0    14     1     8
  1.1528559591432604E-01 a       204     0    14     1     9
  2.4694365246869629E-01 a       205     0    14     1    10
  1.8382342318048706E-01 a       206     0    14     1    11
 -9.4781053180157296E-02 a       207     0    14     1    12
 -2.2441765125313337E-01 a       208     0    14     1    13
  1.2783952203884567E-02 a       209     0    14     1    14
 -3.7372825631666606E-01 a       210     0    14     1    15
  1.9297777562811266E-01 a       211     0    15     1     1
  1.2872455549080852E-02 a       212     0    15     1     2
  1.5154327174964757E-02 a       213     0    15     1     3
 -1.9674784788473149E-01 a       214     0    15     1     4
 -1.0917810057532036E-01 a       215     0    15     1     5
  2.2397832983518376E-01 a       216     0    15     1     6
 -9.1524783504610879E-02 a       217     0    15     1     7
  2.8171365536896618E-02 a       218     0    15     1     8
 -2.4512387637951788E-01 a       219     0    15     1     9
 -6.0091231065269500E-02 a       220     0    15     1    10
  1.3055155477708416E-01 a       221     0    15     1    11
  8.5015878526275637E-02 a       222     0    15     1    12
 -2.6159072393071780E-03 a       223     0    15     1    13
  1.3059844614458438E-01 a       224     0    15     1    14
  3.2524867654526146E-01 a       225     0    15     1    15
  3.1125382797676499E-01 a       226     0    16     1     1
  4.3040493228206918E-02 a       227     0    16     1     2
  1.9490913451559611E-01 a       228     0    16     1     3
  2.1232211652985097E-02 a       229     0    16     1     4
 -1.0148015133318984E-01 a       230     0    16     1     5
 -4.1082134750278521E-01 a       231     0    16     1     6
  1.4311335541356993E-01 a       232     0    16     1     7
  7.6166247564069131E-02 a       233     0    16     1     8
 -3.3245249525453729E-01 a       234     0    16     1     9
 -1.4118021522639926E-01 a       235     0    16     1    10
 -1.1654767911645485E-01 a       236     0    16     1    11
 -4.8275439906192612E-03 a       237     0    16     1    12
  1.8926309113527778E-01 a       238     0    16     1    13
 -1.5066659030401056E-01 a       239     0    16     1    14
  5.5718752010593682E-02 a       240     0    16     1    15
  4.0349747729182497E-02 a       241     0    17     1     1
  1.4472441859053703E-01 a       242     0    17     1     2
 -3.2097107029813776E-01 a       243     0    17     1     3
 -3.6311950807488802E-01 a       244     0    17     1     4
 -2.2613411620984503E-01 a       245     0    17     1     5
  1.8963867800190787E-01 a       246     0    17     1     6
  3.2273703371575324E-01 a       247     0    17     1     7
  3.8027121222233390E-01 a       248     0    17     1     8
  2.2037925792927560E-01 a       249     0    17     1     9
  3.2258611453310665E-01 a       250     0    17     1    10
 -4.3320628227211933E-01 a       251     0    17     1    11
 -2.6418263048586682E-01 a       252     0    17     1    12
 -1.0647310285994178E-02 a       253     0    17     1    13
 -1.0676281008624607E-01 a       254     0    17     1    14
 -2.8835071995087574E-01 a       255     0    17     1    15
 -1.1360019197324165E+00 a       256     0    18     1     1
 -4.5316784067089599E-01 a       257     0    18     1     2
  3.4254378102812738E-01 a       258     0    18     1     3
 -1.4476929879755780E-02 a       259     0    18     1     4
 -2.8532328427593062E-01 a       260     0    18     1     5
  4.0990023344507920E-01 a       261     0    18     1     6
  3.2196522231859169E-02 a       262     0    18     1     7
  9.7408088389918057E-01 a       263     0    18     1     8
  4.5142370274913762E-01 a       264     0    18     1     9
  5.7388004084128863E-02 a       265     0    18     1    10
 -5.4445219230051811E-01 a       266     0    18     1    11
 -2.7175935479774543E-01 a       267     0    18     1    12
 -5.4252344164468957E-01 a       268     0    18     1    13
  5.9562575653691031E-02 a       269     0    18     1    14
  4.0644084161921203E-02 a       270     0    18     1    15
 -7.5961946974247394E-02 a       271     0    19     1     1
 -6.3816650905585193E-02 a       272     0    19     1     2
  2.4349745317681787E-01 a       273     0    19     1     3
 -2.8295528895976008E-01 a       274     0    19     1     4
 -7.0649685067652179E-02 a       275     0    19     1     5
 -8.0813719460251121E-02 a       276     0    19     1     6
 -7.9234852676486445E-02 a       277     0    19     1     7
  1.7934622996063815E-01 a       278     0    19     1     8
 -1.1821176037084807E-01 a       279     0    19     1     9
 -8.4097102530500095E-02 a       280     0    19     1    10
  1.0106167524780532E-02 a       281     0    19     1    11
  1.9258298075174066E-01 a       282     0    19     1    12
  7.1612735124005636E-02 a       283     0    19     1    13
  5.1708806926172982E-02 a       284     0    19     1    14
  1.1518445957668162E-01 a       285     0    19     1    15
  7.2382967910449569E-01 a       286     0    20     1     1
  2.7814258104146106E-01 a       287     0    20     1     2
 -1.1351086612773832E-01 a       288     0    20     1     3
 -3.3481907480218363E-02 a       289     0    20     1     4
  4.3751620921163033E-02 a       290     0    20     1     5
 -2.5781380929541053E-01 a       291     0    20     1     6
  2.4146277568793609E-01 a       292     0    20     1     7
 -4.8369666373826659E-01 a       293     0    20     1     8
 -3.8610068601865294E-01 a       294     0    20     1     9
 -6.2723282377209921E-02 a       295     0    20     1    10
  6.8889930667932378E-02 a       296     0    20     1    11
  1.1026091892993013E-01 a       297     0    20     1    12
  3.8913198204171906E-01 a       298     0    20     1    13
 -8.2690887293475721E-02 a       299     0    20     1    14
  5.7915488385721789E-02 a       300     0    20     1    15
 -2.9469934303012740E-02 a       301     0    21     1     1
  9.2821604707163108E-02 a       302     0    21     1     2
  6.1880953523865316E-03 a       303     0    21     1     3
 -4.4415429106560150E-01 a       304     0    21     1     4
 -6.9463162409963905E-02 a       305     0    21     1     5
  7.8952279499316033E-02 a       306     0    21     1     6
  6.7146656664741995E-03 a       307     0    21     1     7
  1.6501128828465611E-01 a       308     0    21     1     8
 -1.0076604121262563E-01 a       309     0    21     1     9
  1.2223311734677458E-01 a       310     0    21     1    10
  3.1784209983730383E-02 a       311     0    21     1    11
  6.2517660914891096E-02 a       312     0    21     1    12
  1.3421469869228571E-02 a       313     0    21     1    13
  1.5958431625506392E-01 a       314     0    21     1    14
 -2.1328918980087482E-02 a       315     0    21     1    15
  1.9254048949629896E-01 a       316     0    22     1     1
 -5.3370773920004652E-02 a       317     0    22     1     2
 -9.3793202011227386E-02 a       318     0    22     1     3
  7.9747907796314937E-02 a       319     0    22     1     4
 -8.8486458705408305E-02 a       320     0    22     1     5
  2.8706194908136395E-01 a       321     0    22     1     6
 -3.2071458654298494E-02 a       322     0    22     1     7
  1.5355727646336556E-01 a       323     0    22     1     8
  3.6446489217488748E-01 a       324     0    22     1     9
  1.2664311747244797E-01 a       325     0    22     1    10
 -4.4816849210636639E-02 a       326     0    22     1    11
  1.4789383262263586E-01 a       327     0    22     1    12
 -9.4241264822088541E-03 a       328     0    22     1    13
 -9.4378225038868169E-02 a       329     0    22     1    14
 -8.6202196540746734E-02 a       330     0    22     1    15
 -2.6999073889178149E-01 a       331     0    23     1     1
  2.8854516829154551E-02 a       332     0    23     1     2
  1.3163678266280351E-01 a       333     0    23     1     3
 -2.9503527466887791E-01 a       334     0    23     1     4
  8.7998323143023416E-02 a       335     0    23     1     5
  4.8807763166419625E-02 a       336     0    23     1     6
 -2.0417715054713032E-02 a       337     0    23     1     7
  2.2779740511616360E-02 a       338     0    23     1     8
 -1.3394566595508070E-01 a       339     0    23     1     9
 -2.9067634217633687E-01 a       340     0    23     1    10
  5.3369092247120720E-02 a       341     0    23     1    11
  4.8208623943832331E-02 a       342     0    23     1    12
 -1.6293518942682275E-01 a       343     0    23     1    13
  2.7833385637872167E-02 a       344     0    23     1    14
 -3.8637196662188643E-02 a       345     0    23     1    15
  1.8735917752730130E-01 a       346     0    24     1     1
 -8.9757081031641942E-02 a       347     0    24     1     2
  8.4062896831328254E-03 a       348     0    24     1     3
  2.8535988788776490E-01 a       349     0    24     1     4
 -3.0251107418155627E-03 a       350     0    24     1     5
 -7.1987388083176873E-01 a       351     0    24     1     6
 -1.3544879769527342E-02 a       352     0    24     1     7
  7.4318836205848601E-02 a       353     0    24     1     8
 -5.9190113507726905E-01 a       354     0    24     1     9
  7.1598874517140684E-02 a       355     0    24     1    10
 -1.1307095244663035E-01 a       356     0    24     1    11
  2.9665962589941997E-01 a       357     0    24     1    12
  2.1897401584102219E-01 a       358     0    24     1    13
 -3.9142481126855594E-01 a       359     0    24     1    14
  9.3629125331753577E-02 a       360     0    24     1    15
  4.3610533309043542E-01 a       361     0    25     1     1
  8.8256567222260940E-01 a       362     0    25     1     2
 -3.3700391936132762E-01 a       363     0    25     1     3
  2.4665594208982239E-01 a       364     0    25     1     4
 -5.8873838402661482E-01 a       365     0    25     1     5
  1.4622986989416967E-01 a       366     0    25     1     6
 -7.3304828053471105E-02 a       367     0    25     1     7
  2.1364937237672493E-01 a       368     0    25     1     8
  5.3305656418751390E-01 a       369     0    25     1     9
  3.0381149342840486E-01 a       370     0    25     1    10
 -1.7716198319545157E-01 a       371     0    25     1    11
  1.0046267112994918E+00 a       372     0    25     1    12
 -1.7023708510342711E-01 a       373     0    25     1    13
 -1.0900459640216699E-01 a       374     0    25     1    14
  1.6503085992117547E-01 a       375     0    25     1    15
  2.5986518212177812E-01 a       376     0    26     1     1
  9.7443073480272275E-03 a       377     0    26     1     2
 -2.2153139002183619E-01 a       378     0    26     1     3
  1.4370434012362862E-01 a       379     0    26     1     4
 -2.3252844841166997E-01 a       380     0    26     1     5
  2.3365202158593352E-02 a       381     0    26     1     6
 -6.1683602610171077E-02 a       382     0    26     1     7
 -2.5258351248318778E-01 a       383     0    26     1     8
 -4.1574901836091971E-01 a       384     0    26     1     9
 -1.3672783332285315E-02 a       385     0    26     1    10
  7.5322543240189888E-02 a       386     0    26     1    11
  1.7700249736720886E-01 a       387     0    26     1    12
  6.4650508428402764E-01 a       388     0    26     1    13
 -3.6102961776763642E-01 a       389     0    26     1    14
 -2.0830645711770313E-01 a       390     0    26     1    15
  1.0808758268234377E+00 a       391     0    27     1     1
 -7.7263925364074848E-01 a       392     0    27     1     2
 -6.2458672885005145E-02 a       393     0    27     1     3
  3.0283555022762365E-01 a       394     0    27     1     4
 -2.1409350985930109E-01 a       395     0    27     1     5
 -3.3278601399079544E-01 a       396     0    27     1     6
  9.4329078713215636E-02 a       397     0    27     1     7
 -1.0386537803772268E-01 a       398     0    27     1     8
 -3.5945419100926479E-01 a       399     0    27     1     9
 -1.0049558626015347E+00 a       400     0    27     1    10
 -7.9652202075418888E-01 a       401     0    27     1    11
 -6.2214504758695388E-01 a       402     0    27     1    12
  9.5063279536460910E-01 a       403     0    27     1    13
  4.8653329140420565E-01 a       404     0    27     1    14
 -1.1309503448833071E+00 a       405     0    27     1    15
  4.0097666484094208E-01 a       406     0    28     1     1
  7.4944948553755952E-01 a       407     0    28     1     2
 -3.6059034180346128E-01 a       408     0    28     1     3
 -2.9475629251843588E-01 a       409     0    28     1     4
  2.7891496774061636E-01 a       410     0    28     1     5
  7.7073245571469240E-01 a       411     0    28     1     6
  3.7087337601843795E-01 a       412     0    28     1     7
 -1.6090307484315614E-01 a       413     0    28     1     8
  4.0637310195813903E-01 a       414     0    28     1     9
 -1.2499466842216155E-01 a       415     0    28     1    10
  7.7057848429952586E-02 a       416     0    28     1    11
 -3.9141023781925788E-01 a       417     0    28     1    12
 -5.3986893866494433E-02 a       418     0    28     1    13
  1.0968767361114917E-01 a       419     0    28     1    14
  8.9260435387074766E-01 a       420     0    28     1    15
 -1.0017322901233275E-01 a       421     0    29     1     1
  1.0584552513515880E-01 a       422     0    29     1     2
  7.6351698339919671E-01 a       423     0    29     1     3
  7.3835053543849816E-01 a       424     0    29     1     4
 -1.8200534781841901E-01 a       425     0    29     1     5
 -7.1108843726703475E-01 a       426     0    29     1     6
 -4.9692672912692964E-01 a       427     0    29     1     7
 -4.3937301471337453E-01 a       428     0    29     1     8
 -2.6633183986820495E-02 a       429     0    29     1     9
  3.5486985453933234E-01 a       430     0    29     1    10
 -8.8866163032236900E-01 a       431     0    29     1    11
 -1.1507438829569459E-01 a       432     0    29     1    12
  1.9422263656681140E+00 a       433     0    29     1    13
 -7.0949248014900335E-01 a       434     0    29     1    14
 -7.5807613979029331E-01 a       435     0    29     1    15
 -1.5692138873835268E-01 a       436     0    30     1     1
 -3.3048302950114078E-01 a       437     0    30     1     2
 -1.5743613474661711E-01 a       438     0    30     1     3
 -6.2696533035649912E-02 a       439     0    30     1     4
  1.7936167660793065E-01 a       440     0    30     1     5
 -8.9113636224770726E-02 a       441     0    30     1     6
 -1.3097458991850564E-01 a       442     0    30     1     7
 -3.6627245259207381E-01 a       443     0    30     1     8
  9.2782264240634960E-01 a       444     0    30     1     9
 -8.0415057163086612E-01 a       445     0    30     1    10
 -1.0431525431872182E-01 a       446     0    30     1    11
 -4.7728347547001498E-01 a       447     0    30     1    12
 -1.2508542557930419E-01 a       448     0    30     1    13
  4.6238964905307944E-01 a       449     0    30     1    14
 -5.8900298802749274E-01 a       450     0    30     1    15
  2.1393463395367041E-01 a       451     0    31     1     1
  8.9974441170324992E-02 a       452     0    31     1     2
 -1.3739559039451352E-01 a       453     0    31     1     3
  8.4979889897065275E-01 a       454     0    31     1     4
  8.3191191429114153E-01 a       455     0    31     1     5
 -9.4696606627390334E-01 a       456     0    31     1     6
  1.3030805901075224E+00 a       457     0    31     1     7
 -2.5093196532598450E-01 a       458     0    31     1     8
  5.8797105773174885E-01 a       459     0    31     1     9
  5.5355234158449895E-01 a       460     0    31     1    10
 -1.0312968326129815E-02 a       461     0    31     1    11
 -5.7053457275570496E-01 a       462     0    31     1    12
  1.0330426594963268E-01 a       463     0    31     1    13
  6.3523965591853693E-01 a       464     0    31     1    14
  3.0444197593909900E-01 a       465     0    31     1    15
  7.1827772951300300E-02 a       466     0    32     1     1
 -1.4472481058576778E-01 a       467     0    32     1     2
 -1.6219268428320746E-01 a       468     0    32     1     3
 -2.5311012222538359E-01 a       469     0    32     1     4
 -2.5283134791412193E-01 a       470     0    32     1     5
 -4.8175062259752194E-01 a       471     0    32     1     6
 -2.7394650207046900E-01 a       472     0    32     1     7
  1.1596782491436912E+00 a       473     0    32     1     8
  5.0877326992308999E-03 a       474     0    32     1     9
  5.7062312565423878E-01 a       475     0    32     1    10
  2.7853762797462794E-01 a       476     0    32     1    11
  5.4468345406737606E-01 a       477     0    32     1    12
  1.2273894420638583E-01 a       478     0    32     1    13
  2.2587853317683620E-01 a       479     0    32     1    14
 -1.6311616343341981E-01 a       480     0    32     1    15
 -6.8942343044736787E-01 a       481     0    33     1     1
  1.0623841356483892E-01 a       482     0    33     1     2
  1.2450526622116193E-01 a       483     0    33     1     3
 -6.1971038101979414E-01 a       484     0    33     1     4
  8.9972795705409281E-01 a       485     0    33     1     5
 -9.8651232435231473E-01 a       486     0    33     1     6
  1.6161144873909645E+00 a       487     0    33     1     7
 -7.6647585392564899E-01 a       488     0    33     1     8
  1.0941964032012292E+00 a       489     0    33     1     9
  1.9590528433814058E-01 a       490     0    33     1    10
 -2.9346212573050257E-01 a       491     0    33     1    11
  1.0339062134927350E+00 a       492     0    33     1    12
 -4.0018872527628335E-01 a       493     0    33     1    13
 -2.1223232608779921E-01 a       494     0    33     1    14
  8.9882321456236491E-01 a       495     0    33     1    15
  2.9946449198988961E-01 a       496     0    34     1     1
  9.0174029259118582E-01 a       497     0    34     1     2
  8.4188792128329126E-01 a       498     0    34     1     3
 -1.6279136069992406E-01 a       499     0    34     1     4
 -2.0939345459842318E-01 a       500     0    34     1     5
 -7.2022624497436272E-01 a       501     0    34     1     6
  8.1162003298276586E-01 a       502     0    34     1     7
 -2.3526336508936585E-01 a       503     0    34     1     8
 -5.1479323356417517E-01 a       504     0    34     1     9
 -1.2423547615173103E-01 a       505     0    34     1    10
  4.7646867363901846E-01 a       506     0    34     1    11
  2.5375664615085441E-01 a       507     0    34     1    12
 -3.6876915393264009E-01 a       508     0    34     1    13
  9.7388605330541589E-01 a       509     0    34     1    14
 -6.1220767026453826E-01 a       510     0    34     1    15
  1.2721608642467541E-01 a       511     0    35     1     1
  1.5838522427016594E-01 a       512     0    35     1     2
 -2.7362725065223287E-01 a       513     0    35     1     3
 -1.9123790757238271E-01 a       514     0    35     1     4
  8.7718662028627367E-02 a       515     0    35     1     5
  3.9313578318264611E-02 a       516     0    35     1     6
  6.3036158188167699E-02 a       517     0    35     1     7
  8.7166602463272999E-02 a       518     0    35     1     8
 -4.1542506978666843E-01 a       519     0    35     1     9
  6.0253325340098840E-01 a       520     0    35     1    10
  7.1082539944506251E-02 a       521     0    35     1    11
  1.0160865170278729E-01 a       522     0    35     1    12
  2.9573006293924448E-01 a       523     0    35     1    13
 -3.1973799495758853E-01 a       524     0    35     1    14
 -8.8905592257067040E-02 a       525     0    35     1    15
 -2.2963674577171109E-01 a       526     0    36     1     1
 -8.0309104370631934E-02 a       527     0    36     1     2
 -2.5056080100195571E-01 a       528     0    36     1     3
  7.1394058116219883E-01 a       529     0    36     1     4
 -4.3620075290967153E-01 a       530     0    36     1     5
  3.2737929421504275E-01 a       531     0    36     1     6
 -4.4948374248968265E-01 a       532     0    36     1     7
 -3.1614707868370823E-01 a       533     0    36     1     8
 -3.8235536465391012E-01 a       534     0    36     1     9
 -5.5908090977725111E-01 a       535     0    36     1    10
  1.0101073900126083E-01 a       536     0    36     1    11
  1.4892059267991895E-01 a       537     0    36     1    12
  6.2333523444504735E-01 a       538     0    36     1    13
 -4.0252841432004427E-01 a       539     0    36     1    14
  1.3620674444468331E-01 a       540     0    36     1    15
 -9.2287044484942016E-01 a       541     0    37     1     1
 -3.9068912749406570E-01 a       542     0    37     1     2
  8.8913971512809831E-01 a       543     0    37     1     3
 -6.9034743149087163E-01 a       544     0    37     1     4
  3.2574937031423035E-01 a       545     0    37     1     5
 -1.5651418081669907E-01 a       546     0    37     1     6
  4.1027112502971147E-01 a       547     0    37     1     7
 -3.1516901609969777E-01 a       548     0    37     1     8
  4.0502242330965865E-01 a       549     0    37     1     9
 -6.6895049406682228E-01 a       550     0    37     1    10
 -8.5356479398203822E-01 a       551     0    37     1    11
 -4.1000979529053039E-01 a       552     0    37     1    12
  7.8772816900791715E-02 a       553     0    37     1    13
 -6.3702415947806856E-01 a       554     0    37     1    14
 -4.2156727754462875E-01 a       555     0    37     1    15
  5.3228754146415935E-01 a       556     0    38     1     1
  3.0187194418952157E-01 a       557     0    38     1     2
 -8.7028364678914916E-01 a       558     0    38     1     3
  3.8084617464231946E-01 a       559     0    38     1     4
  9.0459165723122861E-02 a       560     0    38     1     5
  4.6570588457476886E-01 a       561     0    38     1     6
 -8.1766689572201023E-01 a       562     0    38     1     7
 -5.1290166105027901E-01 a       563     0    38     1     8
 -1.8930691952215123E-01 a       564     0    38     1     9
  9.0836870013481147E-02 a       565     0    38     1    10
  8.7787452980707403E-01 a       566     0    38     1    11
 -1.0846550771796439E+00 a       567     0    38     1    12
  2.6079895338386094E-01 a       568     0    38     1    13
  2.8942151604725064E-02 a       569     0    38     1    14
  8.9482136330941167E-02 a       570     0    38     1    15
  3.0836798374826058E-01 a       571     0    39     1     1
  1.2926138303223180E+00 a       572     0    39     1     2
 -4.6823089022990333E-01 a       573     0    39     1     3
 -1.6201111684912910E-03 a       574     0    39     1     4
 -4.2247783319644061E-01 a       575     0    39     1     5
 -1.3340383040179790E-01 a       576     0    39     1     6
  7.6798693202261126E-02 a       577     0    39     1     7
  2.1300136052382670E-01 a       578     0    39     1     8
 -9.5147252036345153E-01 a       579     0    39     1     9
  7.9062884106368025E-01 a       580     0    39     1    10
 -8.1729503439890369E-02 a       581     0    39     1    11
  2.7739069967579705E-02 a       582     0    39     1    12
 -7.3776481381619324E-02 a       583     0    39     1    13
  1.1968538779191851E+00 a       584     0    39     1    14
  7.4797381264073565E-02 a       585     0    39     1    15
 -8.1641843247432899E-02 a       586     0    40     1     1
 -9.4101692642219581E-01 a       587     0    40     1     2
  8.8963133755571369E-02 a       588     0    40     1     3
 -3.5767825636918071E-01 a       589     0    40     1     4
  2.0497669934251389E-01 a       590     0    40     1     5
  5.8746138034668893E-01 a       591     0    40     1     6
  1.0054929425746970E+00 a       592     0    40     1     7
  6.8796754767516988E-01 a       593     0    40     1     8
 -3.6159779725801122E-01 a       594     0    40     1     9
  1.3602920677019081E+00 a       595     0    40     1    10
  1.7579217805478561E-01 a       596     0    40     1    11
 -9.0778953461757872E-01 a       597     0    40     1    12
  5.6992099585186399E-04 a       598     0    40     1    13
  2.2209588576684765E-02 a       599     0    40     1    14
  1.2405795595560272E-01 a       600     0    40     1    15
 -7.4994841776010582E-02 a       601     0    41     1     1
  2.2309069534015241E-01 a       602     0    41     1     2
 -2.3362054540730726E-01 a       603     0    41     1     3
  7.3368003081349234E-02 a       604     0    41     1     4
  7.0825270780093654E-03 a       605     0    41     1     5
 -4.6237764349358568E-01 a       606     0    41     1     6
  3.8156956374753491E-02 a       607     0    41     1     7
 -3.1840265233397624E-01 a       608     0    41     1     8
 -5.4801886879596196E-01 a       609     0    41     1     9
 -5.0540545348090249E-01 a       610     0    41     1    10
  1.6533742847650118E-01 a       611     0    41     1    11
  1.5797337590551769E-01 a       612     0    41     1    12
  4.1801981535937408E-02 a       613     0    41     1    13
 -7.7826048155234815E-03 a       614     0    41     1    14
  3.2425857098049388E-01 a       615     0    41     1    15
  6.8569473053605043E-02 a       616     0    42     1     1
  6.5979364842811403E-02 a       617     0    42     1     2
 -7.9658772281756807E-01 a       618     0    42     1     3
 -1.3188504796931932E-01 a       619     0    42     1     4
 -2.6393099699451095E-01 a       620     0    42     1     5
 -1.4374385801522507E-01 a       621     0    42     1     6
  5.1959057440470018E-02 a       622     0    42     1     7
  2.7316262728951130E-01 a       623     0    42     1     8
  2.2666225493608086E-01 a       624     0    42     1     9
 -7.0155415267164123E-02 a       625     0    42     1    10
 -4.0414625083080130E-01 a       626     0    42     1    11
 -1.7244172031935398E-01 a       627     0    42     1    12
 -2.3451391839370520E-01 a       628     0    42     1    13
 -8.1131472941031166E-02 a       629     0    42     1    14
 -3.5953422772623539E-01 a       630     0    42     1    15
 -4.8025942722397040E-02 a       631     0    43     1     1
  4.3854729350007188E-01 a       632     0    43     1     2
 -6.1526905664809195E-01 a       633     0    43     1     3
  1.0179406052090556E-01 a       634     0    43     1     4
 -1.1124979483984769E+00 a       635     0    43     1     5
 -3.4583141661015698E-01 a       636     0    43     1     6
 -8.9809103165858906E-01 a       637     0    43     1     7
 -1.6408769429044265E-01 a       638     0    43     1     8
 -3.1889498866773197E-01 a       639     0    43     1     9
  5.6004343479275143E-01 a       640     0    43     1    10
  1.2818419822709282E-01 a       641     0    43     1    11
 -4.9945917954385299E-01 a       642     0    43     1    12
 -7.8175350463206270E-02 a       643     0    43     1    13
  2.9265780366433575E-01 a       644     0    43     1    14
  2.4302856408987381E-01 a       645     0    43     1    15
  5.9680166582993066E-01 a       646     0    44     1     1
 -7.7770475233603009E-01 a       647     0    44     1     2
 -1.4162524610844444E-02 a       648     0    44     1     3
 -1.2771806467981883E-01 a       649     0    44     1     4
  9.7959409620225912E-01 a       650     0    44     1     5
  4.4562308508014375E-01 a       651     0    44     1     6
  1.5614686316405471E-01 a       652     0    44     1     7
  4.9979249785231758E-02 a       653     0    44     1     8
 -3.7169200124279461E-01 a       654     0    44     1     9
  1.1122965864975178E-01 a       655     0    44     1    10
  4.1093010285149634E-01 a       656     0    44     1    11
 -4.1058489376190754E-01 a       657     0    44     1    12
 -4.2982409644023051E-01 a       658     0    44     1    13
 -4.0091001949404953E-01 a       659     0    44     1    14
  5.4010337312844647E-01 a       660     0    44     1    15
 -4.4576178570636904E-01 a       661     0    45     1     1
  3.5533977119533537E-02 a       662     0    45     1     2
  6.9981580930027043E-01 a       663     0    45     1     3
 -1.6861472544187342E-01 a       664     0    45     1     4
  2.5994217800940628E-01 a       665     0    45     1     5
  1.7419958008234299E-01 a       666     0    45     1     6
  2.8815576815585703E-01 a       667     0    45     1     7
 -1.1816132009969507E-01 a       668     0    45     1     8
  2.5962962710425980E-01 a       669     0    45     1     9
 -2.8423380305066404E-01 a       670     0    45     1    10
 -1.2342832434242643E-01 a       671     0    45     1    11
 -2.2713126288272437E-01 a       672     0    45     1    12
 -2.7612755739364747E-01 a       673     0    45     1    13
  1.1645813728434971E-01 a       674     0    45     1    14
  1.0295659701908723E-01 a       675     0    45     1    15
  3.2241411856897290E-01 a       676     0    46     1     1
 -1.0390310313029416E+00 a       677     0    46     1     2
 -5.0645186349746407E-01 a       678     0    46     1     3
  1.9341190271048705E-02 a       679     0    46     1     4
 -9.8658070219580318E-01 a       680     0    46     1     5
  4.8298057745574791E-01 a       681     0    46     1     6
 -6.9009153968087295E-02 a       682     0    46     1     7
  1.3632886534934571E-02 a       683     0    46     1     8
 -3.6546337902990285E-02 a       684     0    46     1     9
  1.7848843919301649E-01 a       685     0    46     1    10
 -1.1398207288896992E-01 a       686     0    46     1    11
  7.6599325610810054E-01 a       687     0    46     1    12
 -2.4083929181284042E-01 a       688     0    46     1    13
  4.2227399097184026E-01 a       689     0    46     1    14
 -9.2749050913467981E-02 a       690     0    46     1    15
 -2.4591564167094898E-01 a       691     0    47     1     1
 -9.7221860384880932E-01 a       692     0    47     1     2
  1.5400999390622987E-02 a       693     0    47     1     3
  3.1542420758754519E-01 a       694     0    47     1     4
  7.0052087163722787E-01 a       695     0    47     1     5
 -3.6439766105398547E-01 a       696     0    47     1     6
  2.1434920145556702E-01 a       697     0    47     1     7
  2.8520995402514938E-02 a       698     0    47     1     8
 -2.7181380748642858E-02 a       699     0    47     1     9
  7.1990854565762236E-02 a       700     0    47     1    10
  9.1488536708799795E-01 a       701     0    47     1    11
  5.1995247039486836E-01 a       702     0    47     1    12
 -6.5628091292806345E-01 a       703     0    47     1    13
  2.3967526959840460E-02 a       704     0    47     1    14
  1.1230791284072934E+00 a       705     0    47     1    15
 -2.9973940614131384E-01 a       706     0    48     1     1
  2.1264790697140928E-01 a       707     0    48     1     2
 -5.9898321062978110E-01 a       708     0    48     1     3
  6.1214397826944100E-01 a       709     0    48     1     4
 -1.0920016438935649E+00 a       710     0    48     1     5
 -1.5481868162202950E-01 a       711     0    48     1     6
 -8.7145735057443585E-01 a       712     0    48     1     7
  1.6498455069663132E-01 a       713     0    48     1     8
 -4.5777021438889276E-01 a       714     0    48     1     9
  3.9340787419012069E-01 a       715     0    48     1    10
 -2.5865536772185643E-02 a       716     0    48     1    11
  4.5901848387079469E-01 a       717     0    48     1    12
  1.1944913507381802E-01 a       718     0    48     1    13
 -4.2639505060066071E-02 a       719     0    48     1    14
 -2.6718774900448078E-01 a       720     0    48     1    15
  9.1988274133503523E-01 a       721     0    49     1     1
  1.1989324784867095E-01 a       722     0    49     1     2
 -6.3668824786969413E-01 a       723     0    49     1     3
  1.9870408783319728E-02 a       724     0    49     1     4
  4.0421004214149014E-02 a       725     0    49     1     5
 -4.4917025512553233E-01 a       726     0    49     1     6
 -4.5564309263438185E-01 a       727     0    49     1     7
  1.7845190897014626E-01 a       728     0    49     1     8
  4.6660911770215141E-02 a       729     0    49     1     9
  4.7014056299970547E-01 a       730     0    49     1    10
 -7.9303107502463388E-02 a       731     0    49     1    11
 -1.6522173198139500E-01 a       732     0    49     1    12
 -9.1486557097655374E-01 a       733     0    49     1    13
  4.2477564912652158E-02 a       734     0    49     1    14
  2.2119584955480653E-01 a       735     0    49     1    15
  1.4853422806600330E-01 a       736     0    50     1     1
 -2.3220840376538270E-03 a       737     0    50     1     2
  4.4703970534733690E-02 a       738     0    50     1     3
  4.4348180751576725E-02 a       739     0    50     1     4
 -4.7064125728336036E-02 a       740     0    50     1     5
 -1.7952720297676864E-01 a       741     0    50     1     6
 -6.6885994645560565E-01 a       742     0    50     1     7
  3.8594642716113320E-01 a       743     0    50     1     8
 -2.4280485220060768E-01 a       744     0    50     1     9
 -6.9064637331496193E-01 a       745     0    50     1    10
 -5.7518150906205168E-01 a       746     0    50     1    11
 -3.8341200421565846E-01 a       747     0    50     1    12
 -5.8546240125493310E-01 a       748     0    50     1    13
 -1.0967651299442212E+00 a       749     0    50     1    14
  2.6458154832105452E-01 a       750     0    50     1    15
  2.7745016217485535E-01 a       751     0    51     1     1
  4.0355643024038346E-01 a       752     0    51     1     2
 -6.9069220683024313E-01 a       753     0    51     1     3
  4.7060942848863219E-01 a       754     0    51     1     4
  9.7088127926276274E-02 a       755     0    51     1     5
  7.3078907372582302E-01 a       756     0    51     1     6
  2.4866317090897516E-01 a       757     0    51     1     7
 -1.1469595396142027E-01 a       758     0    51     1     8
  6.2885606821695336E-04 a       759     0    51     1     9
 -8.1735508391666234E-01 a       760     0    51     1    10
  1.5496458870657595E-01 a       761     0    51     1    11
 -1.8150176348746330E-01 a       762     0    51     1    12
 -8.9886137736315186E-01 a       763     0    51     1    13
  1.8539155931151155E-01 a       764     0    51     1    14
 -5.1423268269163658E-01 a       765     0    51     1    15
  3.9354946590738338E-01 a       766     0    52     1     1
 -2.4312534684510481E-01 a       767     0    52     1     2
  3.1840514815066123E-01 a       768     0    52     1     3
 -2.9185184043912061E-02 a       769     0    52     1     4
 -3.4369660202863689E-01 a       770     0    52     1     5
  2.1629308479323500E-01 a       771     0    52     1     6
  3.5724265859477838E-01 a       772     0    52     1     7
 -1.2858077043219671E+00 a       773     0    52     1     8
  4.7396142088598975E-01 a       774     0    52     1     9
 -3.2389204688145790E-01 a       775     0    52     1    10
 -2.2620785796856993E-01 a       776     0    52     1    11
  6.5259828596038238E-02 a       777     0    52     1    12
  4.7101503288989860E-01 a       778     0    52     1    13
  1.9713817022766020E-01 a       779     0    52     1    14
  9.4997861522153193E-01 a       780     0    52     1    15
  3.0129816587084027E-02 a       781     0    53     1     1
  6.5451508833268127E-02 a       782     0    53     1     2
  1.7051099772016934E-01 a       783     0    53     1     3
  2.3450785546039124E-01 a       784     0    53     1     4
 -5.2044110268919676E-02 a       785     0    53     1     5
  1.3702467503531951E-01 a       786     0    53     1     6
 -1.1298757190287598E-01 a       787     0    53     1     7
  2.3118738353287022E-01 a       788     0    53     1     8
  4.8398285604617397E-02 a       789     0    53     1     9
  2.2327815254946409E-01 a       790     0    53     1    10
 -7.1463936533807662E-03 a       791     0    53     1    11
  2.4485830432058556E-01 a       792     0    53     1    12
 -1.1079567706017450E-01 a       793     0    53     1    13
 -5.4070049019098509E-01 a       794     0    53     1    14
  1.0219658226114062E-01 a       795     0    53     1    15
 -8.2102950136634101E-02 a       796     0    54     1     1
  1.5096962615917134E-01 a       797     0    54     1     2
 -3.7267818090888438E-01 a       798     0    54     1     3
  4.0886180449679466E-01 a       799     0    54     1     4
 -1.3604286199782287E-01 a       800     0    54     1     5
  6.8330571379529614E-01 a       801     0    54     1     6
  1.2526549788011390E-01 a       802     0    54     1     7
 -3.2205199683529301E-01 a       803     0    54     1     8
 -1.6205469076592796E-01 a       804     0    54     1     9
 -3.0989865998551208E-01 a       805     0    54     1    10
  5.0958428946149603E-01 a       806     0    54     1    11
 -2.1789084550985868E-02 a       807     0    54     1    12
  3.6556847362220529E-01 a       808     0    54     1    13
  6.1882479302001581E-01 a       809     0    54     1    14
  6.6779526167966188E-02 a       810     0    54     1    15
 -4.9961909007449090E-01 a       811     0    55     1     1
 -4.0569093710463994E-01 a       812     0    55     1     2
 -4.9662648245211993E-01 a       813     0    55     1     3
  1.0043144322881815E-01 a       814     0    55     1     4
  3.2176947701776282E-01 a       815     0    55     1     5
  5.1084604533707001E-01 a       816     0    55     1     6
 -5.6114497420002907E-01 a       817     0    55     1     7
 -5.2676496302740135E-02 a       818     0    55     1     8
  4.7276639911741913E-01 a       819     0    55     1     9
  9.3619735570515938E-01 a       820     0    55     1    10
 -2.9798155498744133E-01 a       821     0    55     1    11
  3.5703345528385161E-01 a       822     0    55     1    12
 -4.6292732417582638E-02 a       823     0    55     1    13
  2.5848601086771184E-01 a       824     0    55     1    14
 -8.6926701180840038E-01 a       825     0    55     1    15
 -2.6989203815039187E-01 a       826     0    56     1     1
 -2.5751157793390891E-02 a       827     0    56     1     2
 -1.2851770608346067E+00 a       828     0    56     1     3
  3.8879940805899169E-02 a       829     0    56     1     4
 -9.2360600918449998E-01 a       830     0    56     1     5
  2.9502430425562598E-01 a       831     0    56     1     6
 -7.6507755095533325E-01 a       832     0    56     1     7
  6.2742459808423423E-01 a       833     0    56     1     8
 -9.2479632386278077E-01 a       834     0    56     1     9
  3.1298573055625845E-01 a       835     0    56     1    10
  3.7847999211471910E-02 a       836     0    56     1    11
 -7.5469663024500833E-01 a       837     0    56     1    12
 -1.6188435839816065E-01 a       838     0    56     1    13
 -7.5777674531936401E-01 a       839     0    56     1    14
  6.0897828210022287E-01 a       840     0    56     1    15
 -3.1361754799692004E-01 a       841     0    57     1     1
  6.7166140625056914E-01 a       842     0    57     1     2
  1.5746509698993455E-01 a       843     0    57     1     3
 -1.0199286971517348E-01 a       844     0    57     1     4
 -1.0661766319189767E-01 a       845     0    57     1     5
 -8.5272305651453095E-01 a       846     0    57     1     6
 -1.2641685450130169E+00 a       847     0    57     1     7
 -1.4581830370541812E-01 a       848     0    57     1     8
  1.0422609705585693E+00 a       849     0    57     1     9
 -6.8372150746015081E-01 a       850     0    57     1    10
 -2.3449227305224168E-01 a       851     0    57     1    11
  8.2688814608940608E-01 a       852     0    57     1    12
  4.1722041096768347E-01 a       853     0    57     1    13
  1.6578425842757630E-01 a       854     0    57     1    14
 -1.5432742657597034E-01 a       855     0    57     1    15
 -6.5577638964634519E-02 a       856     0    58     1     1
 -3.1918676835914560E-02 a       857     0    58     1     2
  9.7420112397735258E-03 a       858     0    58     1     3
 -4.8790002456191063E-02 a       859     0    58     1     4
  2.5937225086658010E-03 a       860     0    58     1     5
 -9.0095223745178133E-04 a       861     0    58     1     6
 -3.4350839431580601E-03 a       862     0    58     1     7
  2.7655100512710768E-02 a       863     0    58     1     8
  4.3347347943464114E-03 a       864     0    58     1     9
  3.5494083041539184E-02 a       865     0    58     1    10
 -5.3336360224547534E-03 a       866     0    58     1    11
  3.0523213083542260E-03 a       867     0    58     1    12
  2.7421659848980481E-02 a       868     0    58     1    13
  2.6764525701205230E-02 a       869     0    58     1    14
  7.7619194165509517E-03 a       870     0    58     1    15
 -9.5552606359304973E-02 a       871     0    59     1     1
 -1.1575508835937734E-01 a       872     0    59     1     2
 -3.0101169133980563E-02 a       873     0    59     1     3
  7.4196665257750205E-02 a       874     0    59     1     4
  1.3785559833748276E-01 a       875     0    59     1     5
  3.3059730449875829E-01 a       876     0    59     1     6
 -1.3999493956404543E-01 a       877     0    59     1     7
  6.9214873120674966E-02 a       878     0    59     1     8
  3.3594276930806721E-01 a       879     0    59     1     9
  5.6640110139584765E-01 a       880     0    59     1    10
 -1.5460831570061234E-02 a       881     0    59     1    11
 -2.1511584842857848E-01 a       882     0    59     1    12
 -7.8111230452503705E-02 a       883     0    59     1    13
  3.3701269653629351E-02 a       884     0    59     1    14
 -3.5744929051559737E-01 a       885     0    59     1    15
 -1.7680744290152101E-01 a       886     0    60     1     1
 -7.6586276608865300E-02 a       887     0    60     1     2
  6.4135529370201538E-01 a       888     0    60     1     3
 -1.6154208128637368E-01 a       889     0    60     1     4
  3.5927939348754540E-01 a       890     0    60     1     5
  5.1082324229973303E-02 a       891     0    60     1     6
  2.1735163621940286E-02 a       892     0    60     1     7
 -1.7050158210646119E-01 a       893     0    60     1     8
 -6.6909326796147278E-02 a       894     0    60     1     9
  4.3468437269358340E-02 a       895     0    60     1    10
  3.3014273516403569E-01 a       896     0    60     1    11
  1.8481021381028578E-01 a       897     0    60     1    12
  2.7880732662327001E-01 a       898     0    60     1    13
  9.0228155950538930E-02 a       899     0    60     1    14
  1.6924185456066762E-01 a       900     0    60     1    15
 -2.7003362921621654E-01 a       901     0    61     1     1
  3.9325816332284208E-01 a       902     0    61     1     2
  5.8149491499936790E-01 a       903     0    61     1     3
 -1.1913743691955179E+00 a       904     0    61     1     4
 -7.3051745530798559E-02 a       905     0    61     1     5
  1.3935517970257802E-01 a       906     0    61     1     6
  5.2712798032688010E-02 a       907     0    61     1     7
  4.9967976203589631E-01 a       908     0    61     1     8
 -4.2775620261743819E-01 a       909     0    61     1     9
  3.2211648737788962E-01 a       910     0    61     1    10
  1.6666333859697641E-01 a       911     0    61     1    11
 -2.2975225062099808E-01 a       912     0    61     1    12
 -8.1267479146075128E-01 a       913     0    61     1    13
  8.6447122573894905E-02 a       914     0    61     1    14
  1.9221440993293051E-01 a       915     0    61     1    15
 -3.0254253409526990E-02 a       916     0    62     1     1
 -4.6712146431049661E-01 a       917     0    62     1     2
  1.1960103479608442E+00 a       918     0    62     1     3
 -2.4952206663293391E-01 a       919     0    62     1     4
  1.2570110954443956E+00 a       920     0    62     1     5
  4.1232757263111908E-01 a       921     0    62     1     6
  1.2376114419867628E+00 a       922     0    62     1     7
  2.8167542192653130E-02 a       923     0    62     1     8
  4.6463754351873993E-01 a       924     0    62     1     9
 -4.3567513962660426E-01 a       925     0    62     1    10
 -3.4387272481143150E-02 a       926     0    62     1    11
  4.9553848191651961E-01 a       927     0    62     1    12
 -3.1894757505561318E-02 a       928     0    62     1    13
 -1.9244117704776287E-01 a       929     0    62     1    14
 -1.6829288618147856E-01 a       930     0    62     1    15
 -3.2457514661200437E-01 a       931     0    63     1     1
 -1.2808744047302545E-01 a       932     0    63     1     2
  6.0085032459075982E-02 a       933     0    63     1     3
  2.7007236166345688E-01 a       934     0    63     1     4
 -3.8856526964272869E-01 a       935     0    63     1     5
  1.3549295522819607E-01 a       936     0    63     1     6
 -2.4656635284605080E-01 a       937     0    63     1     7
 -5.4535193165157658E-01 a       938     0    63     1     8
 -1.8558507210202635E-02 a       939     0    63     1     9
 -3.1287583006698644E-01 a       940     0    63     1    10
 -1.5963656026257092E-01 a       941     0    63     1    11
 -2.3157211718915716E-01 a       942     0    63     1    12
  5.8356413680239128E-01 a       943     0    63     1    13
  4.2398036445299658E-02 a       944     0    63     1    14
  3.7342521541443088E-02 a       945     0    63     1    15
 -1.8733269091806537E-01 a       946     0    64     1     1
  1.3059604563248564E-01 a       947     0    64     1     2
 -4.1457218959069925E-01 a       948     0    64     1     3
 -1.9674395527080579E-01 a       949     0    64     1     4
  5.2323199593740410E-01 a       950     0    64     1     5
  5.8128261515271296E-01 a       951     0    64     1     6
  4.8770167725492314E-01 a       952     0    64     1     7
 -3.0972757984677624E-01 a       953     0    64     1     8
 -2.6213747909831880E-01 a       954     0    64     1     9
 -5.8635546608819034E-01 a       955     0    64     1    10
  3.3459857308629315E-01 a       956     0    64     1    11
 -1.9683313590583668E-01 a       957     0    64     1    12
  1.5734602511663717E-01 a       958     0    64     1    13
  7.8147013986765002E-01 a       959     0    64     1    14
  4.5627884253224660E-01 a       960     0    64     1    15
 -1.0151101192708603E+00 a       961     0    65     1     1
 -6.8467937484080355E-01 a       962     0    65     1     2
 -1.5317095015763577E-01 a       963     0    65     1     3
  2.7314393834194545E-01 a       964     0    65     1     4
 -4.4860749804404731E-01 a       965     0    65     1     5
  4.4934532380462766E-01 a       966     0    65     1     6
 -6.2452583985032628E-01 a       967     0    65     1     7
  1.1289496107768016E+00 a       968     0    65     1     8
  5.6011878766323364E-01 a       969     0    65     1     9
 -5.6006956529205820E-01 a       970     0    65     1    10
 -3.0692230231350853E-01 a       971     0    65     1    11
  1.0565505363197011E-01 a       972     0    65     1    12
 -2.7073457421366393E-01 a       973     0    65     1    13
 -4.8159256176921766E-01 a       974     0    65     1    14
 -1.0906859592102910E-01 a       975     0    65     1    15
 -3.2832972124182197E-01 a       976     0    66     1     1
  5.6720066101200513E-02 a       977     0    66     1     2
  2.6462314919005259E-01 a       978     0    66     1     3
 -3.2543205059798180E-01 a       979     0    66     1     4
 -6.6810317106439998E-03 a       980     0    66     1     5
  1.8824363322585014E-01 a       981     0    66     1     6
  5.9817366302162896E-02 a       982     0    66     1     7
  1.6074002121379011E-01 a       983     0    66     1     8
 -1.7228977253800112E-01 a       984     0    66     1     9
  1.6292771693147443E-01 a       985     0    66     1    10
  1.7208403347655794E-02 a       986     0    66     1    11
 -5.6442612737616922E-02 a       987     0    66     1    12
 -1.1129253005963045E-01 a       988     0    66     1    13
  1.4468776165297965E-02 a       989     0    66     1    14
  1.1864980253152023E-01 a       990     0    66     1    15
  4.2727291442920912E-01 a       991     0    67     1     1
 -3.6874485016142919E-02 a       992     0    67     1     2
  3.6910225328219920E-01 a       993     0    67     1     3
 -6.6769901774274235E-02 a       994     0    67     1     4
 -2.5050286474543509E-01 a       995     0    67     1     5
 -4.5808248272740842E-01 a       996     0    67     1     6
 -6.8204090976808662E-01 a       997     0    67     1     7
 -2.6900894050700053E-01 a       998     0    67     1     8
 -6.0250635785171913E-01 a       999     0    67     1     9
  3.3164164085782810E-01 a      1000     0    67     1    10
  2.1343406408197127E-01 a      1001     0    67     1    11
  1.1842762063839421E-01 a      1002     0    67     1    12
  2.6369537131703874E-01 a      1003     0    67     1    13
 -1.7908342980831354E-01 a      1004     0    67     1    14
  8.6405981437250368E-02 a      1005     0    67     1    15
 -2.7292297126972209E-01 a      1006     0    68     1     1
  5.7681681244721905E-01 a      1007     0    68     1     2
  8.8239193383835635E-01 a      1008     0    68     1     3
 -6.0871141906339288E-01 a      1009     0    68     1     4
  1.2102961551779390E+00 a      1010     0    68     1     5
 -5.4178144362130154E-01 a      1011     0    68     1     6
  9.2952392917974147E-01 a      1012     0    68     1     7
 -5.5693491633812131E-01 a      1013     0    68     1     8
 -8.9673951116074707E-02 a      1014     0    68     1     9
  3.4884633086518618E-01 a      1015     0    68     1    10
  1.4540749177624118E-01 a      1016     0    68     1    11
  9.5955628484473743E-01 a      1017     0    68     1    12
 -1.9485895360232097E-01 a      1018     0    68     1    13
  2.4891974775281353E-01 a      1019     0    68     1    14
  2.2915486682477920E-02 a      1020     0    68     1    15
  1.9256676266870507E-01 a      1021     0    69     1     1
  6.5127518380142913E-01 a      1022     0    69     1     2
 -2.7047822193867288E-01 a      1023     0    69     1     3
 -4.3806301833037221E-02 a      1024     0    69     1     4
 -6.4356132550767298E-01 a      1025     0    69     1     5
  3.7075163923299975E-01 a      1026     0    69     1     6
 -8.8094913708788702E-03 a      1027     0    69     1     7
  5.2295159643801292E-01 a      1028     0    69     1     8
 -3.0814649587838538E-02 a      1029     0    69     1     9
  1.0322602355187136E+00 a      1030     0    69     1    10
  1.2841838830314664E-01 a      1031     0    69     1    11
 -3.9055233931687083E-01 a      1032     0    69     1    12
 -4.8259308979536636E-01 a      1033     0    69     1    13
  5.9679935319112787E-01 a      1034     0    69     1    14
 -6.6574522834818017E-02 a      1035     0    69     1    15
 -9.9049107426037314E-02 a      1036     0    70     1     1
  3.2608200139174245E-02 a      1037     0    70     1     2
  6.2231909544654844E-02 a      1038     0    70     1     3
  8.8805597178931703E-02 a      1039     0    70     1     4
 -1.6130567294273537E-01 a      1040     0    70     1     5
 -3.2596284763785940E-02 a      1041     0    70     1     6
 -8.2827860749788457E-02 a      1042     0    70     1     7
  2.7013720667567560E-03 a      1043     0    70     1     8
 -4.1873933503294179E-02 a      1044     0    70     1     9
 -2.1538651161958061E-01 a      1045     0    70     1    10
 -7.7695719966499460E-02 a      1046     0    70     1    11
 -1.1679670161576691E-01 a      1047     0    70     1    12
 -1.9291609640863633E-01 a      1048     0    70     1    13
  1.1756346034094919E-02 a      1049     0    70     1    14
 -3.4678722032307457E-02 a      1050     0    70     1    15
 -4.6693678554738166E-01 a      1051     0    71     1     1
  3.7423841890865395E-01 a      1052     0    71     1     2
  1.6061344295481828E-02 a      1053     0    71     1     3
  2.2390999075666981E-02 a      1054     0    71     1     4
  1.8320818741650760E-01 a      1055     0    71     1     5
 -1.4867427924573334E-01 a      1056     0    71     1     6
 -2.7110027202874132E-01 a      1057     0    71     1     7
  1.8103710743871904E-01 a      1058     0    71     1     8
 -3.1509072472476099E-02 a      1059     0    71     1     9
  4.4777719119908072E-01 a      1060     0    71     1    10
  3.4770756362761240E-01 a      1061     0    71     1    11
 -9.4775208877192693E-02 a      1062     0    71     1    12
 -4.4988890319818070E-01 a      1063     0    71     1    13
  1.3677604127457130E-01 a      1064     0    71     1    14
 -4.4333804575351088E-01 a      1065     0    71     1    15
  1.2837689612661840E-01 a      1066     0    72     1     1
 -9.2324499068550364E-02 a      1067     0    72     1     2
  2.8292618002569775E-01 a      1068     0    72     1     3
 -9.1516895801181186E-01 a      1069     0    72     1     4
  8.4456250131149868E-01 a      1070     0    72     1     5
 -2.5581453936959508E-01 a      1071     0    72     1     6
  1.5263195286803211E-01 a      1072     0    72     1     7
 -4.9600975073871387E-02 a      1073     0    72     1     8
  1.5300018120850534E-01 a      1074     0    72     1     9
 -3.5951500301067468E-01 a      1075     0    72     1    10
 -1.3586418252779595E-01 a      1076     0    72     1    11
  1.6916039847163147E-01 a      1077     0    72     1    12
 -6.4204059469850872E-01 a      1078     0    72     1    13
 -3.9208203876974330E-02 a      1079     0    72     1    14
  6.1027385781618176E-02 a      1080     0    72     1    15
  6.2493533798485872E-02 a      1081     0    73     1     1
  7.1452184726687087E-02 a      1082     0    73     1     2
  4.7435759209207362E-01 a      1083     0    73     1     3
 -1.2959679014741032E-01 a      1084     0    73     1     4
 -1.9280616179468368E-01 a      1085     0    73     1     5
  9.3330870080942777E-02 a      1086     0    73     1     6
  4.8864173145850259E-01 a      1087     0    73     1     7
  8.3017381485234232E-01 a      1088     0    73     1     8
  6.0412545541470138E-02 a      1089     0    73     1     9
 -2.4174254392973654E-01 a      1090     0    73     1    10
 -1.0302269766120049E-01 a      1091     0    73     1    11
 -7.3951502150442952E-02 a      1092     0    73     1    12
 -2.6219744443638854E-01 a      1093     0    73     1    13
 -1.5419644508105454E-01 a      1094     0    73     1    14
 -3.3571946248169858E-02 a      1095     0    73     1    15
 -2.0696830072450509E-01 a      1096     0    74     1     1
 -2.7134360863779128E-01 a      1097     0    74     1     2
 -1.9821625047876709E-01 a      1098     0    74     1     3
  2.6062676994310585E-01 a      1099     0    74     1     4
 -8.5020911251238479E-02 a      1100     0    74     1     5
  3.0278785988721857E-01 a      1101     0    74     1     6
 -8.1735399320883501E-02 a      1102     0    74     1     7
 -1.6310720431493486E-01 a      1103     0    74     1     8
  3.1185643717387768E-01 a      1104     0    74     1     9
  3.6613099590700610E-02 a      1105     0    74     1    10
 -6.5658772446730698E-02 a      1106     0    74     1    11
 -4.3975785578183035E-01 a      1107     0    74     1    12
  1.7544106579761978E-01 a      1108     0    74     1    13
 -3.6632367060520576E-01 a      1109     0    74     1    14
 -3.8006439797118385E-01 a      1110     0    74     1    15
  1.2454654440523374E-01 a      1111     0    75     1     1
 -4.6538526674262087E-01 a      1112     0    75     1     2
  4.4830892104918613E-01 a      1113     0    75     1     3
 -2.5016870747715875E-01 a      1114     0    75     1     4
  2.6094969456431155E-01 a      1115     0    75     1     5
  1.0535708097575884E-02 a      1116     0    75     1     6
  1.6788877797628987E-01 a      1117     0    75     1     7
 -7.0214714158655667E-01 a      1118     0    75     1     8
 -1.8679799593501289E-01 a      1119     0    75     1     9
 -1.0518125085565009E+00 a      1120     0    75     1    10
 -1.7198378640825943E-01 a      1121     0    75     1    11
  1.1183926720352116E-01 a      1122     0    75     1    12
  3.5301522480875352E-01 a      1123     0    75     1    13
 -4.3187887281731524E-01 a      1124     0    75     1    14
  9.6544681247368050E-02 a      1125     0    75     1    15
 -2.8570247439049851E-01 a      1126     0    76     1     1
  1.7180826422187608E-02 a      1127     0    76     1     2
 -3.0343669572623744E-01 a      1128     0    76     1     3
  3.0394516648406711E-01 a      1129     0    76     1     4
 -6.0338400062342611E-02 a      1130     0    76     1     5
  3.0155429008246512E-02 a      1131     0    76     1     6
  2.0488967154521817E-01 a      1132     0    76     1     7
  9.2076782439936875E-02 a      1133     0    76     1     8
  3.0019579818562114E-01 a      1134     0    76     1     9
  2.8158116899567820E-01 a      1135     0    76     1    10
 -8.5233983063933205E-02 a      1136     0    76     1    11
 -2.8386000073434003E-01 a      1137     0    76     1    12
  1.7441951473403353E-01 a      1138     0    76     1    13
  1.2951983918526216E-01 a      1139     0    76     1    14
 -5.8134402513668970E-01 a      1140     0    76     1    15
  1.9698619682544749E-01 a      1141     0    77     1     1
 -2.2416817605355535E-01 a      1142     0    77     1     2
  2.3480261040265749E-01 a      1143     0    77     1     3
  6.5880070432605228E-02 a      1144     0    77     1     4
 -2.7476009253914307E-01 a      1145     0    77     1     5
  1.3427895104236931E-01 a      1146     0    77     1     6
  1.5003651849625879E-01 a      1147     0    77     1     7
 -9.7561954021328876E-02 a      1148     0    77     1     8
  3.3275861060073053E-01 a      1149     0    77     1     9
 -7.1741656723469560E-01 a      1150     0    77     1    10
 -4.8798584294456027E-01 a      1151     0    77     1    11
  3.6605426245198364E-01 a      1152     0    77     1    12
  3.5450447623110076E-01 a      1153     0    77     1    13
 -2.1711530464046275E-01 a      1154     0    77     1    14
  2.0386496142471391E-01 a      1155     0    77     1    15
  1.9826947679152937E-01 a      1156     0    78     1     1
  9.0269983270299975E-02 a      1157     0    78     1     2
  3.5372830622650869E-02 a      1158     0    78     1     3
 -1.0286434740592418E-01 a      1159     0    78     1     4
  1.4541803282831167E-02 a      1160     0    78     1     5
  1.5107133711738241E-01 a      1161     0    78     1     6
 -4.6180724563667640E-02 a      1162     0    78     1     7
 -2.3392208289026811E-01 a      1163     0    78     1     8
 -1.1446446691115691E-01 a      1164     0    78     1     9
  7.8141722620086618E-02 a      1165     0    78     1    10
  1.5552441634302897E-01 a      1166     0    78     1    11
 -2.0755857624310425E-02 a      1167     0    78     1    12
  1.1839990971720979E-01 a      1168     0    78     1    13
  1.6693447227075837E-02 a      1169     0    78     1    14
  1.4034264143160571E-01 a      1170     0    78     1    15
  8.7084769168716114E-01 b      1171     1     1
  9.6373582060390861E-01 b      1172     1     2
 -8.5493737494326860E-01 b      1173     1     3
  8.3814833009759704E-01 b      1174     1     4
 -1.9969237853817776E-01 b      1175     1     5
  1.2024453131621793E+00 b      1176     1     6
  7.6632522294309890E-01 b      1177     1     7
  9.4175286578835907E-02 b      1178     1     8
  1.3225886703722634E+00 b      1179     1     9
 -1.0602045811490117E+00 b      1180     1    10
  4.9349677436466337E-02 b      1181     1    11
 -9.2914418612183314E-01 b      1182     1    12
  3.5689787613110657E-01 b      1183     1    13
  4.7260173102318212E-02 b      1184     1    14
 -3.4828617680671897E-01 b      1185     1    15
  2.3062376674966062E-01 a      1186     1     1     2     1
  1.7747853029196994E-01 a      1187     1     1     2     2
  4.2212639886853848E-01 a      1188     1     1     2     3
 -3.0886590283317827E-01 a      1189     1     1     2     4
 -4.1137297982964359E-02 a      1190     1     1     2     5
  9.1072758147738930E-01 a      1191     1     1     2     6
 -8.8092745206171066E-02 a      1192     1     1     2     7
 -1.7026295249169188E-01 a      1193     1     1     2     8
  6.4061333916918206E-01 a      1194     1     1     2     9
  1.3121593482689931E-01 a      1195     1     1     2    10
  5.2115700581297386E-01 a      1196     1     1     2    11
  1.5414090476003176E-01 a      1197     1     1     2    12
 -4.1377229915177555E-01 a      1198     1     1     2    13
  6.6751060676034013E-01 a      1199     1     1     2    14
  1.4114302514905519E-01 a      1200     1     1     2    15
  8.4600672542275601E-01 a      1201     1     2     2     1
 -1.3269049255279666E+00 a      1202     1     2     2     2
 -6.2019383634854930E-01 a      1203     1     2     2     3
 -1.5222519049194012E+00 a      1204     1     2     2     4
  5.9292572074720473E-01 a      1205     1     2     2     5
  6.6516388868763654E-02 a      1206     1     2     2     6
 -4.9845732295883620E-02 a      1207     1     2     2     7
 -1.7675434617442923E-01 a      1208     1     2     2     8
 -5.1158942214976237E-02 a      1209     1     2     2     9
  2.2290422130292120E-01 a      1210     1     2     2    10
  1.1496564684353681E-01 a      1211     1     2     2    11
  2.8357442012545242E-01 a      1212     1     2     2    12
 -8.8918375865214927E-01 a      1213     1     2     2    13
 -3.5177588333902010E-01 a      1214     1     2     2    14
  3.5235147423173685E-02 a      1215     1     2     2    15
  4.5950643708473335E-02 a      1216     1     3     2     1
  9.7423380911566260E-01 a      1217     1     3     2     2
 -2.2185932319925489E-01 a      1218     1     3     2     3
 -8.9944868318987281E-01 a      1219     1     3     2     4
  3.4105621741627218E-01 a      1220     1     3     2     5
 -1.6900989249948675E-01 a      1221     1     3     2     6
  3.0870775003198869E-01 a      1222     1     3     2     7
  5.1831030716613907E-02 a      1223     1     3     2     8
  5.4091315209840042E-02 a      1224     1     3     2     9
 -1.3225242316934274E+00 a      1225     1     3     2    10
  6.6274960636511160E-01 a      1226     1     3     2    11
  7.2472548335664078E-01 a      1227     1     3     2    12
 -8.0308649269323532E-02 a      1228     1     3     2    13
  1.0365916996702232E-01 a      1229     1     3     2    14
 -3.2657922292340791E-01 a      1230     1     3     2    15
  3.9992692729220375E-02 a      1231     1     4     2     1
 -3.2129449320465669E-01 a      1232     1     4     2     2
 -5.3054854139796470E-01 a      1233     1     4     2     3
  7.3154629286483541E-01 a      1234     1     4     2     4
  4.5171969871062062E-01 a      1235     1     4     2     5
 -1.4616195664452450E-01 a      1236     1     4     2     6
 -4.0822745052888387E-01 a      1237     1     4     2     7
  1.2397282208860881E-02 a      1238     1     4     2     8
 -2.2624395208657572E-01 a      1239     1     4     2     9
  4.0701847460593921E-01 a      1240     1     4     2    10
 -5.3716606843327064E-01 a      1241     1     4     2    11
  2.3082872180950337E-01 a      1242     1     4     2    12
  2.1703671172744599E-01 a      1243     1     4     2    13
 -5.7387582257986081E-01 a      1244     1     4     2    14
  6.1265330616203095E-01 a      1245     1     4     2    15
  5.1811984382407683E-01 a      1246     1     5     2     1
 -4.9073033293290730E-01 a      1247     1     5     2     2
  2.8244686896876786E-01 a      1248     1     5     2     3
 -1.0479333044029000E+00 a      1249     1     5     2     4
  5.4235546811597324E-01 a      1250     1     5     2     5
 -3.1692357196582677E-01 a      1251     1     5     2     6
 -3.0514908605980168E-01 a      1252     1     5     2     7
 -2.3055751935368277E-01 a      1253     1     5     2     8
  6.8612978308667449E-01 a      1254     1     5     2     9
 -3.8558173345362595E-01 a      1255     1     5     2    10
  9.8994208521879046E-01 a      1256     1     5     2    11
 -1.5066383075026596E-01 a      1257     1     5     2    12
 -4.7907117934865229E-01 a      1258     1     5     2    13
  7.2842313432434247E-01 a      1259     1     5     2    14
 -8.3428752434448183E-01 a      1260     1     5     2    15
 -3.7097591792406986E-01 a      1261     1     6     2     1
 -4.6607707013940652E-01 a      1262     1     6     2     2
 -1.5019224236803350E-01 a      1263     1     6     2     3
 -7.0841153559281311E-01 a      1264     1     6     2     4
 -5.4921345003647348E-01 a      1265     1     6     2     5
  2.1839776824791252E-01 a      1266     1     6     2     6
 -4.4558465789788848E-01 a      1267     1     6     2     7
  4.2756616242885687E-01 a      1268     1     6     2     8
 -8.1992879981964539E-01 a      1269     1     6     2     9
  4.4605905867096862E-01 a      1270     1     6     2    10
  2.6214853398838375E-02 a      1271     1     6     2    11
  2.3737704294114090E-01 a      1272     1     6     2    12
  8.3392218237164584E-01 a      1273     1     6     2    13
  4.2543140174346217E-01 a      1274     1     6     2    14
  2.2144285982428319E-01 a      1275     1     6     2    15
  9.2462150613610339E-01 a      1276     1     7     2     1
 -5.7669865862224012E-01 a      1277     1     7     2     2
 -7.4526803093295657E-01 a      1278     1     7     2     3
 -9.8280772936467931E-01 a      1279     1     7     2     4
 -6.7574748357210024E-01 a      1280     1     7     2     5
  2.4054626417267855E-01 a      1281     1     7     2     6
  2.5246889691659169E-01 a      1282     1     7     2     7
 -7.6730964129919554E-01 a      1283     1     7     2     8
  1.5268782637036751E+00 a      1284     1     7     2     9
  1.7308390382364131E-01 a      1285     1     7     2    10
  3.0713133657944064E-01 a      1286     1     7     2    11
 -1.6844124977275063E-01 a      1287     1     7     2    12
  2.5729251020478250E-01 a      1288     1     7     2    13
  8.5499100423089627E-03 a      1289     1     7     2    14
 -5.8668312197325779E-03 a      1290     1     7     2    15
 -1.3396128488174996E-01 a      1291     1     8     2     1
 -5.0147996808755857E-01 a      1292     1     8     2     2
  6.1016792807070352E-01 a      1293     1     8     2     3
  1.8146583248708503E-01 a      1294     1     8     2     4
  8.1908961946224501E-01 a      1295     1     8     2     5
  5.3665440672011636E-02 a      1296     1     8     2     6
  3.6440058388400814E-01 a      1297     1     8     2     7
 -8.5923413751569222E-01 a      1298     1     8     2     8
  4.4375835189999296E-02 a      1299     1     8     2     9
  7.3551456087156586E-01 a      1300     1     8     2    10
  3.2972594980407090E-02 a      1301     1     8     2    11
  4.1868327313943493E-01 a      1302     1     8     2    12
  2.2517659712520108E-01 a      1303     1     8     2    13
 -5.4263296680239138E-02 a      1304     1     8     2    14
 -7.5480139711213923E-01 a      1305     1     8     2    15
  4.1112982474997745E-01 a      1306     1     9     2     1
 -7.9086281838788974E-01 a      1307     1     9     2     2
 -9.2211014406089600E-02 a      1308     1     9     2     3
 -3.8107774869857258E-01 a      1309     1     9     2     4
  1.1217167424800900E-01 a      1310     1     9     2     5
 -2.9477251816566935E-01 a      1311     1     9     2     6
  9.5957768087735940E-01 a      1312     1     9     2     7
 -1.3304915205757334E-01 a      1313     1     9     2     8
  1.3066784027160228E-01 a      1314     1     9     2     9
  3.3987954363101541E-01 a      1315     1     9     2    10
 -2.4493547815799757E-01 a      1316     1     9     2    11
 -3.6549802209517279E-01 a      1317     1     9     2    12
  1.2822358051514361E-02 a      1318     1     9     2    13
 -8.5681710002377162E-02 a      1319     1     9     2    14
  2.7668028358259800E-01 a      1320     1     9     2    15
  7.8146621239740333E-01 a      1321     1    10     2     1
  5.8578469846093620E-02 a      1322     1    10     2     2
  4.1414012293038482E-01 a      1323     1    10     2     3
 -6.4049811291979758E-02 a      1324     1    10     2     4
 -5.9269068917700196E-01 a      1325     1    10     2     5
 -3.5389662623564322E-01 a      1326     1    10     2     6
  1.9610210045903748E-01 a      1327     1    10     2     7
 -8.6020138320189765E-01 a      1328     1    10     2     8
  6.2408073947581730E-02 a      1329     1    10     2     9
  6.0139763487169748E-02 a      1330     1    10     2    10
 -1.7365585895632374E-01 a      1331     1    10     2    11
  9.9225270550780775E-01 a      1332     1    10     2    12
 -2.2166372886073196E-01 a      1333     1    10     2    13
  9.1125995256133407E-01 a      1334     1    10     2    14
 -4.2680286033950038E-01 a      1335     1    10     2    15
 -5.6099353569876065E-01 a      1336     1    11     2     1
 -4.2960292492161462E-01 a      1337     1    11     2     2
 -1.0150562844249518E+00 a      1338     1    11     2     3
 -4.5686668131089908E-01 a      1339     1    11     2     4
  1.7751105664816619E-01 a      1340     1    11     2     5
  2.9296779286218666E-01 a      1341     1    11     2     6
  1.1639409835229375E-01 a      1342     1    11     2     7
  3.9837170086549251E-01 a      1343     1    11     2     8
  4.2916426918040390E-01 a      1344     1    11     2     9
 -7.6618598135773635E-03 a      1345     1    11     2    10
 -7.6230717471610157E-02 a      1346     1    11     2    11
 -2.7257763819295555E-01 a      1347     1    11     2    12
  8.9623864042503942E-01 a      1348     1    11     2    13
  4.3555396719755879E-01 a      1349     1    11     2    14
 -7.3826043978499545E-01 a      1350     1    11     2    15
 -2.2846097347055036E-01 a      1351     1    12     2     1
 -4.4555690117064378E-01 a      1352     1    12     2     2
  3.6285497561901531E-01 a      1353     1    12     2     3
 -7.9144239968554453E-01 a      1354     1    12     2     4
 -1.0791106360652816E+00 a      1355     1    12     2     5
  1.5099469646749939E-02 a      1356     1    12     2     6
 -1.8769359845648812E+00 a      1357     1    12     2     7
 -1.6843484995159355E-01 a      1358     1    12     2     8
  5.4026264541484481E-01 a      1359     1    12     2     9
 -4.6448017447002032E-01 a      1360     1    12     2    10
  1.2528739295397309E-01 a      1361     1    12     2    11
 -2.3843316054166408E-01 a      1362     1    12     2    12
  7.9037088303421899E-01 a      1363     1    12     2    13
 -8.5104711884613482E-01 a      1364     1    12     2    14
 -4.9514391294883298E-01 a      1365     1    12     2    15
  1.6928359619810091E-01 a      1366     1    13     2     1
 -8.2042327832467968E-02 a      1367     1    13     2     2
 -1.2451772319856683E-01 a      1368     1    13     2     3
  4.4880711291223502E-01 a      1369     1    13     2     4
 -4.6036014950515541E-01 a      1370     1    13     2     5
  5.2970605437566565E-01 a      1371     1    13     2     6
  1.2905659551354682E+00 a      1372     1    13     2     7
  1.8218337247302177E+00 a      1373     1    13     2     8
 -6.7299384174943161E-02 a      1374     1    13     2     9
 -7.1325791980511269E-02 a      1375     1    13     2    10
  1.3972550676623444E-01 a      1376     1    13     2    11
  1.0011856052950274E+00 a      1377     1    13     2    12
  4.1525832415209613E-01 a      1378     1    13     2    13
  5.3961398153644008E-02 a      1379     1    13     2    14
 -3.0149225998808954E-01 a      1380     1    13     2    15
 -6.0459439594114528E-01 a      1381     1    14     2     1
 -4.2677435730024194E-01 a      1382     1    14     2     2
 -4.2009532341250011E-01 a      1383     1    14     2     3
 -3.2464507193942982E-01 a      1384     1    14     2     4
 -7.2824574009679743E-01 a      1385     1    14     2     5
  1.4143428580441950E-01 a      1386     1    14     2     6
  5.1243065132632848E-01 a      1387     1    14     2     7
 -3.8382726247330395E-01 a      1388     1    14     2     8
  6.3901292746735916E-01 a      1389     1    14     2     9
 -2.7542626987046093E-01 a      1390     1    14     2    10
  6.5700536006423493E-01 a      1391     1    14     2    11
  1.0308043789308066E+00 a      1392     1    14     2    12
 -3.1127007299900189E-01 a      1393     1    14     2    13
 -9.3643646991010931E-01 a      1394     1    14     2    14
 -8.3495946095481555E-02 a      1395     1    14     2    15
 -3.8098267867190794E-01 a      1396     1    15     2     1
 -6.1852841348610377E-01 a      1397     1    15     2     2
  8.2871061293312176E-02 a      1398     1    15     2     3
 -1.6866768546829650E-01 a      1399     1    15     2     4
  5.3076635981788067E-01 a      1400     1    15     2     5
 -3.7778877240712994E-01 a      1401     1    15     2     6
 -5.1712676225595777E-02 a      1402     1    15     2     7
 -4.7887696247617173E-01 a      1403     1    15     2     8
  4.9094787557035574E-01 a      1404     1    15     2     9
 -5.1604476937412172E-02 a      1405     1    15     2    10
  6.4439391859493056E-01 a      1406     1    15     2    11
 -9.3808690725719990E-01 a      1407     1    15     2    12
 -6.1541008569716715E-01 a      1408     1    15     2    13
  1.2197889340740758E-01 a      1409     1    15     2    14
 -1.0934077521460432E+00 a      1410     1    15     2    15
 -9.7815651675981463E-01 b      1411     2     1
  1.6237876534625595E+00 b      1412     2     2
 -1.4830757372748635E+00 b      1413     2     3
  2.5737064424436062E-01 b      1414     2     4
 -1.3944913370391012E+00 b      1415     2     5
  8.6782757253818832E-01 b      1416     2     6
 -1.4448564975673379E+00 b      1417     2     7
  1.0974060471195077E+00 b      1418     2     8
  5.4435923135739239E-01 b      1419     2     9
 -1.8720202730853568E+00 b      1420     2    10
  7.2698540594297756E-01 b      1421     2    11
  9.7164509146728117E-01 b      1422     2    12
  4.7774115759385605E-01 b      1423     2    13
 -1.0371349156748253E+00 b      1424     2    14
  1.2243288253022735E+00 b      1425     2    15
  3.8555479038692525E-01 a      1426     2     1     3     1
 -1.1416032024014457E+00 a      1427     2     2     3     1
 -7.8480140672000820E-01 a      1428     2     3     3     1
  2.4425022179032363E-01 a      1429     2     4     3     1
 -3.0166195818896324E-01 a      1430     2     5     3     1
  9.3256461983417094E-01 a      1431     2     6     3     1
 -6.9460387904115883E-01 a      1432     2     7     3     1
 -1.7442279250534704E-01 a      1433     2     8     3     1
 -1.0723635535095379E+00 a      1434     2     9     3     1
 -2.0741539614966251E-01 a      1435     2    10     3     1
  9.5633077222490459E-01 a      1436     2    11     3     1
  1.0253758429139455E+00 a      1437     2    12     3     1
 -6.0609956790527486E-01 a      1438     2    13     3     1
 -4.1705414890386061E-01 a      1439     2    14     3     1
 -2.7701257509323157E-01 a      1440     2    15     3     1
  4.9486794511375559E-01 b      1441     3     1
