################################################################################
# Neural network connection values (weights and biases).
################################################################################
# Col  Name       Description
################################################################################
# 1    connection Neural network connection value.
# 2    t          Connection type (a = weight, b = bias).
# 3    index      Index enumerating weights.
# 4    l_s        Starting point layer (end point layer for biases).
# 5    n_s        Starting point neuron in starting layer (end point neuron for biases).
# 6    l_e        End point layer.
# 7    n_e        End point neuron in end layer.
################################################################################
#                      1 2         3     4     5     6     7
#             connection t     index   l_s   n_s   l_e   n_e
############################################################
 -1.9216694355528466E-01 a         1     0     1     1     1
 -6.8668950836806219E-03 a         2     0     1     1     2
 -2.4761436306431532E-03 a         3     0     1     1     3
 -1.9376715471010633E-01 a         4     0     1     1     4
  2.6207636099880083E-01 a         5     0     1     1     5
 -6.4518439108733436E-02 a         6     0     1     1     6
 -7.7361905875157011E-02 a         7     0     1     1     7
  1.5606601739305451E-01 a         8     0     1     1     8
  2.8928132264662149E-01 a         9     0     1     1     9
  1.2523478984089786E-01 a        10     0     1     1    10
  1.4041383604475258E-01 a        11     0     1     1    11
 -1.2308963238367096E-01 a        12     0     1     1    12
 -1.0757201243226457E-01 a        13     0     1     1    13
 -4.8811249378592830E-03 a        14     0     1     1    14
 -6.6959267663870808E-02 a        15     0     1     1    15
 -3.0668121118173036E-01 a        16     0     2     1     1
 -7.7463056071556180E-02 a        17     0     2     1     2
 -8.3842556822542214E-02 a        18     0     2     1     3
 -1.3310198668610068E-01 a        19     0     2     1     4
 -5.0364926500465368E-02 a        20     0     2     1     5
 -1.9056188787225935E-02 a        21     0     2     1     6
  1.4217954450547984E-01 a        22     0     2     1     7
  2.5208440589343056E-01 a        23     0     2     1     8
 -4.1298305561902867E-03 a        24     0     2     1     9
 -2.3372729108653029E-01 a        25     0     2     1    10
 -4.2469337597875974E-02 a        26     0     2     1    11
 -6.7504390479636772E-02 a        27     0     2     1    12
 -8.6437700935778239E-02 a        28     0     2     1    13
  7.9609387288087502E-02 a        29     0     2     1    14
 -2.5172169230182889E-01 a        30     0     2     1    15
 -1.2277753126244595E-01 a        31     0     3     1     1
 -8.0571578442142106E-02 a        32     0     3     1     2
 -3.6382248116755764E-02 a        33     0     3     1     3
 -8.0336413441175869E-02 a        34     0     3     1     4
  1.2844335650308317E-01 a        35     0     3     1     5
 -1.4026496893532137E-01 a        36     0     3     1     6
 -8.8019925982556202E-02 a        37     0     3     1     7
 -2.1363617593940076E-01 a        38     0     3     1     8
  2.3804351836769760E-01 a        39     0     3     1     9
 -2.9016318446887779E-01 a        40     0     3     1    10
 -1.4425901404009198E-01 a        41     0     3     1    11
 -1.8049978097510852E-01 a        42     0     3     1    12
 -2.4499598004631862E-01 a        43     0     3     1    13
  1.8295373235363463E-01 a        44     0     3     1    14
  2.6267587399934561E-03 a        45     0     3     1    15
  1.2315819059033750E-01 a        46     0     4     1     1
  3.0279046627444014E-02 a        47     0     4     1     2
  2.1208371940663781E-01 a        48     0     4     1     3
 -3.3455051614611889E-02 a        49     0     4     1     4
 -4.0253203692899836E-02 a        50     0     4     1     5
 -7.2145199648237660E-03 a        51     0     4     1     6
 -1.3254020177211850E-01 a        52     0     4     1     7
 -1.1803538057913402E-03 a        53     0     4     1     8
 -2.7583107908799503E-01 a        54     0     4     1     9
 -2.6731701931418034E-01 a        55     0     4     1    10
  9.7937966334777235E-02 a        56     0     4     1    11
 -1.0664615630480648E-01 a        57     0     4     1    12
  9.9441361424850411E-02 a        58     0     4     1    13
  2.0808400686087675E-01 a        59     0     4     1    14
 -1.4612146363053677E-01 a        60     0     4     1    15
  1.7094050003320282E-01 a        61     0     5     1     1
  7.3397937368981439E-03 a        62     0     5     1     2
  1.8541749994841628E-01 a        63     0     5     1     3
 -9.6739954714302918E-03 a        64     0     5     1     4
  1.5821730160469526E-02 a        65     0     5     1     5
  2.0399924204849848E-01 a        66     0     5     1     6
  1.9544092529363447E-01 a        67     0     5     1     7
 -3.4705645241027774E-02 a        68     0     5     1     8
  6.3772462110080030E-02 a        69     0     5     1     9
  1.4189121957744161E-02 a        70     0     5     1    10
 -3.5196335895124081E-02 a        71     0     5     1    11
  2.2683803682765413E-01 a        72     0     5     1    12
  9.9860883387240792E-02 a        73     0     5     1    13
 -2.0358846817311457E-01 a        74     0     5     1    14
  1.0692744584892182E-01 a        75     0     5     1    15
  1.4123873380465279E-01 a        76     0     6     1     1
 -7.2646999861782774E-03 a        77     0     6     1     2
  2.2539999968512642E-01 a        78     0     6     1     3
 -2.4838336229272934E-01 a        79     0     6     1     4
  1.7324027567428354E-01 a        80     0     6     1     5
  2.7587822206416642E-02 a        81     0     6     1     6
  9.9217080005672420E-02 a        82     0     6     1     7
 -1.3698969345332151E-01 a        83     0     6     1     8
 -1.5223242285602467E-01 a        84     0     6     1     9
 -6.3871433639358086E-02 a        85     0     6     1    10
  1.0524607176395116E-01 a        86     0     6     1    11
 -3.4612549495808498E-02 a        87     0     6     1    12
  7.5854064501355248E-02 a        88     0     6     1    13
  2.4741679379032225E-02 a        89     0     6     1    14
 -7.2017500621754812E-02 a        90     0     6     1    15
 -2.1878804567641852E-01 a        91     0     7     1     1
 -1.6963474526826566E-01 a        92     0     7     1     2
 -1.1642202893462771E-01 a        93     0     7     1     3
 -4.7993813474921508E-02 a        94     0     7     1     4
 -3.7465731986150372E-02 a        95     0     7     1     5
 -2.4401515977883653E-01 a        96     0     7     1     6
 -1.9595467006360717E-01 a        97     0     7     1     7
  5.2523232829550195E-02 a        98     0     7     1     8
 -2.4274235110907480E-01 a        99     0     7     1     9
  1.1349581278338962E-01 a       100     0     7     1    10
  7.2759296510845773E-03 a       101     0     7     1    11
  1.0263705054198848E-01 a       102     0     7     1    12
  2.4421579763724813E-01 a       103     0     7     1    13
 -7.2086881297634561E-02 a       104     0     7     1    14
 -2.7939569763662388E-02 a       105     0     7     1    15
  8.5691611633643652E-02 a       106     0     8     1     1
  1.4121915132488072E-01 a       107     0     8     1     2
 -1.2655711484748505E-01 a       108     0     8     1     3
  1.5680662238899251E-01 a       109     0     8     1     4
 -2.7018690922687183E-01 a       110     0     8     1     5
  2.8453887413384943E-01 a       111     0     8     1     6
  1.9935558504412029E-01 a       112     0     8     1     7
  1.9906877921700328E-01 a       113     0     8     1     8
  2.3240722593307273E-02 a       114     0     8     1     9
 -1.4630121759181210E-02 a       115     0     8     1    10
  2.2764826713140585E-01 a       116     0     8     1    11
  1.2820581339221693E-01 a       117     0     8     1    12
 -7.6376097839120055E-02 a       118     0     8     1    13
  3.1796403054452005E-03 a       119     0     8     1    14
 -1.2141222453533274E-02 a       120     0     8     1    15
  5.2904600196064730E-02 a       121     0     9     1     1
 -1.3988823934991967E-01 a       122     0     9     1     2
  1.4616480177732716E-01 a       123     0     9     1     3
 -9.7175344666496410E-02 a       124     0     9     1     4
 -1.1704532836283812E-01 a       125     0     9     1     5
  1.3460478243273619E-01 a       126     0     9     1     6
 -8.4328623647924456E-02 a       127     0     9     1     7
  2.1816200592008825E-01 a       128     0     9     1     8
  3.2297069173126185E-02 a       129     0     9     1     9
  6.5992132808014942E-02 a       130     0     9     1    10
 -6.5192943700026582E-02 a       131     0     9     1    11
  7.3314303165160175E-02 a       132     0     9     1    12
 -7.2111916249830973E-02 a       133     0     9     1    13
  5.0700937718852521E-02 a       134     0     9     1    14
 -1.8873583818881845E-01 a       135     0     9     1    15
 -1.0080271562419159E-01 a       136     0    10     1     1
 -2.6118436798181538E-01 a       137     0    10     1     2
  9.6342581850410655E-02 a       138     0    10     1     3
  1.3639201750692512E-01 a       139     0    10     1     4
 -7.5872163696958927E-02 a       140     0    10     1     5
  1.0057093701572786E-01 a       141     0    10     1     6
 -2.4075467973263570E-02 a       142     0    10     1     7
  9.1073704395662494E-02 a       143     0    10     1     8
  1.3956720756844054E-01 a       144     0    10     1     9
 -1.9691191610440836E-01 a       145     0    10     1    10
 -6.4684382921678663E-02 a       146     0    10     1    11
  1.3743386142181511E-02 a       147     0    10     1    12
  1.8877178762077048E-03 a       148     0    10     1    13
  1.6568851962334358E-01 a       149     0    10     1    14
  3.8893003994226572E-02 a       150     0    10     1    15
 -1.9469969771320070E-01 a       151     0    11     1     1
  6.1468522995431048E-02 a       152     0    11     1     2
  1.4259575146719328E-01 a       153     0    11     1     3
 -2.8068514630301578E-02 a       154     0    11     1     4
  4.7496529585128219E-02 a       155     0    11     1     5
 -5.7020684830554245E-02 a       156     0    11     1     6
  1.6521025300672806E-01 a       157     0    11     1     7
  1.0269068883719254E-01 a       158     0    11     1     8
 -3.2442192072141413E-02 a       159     0    11     1     9
  1.2557557523437562E-01 a       160     0    11     1    10
 -2.4634516225289399E-01 a       161     0    11     1    11
 -1.8942658317273461E-01 a       162     0    11     1    12
 -1.8533900052529251E-01 a       163     0    11     1    13
 -7.2335117375386920E-02 a       164     0    11     1    14
  8.0359325467644765E-02 a       165     0    11     1    15
  2.2482668237671977E-01 a       166     0    12     1     1
 -1.5596045240622913E-01 a       167     0    12     1     2
  3.2369257261598873E-02 a       168     0    12     1     3
 -6.1666886568631420E-03 a       169     0    12     1     4
  1.9180483499881659E-01 a       170     0    12     1     5
 -2.4002921696626189E-01 a       171     0    12     1     6
 -1.6332147224261042E-02 a       172     0    12     1     7
 -2.4415794255271243E-02 a       173     0    12     1     8
  4.8854088498183387E-02 a       174     0    12     1     9
  1.0196307169702736E-02 a       175     0    12     1    10
  1.6484763913881065E-01 a       176     0    12     1    11
 -1.7714257496471089E-01 a       177     0    12     1    12
  1.3121023746330260E-01 a       178     0    12     1    13
 -7.7569575640100141E-02 a       179     0    12     1    14
  1.1202284427170880E-01 a       180     0    12     1    15
 -1.0563930693408263E-01 a       181     0    13     1     1
  1.8515760592547209E-01 a       182     0    13     1     2
 -1.6227690254896515E-01 a       183     0    13     1     3
 -6.2513877787564787E-02 a       184     0    13     1     4
 -1.3985113970791746E-01 a       185     0    13     1     5
  1.0921449320178260E-01 a       186     0    13     1     6
  1.3148074256557790E-01 a       187     0    13     1     7
 -7.9081504472989339E-02 a       188     0    13     1     8
  1.2366779971615605E-01 a       189     0    13     1     9
  2.7279437529725375E-02 a       190     0    13     1    10
  7.3879012742392482E-03 a       191     0    13     1    11
  2.6629974885473218E-01 a       192     0    13     1    12
  1.1917132836506561E-01 a       193     0    13     1    13
  6.8499867497809327E-02 a       194     0    13     1    14
  1.2500313559366816E-01 a       195     0    13     1    15
  2.0798821022458941E-01 a       196     0    14     1     1
 -9.9946021683220518E-02 a       197     0    14     1     2
 -1.5541267962810563E-02 a       198     0    14     1     3
  6.4556605484808544E-02 a       199     0    14     1     4
 -4.4627720640217458E-02 a       200     0    14     1     5
  5.6527027796409633E-02 a       201     0    14     1     6
 -1.5772186697538931E-01 a       202     0    14     1     7
 -4.0617614658873091E-02 a       203     0    14     1     8
  1.2069940977682007E-03 a       204     0    14     1     9
 -1.2191531226207369E-01 a       205     0    14     1    10
  2.2243443828293299E-01 a       206     0    14     1    11
  1.6646119632287987E-01 a       207     0    14     1    12
  1.6714698771483560E-01 a       208     0    14     1    13
  2.2736930695232146E-01 a       209     0    14     1    14
  1.5943012064004006E-01 a       210     0    14     1    15
 -6.9841696593220495E-02 a       211     0    15     1     1
 -9.2571255733159788E-02 a       212     0    15     1     2
 -2.2817650602217701E-01 a       213     0    15     1     3
 -1.8196668196602048E-01 a       214     0    15     1     4
 -1.5488019970731970E-01 a       215     0    15     1     5
 -1.3497246476051156E-01 a       216     0    15     1     6
 -5.7304982953633628E-02 a       217     0    15     1     7
  6.9452375619731338E-03 a       218     0    15     1     8
  5.0837791282349323E-03 a       219     0    15     1     9
 -2.3338778131775925E-01 a       220     0    15     1    10
 -3.0336487452516303E-03 a       221     0    15     1    11
 -6.6030744510978831E-02 a       222     0    15     1    12
 -2.2927614320891196E-01 a       223     0    15     1    13
  3.3325261531222278E-01 a       224     0    15     1    14
  3.3298356623798743E-02 a       225     0    15     1    15
 -7.8788776018332604E-02 a       226     0    16     1     1
 -2.2555479209210144E-01 a       227     0    16     1     2
 -4.5381061284371069E-02 a       228     0    16     1     3
  6.0288100875535620E-02 a       229     0    16     1     4
 -3.5630611784553311E-02 a       230     0    16     1     5
 -1.6117010597775860E-01 a       231     0    16     1     6
  1.1258960931094217E-01 a       232     0    16     1     7
 -6.4590084567969996E-02 a       233     0    16     1     8
 -4.7801028074941902E-02 a       234     0    16     1     9
  3.3485032246333722E-02 a       235     0    16     1    10
 -5.6034878296991768E-02 a       236     0    16     1    11
  8.8036049838985178E-03 a       237     0    16     1    12
 -6.5493456700876015E-02 a       238     0    16     1    13
 -9.2600097355316519E-02 a       239     0    16     1    14
 -3.0543521504466136E-02 a       240     0    16     1    15
 -1.3111912598286080E-01 a       241     0    17     1     1
  7.2778492213939366E-02 a       242     0    17     1     2
  1.4217851383407479E-01 a       243     0    17     1     3
 -3.1923791181572139E-02 a       244     0    17     1     4
  3.9508835299045413E-02 a       245     0    17     1     5
  2.6249340574583304E-02 a       246     0    17     1     6
 -2.2889666547391607E-02 a       247     0    17     1     7
  5.7072850578300138E-02 a       248     0    17     1     8
  1.3215639475170037E-02 a       249     0    17     1     9
 -7.1536462552903926E-02 a       250     0    17     1    10
  1.5845362154251447E-01 a       251     0    17     1    11
 -1.3467240114757503E-01 a       252     0    17     1    12
 -5.8274127772230296E-02 a       253     0    17     1    13
 -1.4050640768841158E-01 a       254     0    17     1    14
 -2.8366811899433630E-01 a       255     0    17     1    15
 -3.9987051347791278E-02 a       256     0    18     1     1
 -5.2258113269238508E-02 a       257     0    18     1     2
  1.2902061772583667E-01 a       258     0    18     1     3
  3.6986285632747574E-03 a       259     0    18     1     4
  1.9912827324236920E-01 a       260     0    18     1     5
  2.1924971902632012E-01 a       261     0    18     1     6
 -7.7827858373839959E-02 a       262     0    18     1     7
  8.2841243299960829E-02 a       263     0    18     1     8
  3.3958977800622714E-03 a       264     0    18     1     9
  1.5959086971029654E-01 a       265     0    18     1    10
 -3.5688248415140273E-03 a       266     0    18     1    11
 -1.2664688619882475E-01 a       267     0    18     1    12
  1.0822624241888795E-01 a       268     0    18     1    13
  7.0495924601575666E-02 a       269     0    18     1    14
  2.1372061930801453E-01 a       270     0    18     1    15
  1.1848738389878931E-01 a       271     0    19     1     1
 -1.8665169733995422E-02 a       272     0    19     1     2
 -1.6064068883080776E-01 a       273     0    19     1     3
  8.5794427172099133E-02 a       274     0    19     1     4
 -1.5363339612346136E-01 a       275     0    19     1     5
  3.2866614910802422E-02 a       276     0    19     1     6
 -5.4612162352403709E-02 a       277     0    19     1     7
 -5.1533421213226301E-02 a       278     0    19     1     8
  4.3616653113925291E-02 a       279     0    19     1     9
  1.6349330715273552E-01 a       280     0    19     1    10
 -1.1282828851109242E-02 a       281     0    19     1    11
 -8.5980727034120727E-02 a       282     0    19     1    12
 -6.6768140546217339E-02 a       283     0    19     1    13
  1.0814772411558847E-01 a       284     0    19     1    14
  1.6312758252552825E-01 a       285     0    19     1    15
  7.0101187613125573E-02 a       286     0    20     1     1
 -3.0052527718837090E-02 a       287     0    20     1     2
 -6.2311565496779228E-02 a       288     0    20     1     3
 -7.0717608082433256E-02 a       289     0    20     1     4
 -5.5345929162812120E-03 a       290     0    20     1     5
 -1.5813805175039292E-01 a       291     0    20     1     6
 -9.8527273877557373E-02 a       292     0    20     1     7
 -8.8274941524539366E-02 a       293     0    20     1     8
 -1.0841849747831495E-01 a       294     0    20     1     9
  2.3466640264724600E-02 a       295     0    20     1    10
 -1.3048479164508148E-01 a       296     0    20     1    11
 -1.2173953868959737E-01 a       297     0    20     1    12
 -1.0229546223123409E-01 a       298     0    20     1    13
  1.0861300390583927E-02 a       299     0    20     1    14
  1.2815554653727365E-01 a       300     0    20     1    15
 -2.7430895635595759E-01 a       301     0    21     1     1
 -2.2378203289746912E-01 a       302     0    21     1     2
  1.4342819611940749E-01 a       303     0    21     1     3
 -2.0473744154767359E-01 a       304     0    21     1     4
 -2.3492219132544556E-01 a       305     0    21     1     5
 -1.6224391191494947E-01 a       306     0    21     1     6
 -1.3724637228561529E-01 a       307     0    21     1     7
  1.2319796224191334E-01 a       308     0    21     1     8
  1.6824935100983188E-01 a       309     0    21     1     9
 -2.2979148598016144E-01 a       310     0    21     1    10
  1.4314683031137254E-01 a       311     0    21     1    11
 -5.7612475619434611E-02 a       312     0    21     1    12
 -1.2342428810710737E-01 a       313     0    21     1    13
  2.0837008698083467E-01 a       314     0    21     1    14
 -1.0612746741810176E-01 a       315     0    21     1    15
  5.3309193081481137E-03 a       316     0    22     1     1
 -1.5917204436424753E-01 a       317     0    22     1     2
  9.7641138146299850E-02 a       318     0    22     1     3
  2.7416770159672258E-02 a       319     0    22     1     4
 -1.8193091429312536E-01 a       320     0    22     1     5
 -8.1118363909144522E-02 a       321     0    22     1     6
  7.0013723046278453E-02 a       322     0    22     1     7
 -1.0507404759913623E-02 a       323     0    22     1     8
 -7.6651338308477406E-03 a       324     0    22     1     9
  7.7214985163623642E-02 a       325     0    22     1    10
  2.1017194526209348E-01 a       326     0    22     1    11
 -8.6505517707359571E-03 a       327     0    22     1    12
 -1.6503087574320527E-01 a       328     0    22     1    13
 -9.6888622259824184E-02 a       329     0    22     1    14
 -1.2230694550139910E-01 a       330     0    22     1    15
 -1.2208649340757732E-01 a       331     0    23     1     1
  9.7377081016653363E-02 a       332     0    23     1     2
  2.2755603644943306E-01 a       333     0    23     1     3
 -1.8164011561428492E-01 a       334     0    23     1     4
  3.0013882169711348E-02 a       335     0    23     1     5
  7.8880995642115675E-02 a       336     0    23     1     6
  1.4120636875154649E-01 a       337     0    23     1     7
  1.6494862032808283E-01 a       338     0    23     1     8
 -5.0410433967945489E-03 a       339     0    23     1     9
 -1.6508361348971856E-01 a       340     0    23     1    10
 -1.1358069672172137E-01 a       341     0    23     1    11
  1.5555836265734257E-01 a       342     0    23     1    12
  1.5830329554278538E-01 a       343     0    23     1    13
 -6.7402268591090900E-02 a       344     0    23     1    14
 -1.8064742163130067E-02 a       345     0    23     1    15
  1.1625709483671089E-01 a       346     0    24     1     1
 -3.7645982983852085E-02 a       347     0    24     1     2
  1.5836630037783900E-01 a       348     0    24     1     3
 -6.4462912791687366E-02 a       349     0    24     1     4
 -1.7297488661021343E-01 a       350     0    24     1     5
 -5.0043982496062095E-02 a       351     0    24     1     6
 -3.3090973908379756E-02 a       352     0    24     1     7
 -4.5985451517040657E-02 a       353     0    24     1     8
  1.9161152744889576E-01 a       354     0    24     1     9
  6.2761096138923486E-02 a       355     0    24     1    10
  5.2727893251182142E-02 a       356     0    24     1    11
  2.8802407519135206E-02 a       357     0    24     1    12
 -1.4756166490706707E-02 a       358     0    24     1    13
 -2.1470124843184413E-01 a       359     0    24     1    14
  1.1451227671836135E-01 a       360     0    24     1    15
 -2.8719926876792296E-01 a       361     0    25     1     1
 -3.3757925546342077E-01 a       362     0    25     1     2
 -2.1204805670070222E-03 a       363     0    25     1     3
  7.6997115686485665E-02 a       364     0    25     1     4
  5.3445816647600279E-02 a       365     0    25     1     5
  9.7173514795970500E-02 a       366     0    25     1     6
  1.8397988909172233E-01 a       367     0    25     1     7
 -2.4335736176587287E-02 a       368     0    25     1     8
  2.6787369251530763E-02 a       369     0    25     1     9
 -1.0116198592225788E-01 a       370     0    25     1    10
  1.2022749011098614E-02 a       371     0    25     1    11
  2.4852031510953343E-01 a       372     0    25     1    12
  8.0150906721104725E-02 a       373     0    25     1    13
 -7.6054557196241365E-02 a       374     0    25     1    14
  4.2969886342507736E-02 a       375     0    25     1    15
  1.2692354063499433E-02 a       376     0    26     1     1
  1.1568156428588701E-01 a       377     0    26     1     2
 -1.7273298788294250E-01 a       378     0    26     1     3
  4.3791117603613143E-02 a       379     0    26     1     4
  1.3186604069602170E-01 a       380     0    26     1     5
 -2.2357153742208799E-01 a       381     0    26     1     6
 -2.2892157914168279E-02 a       382     0    26     1     7
  8.0338731856774322E-03 a       383     0    26     1     8
  1.9190590451045935E-03 a       384     0    26     1     9
 -3.3374185253839679E-02 a       385     0    26     1    10
 -1.4042077684916829E-01 a       386     0    26     1    11
  2.2604487678449140E-02 a       387     0    26     1    12
  3.2304257983929940E-02 a       388     0    26     1    13
 -6.4227496937885833E-02 a       389     0    26     1    14
  4.9255507678142491E-02 a       390     0    26     1    15
 -4.0068874446803515E-02 a       391     0    27     1     1
 -1.5144627421643872E-02 a       392     0    27     1     2
  1.6625667503730346E-01 a       393     0    27     1     3
  9.4988390376175551E-03 a       394     0    27     1     4
 -5.8726202587466948E-02 a       395     0    27     1     5
  3.4481388555246455E-02 a       396     0    27     1     6
 -1.5938075991447399E-02 a       397     0    27     1     7
  1.3084962817858994E-01 a       398     0    27     1     8
  8.6345525088917033E-02 a       399     0    27     1     9
  1.2096597440660768E-03 a       400     0    27     1    10
 -1.0101685419514575E-01 a       401     0    27     1    11
  9.5759069877372871E-02 a       402     0    27     1    12
  4.9066182954859136E-02 a       403     0    27     1    13
 -9.5310227647518262E-03 a       404     0    27     1    14
  7.2842363725740489E-02 a       405     0    27     1    15
 -1.3618237355835181E-02 a       406     0    28     1     1
 -4.2445626885249714E-02 a       407     0    28     1     2
  6.7519496524134776E-02 a       408     0    28     1     3
  7.9554315976284422E-03 a       409     0    28     1     4
  2.6104372686867106E-02 a       410     0    28     1     5
 -1.2045974975779471E-01 a       411     0    28     1     6
 -1.5423952261251284E-01 a       412     0    28     1     7
  7.3232818996823721E-03 a       413     0    28     1     8
  7.3124985837601311E-02 a       414     0    28     1     9
 -1.2798387683048067E-02 a       415     0    28     1    10
  1.3283961602142949E-01 a       416     0    28     1    11
 -7.8869707343091358E-02 a       417     0    28     1    12
 -1.0629370521175749E-01 a       418     0    28     1    13
 -9.1129762625942592E-02 a       419     0    28     1    14
 -1.1271900433619404E-01 a       420     0    28     1    15
 -2.4886845538366067E-01 a       421     0    29     1     1
  1.3407815674246770E-01 a       422     0    29     1     2
  1.2166551211633034E-01 a       423     0    29     1     3
  1.9313764930511110E-01 a       424     0    29     1     4
  2.0109354539239901E-01 a       425     0    29     1     5
  3.1367040481718879E-02 a       426     0    29     1     6
  5.3378641618555392E-02 a       427     0    29     1     7
  1.7073466765890169E-01 a       428     0    29     1     8
 -1.6860875282470014E-01 a       429     0    29     1     9
  1.5879838970355628E-01 a       430     0    29     1    10
  1.1198088531076981E-01 a       431     0    29     1    11
  7.7027763306204963E-02 a       432     0    29     1    12
  4.4464526537348260E-02 a       433     0    29     1    13
  7.8722643733536699E-02 a       434     0    29     1    14
 -1.3179665132170179E-01 a       435     0    29     1    15
  6.3876483208440207E-02 a       436     0    30     1     1
 -6.0362860337898911E-03 a       437     0    30     1     2
 -3.7806615749245147E-02 a       438     0    30     1     3
 -5.5421416855696154E-02 a       439     0    30     1     4
 -3.2677097903434406E-02 a       440     0    30     1     5
  6.9857707993912768E-03 a       441     0    30     1     6
 -1.3658817911271276E-01 a       442     0    30     1     7
 -1.4724393229664787E-01 a       443     0    30     1     8
  1.1277437134527929E-01 a       444     0    30     1     9
  2.2905245309926014E-01 a       445     0    30     1    10
  4.4755534745457910E-02 a       446     0    30     1    11
 -1.6336156945152161E-01 a       447     0    30     1    12
 -1.0565316893768076E-01 a       448     0    30     1    13
 -2.0838291650852634E-02 a       449     0    30     1    14
  1.4151631397557940E-01 a       450     0    30     1    15
 -1.4821263518588437E-01 a       451     0    31     1     1
 -6.0902011998784658E-02 a       452     0    31     1     2
 -3.9637955628365786E-02 a       453     0    31     1     3
 -8.6628150391302963E-02 a       454     0    31     1     4
  2.4654941370117309E-01 a       455     0    31     1     5
 -2.3792762106173970E-01 a       456     0    31     1     6
 -2.9992596208717226E-01 a       457     0    31     1     7
  8.1634289560075110E-02 a       458     0    31     1     8
 -1.5656824542469872E-01 a       459     0    31     1     9
 -2.3300781365822247E-02 a       460     0    31     1    10
  1.8871037342840460E-01 a       461     0    31     1    11
 -1.3726994231073464E-01 a       462     0    31     1    12
 -3.0438489334241408E-02 a       463     0    31     1    13
 -2.0159847357415622E-01 a       464     0    31     1    14
 -2.5991170732488678E-01 a       465     0    31     1    15
  1.7192914287069757E-02 a       466     0    32     1     1
 -5.7837346481692732E-02 a       467     0    32     1     2
  1.1919882412085481E-01 a       468     0    32     1     3
  3.0120726738487702E-02 a       469     0    32     1     4
  1.1897824844726433E-01 a       470     0    32     1     5
 -1.0180570664634112E-01 a       471     0    32     1     6
  1.0460774281238944E-01 a       472     0    32     1     7
 -4.8310697363942418E-02 a       473     0    32     1     8
  8.8332699666814091E-02 a       474     0    32     1     9
 -6.1898420330027515E-02 a       475     0    32     1    10
  6.3561558442767993E-02 a       476     0    32     1    11
 -3.7669010029663781E-02 a       477     0    32     1    12
 -1.2335996462883032E-01 a       478     0    32     1    13
  2.9397967931818241E-02 a       479     0    32     1    14
 -5.5779535377287089E-02 a       480     0    32     1    15
  5.1930571419657512E-02 a       481     0    33     1     1
 -1.4256154298189214E-01 a       482     0    33     1     2
  2.5043781221937234E-01 a       483     0    33     1     3
 -1.1475454646436568E-01 a       484     0    33     1     4
  1.0585738315565595E-01 a       485     0    33     1     5
  8.0235516837456698E-03 a       486     0    33     1     6
 -3.0447916392033264E-01 a       487     0    33     1     7
  6.1463125277828552E-02 a       488     0    33     1     8
  7.9988371832571924E-03 a       489     0    33     1     9
 -3.0560396299624942E-01 a       490     0    33     1    10
 -1.2348689758432922E-02 a       491     0    33     1    11
  8.3788346625637639E-02 a       492     0    33     1    12
  4.1687495143274141E-02 a       493     0    33     1    13
 -5.2202344744080385E-02 a       494     0    33     1    14
 -2.1136318539360127E-01 a       495     0    33     1    15
  5.4735900042000220E-02 a       496     0    34     1     1
  2.1667745764245759E-02 a       497     0    34     1     2
 -4.6621426133193321E-03 a       498     0    34     1     3
 -1.7978455299057541E-01 a       499     0    34     1     4
  8.6210067410634209E-02 a       500     0    34     1     5
  1.6064642144489363E-01 a       501     0    34     1     6
  3.1972223990794996E-01 a       502     0    34     1     7
 -1.7602810529845822E-01 a       503     0    34     1     8
 -1.5670685355952552E-01 a       504     0    34     1     9
  4.1748450345714577E-01 a       505     0    34     1    10
 -2.6581971722551841E-02 a       506     0    34     1    11
 -6.1941002806216137E-02 a       507     0    34     1    12
  1.0053380984453533E-01 a       508     0    34     1    13
 -1.9776616239723926E-01 a       509     0    34     1    14
  2.3354670834708377E-01 a       510     0    34     1    15
 -2.0965882412390055E-01 a       511     0    35     1     1
  1.7298938125854060E-01 a       512     0    35     1     2
  6.6666174915110963E-03 a       513     0    35     1     3
  1.7339941960216151E-01 a       514     0    35     1     4
  2.8456859296925808E-02 a       515     0    35     1     5
  1.0429384885434602E-01 a       516     0    35     1     6
 -3.2719059045905934E-02 a       517     0    35     1     7
 -1.8775476895660562E-02 a       518     0    35     1     8
  4.2486801253819852E-02 a       519     0    35     1     9
 -1.2483165163559963E-01 a       520     0    35     1    10
 -8.0066969139611671E-02 a       521     0    35     1    11
  1.7615974476813764E-01 a       522     0    35     1    12
  5.0435001478891670E-02 a       523     0    35     1    13
  2.0841235270907701E-01 a       524     0    35     1    14
 -1.8771775635462902E-02 a       525     0    35     1    15
  6.9980496154231728E-02 a       526     0    36     1     1
  2.1475113264683868E-01 a       527     0    36     1     2
  3.1048775687391678E-01 a       528     0    36     1     3
  6.3916950627265406E-02 a       529     0    36     1     4
 -1.6412652519311008E-01 a       530     0    36     1     5
  7.6612123341091673E-02 a       531     0    36     1     6
 -1.0708238715274232E-01 a       532     0    36     1     7
 -2.5286968371664903E-01 a       533     0    36     1     8
  6.6082904787362923E-02 a       534     0    36     1     9
 -7.6368815100370441E-02 a       535     0    36     1    10
 -1.9699170121937698E-02 a       536     0    36     1    11
 -9.8574518872644831E-02 a       537     0    36     1    12
 -5.9629584537723893E-02 a       538     0    36     1    13
 -1.2490509368975133E-01 a       539     0    36     1    14
 -3.7425207353218365E-01 a       540     0    36     1    15
  4.5347024440766853E-02 a       541     0    37     1     1
  7.9163063660641617E-02 a       542     0    37     1     2
 -1.5990470850779201E-01 a       543     0    37     1     3
  5.2943972257306786E-02 a       544     0    37     1     4
  3.7225635489754508E-02 a       545     0    37     1     5
  1.7394232706470913E-01 a       546     0    37     1     6
  1.9752756505718755E-01 a       547     0    37     1     7
 -2.4803561229134749E-01 a       548     0    37     1     8
 -6.6385411994955804E-02 a       549     0    37     1     9
 -1.3950926904268474E-01 a       550     0    37     1    10
 -1.9384119945143030E-01 a       551     0    37     1    11
 -1.0370441966242913E-01 a       552     0    37     1    12
 -6.3752138640487455E-02 a       553     0    37     1    13
  1.6873986359283991E-01 a       554     0    37     1    14
 -6.6597486691382768E-02 a       555     0    37     1    15
  1.5917366780054332E-01 a       556     0    38     1     1
 -3.3837922455947481E-02 a       557     0    38     1     2
 -1.1358610892177292E-02 a       558     0    38     1     3
  2.3365128056992215E-03 a       559     0    38     1     4
  5.9981131206128552E-02 a       560     0    38     1     5
 -6.7298645300510149E-02 a       561     0    38     1     6
 -1.6972656975441324E-02 a       562     0    38     1     7
 -8.4268924093139380E-02 a       563     0    38     1     8
  1.2462938577565995E-01 a       564     0    38     1     9
  1.0520534141064151E-01 a       565     0    38     1    10
 -4.1956557840313227E-02 a       566     0    38     1    11
  6.7730539760868652E-02 a       567     0    38     1    12
  2.9916892896934506E-02 a       568     0    38     1    13
 -3.9024159009569327E-02 a       569     0    38     1    14
  1.1096736104154920E-01 a       570     0    38     1    15
  4.0448962265356075E-02 a       571     0    39     1     1
  2.1439183212263160E-01 a       572     0    39     1     2
 -1.5516963725968762E-04 a       573     0    39     1     3
 -7.3405991755078490E-02 a       574     0    39     1     4
  3.8638985718385171E-02 a       575     0    39     1     5
  2.1028623822156725E-01 a       576     0    39     1     6
 -4.3845348021025563E-02 a       577     0    39     1     7
  2.0619325929216717E-01 a       578     0    39     1     8
  8.5486134651607953E-03 a       579     0    39     1     9
  1.1399173433968263E-01 a       580     0    39     1    10
  7.6631458343871833E-02 a       581     0    39     1    11
  4.5026579186890583E-02 a       582     0    39     1    12
  9.7076847829230872E-02 a       583     0    39     1    13
 -7.5279711312544656E-02 a       584     0    39     1    14
  1.1558794323145238E-01 a       585     0    39     1    15
 -1.4729700139714396E-02 a       586     0    40     1     1
  6.1123028469277335E-02 a       587     0    40     1     2
  2.2908505999114703E-01 a       588     0    40     1     3
  9.6395786800210229E-02 a       589     0    40     1     4
 -8.1296862306604892E-02 a       590     0    40     1     5
  2.2682514310674529E-01 a       591     0    40     1     6
 -8.2376437286749732E-02 a       592     0    40     1     7
  1.1621019915500846E-01 a       593     0    40     1     8
  1.5079805775258293E-01 a       594     0    40     1     9
  5.6222798116132580E-02 a       595     0    40     1    10
  5.2808122545857379E-02 a       596     0    40     1    11
  9.8885514911127605E-03 a       597     0    40     1    12
 -6.8429559498141446E-02 a       598     0    40     1    13
 -4.3749489708128302E-02 a       599     0    40     1    14
  6.5966152525295599E-02 a       600     0    40     1    15
 -5.6117312638152818E-02 a       601     0    41     1     1
  2.7881115395465156E-01 a       602     0    41     1     2
 -8.2871634016455920E-02 a       603     0    41     1     3
 -1.4231880091023633E-01 a       604     0    41     1     4
  5.7086073429813200E-02 a       605     0    41     1     5
  1.3799110947094373E-01 a       606     0    41     1     6
 -9.5331668807943387E-02 a       607     0    41     1     7
 -1.8387866727637603E-01 a       608     0    41     1     8
  1.0795765821808247E-01 a       609     0    41     1     9
 -3.4789868086537931E-02 a       610     0    41     1    10
 -7.4324944729369555E-02 a       611     0    41     1    11
  1.6445813580481458E-01 a       612     0    41     1    12
  1.6472181293852045E-01 a       613     0    41     1    13
  2.2264725502967871E-02 a       614     0    41     1    14
  4.3668182333726005E-02 a       615     0    41     1    15
 -1.6377660798098453E-01 a       616     0    42     1     1
  3.4927125377860614E-02 a       617     0    42     1     2
  2.1482432249644325E-02 a       618     0    42     1     3
  1.2375601882627153E-01 a       619     0    42     1     4
 -1.2300906137507812E-01 a       620     0    42     1     5
  7.6955004041185824E-03 a       621     0    42     1     6
  1.4405786292675976E-01 a       622     0    42     1     7
  1.3031128577990059E-01 a       623     0    42     1     8
 -2.2503008172470615E-01 a       624     0    42     1     9
 -6.6484238242990545E-02 a       625     0    42     1    10
 -1.6291954706824802E-01 a       626     0    42     1    11
  1.9009146532770912E-01 a       627     0    42     1    12
  1.9511744974829029E-01 a       628     0    42     1    13
 -5.3549744761070495E-02 a       629     0    42     1    14
 -1.1073811418854486E-01 a       630     0    42     1    15
  8.0998586104404816E-02 a       631     0    43     1     1
 -1.9245558785826888E-01 a       632     0    43     1     2
 -1.6697714338631239E-01 a       633     0    43     1     3
  8.7345731187119482E-02 a       634     0    43     1     4
 -1.7301675774242847E-01 a       635     0    43     1     5
  7.6809486416073047E-02 a       636     0    43     1     6
  3.6050435356847432E-02 a       637     0    43     1     7
 -1.5039949109984255E-01 a       638     0    43     1     8
 -2.5081432676570786E-01 a       639     0    43     1     9
 -1.7518423683956567E-02 a       640     0    43     1    10
 -9.2893720991166523E-02 a       641     0    43     1    11
  3.9372952487461692E-02 a       642     0    43     1    12
  1.2357238406933826E-01 a       643     0    43     1    13
  1.1928773229828049E-01 a       644     0    43     1    14
 -3.7274267738977969E-02 a       645     0    43     1    15
  2.3736637450151699E-02 a       646     0    44     1     1
  2.6046406692204014E-02 a       647     0    44     1     2
 -1.9162255921597690E-01 a       648     0    44     1     3
  4.4634270673605939E-02 a       649     0    44     1     4
  1.5482406100538765E-02 a       650     0    44     1     5
  4.0046741074173393E-02 a       651     0    44     1     6
 -3.8836828197734645E-02 a       652     0    44     1     7
  3.7855758148990393E-02 a       653     0    44     1     8
  1.0971974114142352E-01 a       654     0    44     1     9
  4.0309638923719783E-02 a       655     0    44     1    10
  8.1301862003491446E-03 a       656     0    44     1    11
 -8.7730887669097313E-02 a       657     0    44     1    12
 -9.8287727439745565E-02 a       658     0    44     1    13
  1.7232779902816792E-01 a       659     0    44     1    14
  1.1867748009837505E-01 a       660     0    44     1    15
  5.2808519755621668E-02 a       661     0    45     1     1
 -5.9843660703068506E-02 a       662     0    45     1     2
 -1.1599255900674217E-01 a       663     0    45     1     3
  6.5520531567913973E-02 a       664     0    45     1     4
  2.1103516718413029E-01 a       665     0    45     1     5
 -1.6314470610621248E-01 a       666     0    45     1     6
 -9.8163650356468651E-02 a       667     0    45     1     7
  7.8608775909675098E-03 a       668     0    45     1     8
 -7.0156543482965017E-02 a       669     0    45     1     9
 -8.0439163649332901E-03 a       670     0    45     1    10
  1.5943651878010451E-01 a       671     0    45     1    11
 -1.0027668384064001E-01 a       672     0    45     1    12
 -8.3145962154052497E-02 a       673     0    45     1    13
  1.7282298839747939E-01 a       674     0    45     1    14
  3.8406312284324368E-02 a       675     0    45     1    15
  7.0287246236577158E-02 a       676     0    46     1     1
 -6.6617690283469949E-02 a       677     0    46     1     2
  2.1069506732700813E-01 a       678     0    46     1     3
 -1.6776724031100326E-01 a       679     0    46     1     4
  2.6743536004426394E-01 a       680     0    46     1     5
 -2.5016227706008187E-01 a       681     0    46     1     6
 -1.5977928076070694E-01 a       682     0    46     1     7
 -1.0217427230598833E-01 a       683     0    46     1     8
  2.9534135298451149E-02 a       684     0    46     1     9
  2.1063631447731955E-02 a       685     0    46     1    10
  1.9891226611213378E-01 a       686     0    46     1    11
 -3.8683161749517518E-02 a       687     0    46     1    12
  1.6474321043995373E-02 a       688     0    46     1    13
 -1.0857632169939717E-01 a       689     0    46     1    14
  3.4669685577458378E-02 a       690     0    46     1    15
 -3.5294803419851951E-02 a       691     0    47     1     1
 -5.8832177713426338E-02 a       692     0    47     1     2
  1.0581324152106043E-01 a       693     0    47     1     3
 -2.1684670785340171E-01 a       694     0    47     1     4
  1.7734315747258431E-01 a       695     0    47     1     5
 -1.1217954872814734E-01 a       696     0    47     1     6
 -1.9300567969480018E-01 a       697     0    47     1     7
 -1.8714583034387638E-01 a       698     0    47     1     8
  7.7448568893526665E-02 a       699     0    47     1     9
  6.8654676521214583E-02 a       700     0    47     1    10
 -5.5058443251501402E-02 a       701     0    47     1    11
 -6.0250695855339487E-02 a       702     0    47     1    12
  6.9707090287569426E-02 a       703     0    47     1    13
 -6.3742341760839566E-02 a       704     0    47     1    14
 -3.8654994321716825E-02 a       705     0    47     1    15
  2.0500000453345654E-01 a       706     0    48     1     1
  2.6515036480832521E-01 a       707     0    48     1     2
 -2.2893622302477487E-01 a       708     0    48     1     3
 -1.1640711491574360E-01 a       709     0    48     1     4
 -1.3540332309592584E-01 a       710     0    48     1     5
 -9.9961942641825174E-02 a       711     0    48     1     6
  5.8903680226800488E-02 a       712     0    48     1     7
 -6.2126886539246924E-02 a       713     0    48     1     8
  7.6046024308169147E-02 a       714     0    48     1     9
  1.2659936495463639E-01 a       715     0    48     1    10
 -1.1088503544060649E-01 a       716     0    48     1    11
 -7.6328593881480597E-02 a       717     0    48     1    12
 -5.0819493443076035E-02 a       718     0    48     1    13
 -4.0266247470307735E-02 a       719     0    48     1    14
  1.3915153812112957E-01 a       720     0    48     1    15
 -4.2370428231269200E-02 a       721     0    49     1     1
  1.4285487528649554E-01 a       722     0    49     1     2
  9.0041227791854278E-02 a       723     0    49     1     3
  1.6076974529657692E-01 a       724     0    49     1     4
 -1.9839572599331529E-01 a       725     0    49     1     5
  7.0338873069458741E-02 a       726     0    49     1     6
 -4.2381499048668198E-02 a       727     0    49     1     7
 -1.5732353487528206E-01 a       728     0    49     1     8
 -4.6741935786698947E-02 a       729     0    49     1     9
  2.5034299769967520E-02 a       730     0    49     1    10
  1.4744804303049430E-01 a       731     0    49     1    11
 -1.7888804528159982E-01 a       732     0    49     1    12
 -1.8995400725500047E-01 a       733     0    49     1    13
  2.4729149798661068E-01 a       734     0    49     1    14
  7.5240900279052780E-02 a       735     0    49     1    15
 -5.1839918879479446E-02 a       736     0    50     1     1
 -3.9908293521179562E-02 a       737     0    50     1     2
  5.2254978661677332E-02 a       738     0    50     1     3
  2.1565860931216735E-02 a       739     0    50     1     4
 -1.4816872287085026E-01 a       740     0    50     1     5
  6.0807875686543063E-02 a       741     0    50     1     6
 -1.0433525846211412E-01 a       742     0    50     1     7
 -7.6043576457036702E-02 a       743     0    50     1     8
  1.0934810130745469E-01 a       744     0    50     1     9
 -2.5495881872575978E-02 a       745     0    50     1    10
 -2.4327869373020554E-02 a       746     0    50     1    11
  2.3591069214252535E-02 a       747     0    50     1    12
 -3.9521151262757785E-02 a       748     0    50     1    13
 -1.7787932374963697E-01 a       749     0    50     1    14
 -1.3096385788068429E-01 a       750     0    50     1    15
 -1.9859895660450236E-01 a       751     0    51     1     1
 -3.1910561506334298E-02 a       752     0    51     1     2
 -2.0850380022621096E-01 a       753     0    51     1     3
  7.9191767089482792E-02 a       754     0    51     1     4
 -6.1468443797710541E-02 a       755     0    51     1     5
 -1.1646867282394363E-01 a       756     0    51     1     6
  1.9458788596472965E-01 a       757     0    51     1     7
  4.4281545443877728E-03 a       758     0    51     1     8
 -6.9048538330066883E-02 a       759     0    51     1     9
  5.7306909621517105E-02 a       760     0    51     1    10
  2.0029001471250746E-01 a       761     0    51     1    11
 -4.4380624887091512E-02 a       762     0    51     1    12
 -3.4933409482041822E-02 a       763     0    51     1    13
  1.8310413427518234E-02 a       764     0    51     1    14
  1.0417954067763606E-01 a       765     0    51     1    15
  1.9368878618179711E-01 a       766     0    52     1     1
  7.0716792468904874E-02 a       767     0    52     1     2
 -2.1347617695176246E-01 a       768     0    52     1     3
 -2.3301409187670749E-02 a       769     0    52     1     4
 -1.5964116078765858E-01 a       770     0    52     1     5
 -1.3392311851694114E-01 a       771     0    52     1     6
  8.7169421640638123E-02 a       772     0    52     1     7
  1.4723441677727628E-01 a       773     0    52     1     8
 -1.2073777017944386E-01 a       774     0    52     1     9
 -2.4228919501611390E-01 a       775     0    52     1    10
 -7.1615152389932962E-02 a       776     0    52     1    11
  1.9707271208978067E-01 a       777     0    52     1    12
  1.8476823606280154E-01 a       778     0    52     1    13
  9.4210690277356068E-02 a       779     0    52     1    14
 -1.0735048491865565E-01 a       780     0    52     1    15
  1.0202891559858221E-01 a       781     0    53     1     1
 -9.0108197778906940E-02 a       782     0    53     1     2
 -5.5204322583786138E-02 a       783     0    53     1     3
 -2.8344749301857278E-02 a       784     0    53     1     4
  8.5599056747752325E-02 a       785     0    53     1     5
  1.6438792316328421E-01 a       786     0    53     1     6
 -1.3891303068252542E-01 a       787     0    53     1     7
  2.2763597582280690E-01 a       788     0    53     1     8
  1.6445914446152612E-01 a       789     0    53     1     9
 -6.3251834709755039E-02 a       790     0    53     1    10
 -7.3022994614175621E-02 a       791     0    53     1    11
 -8.2536794355254198E-02 a       792     0    53     1    12
 -8.5954604901469181E-02 a       793     0    53     1    13
  1.3421994281014135E-01 a       794     0    53     1    14
  1.6100176170847302E-01 a       795     0    53     1    15
  1.5610454226045786E-01 a       796     0    54     1     1
  4.3674124474843624E-02 a       797     0    54     1     2
  2.7539622171605216E-01 a       798     0    54     1     3
  1.7724946905080718E-01 a       799     0    54     1     4
 -6.0411549395003573E-02 a       800     0    54     1     5
 -2.3264023636062275E-01 a       801     0    54     1     6
 -5.7093081219360048E-02 a       802     0    54     1     7
  6.9125492673823868E-02 a       803     0    54     1     8
 -6.9905560621526919E-02 a       804     0    54     1     9
  8.3020216083752721E-02 a       805     0    54     1    10
  1.8692252947898144E-01 a       806     0    54     1    11
 -2.3884605985941675E-02 a       807     0    54     1    12
 -1.0559256731450773E-02 a       808     0    54     1    13
 -1.7893846077762274E-02 a       809     0    54     1    14
 -2.8153681492571841E-02 a       810     0    54     1    15
  8.1154513277762796E-02 a       811     0    55     1     1
 -1.1708748190254406E-01 a       812     0    55     1     2
  6.3892738168574367E-02 a       813     0    55     1     3
  7.5708056134595636E-02 a       814     0    55     1     4
  2.8057609343629985E-03 a       815     0    55     1     5
  3.0751627751505976E-02 a       816     0    55     1     6
  2.4626370496709689E-02 a       817     0    55     1     7
  9.0137121053221095E-02 a       818     0    55     1     8
  1.0450862383495266E-01 a       819     0    55     1     9
 -1.1115856680659254E-01 a       820     0    55     1    10
 -5.0482280757345670E-02 a       821     0    55     1    11
  2.0862562117298267E-01 a       822     0    55     1    12
  1.0193486433937970E-01 a       823     0    55     1    13
  2.7025355180118799E-02 a       824     0    55     1    14
  5.6382946945258076E-02 a       825     0    55     1    15
 -6.0710191675466089E-03 a       826     0    56     1     1
  2.1276650603872967E-03 a       827     0    56     1     2
  1.5561125896163797E-01 a       828     0    56     1     3
 -9.2958872617578583E-02 a       829     0    56     1     4
 -1.9760611298306280E-01 a       830     0    56     1     5
  1.0166032430401600E-01 a       831     0    56     1     6
 -5.3798249918001279E-02 a       832     0    56     1     7
  2.6134831598165242E-01 a       833     0    56     1     8
 -4.8550815772693899E-02 a       834     0    56     1     9
 -8.8764794323031054E-02 a       835     0    56     1    10
  1.2741716222167726E-01 a       836     0    56     1    11
  1.6113339358096396E-01 a       837     0    56     1    12
  1.6816441346978755E-01 a       838     0    56     1    13
 -6.7447543763131451E-03 a       839     0    56     1    14
 -6.4642866931379869E-02 a       840     0    56     1    15
  1.0923647290084201E-01 a       841     0    57     1     1
  1.5417791258438282E-01 a       842     0    57     1     2
  7.4509129286247699E-02 a       843     0    57     1     3
  1.0190602574293410E-01 a       844     0    57     1     4
 -1.3983672544684184E-01 a       845     0    57     1     5
  1.4222683951732265E-01 a       846     0    57     1     6
 -5.2285778902758824E-03 a       847     0    57     1     7
  1.1097900554689911E-01 a       848     0    57     1     8
  5.8427789309234611E-02 a       849     0    57     1     9
 -2.1213770292537182E-01 a       850     0    57     1    10
  7.2734690082190731E-02 a       851     0    57     1    11
  1.6130642319159016E-01 a       852     0    57     1    12
  5.4254896794251890E-02 a       853     0    57     1    13
  9.3216799330869002E-02 a       854     0    57     1    14
 -9.0438993290773886E-02 a       855     0    57     1    15
 -3.4959633545357083E-02 a       856     0    58     1     1
  6.0056203808649657E-02 a       857     0    58     1     2
  2.5418210476618183E-02 a       858     0    58     1     3
 -1.9841672239293884E-02 a       859     0    58     1     4
 -2.8267219818078951E-02 a       860     0    58     1     5
  1.4517386938371804E-01 a       861     0    58     1     6
  1.0040547819177359E-01 a       862     0    58     1     7
 -6.3809751598470937E-02 a       863     0    58     1     8
 -5.0681845268582056E-02 a       864     0    58     1     9
 -1.4726269082118898E-01 a       865     0    58     1    10
 -1.0111792382977558E-01 a       866     0    58     1    11
  2.9313326783505504E-02 a       867     0    58     1    12
  6.0181697638226749E-02 a       868     0    58     1    13
  1.0230971940447932E-01 a       869     0    58     1    14
 -1.2358764921325149E-01 a       870     0    58     1    15
 -1.4727160642065887E-01 a       871     0    59     1     1
  1.4497593540437720E-02 a       872     0    59     1     2
  1.6848355820175343E-01 a       873     0    59     1     3
 -2.3496597199656254E-02 a       874     0    59     1     4
 -1.7317700769650290E-01 a       875     0    59     1     5
  1.3150210685189917E-01 a       876     0    59     1     6
  1.1111367321765322E-01 a       877     0    59     1     7
 -1.4780477975055326E-01 a       878     0    59     1     8
  3.7256658878118798E-02 a       879     0    59     1     9
 -6.9126180223347503E-02 a       880     0    59     1    10
 -2.1997026599528033E-01 a       881     0    59     1    11
  8.7918269408834099E-02 a       882     0    59     1    12
  6.0034357641896567E-02 a       883     0    59     1    13
 -2.2313873053229949E-01 a       884     0    59     1    14
 -2.3193223909256150E-01 a       885     0    59     1    15
  2.9238555524823590E-02 a       886     0    60     1     1
  1.3017352747345881E-01 a       887     0    60     1     2
 -2.1057693724498583E-01 a       888     0    60     1     3
  7.9023394531952396E-02 a       889     0    60     1     4
  9.6533203432790926E-02 a       890     0    60     1     5
  2.2546583678536722E-02 a       891     0    60     1     6
  8.8023223487553121E-02 a       892     0    60     1     7
  1.5112358472883539E-01 a       893     0    60     1     8
  1.4887667808768815E-01 a       894     0    60     1     9
 -1.1056553967473343E-01 a       895     0    60     1    10
 -1.7471255173834363E-01 a       896     0    60     1    11
  4.8081332335547696E-04 a       897     0    60     1    12
 -7.3806231220985605E-02 a       898     0    60     1    13
  1.1220640197299972E-01 a       899     0    60     1    14
 -4.4097989006233504E-02 a       900     0    60     1    15
  7.8336158364012198E-02 a       901     0    61     1     1
  1.5574269658310314E-01 a       902     0    61     1     2
  9.9490210957752803E-02 a       903     0    61     1     3
 -1.5602649818501430E-01 a       904     0    61     1     4
  1.2974976998884052E-01 a       905     0    61     1     5
 -1.6703783644887699E-01 a       906     0    61     1     6
 -1.5278550281504794E-01 a       907     0    61     1     7
  1.9400757495403137E-01 a       908     0    61     1     8
  1.4140685451025668E-02 a       909     0    61     1     9
 -9.3363463364632998E-02 a       910     0    61     1    10
  2.9671659170399206E-01 a       911     0    61     1    11
 -5.2509361004135342E-02 a       912     0    61     1    12
 -2.9470538330639364E-02 a       913     0    61     1    13
 -2.2762128842807972E-01 a       914     0    61     1    14
 -1.1492777505359998E-01 a       915     0    61     1    15
 -3.4078193225398422E-02 a       916     0    62     1     1
  4.5190098960059967E-02 a       917     0    62     1     2
  1.1671401991866508E-01 a       918     0    62     1     3
  1.4639776966195311E-01 a       919     0    62     1     4
 -1.9099908150964168E-01 a       920     0    62     1     5
  1.4475671986402244E-01 a       921     0    62     1     6
  2.3889776565481907E-01 a       922     0    62     1     7
 -6.9150322226498667E-02 a       923     0    62     1     8
 -4.4181003882838042E-02 a       924     0    62     1     9
 -2.2172640875553415E-02 a       925     0    62     1    10
 -6.8905154082583922E-02 a       926     0    62     1    11
  1.3835596085599247E-01 a       927     0    62     1    12
 -2.0116637254935042E-03 a       928     0    62     1    13
 -4.6754422222081718E-02 a       929     0    62     1    14
  5.3946296444355640E-02 a       930     0    62     1    15
  1.5455825921664895E-01 a       931     0    63     1     1
  1.0041859969162556E-01 a       932     0    63     1     2
 -2.2497530556322601E-02 a       933     0    63     1     3
  1.8688889665692085E-01 a       934     0    63     1     4
  2.2102511774971523E-01 a       935     0    63     1     5
  3.2572439997897396E-01 a       936     0    63     1     6
  2.5167752396920384E-01 a       937     0    63     1     7
  9.4747013179946660E-02 a       938     0    63     1     8
 -8.5407820190940037E-02 a       939     0    63     1     9
 -2.2888444539702693E-01 a       940     0    63     1    10
 -9.8915280974473760E-02 a       941     0    63     1    11
  7.4167873704622828E-02 a       942     0    63     1    12
  8.0910165280172724E-02 a       943     0    63     1    13
  1.4417017669727852E-01 a       944     0    63     1    14
 -2.2004968972284975E-01 a       945     0    63     1    15
  8.6441213055870755E-02 a       946     0    64     1     1
  2.0296513700841370E-01 a       947     0    64     1     2
  1.5243402350903623E-01 a       948     0    64     1     3
 -8.9145553883576006E-02 a       949     0    64     1     4
 -1.1517331925132729E-01 a       950     0    64     1     5
  2.5866854775658371E-01 a       951     0    64     1     6
  9.5087762634472120E-02 a       952     0    64     1     7
 -2.2732707900135166E-01 a       953     0    64     1     8
 -8.9115084016105992E-03 a       954     0    64     1     9
 -1.0020443972919360E-01 a       955     0    64     1    10
 -1.1049430670547623E-01 a       956     0    64     1    11
  9.9966663233228267E-02 a       957     0    64     1    12
  1.2304245699709630E-01 a       958     0    64     1    13
  2.0837964823334248E-02 a       959     0    64     1    14
 -2.8397962989658278E-02 a       960     0    64     1    15
  7.9951837089430169E-02 a       961     0    65     1     1
  1.4035137887429197E-01 a       962     0    65     1     2
  2.2570556681302388E-02 a       963     0    65     1     3
  6.4704475997867439E-02 a       964     0    65     1     4
 -1.0273042612538076E-01 a       965     0    65     1     5
  1.0648219039537853E-01 a       966     0    65     1     6
 -1.1862647408977246E-01 a       967     0    65     1     7
  3.8890039630266042E-02 a       968     0    65     1     8
 -2.5415431895603847E-02 a       969     0    65     1     9
  1.1456638574862946E-01 a       970     0    65     1    10
  4.8687656919853710E-02 a       971     0    65     1    11
 -1.9071307160993817E-01 a       972     0    65     1    12
 -1.2455052701612361E-01 a       973     0    65     1    13
  4.0005489604690900E-02 a       974     0    65     1    14
  3.8843743030461578E-02 a       975     0    65     1    15
  2.0010410148765798E-01 a       976     0    66     1     1
  5.0456047899789420E-02 a       977     0    66     1     2
 -1.7347358715274813E-01 a       978     0    66     1     3
  3.4358375104817991E-02 a       979     0    66     1     4
  1.3228212367215356E-01 a       980     0    66     1     5
  6.0462249397462427E-02 a       981     0    66     1     6
  1.5091216073085065E-01 a       982     0    66     1     7
 -2.6315720331072930E-02 a       983     0    66     1     8
 -1.2230189917670843E-01 a       984     0    66     1     9
  2.7330595328995868E-02 a       985     0    66     1    10
  5.7433674880189411E-02 a       986     0    66     1    11
 -2.1056033375095901E-02 a       987     0    66     1    12
  2.3958797633222065E-04 a       988     0    66     1    13
 -6.8799314119960681E-03 a       989     0    66     1    14
 -5.4563729871804391E-02 a       990     0    66     1    15
 -1.0071525869154414E-01 a       991     0    67     1     1
 -1.3359483168097044E-01 a       992     0    67     1     2
  1.3208526584258149E-02 a       993     0    67     1     3
  1.4224953279024052E-01 a       994     0    67     1     4
 -1.7721056432001095E-01 a       995     0    67     1     5
 -1.0697314737131597E-01 a       996     0    67     1     6
 -1.5850024397768636E-01 a       997     0    67     1     7
 -1.5909671440527731E-01 a       998     0    67     1     8
 -2.3375364875855377E-02 a       999     0    67     1     9
 -7.1947645651126338E-02 a      1000     0    67     1    10
 -1.8119932335853954E-02 a      1001     0    67     1    11
 -5.0783715423698049E-02 a      1002     0    67     1    12
 -8.0640308643920397E-02 a      1003     0    67     1    13
  6.5867301216199020E-02 a      1004     0    67     1    14
 -1.3334882959827490E-01 a      1005     0    67     1    15
 -3.0212751685718766E-02 a      1006     0    68     1     1
 -2.7923386374732389E-02 a      1007     0    68     1     2
 -9.7279189789157866E-02 a      1008     0    68     1     3
  1.8658319155810028E-02 a      1009     0    68     1     4
 -9.6412788980002065E-02 a      1010     0    68     1     5
  6.0422155068219720E-02 a      1011     0    68     1     6
  8.2795951579236013E-02 a      1012     0    68     1     7
  9.1273648554195966E-02 a      1013     0    68     1     8
 -7.8778271227040800E-02 a      1014     0    68     1     9
 -1.1106736370299075E-01 a      1015     0    68     1    10
 -3.2776097593317725E-02 a      1016     0    68     1    11
 -2.2054915752827468E-02 a      1017     0    68     1    12
 -3.3871144078234214E-03 a      1018     0    68     1    13
  1.2700862018261916E-01 a      1019     0    68     1    14
 -4.2344085315295744E-02 a      1020     0    68     1    15
  2.6431381324269204E-01 a      1021     0    69     1     1
 -2.2217210745427540E-01 a      1022     0    69     1     2
 -1.4258580180869562E-01 a      1023     0    69     1     3
  1.0419309002790436E-01 a      1024     0    69     1     4
 -4.1006825690573609E-02 a      1025     0    69     1     5
 -1.3253024379232040E-02 a      1026     0    69     1     6
  1.5351667571924675E-02 a      1027     0    69     1     7
  6.7122235602004254E-02 a      1028     0    69     1     8
  1.3554922298970162E-01 a      1029     0    69     1     9
  6.2697722629413241E-02 a      1030     0    69     1    10
 -8.8363945832781073E-03 a      1031     0    69     1    11
  7.2580256278915858E-02 a      1032     0    69     1    12
  1.8102568254517330E-02 a      1033     0    69     1    13
  1.3945924023363077E-01 a      1034     0    69     1    14
  1.8709289869342877E-01 a      1035     0    69     1    15
 -1.2516829390998166E-01 a      1036     0    70     1     1
  2.4742436451804777E-02 a      1037     0    70     1     2
 -2.5840177834342538E-02 a      1038     0    70     1     3
  6.5246969994274470E-02 a      1039     0    70     1     4
 -1.3059009228006788E-01 a      1040     0    70     1     5
  9.5453013388790114E-02 a      1041     0    70     1     6
  1.2899985645452353E-01 a      1042     0    70     1     7
 -4.5642900390506287E-02 a      1043     0    70     1     8
 -2.8577868609949841E-01 a      1044     0    70     1     9
 -1.5790854225067048E-02 a      1045     0    70     1    10
  3.7258492192041068E-02 a      1046     0    70     1    11
 -1.1037615389842418E-02 a      1047     0    70     1    12
  5.5380699232412463E-02 a      1048     0    70     1    13
 -1.1624695461393683E-02 a      1049     0    70     1    14
 -2.2240076725953065E-01 a      1050     0    70     1    15
 -3.9565673957347343E-02 a      1051     0    71     1     1
 -6.5977295751386042E-02 a      1052     0    71     1     2
  1.1031021034067365E-01 a      1053     0    71     1     3
 -1.6651902464879154E-01 a      1054     0    71     1     4
 -8.5943875039214565E-02 a      1055     0    71     1     5
  2.4623303899339768E-01 a      1056     0    71     1     6
  3.4867310857327055E-02 a      1057     0    71     1     7
 -1.3228150729987120E-02 a      1058     0    71     1     8
  5.9790684679988722E-02 a      1059     0    71     1     9
 -6.6761308932595312E-02 a      1060     0    71     1    10
 -7.6946069350999471E-02 a      1061     0    71     1    11
  1.3480454906298367E-01 a      1062     0    71     1    12
  1.2935273319251672E-01 a      1063     0    71     1    13
 -5.7974101380702820E-03 a      1064     0    71     1    14
  7.4125404240553888E-02 a      1065     0    71     1    15
 -1.6413583170923127E-01 a      1066     0    72     1     1
  4.2843819017422895E-02 a      1067     0    72     1     2
 -7.0562764732578637E-02 a      1068     0    72     1     3
 -1.0672509077476536E-01 a      1069     0    72     1     4
 -1.7867369012888898E-01 a      1070     0    72     1     5
  1.3641386055729171E-01 a      1071     0    72     1     6
  1.1075603002196234E-01 a      1072     0    72     1     7
  1.2079098273465488E-01 a      1073     0    72     1     8
 -1.1674572004943409E-01 a      1074     0    72     1     9
 -7.8019732007584747E-02 a      1075     0    72     1    10
 -1.5887942246184994E-01 a      1076     0    72     1    11
  1.3545330496121250E-01 a      1077     0    72     1    12
  1.8728484250515179E-01 a      1078     0    72     1    13
  6.9918537273084003E-02 a      1079     0    72     1    14
 -3.8657450413728305E-02 a      1080     0    72     1    15
 -1.5055766270246757E-01 a      1081     0    73     1     1
  8.7227115237636918E-02 a      1082     0    73     1     2
 -6.2451669556394659E-03 a      1083     0    73     1     3
  7.2063965268792329E-02 a      1084     0    73     1     4
  7.3066041413236901E-02 a      1085     0    73     1     5
 -2.1991248212314709E-02 a      1086     0    73     1     6
  4.0065074901025129E-02 a      1087     0    73     1     7
 -1.0944669908760427E-01 a      1088     0    73     1     8
  7.0409205771474739E-03 a      1089     0    73     1     9
  1.2696045043298021E-01 a      1090     0    73     1    10
 -1.4250627889362019E-01 a      1091     0    73     1    11
  4.1589584607244837E-02 a      1092     0    73     1    12
  6.0731053801503605E-03 a      1093     0    73     1    13
 -2.9928651890199658E-02 a      1094     0    73     1    14
  7.5406635993762211E-02 a      1095     0    73     1    15
 -1.5251699146233516E-01 a      1096     0    74     1     1
 -2.3335888106284178E-01 a      1097     0    74     1     2
  3.0991109906210214E-02 a      1098     0    74     1     3
  1.0367044167983097E-01 a      1099     0    74     1     4
 -1.3841793728289933E-01 a      1100     0    74     1     5
  7.9134724233563838E-02 a      1101     0    74     1     6
 -1.4480404846790298E-02 a      1102     0    74     1     7
 -2.1758644571855595E-01 a      1103     0    74     1     8
  1.1778945739290250E-01 a      1104     0    74     1     9
  2.6258120650603563E-02 a      1105     0    74     1    10
 -1.3667719862794717E-01 a      1106     0    74     1    11
 -1.0771823900992319E-01 a      1107     0    74     1    12
 -1.6529703110543686E-01 a      1108     0    74     1    13
  1.4673006148633172E-01 a      1109     0    74     1    14
  7.5925375051170106E-03 a      1110     0    74     1    15
  1.0108711316313108E-01 a      1111     0    75     1     1
  2.0128336295446764E-02 a      1112     0    75     1     2
 -1.2029560300670937E-01 a      1113     0    75     1     3
 -2.5880700362516390E-01 a      1114     0    75     1     4
 -5.9735047384093791E-02 a      1115     0    75     1     5
 -3.6112004342802699E-02 a      1116     0    75     1     6
 -1.1343848395307515E-01 a      1117     0    75     1     7
 -1.4430321005356056E-01 a      1118     0    75     1     8
  1.2396114187619996E-01 a      1119     0    75     1     9
  2.7016292884660995E-02 a      1120     0    75     1    10
  5.6379395934768095E-02 a      1121     0    75     1    11
 -2.1112451166701690E-01 a      1122     0    75     1    12
 -1.3310858639668594E-01 a      1123     0    75     1    13
 -1.4903411015458221E-01 a      1124     0    75     1    14
  4.5946251481920948E-02 a      1125     0    75     1    15
  4.9201236425347294E-02 a      1126     0    76     1     1
 -3.0399552756830356E-01 a      1127     0    76     1     2
  9.2671062035717539E-02 a      1128     0    76     1     3
  2.0871975199362625E-01 a      1129     0    76     1     4
 -1.2310649261096772E-01 a      1130     0    76     1     5
 -4.7681607609249360E-02 a      1131     0    76     1     6
  1.3888504800154218E-02 a      1132     0    76     1     7
  3.7540430935328613E-02 a      1133     0    76     1     8
 -6.9966781996197241E-02 a      1134     0    76     1     9
 -2.1949287843055482E-01 a      1135     0    76     1    10
 -7.9117792669772702E-02 a      1136     0    76     1    11
  7.0153864862152263E-02 a      1137     0    76     1    12
  2.2599542128747185E-03 a      1138     0    76     1    13
  1.9325990712277707E-01 a      1139     0    76     1    14
 -1.0474794782478519E-01 a      1140     0    76     1    15
 -1.0867945351299621E-01 a      1141     0    77     1     1
 -1.2112898045654252E-01 a      1142     0    77     1     2
  7.8930338025543306E-02 a      1143     0    77     1     3
  8.0377369189332110E-02 a      1144     0    77     1     4
 -1.6944189126290693E-01 a      1145     0    77     1     5
 -4.6209660782488816E-02 a      1146     0    77     1     6
 -8.2617604685859436E-02 a      1147     0    77     1     7
  1.2466198264243875E-01 a      1148     0    77     1     8
 -1.3996463588621030E-01 a      1149     0    77     1     9
  9.7151802177086397E-02 a      1150     0    77     1    10
  1.2136266535722164E-01 a      1151     0    77     1    11
 -1.3150189894087516E-01 a      1152     0    77     1    12
 -1.0776805178610153E-01 a      1153     0    77     1    13
 -1.2735885712050443E-01 a      1154     0    77     1    14
 -4.5885585493440156E-02 a      1155     0    77     1    15
  9.5816850596179958E-03 a      1156     0    78     1     1
 -5.4317874265817072E-02 a      1157     0    78     1     2
  1.3504589598142247E-01 a      1158     0    78     1     3
  2.0187563135045761E-01 a      1159     0    78     1     4
  1.1532035886074590E-02 a      1160     0    78     1     5
 -1.4530614662181274E-01 a      1161     0    78     1     6
 -5.3284643219153903E-02 a      1162     0    78     1     7
  1.0541141204460749E-01 a      1163     0    78     1     8
  1.0284838619410386E-01 a      1164     0    78     1     9
  1.3207247074813966E-01 a      1165     0    78     1    10
 -1.7700746707586860E-02 a      1166     0    78     1    11
  1.0055018213156093E-01 a      1167     0    78     1    12
 -4.7031434666759062E-02 a      1168     0    78     1    13
 -1.2032006702997002E-01 a      1169     0    78     1    14
  1.7004257347738067E-01 a      1170     0    78     1    15
  1.3574627041227141E-01 a      1171     0    79     1     1
  1.6610566368280882E-01 a      1172     0    79     1     2
 -1.4452369590704578E-01 a      1173     0    79     1     3
  2.8737133353626434E-03 a      1174     0    79     1     4
  2.8281117649565768E-01 a      1175     0    79     1     5
  8.5282062920379459E-02 a      1176     0    79     1     6
  9.7746475659509169E-02 a      1177     0    79     1     7
 -1.1729610624705110E-02 a      1178     0    79     1     8
  4.2037717785919367E-02 a      1179     0    79     1     9
  9.2116717028068673E-02 a      1180     0    79     1    10
 -4.1257589166827036E-02 a      1181     0    79     1    11
  1.5849552262253272E-01 a      1182     0    79     1    12
  1.3818190402658728E-01 a      1183     0    79     1    13
 -4.1993730112326433E-02 a      1184     0    79     1    14
  2.3506444567406703E-02 a      1185     0    79     1    15
  5.9958343596816996E-02 a      1186     0    80     1     1
 -2.2198872826791657E-01 a      1187     0    80     1     2
  2.7258044981948970E-01 a      1188     0    80     1     3
 -1.6395077125692673E-01 a      1189     0    80     1     4
  9.1268437901350738E-02 a      1190     0    80     1     5
 -2.2003386648951309E-01 a      1191     0    80     1     6
  3.4958871089298918E-02 a      1192     0    80     1     7
 -4.4437061224701646E-03 a      1193     0    80     1     8
 -2.2538913327647306E-01 a      1194     0    80     1     9
 -1.6363306499988628E-01 a      1195     0    80     1    10
  1.9984981660102620E-03 a      1196     0    80     1    11
 -1.2495493769844836E-01 a      1197     0    80     1    12
 -1.8421052095750522E-02 a      1198     0    80     1    13
  1.8530790818238771E-01 a      1199     0    80     1    14
  4.7689023975830615E-02 a      1200     0    80     1    15
  2.3839766459406289E-01 a      1201     0    81     1     1
 -1.7291248559682859E-01 a      1202     0    81     1     2
 -1.2536860092597102E-01 a      1203     0    81     1     3
  1.4013220484648162E-01 a      1204     0    81     1     4
 -2.1478266186782738E-01 a      1205     0    81     1     5
  5.9816941122378925E-02 a      1206     0    81     1     6
  7.7702109225118360E-02 a      1207     0    81     1     7
  4.1061618926663733E-02 a      1208     0    81     1     8
 -5.6555916753255740E-02 a      1209     0    81     1     9
 -8.1688019999559769E-02 a      1210     0    81     1    10
 -2.2937362816242901E-01 a      1211     0    81     1    11
 -6.2446430197038664E-03 a      1212     0    81     1    12
  2.1180478502321576E-02 a      1213     0    81     1    13
  2.5605404609929799E-01 a      1214     0    81     1    14
  1.7992965128723190E-01 a      1215     0    81     1    15
 -7.8334457557653392E-02 a      1216     0    82     1     1
  1.0710626436045775E-01 a      1217     0    82     1     2
 -2.2757140001990285E-02 a      1218     0    82     1     3
 -4.2119200874197335E-02 a      1219     0    82     1     4
  9.5607943546598032E-02 a      1220     0    82     1     5
 -1.3030820439593141E-01 a      1221     0    82     1     6
  5.5215488725268047E-02 a      1222     0    82     1     7
 -1.6730059653520504E-02 a      1223     0    82     1     8
 -1.2045437902484514E-01 a      1224     0    82     1     9
 -4.5815691922065853E-02 a      1225     0    82     1    10
  7.8679469914880711E-03 a      1226     0    82     1    11
 -5.9940101309404747E-02 a      1227     0    82     1    12
 -1.2972768291122704E-03 a      1228     0    82     1    13
  1.2980919502325441E-01 a      1229     0    82     1    14
  4.9152366610130345E-02 a      1230     0    82     1    15
  2.6050957618353709E-01 a      1231     0    83     1     1
 -2.9011101258238640E-02 a      1232     0    83     1     2
 -2.2357769558030632E-01 a      1233     0    83     1     3
  1.8673261566572458E-01 a      1234     0    83     1     4
  1.7877657756091811E-01 a      1235     0    83     1     5
  1.1701073602701606E-01 a      1236     0    83     1     6
  5.0793295173007146E-02 a      1237     0    83     1     7
  1.7400150845419357E-01 a      1238     0    83     1     8
 -1.2046994196689124E-01 a      1239     0    83     1     9
 -5.6172325907709070E-02 a      1240     0    83     1    10
 -1.5887215049406078E-01 a      1241     0    83     1    11
  1.2755868960803038E-01 a      1242     0    83     1    12
  1.4827422943285698E-01 a      1243     0    83     1    13
 -8.9540232855256627E-02 a      1244     0    83     1    14
 -9.2589205190027363E-02 a      1245     0    83     1    15
 -5.8936020002795042E-01 b      1246     1     1
 -6.8233196128915896E-01 b      1247     1     2
  1.1863231396796803E+00 b      1248     1     3
 -3.3727232134034063E-01 b      1249     1     4
  1.0492551151714689E+00 b      1250     1     5
 -8.3569590453465226E-01 b      1251     1     6
  9.3216768323992749E-01 b      1252     1     7
 -6.2700093087252129E-01 b      1253     1     8
 -4.1803837050946868E-01 b      1254     1     9
  1.3945557417576939E-02 b      1255     1    10
  5.6439021151175095E-01 b      1256     1    11
  1.2504709818682613E-01 b      1257     1    12
  2.6286152498563906E-02 b      1258     1    13
  5.8711474850057954E-01 b      1259     1    14
 -1.8992018116114354E-01 b      1260     1    15
 -5.1940174071757406E-01 a      1261     1     1     2     1
  2.5581274889463063E-01 a      1262     1     1     2     2
 -5.7058645278941689E-01 a      1263     1     1     2     3
 -2.8291798200567547E-01 a      1264     1     1     2     4
  4.2656896564360797E-01 a      1265     1     1     2     5
  2.0962286696069229E-01 a      1266     1     1     2     6
  4.2471184612606955E-01 a      1267     1     1     2     7
 -3.3879458150387509E-01 a      1268     1     1     2     8
  5.3937575482409228E-01 a      1269     1     1     2     9
 -2.7353221939608124E-01 a      1270     1     1     2    10
  1.2886850723579851E-01 a      1271     1     1     2    11
  2.8673637930366924E-01 a      1272     1     1     2    12
  5.1311336762823390E-01 a      1273     1     1     2    13
  7.7030088245507533E-01 a      1274     1     1     2    14
  4.4505794592632519E-01 a      1275     1     1     2    15
  5.7632383018889211E-01 a      1276     1     2     2     1
 -3.2362124760144684E-01 a      1277     1     2     2     2
  7.2239600216545782E-02 a      1278     1     2     2     3
 -3.6840987352380467E-01 a      1279     1     2     2     4
 -5.6131426430204279E-01 a      1280     1     2     2     5
  3.0581367574574253E-01 a      1281     1     2     2     6
  5.9347786590658813E-01 a      1282     1     2     2     7
 -4.8404779332690717E-01 a      1283     1     2     2     8
  3.6388401632125877E-01 a      1284     1     2     2     9
  6.8625005718643095E-01 a      1285     1     2     2    10
 -1.7733116065492069E-01 a      1286     1     2     2    11
  4.5606735379156033E-01 a      1287     1     2     2    12
  1.6124368243427217E-01 a      1288     1     2     2    13
  1.4072951438197329E-01 a      1289     1     2     2    14
 -4.0189679985476379E-01 a      1290     1     2     2    15
 -6.0196345504951965E-01 a      1291     1     3     2     1
 -6.5413330116411328E-01 a      1292     1     3     2     2
  5.9620633721576066E-01 a      1293     1     3     2     3
 -2.9151293296106806E-01 a      1294     1     3     2     4
  1.7239314251184026E-01 a      1295     1     3     2     5
  2.6408384006575136E-01 a      1296     1     3     2     6
  6.4603254984552505E-01 a      1297     1     3     2     7
  6.8376136501401219E-01 a      1298     1     3     2     8
 -2.3799296536172637E-01 a      1299     1     3     2     9
  1.6317661051866686E-01 a      1300     1     3     2    10
  5.2617545193641375E-02 a      1301     1     3     2    11
  4.7165109227149310E-01 a      1302     1     3     2    12
  4.8336796922153785E-01 a      1303     1     3     2    13
 -4.5223938643061634E-01 a      1304     1     3     2    14
  1.2412308025852112E-02 a      1305     1     3     2    15
 -3.5003937590862710E-01 a      1306     1     4     2     1
 -8.4586508924151815E-01 a      1307     1     4     2     2
  3.3246291483836432E-01 a      1308     1     4     2     3
  3.0469000032672538E-02 a      1309     1     4     2     4
  2.4643902994482970E-02 a      1310     1     4     2     5
 -2.4765443867753592E-01 a      1311     1     4     2     6
 -6.8493105844728630E-01 a      1312     1     4     2     7
 -8.0674602007053198E-01 a      1313     1     4     2     8
 -2.4934489071463994E-01 a      1314     1     4     2     9
 -2.7084219982648083E-01 a      1315     1     4     2    10
 -4.3007282671598118E-01 a      1316     1     4     2    11
 -6.6023028318123200E-01 a      1317     1     4     2    12
  6.5844430208839422E-01 a      1318     1     4     2    13
  4.0834693689920615E-01 a      1319     1     4     2    14
 -5.9314978318786538E-01 a      1320     1     4     2    15
  8.5352481996334842E-02 a      1321     1     5     2     1
 -2.8617979659446374E-01 a      1322     1     5     2     2
 -6.1436292037560861E-02 a      1323     1     5     2     3
  8.9702596823649006E-01 a      1324     1     5     2     4
 -1.8699320032390218E-01 a      1325     1     5     2     5
  1.0092898722179008E-01 a      1326     1     5     2     6
  5.3755331575303753E-02 a      1327     1     5     2     7
  3.0197889867618899E-01 a      1328     1     5     2     8
  1.1347590876030039E-01 a      1329     1     5     2     9
  6.7166390600709447E-01 a      1330     1     5     2    10
  1.0964589896596315E-01 a      1331     1     5     2    11
  6.5404700501374113E-01 a      1332     1     5     2    12
 -5.6148887352820157E-02 a      1333     1     5     2    13
  1.4363890405525767E-01 a      1334     1     5     2    14
 -3.9442949574341607E-01 a      1335     1     5     2    15
 -5.0821372449556379E-01 a      1336     1     6     2     1
 -4.2316125431994212E-01 a      1337     1     6     2     2
  3.4969959074308304E-01 a      1338     1     6     2     3
  7.1397630584343708E-01 a      1339     1     6     2     4
  6.9903181641588485E-02 a      1340     1     6     2     5
 -1.9891518989380574E-01 a      1341     1     6     2     6
 -4.5082661236160437E-01 a      1342     1     6     2     7
  3.7785920354910463E-01 a      1343     1     6     2     8
  9.3843904884613333E-02 a      1344     1     6     2     9
 -7.1883809861730308E-01 a      1345     1     6     2    10
  4.7345106897240119E-01 a      1346     1     6     2    11
 -2.9178973619600791E-02 a      1347     1     6     2    12
  8.5059150260910071E-02 a      1348     1     6     2    13
 -4.6543689893435103E-02 a      1349     1     6     2    14
 -6.0711508400356096E-01 a      1350     1     6     2    15
  4.5699668829977408E-01 a      1351     1     7     2     1
 -7.7278528579084360E-01 a      1352     1     7     2     2
  5.7232246718152391E-01 a      1353     1     7     2     3
 -3.7801015436586022E-01 a      1354     1     7     2     4
 -6.7630185491498007E-01 a      1355     1     7     2     5
  6.1552940389809763E-01 a      1356     1     7     2     6
  3.9684094421842919E-01 a      1357     1     7     2     7
 -4.8563029846984662E-01 a      1358     1     7     2     8
 -3.5693799530198322E-01 a      1359     1     7     2     9
  5.9489176512794673E-02 a      1360     1     7     2    10
 -2.4242425821024649E-01 a      1361     1     7     2    11
 -3.2811384845062319E-01 a      1362     1     7     2    12
  3.6575477298058667E-01 a      1363     1     7     2    13
 -3.6075769946276443E-01 a      1364     1     7     2    14
 -1.9007262331640579E-01 a      1365     1     7     2    15
  2.1977861833316101E-01 a      1366     1     8     2     1
  7.3260341726730349E-01 a      1367     1     8     2     2
 -2.9604079604449796E-01 a      1368     1     8     2     3
 -2.3707574970345674E-01 a      1369     1     8     2     4
 -6.4933094413925674E-01 a      1370     1     8     2     5
 -4.0576556728071772E-01 a      1371     1     8     2     6
 -3.3530534428579956E-01 a      1372     1     8     2     7
  6.1178976885469005E-01 a      1373     1     8     2     8
 -1.0257037353137483E-01 a      1374     1     8     2     9
  3.8751680953655754E-01 a      1375     1     8     2    10
 -3.9509390314526333E-01 a      1376     1     8     2    11
 -5.7435177315348429E-01 a      1377     1     8     2    12
  6.7281176749243576E-01 a      1378     1     8     2    13
 -3.2768624409734250E-02 a      1379     1     8     2    14
 -2.7210413010315665E-01 a      1380     1     8     2    15
  4.2961744557144071E-01 a      1381     1     9     2     1
  2.1548803367591685E-01 a      1382     1     9     2     2
 -1.9719425687897785E-01 a      1383     1     9     2     3
  2.3322907345139171E-01 a      1384     1     9     2     4
  5.4248740695718511E-01 a      1385     1     9     2     5
 -4.1643752051838089E-02 a      1386     1     9     2     6
 -5.2753368689552757E-02 a      1387     1     9     2     7
  1.9810758690470687E-01 a      1388     1     9     2     8
 -7.6943850485112697E-01 a      1389     1     9     2     9
 -1.1621576774985891E-02 a      1390     1     9     2    10
 -5.2111576795938930E-01 a      1391     1     9     2    11
  6.8641423137506027E-02 a      1392     1     9     2    12
 -3.5023352189998747E-01 a      1393     1     9     2    13
 -7.0733665300379789E-01 a      1394     1     9     2    14
 -5.5286613453350764E-01 a      1395     1     9     2    15
 -5.7820872394371281E-01 a      1396     1    10     2     1
 -4.1243728173984190E-01 a      1397     1    10     2     2
  5.2882900682044076E-01 a      1398     1    10     2     3
 -5.2439961752377362E-01 a      1399     1    10     2     4
  6.2386130673335616E-01 a      1400     1    10     2     5
 -5.4623902248969602E-01 a      1401     1    10     2     6
 -5.5615810678949062E-01 a      1402     1    10     2     7
  5.0281137269520693E-01 a      1403     1    10     2     8
 -5.6455735141465380E-01 a      1404     1    10     2     9
  6.4349518172939635E-01 a      1405     1    10     2    10
 -6.9372320888163752E-01 a      1406     1    10     2    11
 -3.5184413992775487E-01 a      1407     1    10     2    12
 -5.3882211937121172E-01 a      1408     1    10     2    13
  1.3632987445873207E-01 a      1409     1    10     2    14
  3.3227227979995361E-01 a      1410     1    10     2    15
  7.0950046674888620E-02 a      1411     1    11     2     1
 -5.8988385708392221E-01 a      1412     1    11     2     2
  6.0300580905249779E-01 a      1413     1    11     2     3
  5.8886664350002049E-01 a      1414     1    11     2     4
 -2.5777542010116350E-01 a      1415     1    11     2     5
 -5.4062954663408969E-01 a      1416     1    11     2     6
  2.1420658545316096E-01 a      1417     1    11     2     7
  1.8074594225695381E-01 a      1418     1    11     2     8
  8.1876173050721254E-04 a      1419     1    11     2     9
  3.0018390471188233E-01 a      1420     1    11     2    10
  1.2744859811540332E-01 a      1421     1    11     2    11
  7.7190518487134041E-01 a      1422     1    11     2    12
  1.4692255354023370E-01 a      1423     1    11     2    13
  3.3937635684505363E-01 a      1424     1    11     2    14
 -1.9955629044842552E-02 a      1425     1    11     2    15
 -4.0060491525619557E-01 a      1426     1    12     2     1
 -6.1830125273155019E-02 a      1427     1    12     2     2
 -5.3578521203819174E-01 a      1428     1    12     2     3
  2.0472952363192756E-02 a      1429     1    12     2     4
  5.4982511744574658E-01 a      1430     1    12     2     5
 -6.4606960939989622E-01 a      1431     1    12     2     6
 -6.5311975704759206E-01 a      1432     1    12     2     7
  2.6158634671943637E-01 a      1433     1    12     2     8
  3.7021408474153961E-01 a      1434     1    12     2     9
 -4.7602908660402238E-01 a      1435     1    12     2    10
  7.1663515499604724E-01 a      1436     1    12     2    11
  3.8119127055624769E-01 a      1437     1    12     2    12
  8.4353869348568117E-02 a      1438     1    12     2    13
 -6.4330010146034888E-01 a      1439     1    12     2    14
  5.1702615933783624E-01 a      1440     1    12     2    15
  6.3174861442915586E-01 a      1441     1    13     2     1
 -1.7412408737381349E-01 a      1442     1    13     2     2
  6.2887420805972216E-01 a      1443     1    13     2     3
  1.2901040011305101E-01 a      1444     1    13     2     4
  2.1149582705590020E-01 a      1445     1    13     2     5
  2.7738506022092835E-01 a      1446     1    13     2     6
  4.4426806543721964E-01 a      1447     1    13     2     7
 -2.3940923249831700E-01 a      1448     1    13     2     8
 -8.3354824190296251E-01 a      1449     1    13     2     9
  2.0756171292046474E-01 a      1450     1    13     2    10
  5.4595033026967443E-01 a      1451     1    13     2    11
 -5.3147847632901546E-01 a      1452     1    13     2    12
  5.7087301809733948E-01 a      1453     1    13     2    13
  1.9699116292876970E-01 a      1454     1    13     2    14
  2.3511983282352214E-01 a      1455     1    13     2    15
  2.4818942919038633E-01 a      1456     1    14     2     1
  3.8951344724003356E-01 a      1457     1    14     2     2
  2.3701844468565769E-01 a      1458     1    14     2     3
 -5.7150272376196420E-01 a      1459     1    14     2     4
  4.8615151544852497E-01 a      1460     1    14     2     5
 -3.2332716994685895E-01 a      1461     1    14     2     6
  1.2335373786357910E-01 a      1462     1    14     2     7
  1.3857311142437434E-01 a      1463     1    14     2     8
 -1.9594077853592171E-01 a      1464     1    14     2     9
  3.7405774592833285E-01 a      1465     1    14     2    10
  4.8967339451914615E-01 a      1466     1    14     2    11
  7.8511894439021690E-01 a      1467     1    14     2    12
  5.3861810524942622E-01 a      1468     1    14     2    13
  2.3096088559000849E-01 a      1469     1    14     2    14
 -4.8164833030780163E-01 a      1470     1    14     2    15
 -7.8094004314090817E-02 a      1471     1    15     2     1
 -3.1784158790349609E-01 a      1472     1    15     2     2
 -2.6786147018885503E-01 a      1473     1    15     2     3
  4.1953620410945164E-01 a      1474     1    15     2     4
  3.1856845466924932E-01 a      1475     1    15     2     5
  6.3131023782066220E-01 a      1476     1    15     2     6
  5.7587587081124825E-01 a      1477     1    15     2     7
 -6.1953103753773775E-01 a      1478     1    15     2     8
  6.2262623563442765E-01 a      1479     1    15     2     9
  6.1017392212881283E-01 a      1480     1    15     2    10
  6.9341491221376750E-01 a      1481     1    15     2    11
  3.3331063594415355E-01 a      1482     1    15     2    12
 -5.2240925826081064E-01 a      1483     1    15     2    13
 -7.4800914471958946E-01 a      1484     1    15     2    14
 -5.6755634762846752E-01 a      1485     1    15     2    15
  4.8716947810608029E-02 b      1486     2     1
  1.3214326957006410E+00 b      1487     2     2
  8.9372250899628336E-01 b      1488     2     3
  1.0955904256647617E+00 b      1489     2     4
  2.0255182978106354E-01 b      1490     2     5
  6.6734701122383300E-01 b      1491     2     6
 -5.4638798119416465E-01 b      1492     2     7
 -6.5577306752193454E-01 b      1493     2     8
  1.6359475526516221E+00 b      1494     2     9
 -1.0695393545311709E+00 b      1495     2    10
  1.6590959859242576E+00 b      1496     2    11
 -1.1750872281472911E-01 b      1497     2    12
  1.5543037169631542E+00 b      1498     2    13
 -1.5803598355047137E+00 b      1499     2    14
 -1.4602250135176102E+00 b      1500     2    15
 -1.9897388231072000E-01 a      1501     2     1     3     1
  9.3930542370270959E-02 a      1502     2     2     3     1
  8.9869459336723645E-01 a      1503     2     3     3     1
  9.2934238024604521E-01 a      1504     2     4     3     1
 -1.2850931296254089E-01 a      1505     2     5     3     1
 -6.6517583802222968E-01 a      1506     2     6     3     1
  6.9639548986191180E-01 a      1507     2     7     3     1
 -4.1869447271371157E-01 a      1508     2     8     3     1
 -1.1901166511479997E+00 a      1509     2     9     3     1
  4.8614969150500504E-03 a      1510     2    10     3     1
 -4.0974506711117226E-01 a      1511     2    11     3     1
 -1.1597304192329194E+00 a      1512     2    12     3     1
  1.8795595965586986E-01 a      1513     2    13     3     1
 -6.4478799626802985E-01 a      1514     2    14     3     1
 -2.4421232368016285E-01 a      1515     2    15     3     1
 -7.6292241295110766E-02 b      1516     3     1
