################################################################################
# Neural network connection values (weights and biases).
################################################################################
# Col  Name       Description
################################################################################
# 1    connection Neural network connection value.
# 2    t          Connection type (a = weight, b = bias).
# 3    index      Index enumerating weights.
# 4    l_s        Starting point layer (end point layer for biases).
# 5    n_s        Starting point neuron in starting layer (end point neuron for biases).
# 6    l_e        End point layer.
# 7    n_e        End point neuron in end layer.
################################################################################
#                      1 2         3     4     5     6     7
#             connection t     index   l_s   n_s   l_e   n_e
############################################################
 -9.4893015999529873E-02 a         1     0     1     1     1
  1.1455355081008455E-01 a         2     0     1     1     2
 -6.0477666430662588E-02 a         3     0     1     1     3
  2.1412250482910211E-01 a         4     0     1     1     4
 -2.7947389066115436E-02 a         5     0     1     1     5
  2.0559942593851163E-01 a         6     0     1     1     6
  2.6034302655519920E-01 a         7     0     1     1     7
 -2.9167819151347568E-01 a         8     0     1     1     8
 -2.0273318453233891E-01 a         9     0     1     1     9
  1.5352533815245595E-01 a        10     0     1     1    10
 -8.6281783393484787E-02 a        11     0     1     1    11
 -1.8218697733431002E-01 a        12     0     1     1    12
 -2.3794651558964830E-01 a        13     0     1     1    13
 -5.4113939522664731E-02 a        14     0     1     1    14
  2.7695289380442228E-01 a        15     0     1     1    15
 -5.4607620264981040E-02 a        16     0     2     1     1
 -1.3499487059773879E-01 a        17     0     2     1     2
 -6.6560428242344968E-02 a        18     0     2     1     3
 -6.6517516942955435E-02 a        19     0     2     1     4
  3.6022053289419764E-02 a        20     0     2     1     5
  2.8809261134830944E-01 a        21     0     2     1     6
  1.3400902811168200E-01 a        22     0     2     1     7
 -8.7284558008383813E-03 a        23     0     2     1     8
 -1.9372740046707340E-01 a        24     0     2     1     9
  8.6206007026336767E-02 a        25     0     2     1    10
 -1.6418681394699913E-01 a        26     0     2     1    11
 -1.4551525387035213E-01 a        27     0     2     1    12
  1.6822559283341570E-02 a        28     0     2     1    13
  4.5380485538010140E-03 a        29     0     2     1    14
 -3.4650084997563435E-01 a        30     0     2     1    15
 -3.0788271832806546E-05 a        31     0     3     1     1
  1.8226228979451331E-01 a        32     0     3     1     2
 -2.6914631716861359E-01 a        33     0     3     1     3
  1.2115614071072202E-01 a        34     0     3     1     4
  1.0103720623891230E-01 a        35     0     3     1     5
 -1.2203182475572996E-02 a        36     0     3     1     6
  9.2744592661773997E-02 a        37     0     3     1     7
  1.0422635665765093E-01 a        38     0     3     1     8
  3.4119690553145166E-01 a        39     0     3     1     9
  9.0252195068562219E-02 a        40     0     3     1    10
  2.3214394987708808E-01 a        41     0     3     1    11
  4.2695846251292094E-02 a        42     0     3     1    12
  5.2817065131803002E-02 a        43     0     3     1    13
 -1.6000390997489275E-01 a        44     0     3     1    14
  8.3246626035423987E-02 a        45     0     3     1    15
  3.1434742966801138E-01 a        46     0     4     1     1
 -1.5698267560870988E-01 a        47     0     4     1     2
  7.9490109208799384E-02 a        48     0     4     1     3
 -3.1119433022111096E-02 a        49     0     4     1     4
 -1.7285325848851238E-01 a        50     0     4     1     5
  1.6883291573643511E-01 a        51     0     4     1     6
 -3.7127618017973020E-02 a        52     0     4     1     7
 -2.2323421631944096E-01 a        53     0     4     1     8
 -9.8084613177723948E-02 a        54     0     4     1     9
  1.4470417385566731E-01 a        55     0     4     1    10
  1.1194060597860517E-01 a        56     0     4     1    11
  5.4575513415002400E-02 a        57     0     4     1    12
 -2.5160476013374761E-01 a        58     0     4     1    13
  2.8324714248177635E-01 a        59     0     4     1    14
  5.2123121093415235E-02 a        60     0     4     1    15
  1.5022402255368272E-01 a        61     0     5     1     1
 -9.4161799683863220E-02 a        62     0     5     1     2
 -2.8753362349135458E-01 a        63     0     5     1     3
 -8.0090001673630215E-02 a        64     0     5     1     4
 -1.9344534294845647E-01 a        65     0     5     1     5
  7.1692091980315981E-02 a        66     0     5     1     6
 -1.1149829939491199E-01 a        67     0     5     1     7
  1.9225567601644344E-01 a        68     0     5     1     8
  9.9500419265641682E-02 a        69     0     5     1     9
  5.4219406897332574E-02 a        70     0     5     1    10
  8.3952530588299171E-02 a        71     0     5     1    11
 -7.0639345808365187E-02 a        72     0     5     1    12
  1.0816293158881579E-01 a        73     0     5     1    13
 -2.0057504359635714E-01 a        74     0     5     1    14
 -1.9941135090566986E-01 a        75     0     5     1    15
  1.7476355835583246E-01 a        76     0     6     1     1
  1.1914235500900150E-02 a        77     0     6     1     2
  9.6681775613684726E-03 a        78     0     6     1     3
  9.9073662319680775E-02 a        79     0     6     1     4
 -1.7341900752093498E-01 a        80     0     6     1     5
  2.6423796439168080E-02 a        81     0     6     1     6
  1.1299559138198161E-01 a        82     0     6     1     7
 -4.8353448784778964E-02 a        83     0     6     1     8
 -2.1485536009688869E-01 a        84     0     6     1     9
 -9.8652322854534583E-02 a        85     0     6     1    10
  1.7320979909924367E-01 a        86     0     6     1    11
  2.8389946572462577E-02 a        87     0     6     1    12
 -1.3337618582510177E-01 a        88     0     6     1    13
  5.7469648750760056E-02 a        89     0     6     1    14
 -2.4048477244608157E-01 a        90     0     6     1    15
 -2.1516475875500435E-01 a        91     0     7     1     1
 -6.2206850319380972E-03 a        92     0     7     1     2
  1.7366029414324008E-01 a        93     0     7     1     3
  1.9717538106969110E-01 a        94     0     7     1     4
  2.5020183907735027E-01 a        95     0     7     1     5
 -1.7524908636432732E-01 a        96     0     7     1     6
 -1.7484014598013028E-01 a        97     0     7     1     7
  1.0888585485442812E-01 a        98     0     7     1     8
  2.6417424806171386E-01 a        99     0     7     1     9
  1.1070841175992438E-01 a       100     0     7     1    10
  1.0386270774013305E-01 a       101     0     7     1    11
  1.2408836597739345E-01 a       102     0     7     1    12
 -1.5099958143211878E-01 a       103     0     7     1    13
  1.7770816769880105E-01 a       104     0     7     1    14
 -6.8684494697721435E-02 a       105     0     7     1    15
  1.9881634445235705E-01 a       106     0     8     1     1
  2.2952543221074323E-01 a       107     0     8     1     2
 -1.5200471625161691E-01 a       108     0     8     1     3
 -1.6077304507953061E-01 a       109     0     8     1     4
 -7.5826597700740683E-02 a       110     0     8     1     5
  1.8903463300734011E-01 a       111     0     8     1     6
  1.8434856805289893E-01 a       112     0     8     1     7
 -2.7708981480355346E-02 a       113     0     8     1     8
  1.9536103766633400E-01 a       114     0     8     1     9
 -8.2162046306290759E-02 a       115     0     8     1    10
  1.3682907642160810E-01 a       116     0     8     1    11
 -2.8412554189262068E-01 a       117     0     8     1    12
 -6.7628805610289597E-02 a       118     0     8     1    13
 -2.9291997016347110E-01 a       119     0     8     1    14
 -1.7214729983462521E-01 a       120     0     8     1    15
 -1.6502910333341420E-01 a       121     0     9     1     1
  2.0921958315258329E-01 a       122     0     9     1     2
 -1.1146678844510927E-01 a       123     0     9     1     3
 -5.0146880305554975E-02 a       124     0     9     1     4
 -1.9505997908467360E-01 a       125     0     9     1     5
 -2.5060550786019259E-01 a       126     0     9     1     6
 -2.3461540602095193E-01 a       127     0     9     1     7
 -2.8027337030076980E-03 a       128     0     9     1     8
  6.6737184895761373E-02 a       129     0     9     1     9
 -7.5882113907712490E-02 a       130     0     9     1    10
  2.3028833762082759E-01 a       131     0     9     1    11
 -8.9492985817228921E-02 a       132     0     9     1    12
  1.8751563468953389E-01 a       133     0     9     1    13
  3.1529284908463330E-02 a       134     0     9     1    14
 -1.8877518585579067E-01 a       135     0     9     1    15
  9.6404914600489947E-03 a       136     0    10     1     1
 -1.4562251284167288E-01 a       137     0    10     1     2
 -9.4947012528250038E-02 a       138     0    10     1     3
 -2.8032641044904616E-01 a       139     0    10     1     4
 -2.8605789578638359E-03 a       140     0    10     1     5
  7.8176599556357505E-03 a       141     0    10     1     6
 -2.5701915292884969E-01 a       142     0    10     1     7
  5.0383689410815814E-02 a       143     0    10     1     8
  2.0488725248751635E-01 a       144     0    10     1     9
  1.2175270807681690E-01 a       145     0    10     1    10
  1.3747184055730371E-01 a       146     0    10     1    11
  2.4708640183627853E-01 a       147     0    10     1    12
  2.6771633305201498E-01 a       148     0    10     1    13
 -4.7415557631107795E-02 a       149     0    10     1    14
  5.1746394243653128E-03 a       150     0    10     1    15
  2.4481103876208857E-01 a       151     0    11     1     1
 -1.2856245062288049E-01 a       152     0    11     1     2
 -5.3855499665704113E-03 a       153     0    11     1     3
  1.1565945087271222E-01 a       154     0    11     1     4
  1.6776404516168641E-01 a       155     0    11     1     5
  1.4201478865902692E-01 a       156     0    11     1     6
 -1.3563131104321144E-01 a       157     0    11     1     7
  2.5693145169522308E-01 a       158     0    11     1     8
  2.3601845488187620E-01 a       159     0    11     1     9
  4.1706743325741168E-02 a       160     0    11     1    10
  1.0983971675669475E-01 a       161     0    11     1    11
 -1.5053481727115908E-01 a       162     0    11     1    12
  1.6811429973437675E-01 a       163     0    11     1    13
  1.6768441938296164E-01 a       164     0    11     1    14
 -8.3413620776121352E-03 a       165     0    11     1    15
 -1.9423743564909393E-01 a       166     0    12     1     1
 -4.4186636926729903E-02 a       167     0    12     1     2
 -8.6083472374918868E-02 a       168     0    12     1     3
 -1.4817718569096311E-01 a       169     0    12     1     4
  2.2095517231696563E-01 a       170     0    12     1     5
 -1.4726303796579668E-01 a       171     0    12     1     6
  4.8314527354584398E-03 a       172     0    12     1     7
  1.7357076703085761E-01 a       173     0    12     1     8
  3.9310363322528304E-02 a       174     0    12     1     9
 -5.7214992767767127E-02 a       175     0    12     1    10
  1.0351175065606577E-01 a       176     0    12     1    11
 -3.1874922046938542E-01 a       177     0    12     1    12
  8.1518064097591547E-02 a       178     0    12     1    13
 -1.9880634948685524E-01 a       179     0    12     1    14
  1.6115435137944198E-01 a       180     0    12     1    15
  5.3265882957544863E-02 a       181     0    13     1     1
  1.6346483710628928E-01 a       182     0    13     1     2
 -3.3934766067502037E-02 a       183     0    13     1     3
 -7.5813272883756444E-02 a       184     0    13     1     4
  1.1237046426687106E-01 a       185     0    13     1     5
 -1.8049147661232165E-01 a       186     0    13     1     6
 -9.2288193966537750E-03 a       187     0    13     1     7
  2.7894232949499220E-01 a       188     0    13     1     8
 -1.7391618825192429E-01 a       189     0    13     1     9
  2.0106184008399414E-01 a       190     0    13     1    10
  1.1979565980398497E-01 a       191     0    13     1    11
  1.6379162358102844E-01 a       192     0    13     1    12
  1.2101779630246258E-01 a       193     0    13     1    13
  1.1496450562222962E-01 a       194     0    13     1    14
  2.6747121317837186E-01 a       195     0    13     1    15
  1.3752754815002260E-01 a       196     0    14     1     1
 -5.5350564433739813E-02 a       197     0    14     1     2
  1.2002490651755413E-01 a       198     0    14     1     3
  9.5302994825717191E-02 a       199     0    14     1     4
  2.1864871844015807E-01 a       200     0    14     1     5
 -6.6137225494529439E-02 a       201     0    14     1     6
 -1.1058573268832431E-01 a       202     0    14     1     7
  1.2648086245933673E-01 a       203     0    14     1     8
  4.7751860208845198E-02 a       204     0    14     1     9
 -8.6438875623176363E-03 a       205     0    14     1    10
  1.3016502393719762E-01 a       206     0    14     1    11
  8.6165191357861104E-02 a       207     0    14     1    12
  4.8731017246791512E-02 a       208     0    14     1    13
 -2.1143605274028801E-01 a       209     0    14     1    14
 -1.4230983390320720E-01 a       210     0    14     1    15
  6.5361679987247191E-03 a       211     0    15     1     1
  4.6059808253945296E-02 a       212     0    15     1     2
  1.9986461328203014E-02 a       213     0    15     1     3
 -3.2710602136734476E-02 a       214     0    15     1     4
  9.1597925934099558E-02 a       215     0    15     1     5
 -9.1370799392125432E-02 a       216     0    15     1     6
 -8.1192328584406170E-02 a       217     0    15     1     7
  3.3282774264093297E-02 a       218     0    15     1     8
  1.5414529540609070E-01 a       219     0    15     1     9
 -1.8554773137555387E-02 a       220     0    15     1    10
 -6.7902697093407419E-02 a       221     0    15     1    11
 -3.3339397052657448E-02 a       222     0    15     1    12
 -2.6317575393457526E-01 a       223     0    15     1    13
 -6.5160203781011422E-02 a       224     0    15     1    14
  1.6305124301920096E-01 a       225     0    15     1    15
  1.1476780074400662E-01 a       226     0    16     1     1
 -2.7452123858654504E-01 a       227     0    16     1     2
 -1.9540472233399227E-02 a       228     0    16     1     3
 -3.4495136385046650E-02 a       229     0    16     1     4
 -1.4904639356134675E-01 a       230     0    16     1     5
 -3.7362067881487986E-02 a       231     0    16     1     6
  2.3649218219783505E-01 a       232     0    16     1     7
 -5.3398836196948005E-02 a       233     0    16     1     8
  5.4304716717212750E-02 a       234     0    16     1     9
 -5.2771609126271435E-02 a       235     0    16     1    10
 -3.5437193741138164E-02 a       236     0    16     1    11
 -1.2131260576974397E-01 a       237     0    16     1    12
  2.5718322270535604E-01 a       238     0    16     1    13
  5.4250263669931749E-03 a       239     0    16     1    14
  1.1481817331421897E-02 a       240     0    16     1    15
  2.0959445128150939E-01 a       241     0    17     1     1
  7.1865632934915935E-02 a       242     0    17     1     2
 -7.9249411156843749E-03 a       243     0    17     1     3
  2.5778657473654037E-01 a       244     0    17     1     4
 -1.3566657962812315E-02 a       245     0    17     1     5
 -7.3838493816037090E-02 a       246     0    17     1     6
  1.1792924133081049E-01 a       247     0    17     1     7
  1.1478398017215564E-01 a       248     0    17     1     8
  7.8646633892299186E-02 a       249     0    17     1     9
 -2.3573953992816471E-01 a       250     0    17     1    10
 -3.2105289086437332E-02 a       251     0    17     1    11
  1.1765102081043510E-01 a       252     0    17     1    12
  1.9892106576499058E-01 a       253     0    17     1    13
 -7.9288844861070212E-02 a       254     0    17     1    14
 -9.4044702371642891E-02 a       255     0    17     1    15
 -1.3986094177353253E-01 a       256     0    18     1     1
  2.0131548161282270E-01 a       257     0    18     1     2
  1.0640460137026768E-01 a       258     0    18     1     3
  1.0930639383728829E-02 a       259     0    18     1     4
 -1.3085524808179799E-01 a       260     0    18     1     5
 -3.2437440550102501E-03 a       261     0    18     1     6
  1.4592990359410796E-01 a       262     0    18     1     7
 -3.1872654636483677E-01 a       263     0    18     1     8
  9.5851718661620362E-03 a       264     0    18     1     9
 -5.8912747541787804E-02 a       265     0    18     1    10
 -1.2168980163973818E-01 a       266     0    18     1    11
 -7.5776690350713674E-02 a       267     0    18     1    12
 -3.2192144055355049E-01 a       268     0    18     1    13
  2.1405303372226830E-01 a       269     0    18     1    14
  2.1009933714200699E-01 a       270     0    18     1    15
  7.6910084400686612E-02 a       271     0    19     1     1
  2.1686139094819448E-02 a       272     0    19     1     2
  2.1311946069078333E-01 a       273     0    19     1     3
  4.5618007941437527E-02 a       274     0    19     1     4
 -1.6273615767229594E-02 a       275     0    19     1     5
  2.3288888639424219E-02 a       276     0    19     1     6
  8.0514065520632297E-02 a       277     0    19     1     7
  9.7590678790411459E-02 a       278     0    19     1     8
 -6.6423244397127556E-03 a       279     0    19     1     9
  9.8380039786788318E-02 a       280     0    19     1    10
  3.5567802613305471E-02 a       281     0    19     1    11
 -4.7289565191387509E-02 a       282     0    19     1    12
 -2.0030507342608811E-01 a       283     0    19     1    13
 -2.6228930963841161E-02 a       284     0    19     1    14
  1.4854057232959128E-01 a       285     0    19     1    15
 -1.3091045534167985E-02 a       286     0    20     1     1
 -2.4014708687592409E-03 a       287     0    20     1     2
 -1.9110311647003539E-01 a       288     0    20     1     3
  4.5661053500876597E-02 a       289     0    20     1     4
  2.1525243060490765E-01 a       290     0    20     1     5
  1.5780146976653902E-02 a       291     0    20     1     6
 -1.0450724762648350E-01 a       292     0    20     1     7
  1.7860097353733098E-01 a       293     0    20     1     8
 -9.7236094625817796E-02 a       294     0    20     1     9
 -7.7318655793963964E-02 a       295     0    20     1    10
  4.9318685158076574E-02 a       296     0    20     1    11
  9.4699370108895217E-02 a       297     0    20     1    12
  1.8186772294708736E-01 a       298     0    20     1    13
 -1.2266341848641672E-01 a       299     0    20     1    14
  2.3987321624573767E-02 a       300     0    20     1    15
 -5.4313364684660685E-02 a       301     0    21     1     1
  2.1130933343361899E-01 a       302     0    21     1     2
  8.2264733993470118E-02 a       303     0    21     1     3
 -2.1882585552192485E-01 a       304     0    21     1     4
  2.1327860216380026E-02 a       305     0    21     1     5
 -1.3271980134411562E-01 a       306     0    21     1     6
 -6.2375817595009139E-02 a       307     0    21     1     7
 -8.8755534797885977E-02 a       308     0    21     1     8
  9.5457115080002444E-02 a       309     0    21     1     9
  6.9497376295907631E-02 a       310     0    21     1    10
  4.6900806869108460E-03 a       311     0    21     1    11
 -3.1299693920864763E-02 a       312     0    21     1    12
  1.7532431454546932E-01 a       313     0    21     1    13
  1.3569446185564693E-01 a       314     0    21     1    14
  2.3704736222302605E-01 a       315     0    21     1    15
  1.0694884599346287E-01 a       316     0    22     1     1
 -1.0805839824777402E-01 a       317     0    22     1     2
 -1.2466804564901490E-01 a       318     0    22     1     3
  3.2870586633125143E-01 a       319     0    22     1     4
 -2.5025228796428892E-02 a       320     0    22     1     5
  1.4067031405943248E-01 a       321     0    22     1     6
  1.9734960911737134E-01 a       322     0    22     1     7
  6.9831192824330937E-02 a       323     0    22     1     8
 -2.0648977017978984E-01 a       324     0    22     1     9
  1.1832127014690377E-01 a       325     0    22     1    10
 -2.0993879121739623E-01 a       326     0    22     1    11
  1.4154525878736118E-01 a       327     0    22     1    12
 -1.8923939754015801E-01 a       328     0    22     1    13
 -3.3348420535509057E-02 a       329     0    22     1    14
 -7.7180550051648986E-03 a       330     0    22     1    15
 -1.9572008169885871E-01 a       331     0    23     1     1
 -2.0662055961752318E-01 a       332     0    23     1     2
 -7.6531830608671553E-02 a       333     0    23     1     3
 -2.4797671485461895E-01 a       334     0    23     1     4
 -6.8461602594198839E-02 a       335     0    23     1     5
 -1.5045771924496557E-01 a       336     0    23     1     6
 -2.5025143359731755E-01 a       337     0    23     1     7
 -1.1774992928836907E-01 a       338     0    23     1     8
  9.2455350885778498E-02 a       339     0    23     1     9
 -4.2539279944163268E-02 a       340     0    23     1    10
  2.7211071550262395E-01 a       341     0    23     1    11
 -8.3697201350533351E-02 a       342     0    23     1    12
 -2.9130375830045230E-01 a       343     0    23     1    13
 -5.5956313071740024E-02 a       344     0    23     1    14
  2.6224546500666479E-01 a       345     0    23     1    15
 -5.1603571336285806E-02 a       346     0    24     1     1
 -4.7247611858232251E-02 a       347     0    24     1     2
 -6.6070578054563608E-02 a       348     0    24     1     3
 -5.4494359330771111E-02 a       349     0    24     1     4
 -3.2659934811328298E-02 a       350     0    24     1     5
  5.9795591364786488E-02 a       351     0    24     1     6
 -2.0443382381731084E-02 a       352     0    24     1     7
  1.8262268514520993E-01 a       353     0    24     1     8
 -1.8038173816547676E-01 a       354     0    24     1     9
  2.1041238812909060E-02 a       355     0    24     1    10
  1.4249132205516993E-01 a       356     0    24     1    11
  1.0506395979294859E-02 a       357     0    24     1    12
 -1.9333420816406374E-01 a       358     0    24     1    13
 -1.0949256488611291E-01 a       359     0    24     1    14
 -2.2687753367170735E-01 a       360     0    24     1    15
  1.6664584993143047E-01 a       361     0    25     1     1
  1.6929128463250478E-02 a       362     0    25     1     2
  1.3021036855207346E-01 a       363     0    25     1     3
  2.2957275102044003E-01 a       364     0    25     1     4
 -1.1337029390636240E-01 a       365     0    25     1     5
  9.0212560596213034E-02 a       366     0    25     1     6
 -3.9197426750464538E-02 a       367     0    25     1     7
 -5.2531866256086711E-02 a       368     0    25     1     8
  1.0889171177163470E-01 a       369     0    25     1     9
  1.7856198819588845E-01 a       370     0    25     1    10
  1.4747607588267136E-01 a       371     0    25     1    11
  1.0336714140578621E-01 a       372     0    25     1    12
  1.6276381307342916E-01 a       373     0    25     1    13
  2.2426721101620328E-01 a       374     0    25     1    14
  2.2216366419166392E-01 a       375     0    25     1    15
 -7.9165844672885163E-02 a       376     0    26     1     1
 -5.7632183983416595E-02 a       377     0    26     1     2
 -8.0110576830386582E-02 a       378     0    26     1     3
  2.9900738073936101E-01 a       379     0    26     1     4
 -3.6169734558161179E-02 a       380     0    26     1     5
  3.5657845108537402E-02 a       381     0    26     1     6
  8.5834690617243400E-02 a       382     0    26     1     7
 -3.3139736421089194E-01 a       383     0    26     1     8
  1.7289233522018554E-01 a       384     0    26     1     9
 -1.2533104905002188E-01 a       385     0    26     1    10
 -1.2501674159670795E-01 a       386     0    26     1    11
  2.3483335681127045E-02 a       387     0    26     1    12
 -4.1535333086012177E-02 a       388     0    26     1    13
  2.4345251257332096E-01 a       389     0    26     1    14
  1.5019222196068802E-01 a       390     0    26     1    15
  1.3107286956531969E-01 a       391     0    27     1     1
 -1.3748129823876853E-01 a       392     0    27     1     2
 -2.1038350244503490E-01 a       393     0    27     1     3
 -3.7616013456155451E-03 a       394     0    27     1     4
 -1.4944126539572436E-01 a       395     0    27     1     5
 -3.2786527486445510E-01 a       396     0    27     1     6
 -1.4829291841229097E-01 a       397     0    27     1     7
 -4.0432110919500434E-02 a       398     0    27     1     8
  7.2715365392772860E-02 a       399     0    27     1     9
 -4.7319737945752262E-02 a       400     0    27     1    10
 -1.7989216452521747E-01 a       401     0    27     1    11
 -1.6993712085002743E-01 a       402     0    27     1    12
  2.5264559292919757E-02 a       403     0    27     1    13
 -1.5032865667770604E-01 a       404     0    27     1    14
  1.2021497819708848E-01 a       405     0    27     1    15
  2.5302900020237151E-01 a       406     0    28     1     1
 -5.4427283317832705E-02 a       407     0    28     1     2
  2.1540216638396545E-01 a       408     0    28     1     3
  1.7986222902151988E-01 a       409     0    28     1     4
  9.6333972908867305E-02 a       410     0    28     1     5
 -2.6891149545679262E-02 a       411     0    28     1     6
  6.7751859054589914E-02 a       412     0    28     1     7
 -1.4973405252361835E-01 a       413     0    28     1     8
  1.0205380037426304E-01 a       414     0    28     1     9
  1.6459151886067300E-01 a       415     0    28     1    10
 -9.9949825472474260E-02 a       416     0    28     1    11
  2.2376135519715132E-01 a       417     0    28     1    12
 -1.8600980029210473E-01 a       418     0    28     1    13
 -1.6026735364303957E-01 a       419     0    28     1    14
 -1.2856348084045499E-01 a       420     0    28     1    15
  1.6574984310273710E-01 a       421     0    29     1     1
  1.6393231902378300E-01 a       422     0    29     1     2
  1.3505428053940399E-01 a       423     0    29     1     3
 -1.2407433779060457E-01 a       424     0    29     1     4
  1.5397213741947591E-01 a       425     0    29     1     5
 -7.4535690294312409E-02 a       426     0    29     1     6
 -1.5850204284212070E-02 a       427     0    29     1     7
 -4.5202386152194386E-02 a       428     0    29     1     8
  1.7093004495805297E-01 a       429     0    29     1     9
  6.3830064308887990E-02 a       430     0    29     1    10
  2.1327508882456359E-01 a       431     0    29     1    11
  1.8459250789724185E-01 a       432     0    29     1    12
  5.0084490063743020E-02 a       433     0    29     1    13
  1.6594940336163727E-01 a       434     0    29     1    14
 -1.4497071589227797E-01 a       435     0    29     1    15
  6.4130155801920746E-02 a       436     0    30     1     1
  1.6364177609452990E-01 a       437     0    30     1     2
 -2.8052757673075353E-02 a       438     0    30     1     3
 -1.8169133847862085E-01 a       439     0    30     1     4
 -1.3856990276745679E-01 a       440     0    30     1     5
  2.1893105543371920E-02 a       441     0    30     1     6
  4.6800449583234295E-02 a       442     0    30     1     7
 -6.8535969458618770E-02 a       443     0    30     1     8
 -9.8667143138339714E-02 a       444     0    30     1     9
  1.0275095510956689E-01 a       445     0    30     1    10
  1.8938373623253052E-01 a       446     0    30     1    11
  4.0511024866389869E-02 a       447     0    30     1    12
  7.6586276585912869E-02 a       448     0    30     1    13
  5.5832391958820587E-02 a       449     0    30     1    14
  4.3500495385222361E-02 a       450     0    30     1    15
 -1.3546522816101056E-01 a       451     0    31     1     1
  5.1147670964246487E-02 a       452     0    31     1     2
 -5.1921494571782037E-02 a       453     0    31     1     3
 -2.7701566155901020E-01 a       454     0    31     1     4
 -1.4534742897355593E-01 a       455     0    31     1     5
 -2.6239690573364516E-01 a       456     0    31     1     6
 -3.4858673170788571E-02 a       457     0    31     1     7
  2.2023214808064959E-01 a       458     0    31     1     8
 -8.8433179338648533E-03 a       459     0    31     1     9
 -1.8935311256138423E-01 a       460     0    31     1    10
 -2.8927681737648758E-01 a       461     0    31     1    11
 -3.3470339711006665E-02 a       462     0    31     1    12
 -2.0183620358823545E-01 a       463     0    31     1    13
  1.5629335857043340E-02 a       464     0    31     1    14
  2.5978696696183721E-03 a       465     0    31     1    15
  1.9311472260454454E-01 a       466     0    32     1     1
 -2.9428954693093534E-01 a       467     0    32     1     2
 -4.9350509519733486E-02 a       468     0    32     1     3
  1.0190594324424636E-01 a       469     0    32     1     4
 -1.6437924783128341E-01 a       470     0    32     1     5
  9.2537969135380080E-02 a       471     0    32     1     6
 -1.2073479512160090E-01 a       472     0    32     1     7
  5.6812321531575317E-02 a       473     0    32     1     8
 -1.1912254150808275E-01 a       474     0    32     1     9
 -1.1901502661990118E-01 a       475     0    32     1    10
 -1.3450499300448771E-01 a       476     0    32     1    11
  4.9855844010742674E-02 a       477     0    32     1    12
 -2.0937883939473598E-01 a       478     0    32     1    13
 -1.4045282852899127E-01 a       479     0    32     1    14
  1.0395274873727181E-03 a       480     0    32     1    15
 -3.1483474108095860E-01 a       481     0    33     1     1
 -5.5592139918239115E-02 a       482     0    33     1     2
 -5.2369708507129374E-02 a       483     0    33     1     3
  1.5423224346240524E-01 a       484     0    33     1     4
  1.6105440021429226E-01 a       485     0    33     1     5
  2.0554259380132317E-01 a       486     0    33     1     6
  2.9749835853775503E-01 a       487     0    33     1     7
 -2.4123436494839856E-01 a       488     0    33     1     8
 -1.0638758439146972E-02 a       489     0    33     1     9
 -1.8622594956788935E-01 a       490     0    33     1    10
 -2.6757360110888956E-01 a       491     0    33     1    11
  1.2297554221469782E-01 a       492     0    33     1    12
 -1.3442810586277482E-01 a       493     0    33     1    13
  1.0818489047815909E-01 a       494     0    33     1    14
 -8.3847892509584826E-02 a       495     0    33     1    15
 -3.4592790255032341E-01 a       496     0    34     1     1
  2.4042896877789768E-01 a       497     0    34     1     2
 -3.0655673872898775E-01 a       498     0    34     1     3
  1.6863177152284106E-01 a       499     0    34     1     4
  2.1118492014534807E-01 a       500     0    34     1     5
 -1.1782608927176638E-01 a       501     0    34     1     6
  1.9841540461563070E-01 a       502     0    34     1     7
 -3.7533052771226018E-02 a       503     0    34     1     8
 -3.1932189725136978E-02 a       504     0    34     1     9
 -1.0755247547912170E-01 a       505     0    34     1    10
 -4.0196339244376954E-02 a       506     0    34     1    11
 -1.6976193305967022E-01 a       507     0    34     1    12
 -1.5683982689695516E-01 a       508     0    34     1    13
 -7.1901283517161019E-02 a       509     0    34     1    14
  6.4574991006300930E-02 a       510     0    34     1    15
  9.3452441789779503E-02 a       511     0    35     1     1
 -2.2242357248611583E-01 a       512     0    35     1     2
 -1.1976072148344702E-01 a       513     0    35     1     3
  1.6790580895758173E-01 a       514     0    35     1     4
 -6.5286232893558963E-02 a       515     0    35     1     5
  7.9325164425824282E-02 a       516     0    35     1     6
  1.8862654594047415E-01 a       517     0    35     1     7
  1.1767868425649204E-01 a       518     0    35     1     8
  1.5648848133106941E-01 a       519     0    35     1     9
  1.5624673763748428E-01 a       520     0    35     1    10
  1.4122120454134837E-01 a       521     0    35     1    11
  1.9650655750464543E-01 a       522     0    35     1    12
  1.5286962152097636E-01 a       523     0    35     1    13
 -1.2599143208175367E-01 a       524     0    35     1    14
 -2.9215513832178386E-01 a       525     0    35     1    15
  6.4026070509664287E-02 a       526     0    36     1     1
  2.0839980255420318E-02 a       527     0    36     1     2
  1.3782785365411454E-01 a       528     0    36     1     3
  2.9568869385900642E-01 a       529     0    36     1     4
  1.7007521542498438E-01 a       530     0    36     1     5
 -2.1646779341056820E-02 a       531     0    36     1     6
  2.1462334004316944E-01 a       532     0    36     1     7
  8.9515635201072776E-03 a       533     0    36     1     8
 -1.3531584590583930E-02 a       534     0    36     1     9
 -7.2835961306108546E-02 a       535     0    36     1    10
 -1.9524862664750173E-01 a       536     0    36     1    11
 -1.1051537456274246E-01 a       537     0    36     1    12
  2.0629670166869069E-01 a       538     0    36     1    13
  5.7224942397586537E-03 a       539     0    36     1    14
  1.9927508148731657E-01 a       540     0    36     1    15
 -7.6338855928628171E-02 a       541     0    37     1     1
  2.4095105072364612E-01 a       542     0    37     1     2
  1.2507390641705313E-01 a       543     0    37     1     3
  3.5277870476454885E-02 a       544     0    37     1     4
 -2.5489064857974830E-01 a       545     0    37     1     5
 -1.2062465453764835E-01 a       546     0    37     1     6
 -1.6388562755478425E-01 a       547     0    37     1     7
 -1.7103446343907922E-01 a       548     0    37     1     8
 -1.9950527315051572E-01 a       549     0    37     1     9
  5.7168550331525674E-03 a       550     0    37     1    10
  1.0755367537827949E-02 a       551     0    37     1    11
 -1.1528516875100776E-01 a       552     0    37     1    12
  2.3406033553850659E-02 a       553     0    37     1    13
  2.2099488089277516E-02 a       554     0    37     1    14
  2.2393534501871556E-01 a       555     0    37     1    15
  2.3554643077872003E-01 a       556     0    38     1     1
 -1.7841534146130661E-01 a       557     0    38     1     2
 -1.4417389497897806E-01 a       558     0    38     1     3
  1.8706665049644164E-01 a       559     0    38     1     4
 -1.9057227820387598E-02 a       560     0    38     1     5
  2.4915709036259792E-01 a       561     0    38     1     6
  3.1535323903298128E-02 a       562     0    38     1     7
  2.3034226048781467E-01 a       563     0    38     1     8
  1.6378525295661114E-01 a       564     0    38     1     9
  7.8545746341388861E-02 a       565     0    38     1    10
  1.4524189632295142E-01 a       566     0    38     1    11
 -2.5324378608341236E-01 a       567     0    38     1    12
 -2.8571456189608729E-01 a       568     0    38     1    13
  3.0347887083207370E-01 a       569     0    38     1    14
  2.3895719088047959E-01 a       570     0    38     1    15
  1.6517933439947635E-01 a       571     0    39     1     1
 -2.3781318086193820E-01 a       572     0    39     1     2
  3.0050161625503896E-01 a       573     0    39     1     3
  1.6931555680198332E-01 a       574     0    39     1     4
  3.6099970582914045E-02 a       575     0    39     1     5
  1.5097676315244790E-01 a       576     0    39     1     6
 -2.3628719760510500E-01 a       577     0    39     1     7
 -2.5461218007270808E-01 a       578     0    39     1     8
  9.7926303463338166E-02 a       579     0    39     1     9
  1.4371158528259426E-01 a       580     0    39     1    10
  1.5178023971799512E-01 a       581     0    39     1    11
  6.1285326244953163E-02 a       582     0    39     1    12
  1.7433473328631040E-02 a       583     0    39     1    13
 -7.9122085137966494E-02 a       584     0    39     1    14
 -4.5698281656798186E-02 a       585     0    39     1    15
 -5.8856282572284493E-02 a       586     0    40     1     1
  1.8822240916617056E-01 a       587     0    40     1     2
  8.2949712939450776E-02 a       588     0    40     1     3
 -1.3511591277783067E-01 a       589     0    40     1     4
 -2.5637132517440936E-01 a       590     0    40     1     5
 -1.5861465589058074E-01 a       591     0    40     1     6
 -1.4108123462134886E-01 a       592     0    40     1     7
  3.4624099125194256E-02 a       593     0    40     1     8
 -6.7453613773941030E-03 a       594     0    40     1     9
  1.5033066876089293E-01 a       595     0    40     1    10
  2.0488963493457968E-03 a       596     0    40     1    11
  1.7349528884995727E-01 a       597     0    40     1    12
  1.7039419263395975E-01 a       598     0    40     1    13
 -3.4411727119077229E-01 a       599     0    40     1    14
 -1.5587555749080942E-01 a       600     0    40     1    15
 -6.3427489513554022E-02 a       601     0    41     1     1
  1.5246195950564388E-02 a       602     0    41     1     2
 -9.4681140073400838E-02 a       603     0    41     1     3
  1.5645246125780868E-01 a       604     0    41     1     4
  3.2130697002776659E-01 a       605     0    41     1     5
 -2.6208133833494428E-02 a       606     0    41     1     6
 -1.6656302232968345E-01 a       607     0    41     1     7
  1.9468121575754855E-02 a       608     0    41     1     8
 -1.8324036347001893E-01 a       609     0    41     1     9
 -1.2705352895323277E-01 a       610     0    41     1    10
 -7.8597021077448537E-02 a       611     0    41     1    11
  1.1683784800184434E-01 a       612     0    41     1    12
  1.9238041528794967E-02 a       613     0    41     1    13
 -1.0483522680758940E-01 a       614     0    41     1    14
 -2.1010314502596432E-02 a       615     0    41     1    15
  1.7217534579836496E-01 a       616     0    42     1     1
 -1.5592505458117533E-02 a       617     0    42     1     2
  6.2278185961013435E-02 a       618     0    42     1     3
  3.2389388195990264E-02 a       619     0    42     1     4
 -1.4422478018455212E-01 a       620     0    42     1     5
 -2.1970651027971308E-03 a       621     0    42     1     6
 -7.4674703083584676E-02 a       622     0    42     1     7
 -2.1303815016879601E-01 a       623     0    42     1     8
  5.3185881867031430E-02 a       624     0    42     1     9
  1.7533415866456348E-02 a       625     0    42     1    10
  3.9637075820952855E-02 a       626     0    42     1    11
 -7.9510846348126704E-02 a       627     0    42     1    12
  5.7825473265861307E-02 a       628     0    42     1    13
  7.1509479891351660E-02 a       629     0    42     1    14
  1.6578043880922286E-01 a       630     0    42     1    15
  8.3403998621202208E-02 a       631     0    43     1     1
 -9.1454008188027208E-02 a       632     0    43     1     2
 -1.5643596964155476E-01 a       633     0    43     1     3
  1.1826765213470669E-01 a       634     0    43     1     4
 -1.9862578758641850E-01 a       635     0    43     1     5
  1.5232336499453553E-01 a       636     0    43     1     6
  2.1892355391856635E-01 a       637     0    43     1     7
 -4.5586822350521826E-02 a       638     0    43     1     8
 -9.0615198054493865E-03 a       639     0    43     1     9
  1.1095912493045369E-01 a       640     0    43     1    10
 -1.1258180029545535E-01 a       641     0    43     1    11
 -4.2545730256145588E-02 a       642     0    43     1    12
 -1.9271293785015001E-01 a       643     0    43     1    13
  1.2567260528923627E-01 a       644     0    43     1    14
 -2.2427630462239823E-01 a       645     0    43     1    15
 -1.5174352309820158E-01 a       646     0    44     1     1
  6.0097619198553878E-03 a       647     0    44     1     2
  2.0600435082726515E-01 a       648     0    44     1     3
 -1.4765528136195313E-01 a       649     0    44     1     4
  1.9053273048275796E-01 a       650     0    44     1     5
 -2.8714508422843332E-01 a       651     0    44     1     6
  6.6225908014684864E-02 a       652     0    44     1     7
  1.2478890754315358E-01 a       653     0    44     1     8
 -1.1375806932308677E-01 a       654     0    44     1     9
 -2.2934607844646540E-01 a       655     0    44     1    10
  7.4390117240377210E-02 a       656     0    44     1    11
  1.0104800551920340E-01 a       657     0    44     1    12
  2.7824238212817543E-01 a       658     0    44     1    13
 -4.2508920938697230E-02 a       659     0    44     1    14
  8.3181188313233387E-02 a       660     0    44     1    15
 -1.1525804878924781E-01 a       661     0    45     1     1
 -1.2279276459283957E-01 a       662     0    45     1     2
  1.1454932357300245E-01 a       663     0    45     1     3
 -3.0271437384078603E-01 a       664     0    45     1     4
  9.9881902290758898E-02 a       665     0    45     1     5
  1.6970893362398981E-01 a       666     0    45     1     6
  2.7931830793815521E-01 a       667     0    45     1     7
  1.9695400624549661E-01 a       668     0    45     1     8
 -1.3385783521912842E-01 a       669     0    45     1     9
 -1.4907351618157176E-05 a       670     0    45     1    10
  2.4565944823939153E-04 a       671     0    45     1    11
 -2.5272920518079917E-01 a       672     0    45     1    12
  3.0974478763800345E-01 a       673     0    45     1    13
  5.0440735793924288E-02 a       674     0    45     1    14
 -1.3579185960053594E-01 a       675     0    45     1    15
 -5.9623974256445736E-02 a       676     0    46     1     1
  5.2631972076362277E-02 a       677     0    46     1     2
 -2.6582114705979171E-01 a       678     0    46     1     3
 -6.2294445905280674E-02 a       679     0    46     1     4
 -9.4266742102222828E-02 a       680     0    46     1     5
 -2.1573992089534463E-01 a       681     0    46     1     6
 -1.5436520751174046E-01 a       682     0    46     1     7
  1.9091919244890934E-01 a       683     0    46     1     8
 -7.3395328101533944E-02 a       684     0    46     1     9
 -1.9196793543681798E-01 a       685     0    46     1    10
 -3.5771608743058951E-02 a       686     0    46     1    11
  6.1417030901790730E-02 a       687     0    46     1    12
  5.2566423186687035E-02 a       688     0    46     1    13
  1.4607008007774591E-01 a       689     0    46     1    14
  1.6852575327377817E-01 a       690     0    46     1    15
 -1.5845960713549868E-02 a       691     0    47     1     1
  2.1744397252405730E-02 a       692     0    47     1     2
  1.3174309445568294E-01 a       693     0    47     1     3
 -2.8979687925885095E-02 a       694     0    47     1     4
 -5.1215263639973405E-02 a       695     0    47     1     5
 -2.5656046908184005E-01 a       696     0    47     1     6
  5.3995643093086590E-02 a       697     0    47     1     7
  9.9694573837368836E-02 a       698     0    47     1     8
  1.8566245426648659E-01 a       699     0    47     1     9
 -1.4492271111182461E-01 a       700     0    47     1    10
  1.9682440095764225E-02 a       701     0    47     1    11
 -1.6034273797778106E-01 a       702     0    47     1    12
 -1.2863815433010772E-01 a       703     0    47     1    13
  1.1678154872247398E-01 a       704     0    47     1    14
 -1.8813711006791148E-01 a       705     0    47     1    15
  1.3272584613524433E-02 a       706     0    48     1     1
 -1.2389594561031653E-01 a       707     0    48     1     2
 -2.1017728198504504E-01 a       708     0    48     1     3
 -3.0940610466025885E-03 a       709     0    48     1     4
 -4.0082160716186629E-02 a       710     0    48     1     5
  1.4306086485694905E-02 a       711     0    48     1     6
  9.5748183056890118E-02 a       712     0    48     1     7
 -1.3069471482378089E-01 a       713     0    48     1     8
  6.6347748128753423E-02 a       714     0    48     1     9
  1.0377320272053293E-01 a       715     0    48     1    10
  1.7386192858368119E-01 a       716     0    48     1    11
 -2.0609891580639969E-01 a       717     0    48     1    12
  8.7174316026092970E-03 a       718     0    48     1    13
 -2.2706455754588326E-01 a       719     0    48     1    14
  6.3798007498897316E-02 a       720     0    48     1    15
 -8.6797874333783095E-02 a       721     0    49     1     1
 -5.7740381981019155E-02 a       722     0    49     1     2
  1.0333987157039555E-01 a       723     0    49     1     3
 -3.0107061897463316E-01 a       724     0    49     1     4
  2.2361327100221723E-01 a       725     0    49     1     5
 -8.5295747918074136E-02 a       726     0    49     1     6
 -1.1643676666701516E-01 a       727     0    49     1     7
 -2.1861132217231999E-01 a       728     0    49     1     8
  2.7733785285989404E-01 a       729     0    49     1     9
  9.0194340442012133E-02 a       730     0    49     1    10
  1.3146745692600645E-01 a       731     0    49     1    11
 -3.8887396169814646E-02 a       732     0    49     1    12
 -8.5429935814122615E-02 a       733     0    49     1    13
 -3.0260776572777492E-02 a       734     0    49     1    14
  4.5043062889891940E-02 a       735     0    49     1    15
 -2.3461090853124822E-01 a       736     0    50     1     1
 -1.6209750813756330E-01 a       737     0    50     1     2
 -7.1200675748378614E-02 a       738     0    50     1     3
  4.4137609980383324E-02 a       739     0    50     1     4
 -5.2566300989135444E-02 a       740     0    50     1     5
  1.1345860079224153E-01 a       741     0    50     1     6
  2.2828349859289221E-02 a       742     0    50     1     7
 -1.0899208638406599E-01 a       743     0    50     1     8
 -1.2419896368139861E-01 a       744     0    50     1     9
 -1.4121682249791614E-01 a       745     0    50     1    10
  5.9999041372269579E-02 a       746     0    50     1    11
  2.6186347710033753E-01 a       747     0    50     1    12
 -5.9136314230574527E-02 a       748     0    50     1    13
  2.5877740740526772E-01 a       749     0    50     1    14
 -6.6526084957867120E-03 a       750     0    50     1    15
  9.8970861782616514E-03 a       751     0    51     1     1
 -1.6003541587146529E-02 a       752     0    51     1     2
  2.5274687369029258E-01 a       753     0    51     1     3
  2.3831373943225814E-01 a       754     0    51     1     4
 -1.1686142334613442E-01 a       755     0    51     1     5
  7.1463707753362762E-02 a       756     0    51     1     6
  1.6608643966021377E-01 a       757     0    51     1     7
 -7.0919451260056110E-02 a       758     0    51     1     8
 -1.6741591196716407E-01 a       759     0    51     1     9
  1.1642108172402625E-02 a       760     0    51     1    10
 -1.3781509893674222E-02 a       761     0    51     1    11
 -1.2178152254978425E-02 a       762     0    51     1    12
 -2.3080056443117430E-01 a       763     0    51     1    13
  8.4488015082971796E-02 a       764     0    51     1    14
  2.0425547197257563E-01 a       765     0    51     1    15
 -5.5945549604466009E-02 a       766     0    52     1     1
  1.8242609296912488E-01 a       767     0    52     1     2
 -2.3375173757756874E-02 a       768     0    52     1     3
 -1.7337573626906125E-01 a       769     0    52     1     4
 -2.0149452112418570E-01 a       770     0    52     1     5
 -1.2732392697262856E-01 a       771     0    52     1     6
  5.5167752712906470E-02 a       772     0    52     1     7
  1.4809153009335014E-02 a       773     0    52     1     8
 -1.4963265820470906E-01 a       774     0    52     1     9
 -1.8876439299943121E-01 a       775     0    52     1    10
  2.9397779285978487E-01 a       776     0    52     1    11
 -1.4616929683117379E-02 a       777     0    52     1    12
  3.9581298676843318E-02 a       778     0    52     1    13
  1.9758251123577428E-01 a       779     0    52     1    14
  5.5609610630428109E-02 a       780     0    52     1    15
 -1.1602039790630057E-01 a       781     0    53     1     1
 -2.3771308398411334E-01 a       782     0    53     1     2
 -2.5315153551641718E-02 a       783     0    53     1     3
  5.9095889564871780E-02 a       784     0    53     1     4
  2.0229103739417331E-02 a       785     0    53     1     5
  2.7322315651749363E-01 a       786     0    53     1     6
  3.4483210000381365E-01 a       787     0    53     1     7
 -1.4598781462527607E-01 a       788     0    53     1     8
 -4.4694094524332699E-02 a       789     0    53     1     9
  1.1896585033940356E-01 a       790     0    53     1    10
  9.9928685332428435E-02 a       791     0    53     1    11
  4.0521451376551457E-02 a       792     0    53     1    12
  1.2510644559530848E-01 a       793     0    53     1    13
  5.3024160608438148E-02 a       794     0    53     1    14
 -1.0775235005566165E-01 a       795     0    53     1    15
 -6.1629360378111113E-02 a       796     0    54     1     1
  2.3271274392831923E-01 a       797     0    54     1     2
 -2.0117362039989689E-01 a       798     0    54     1     3
  4.9261740702824325E-02 a       799     0    54     1     4
  2.2192302215930790E-01 a       800     0    54     1     5
  4.1927276693989386E-02 a       801     0    54     1     6
  1.2620467505847319E-01 a       802     0    54     1     7
  1.9089150819015230E-01 a       803     0    54     1     8
  3.2549711948297366E-02 a       804     0    54     1     9
 -8.0844507454001943E-02 a       805     0    54     1    10
  3.0019654441908311E-01 a       806     0    54     1    11
  4.4398291840753681E-02 a       807     0    54     1    12
  7.9700543078997224E-02 a       808     0    54     1    13
  3.9789401722021570E-02 a       809     0    54     1    14
 -1.7368443456041072E-01 a       810     0    54     1    15
 -1.4984211854122684E-01 a       811     0    55     1     1
 -2.6092840675279883E-03 a       812     0    55     1     2
 -2.7680916348160045E-01 a       813     0    55     1     3
 -1.3399656703585380E-01 a       814     0    55     1     4
  1.3467483146551681E-01 a       815     0    55     1     5
  3.7347209666035212E-02 a       816     0    55     1     6
  2.2651438978644897E-01 a       817     0    55     1     7
 -1.4706570234489834E-02 a       818     0    55     1     8
 -8.7779452697469271E-02 a       819     0    55     1     9
 -3.7083763105638892E-02 a       820     0    55     1    10
  6.6104302122382663E-02 a       821     0    55     1    11
 -1.7994174235076185E-01 a       822     0    55     1    12
 -4.5736290836571818E-02 a       823     0    55     1    13
 -2.2976777787899874E-01 a       824     0    55     1    14
 -1.2561004781507187E-01 a       825     0    55     1    15
 -7.2660276692105119E-02 a       826     0    56     1     1
 -1.7655432616550373E-01 a       827     0    56     1     2
  8.8040406890531775E-02 a       828     0    56     1     3
 -2.1342107150741801E-01 a       829     0    56     1     4
 -1.6729978092365078E-01 a       830     0    56     1     5
 -4.9270785127584177E-02 a       831     0    56     1     6
 -3.4099895656888681E-03 a       832     0    56     1     7
 -2.4219984353784797E-03 a       833     0    56     1     8
 -3.4753542766486130E-02 a       834     0    56     1     9
  1.9597023618315088E-01 a       835     0    56     1    10
 -8.2342277439876668E-02 a       836     0    56     1    11
 -1.9757190908659558E-01 a       837     0    56     1    12
  5.5385340511490799E-02 a       838     0    56     1    13
 -2.4473014435191659E-01 a       839     0    56     1    14
 -2.7649713790859964E-01 a       840     0    56     1    15
 -8.1151287793574389E-02 a       841     0    57     1     1
 -2.2519621305983140E-01 a       842     0    57     1     2
  2.2935155358138953E-01 a       843     0    57     1     3
 -1.0500614557182059E-01 a       844     0    57     1     4
  7.7891188507905079E-02 a       845     0    57     1     5
  1.9363386959807541E-01 a       846     0    57     1     6
  7.6383660942719728E-02 a       847     0    57     1     7
  2.8254049560554391E-02 a       848     0    57     1     8
  2.6803065005326462E-02 a       849     0    57     1     9
 -6.3826593838909332E-02 a       850     0    57     1    10
  1.4461894193802860E-01 a       851     0    57     1    11
  8.0369983455056124E-02 a       852     0    57     1    12
 -7.3457893799341090E-02 a       853     0    57     1    13
  2.3872748866632484E-02 a       854     0    57     1    14
  1.9230486555595919E-01 a       855     0    57     1    15
 -3.1559999026866409E-01 a       856     0    58     1     1
  1.6368942313734289E-01 a       857     0    58     1     2
  1.7798807463438548E-01 a       858     0    58     1     3
 -1.3074057595122335E-01 a       859     0    58     1     4
  3.3084959546337570E-02 a       860     0    58     1     5
  1.6757104601088587E-02 a       861     0    58     1     6
 -1.4347108511049877E-01 a       862     0    58     1     7
 -1.1846774059854824E-01 a       863     0    58     1     8
 -9.1795334226199649E-02 a       864     0    58     1     9
  3.8653494814121891E-02 a       865     0    58     1    10
  3.5037321076351324E-01 a       866     0    58     1    11
  9.4185454386643927E-02 a       867     0    58     1    12
 -1.0340793633316941E-01 a       868     0    58     1    13
 -2.3100551546430184E-01 a       869     0    58     1    14
  7.9006254744153376E-02 a       870     0    58     1    15
  5.3479503419727445E-02 a       871     0    59     1     1
  2.0957800471970087E-01 a       872     0    59     1     2
 -6.7120721670718572E-02 a       873     0    59     1     3
  9.7181455552320555E-04 a       874     0    59     1     4
 -1.1288022512117053E-01 a       875     0    59     1     5
 -1.1049125033094317E-01 a       876     0    59     1     6
 -5.1936156456318730E-03 a       877     0    59     1     7
  1.9281665574184861E-01 a       878     0    59     1     8
 -2.4471021943884477E-02 a       879     0    59     1     9
  1.3583678869087956E-01 a       880     0    59     1    10
 -3.8145397583783714E-03 a       881     0    59     1    11
  2.7336462471736400E-01 a       882     0    59     1    12
  1.3033459863127150E-01 a       883     0    59     1    13
 -1.3639537838350080E-01 a       884     0    59     1    14
  1.8698377997481339E-01 a       885     0    59     1    15
 -2.7430611435022206E-01 a       886     0    60     1     1
  1.6706239084639507E-01 a       887     0    60     1     2
 -3.3910493758392959E-02 a       888     0    60     1     3
 -1.6746029528259412E-01 a       889     0    60     1     4
  2.5118864401692376E-01 a       890     0    60     1     5
 -1.6306020460988468E-01 a       891     0    60     1     6
 -1.9295718374615908E-02 a       892     0    60     1     7
  1.9226134997258332E-01 a       893     0    60     1     8
  1.3933156007062841E-01 a       894     0    60     1     9
 -9.7741278661211874E-03 a       895     0    60     1    10
 -6.9903043028556433E-02 a       896     0    60     1    11
 -9.3189503779952554E-02 a       897     0    60     1    12
 -1.2756592636264794E-01 a       898     0    60     1    13
 -2.9961515598509192E-01 a       899     0    60     1    14
  1.3485265197137669E-01 a       900     0    60     1    15
 -7.6225952778093908E-02 a       901     0    61     1     1
 -6.5974405720175558E-02 a       902     0    61     1     2
  2.3464817377100425E-01 a       903     0    61     1     3
 -9.8980956024344702E-02 a       904     0    61     1     4
 -7.4549803132411482E-02 a       905     0    61     1     5
 -9.7030813334263902E-02 a       906     0    61     1     6
  1.4123937656891980E-01 a       907     0    61     1     7
 -1.1521065783744319E-01 a       908     0    61     1     8
 -1.7256888723672129E-01 a       909     0    61     1     9
  2.0496974744971239E-01 a       910     0    61     1    10
 -3.5465746621470012E-01 a       911     0    61     1    11
 -1.8702752524793148E-01 a       912     0    61     1    12
  1.3826867412708477E-01 a       913     0    61     1    13
 -2.9109562099260422E-01 a       914     0    61     1    14
  2.0020421924947268E-01 a       915     0    61     1    15
  4.8442593235798796E-02 a       916     0    62     1     1
 -3.8726803815340459E-02 a       917     0    62     1     2
  4.0065756242771744E-01 a       918     0    62     1     3
  7.9267721693316348E-02 a       919     0    62     1     4
  6.3022870970464634E-02 a       920     0    62     1     5
 -2.5729066198518358E-01 a       921     0    62     1     6
  2.8166001635226762E-01 a       922     0    62     1     7
  9.5644445887859808E-02 a       923     0    62     1     8
  4.6186550887227507E-02 a       924     0    62     1     9
 -9.2937620623595313E-02 a       925     0    62     1    10
  5.6631299455498024E-02 a       926     0    62     1    11
 -1.1055382666707136E-01 a       927     0    62     1    12
  7.5978463470799507E-02 a       928     0    62     1    13
 -1.3360231646170717E-01 a       929     0    62     1    14
 -1.1751570642384815E-01 a       930     0    62     1    15
 -4.7288704643810575E-02 a       931     0    63     1     1
  2.8918066293404149E-01 a       932     0    63     1     2
 -1.8392440801247803E-01 a       933     0    63     1     3
  2.3235491939721103E-01 a       934     0    63     1     4
  1.6885013150439124E-01 a       935     0    63     1     5
  1.1893862876914392E-01 a       936     0    63     1     6
 -1.6918215116389279E-01 a       937     0    63     1     7
 -1.0266062272804105E-01 a       938     0    63     1     8
  2.7006661143178599E-02 a       939     0    63     1     9
 -3.9431235123538744E-02 a       940     0    63     1    10
  2.6310614599327359E-01 a       941     0    63     1    11
  6.5438696459493139E-03 a       942     0    63     1    12
 -9.0814808506303038E-02 a       943     0    63     1    13
  4.4744389215868811E-02 a       944     0    63     1    14
 -6.7483678467606971E-03 a       945     0    63     1    15
  9.2800085507907332E-02 a       946     0    64     1     1
 -8.2330994204142166E-02 a       947     0    64     1     2
  1.2067217687079217E-01 a       948     0    64     1     3
 -1.4381297340942886E-01 a       949     0    64     1     4
  3.3315390597172236E-02 a       950     0    64     1     5
  8.2163287766681692E-02 a       951     0    64     1     6
  9.8092414165135730E-04 a       952     0    64     1     7
  2.1927738113839765E-01 a       953     0    64     1     8
  6.0773608924847185E-02 a       954     0    64     1     9
  6.9694774338861246E-02 a       955     0    64     1    10
 -7.5428714365436175E-02 a       956     0    64     1    11
 -1.2855482817619804E-01 a       957     0    64     1    12
 -1.6877654482058213E-01 a       958     0    64     1    13
 -9.3699654663695148E-02 a       959     0    64     1    14
  8.3623439050668855E-03 a       960     0    64     1    15
 -4.1466490447254978E-02 a       961     0    65     1     1
  9.5520209088284722E-02 a       962     0    65     1     2
  2.4250549100541877E-02 a       963     0    65     1     3
 -2.2194050351850811E-01 a       964     0    65     1     4
 -9.6985419221195107E-02 a       965     0    65     1     5
  2.4142626639269793E-01 a       966     0    65     1     6
 -3.1043057757213836E-02 a       967     0    65     1     7
 -3.2633143211369280E-02 a       968     0    65     1     8
  1.5344429553156394E-01 a       969     0    65     1     9
  6.9767719594701572E-02 a       970     0    65     1    10
 -1.4618952704125854E-01 a       971     0    65     1    11
 -7.2949490455208058E-02 a       972     0    65     1    12
 -8.8559570234375742E-03 a       973     0    65     1    13
  1.4844050863492644E-01 a       974     0    65     1    14
  9.8777454138824577E-02 a       975     0    65     1    15
 -9.1571739305322544E-02 a       976     0    66     1     1
 -9.9622911309884446E-02 a       977     0    66     1     2
  2.0225499090215121E-01 a       978     0    66     1     3
 -2.7408602862869796E-01 a       979     0    66     1     4
 -9.8792547306980921E-02 a       980     0    66     1     5
 -4.5306151528580828E-02 a       981     0    66     1     6
 -6.3123812305948074E-02 a       982     0    66     1     7
 -1.7107676101628409E-02 a       983     0    66     1     8
 -1.0461127995521459E-02 a       984     0    66     1     9
  5.4079048953154303E-02 a       985     0    66     1    10
  1.5733790055724475E-01 a       986     0    66     1    11
 -1.7694450642553226E-02 a       987     0    66     1    12
  1.4076758734158584E-01 a       988     0    66     1    13
  6.4995486448536005E-02 a       989     0    66     1    14
 -8.5800662305204278E-02 a       990     0    66     1    15
  9.0218880693164596E-02 a       991     0    67     1     1
 -1.5357040844532857E-01 a       992     0    67     1     2
  6.2761142786527613E-02 a       993     0    67     1     3
  3.7736419706961961E-02 a       994     0    67     1     4
  1.9420643215367822E-01 a       995     0    67     1     5
 -5.3977812681313075E-02 a       996     0    67     1     6
 -1.0518842440236395E-01 a       997     0    67     1     7
  1.0509144020003851E-01 a       998     0    67     1     8
  1.0145028270471949E-01 a       999     0    67     1     9
 -9.6869100269452835E-02 a      1000     0    67     1    10
 -1.4628031722274751E-01 a      1001     0    67     1    11
 -9.0891651298672910E-02 a      1002     0    67     1    12
 -9.9979163853475272E-02 a      1003     0    67     1    13
 -4.6088214662137042E-02 a      1004     0    67     1    14
 -1.4132191743755637E-01 a      1005     0    67     1    15
  1.0926041759510553E-01 a      1006     0    68     1     1
 -1.3809464615376483E-02 a      1007     0    68     1     2
 -3.1245046838104369E-02 a      1008     0    68     1     3
  1.7268422832916955E-01 a      1009     0    68     1     4
 -1.1107299135305251E-01 a      1010     0    68     1     5
 -1.0431764603387617E-01 a      1011     0    68     1     6
  2.8527411425654836E-01 a      1012     0    68     1     7
 -2.3764908874133628E-01 a      1013     0    68     1     8
 -1.9445169051046179E-01 a      1014     0    68     1     9
 -2.2213114328930253E-01 a      1015     0    68     1    10
 -7.5616354407713873E-02 a      1016     0    68     1    11
  3.6780933818324579E-03 a      1017     0    68     1    12
  1.0077185955866504E-01 a      1018     0    68     1    13
  2.2420631324165263E-01 a      1019     0    68     1    14
 -1.6183341917992533E-01 a      1020     0    68     1    15
  1.1280375903634766E-02 a      1021     0    69     1     1
  2.1483381462805876E-01 a      1022     0    69     1     2
 -3.1503383892701037E-01 a      1023     0    69     1     3
  1.3716276871633246E-01 a      1024     0    69     1     4
 -1.7266039712111481E-01 a      1025     0    69     1     5
  1.3463942705311088E-01 a      1026     0    69     1     6
 -1.1761194762837469E-01 a      1027     0    69     1     7
 -9.2894377920945154E-02 a      1028     0    69     1     8
 -2.1219394147154219E-01 a      1029     0    69     1     9
  6.4263930471169489E-02 a      1030     0    69     1    10
 -1.0739504127530379E-01 a      1031     0    69     1    11
 -8.6690536110365576E-02 a      1032     0    69     1    12
 -6.4732863628938042E-02 a      1033     0    69     1    13
 -1.4246159407586212E-01 a      1034     0    69     1    14
 -1.3218786254429304E-01 a      1035     0    69     1    15
  5.1263751954385171E-02 a      1036     0    70     1     1
 -5.5990942962164038E-02 a      1037     0    70     1     2
 -2.5235425972652425E-01 a      1038     0    70     1     3
  1.0689658574843545E-01 a      1039     0    70     1     4
  2.6624658529764849E-02 a      1040     0    70     1     5
  4.0197306425880257E-02 a      1041     0    70     1     6
  2.0464052138934866E-01 a      1042     0    70     1     7
 -2.7641536827380315E-02 a      1043     0    70     1     8
  1.7801052667671853E-02 a      1044     0    70     1     9
  2.0468566092819145E-02 a      1045     0    70     1    10
 -2.6002256239472238E-01 a      1046     0    70     1    11
  1.2705855150874432E-01 a      1047     0    70     1    12
 -1.8262605223635139E-01 a      1048     0    70     1    13
 -7.8166585395762905E-03 a      1049     0    70     1    14
  1.0027511029871569E-03 a      1050     0    70     1    15
  9.3757043299802625E-02 a      1051     0    71     1     1
 -6.2107349264974812E-02 a      1052     0    71     1     2
  1.0999518949888257E-01 a      1053     0    71     1     3
  1.6186407407314513E-01 a      1054     0    71     1     4
  6.9957545523191998E-03 a      1055     0    71     1     5
  8.5845668701644284E-02 a      1056     0    71     1     6
 -2.1154470848246978E-01 a      1057     0    71     1     7
  4.7714221045090315E-02 a      1058     0    71     1     8
 -1.8029732095002814E-02 a      1059     0    71     1     9
  9.2647970281760639E-02 a      1060     0    71     1    10
  2.4528813438061700E-01 a      1061     0    71     1    11
 -2.1986542120880986E-01 a      1062     0    71     1    12
  2.1509986250785696E-02 a      1063     0    71     1    13
 -1.1936816814279710E-01 a      1064     0    71     1    14
 -5.6145120221466588E-02 a      1065     0    71     1    15
  1.6536069568738851E-01 a      1066     0    72     1     1
 -1.7433027456469588E-01 a      1067     0    72     1     2
 -2.3351164930860990E-02 a      1068     0    72     1     3
 -1.6623385300205271E-02 a      1069     0    72     1     4
  1.7754990635383797E-01 a      1070     0    72     1     5
 -1.7433570875117677E-01 a      1071     0    72     1     6
  1.2094320992233092E-01 a      1072     0    72     1     7
 -1.5871639616688943E-01 a      1073     0    72     1     8
  1.8989406265502493E-01 a      1074     0    72     1     9
 -1.6924827518813110E-01 a      1075     0    72     1    10
  9.1832840814276302E-03 a      1076     0    72     1    11
 -2.0643165424950302E-01 a      1077     0    72     1    12
  2.3392982570762594E-01 a      1078     0    72     1    13
 -5.6370598249337288E-02 a      1079     0    72     1    14
  2.0919116315666691E-01 a      1080     0    72     1    15
  2.3700372077949799E-01 a      1081     0    73     1     1
  9.3465877489974897E-02 a      1082     0    73     1     2
  1.2619042185018187E-01 a      1083     0    73     1     3
  2.0531245669455378E-01 a      1084     0    73     1     4
 -3.0486192821234653E-01 a      1085     0    73     1     5
 -1.9910927514953142E-01 a      1086     0    73     1     6
 -4.4146139041614775E-02 a      1087     0    73     1     7
  4.8568127082796460E-02 a      1088     0    73     1     8
 -1.0352506702075302E-01 a      1089     0    73     1     9
  9.5874372460592411E-02 a      1090     0    73     1    10
  1.1371072613262480E-01 a      1091     0    73     1    11
 -1.8956255393421960E-02 a      1092     0    73     1    12
  9.8562578590820349E-02 a      1093     0    73     1    13
 -5.2519820564871096E-02 a      1094     0    73     1    14
  1.3646069002534292E-01 a      1095     0    73     1    15
  9.4022056829701883E-02 a      1096     0    74     1     1
 -4.8077809844823412E-02 a      1097     0    74     1     2
  1.3698531243605316E-01 a      1098     0    74     1     3
 -9.4501482327165348E-02 a      1099     0    74     1     4
 -1.3147460306631872E-01 a      1100     0    74     1     5
 -5.1813632627339290E-02 a      1101     0    74     1     6
  1.9747950829240085E-01 a      1102     0    74     1     7
  1.7584105144147069E-01 a      1103     0    74     1     8
 -3.6319850012771604E-02 a      1104     0    74     1     9
  4.6984904763849027E-02 a      1105     0    74     1    10
 -1.2476792724521925E-01 a      1106     0    74     1    11
  2.2099064215087813E-01 a      1107     0    74     1    12
  1.5147918829869103E-01 a      1108     0    74     1    13
 -8.9360010875356208E-02 a      1109     0    74     1    14
 -1.6921423809762473E-01 a      1110     0    74     1    15
  1.5108890608110134E-01 a      1111     0    75     1     1
 -1.8597109834212762E-02 a      1112     0    75     1     2
 -3.0568794606909040E-03 a      1113     0    75     1     3
 -1.5817729528917029E-01 a      1114     0    75     1     4
  1.6714557566493776E-01 a      1115     0    75     1     5
 -1.7534272695240949E-01 a      1116     0    75     1     6
 -1.3584796651889355E-01 a      1117     0    75     1     7
  1.5789804837114824E-01 a      1118     0    75     1     8
  1.7129756331605531E-01 a      1119     0    75     1     9
  1.2236319109593126E-01 a      1120     0    75     1    10
  2.0948051373341645E-01 a      1121     0    75     1    11
 -1.7843873670318949E-01 a      1122     0    75     1    12
  2.8413823712388236E-01 a      1123     0    75     1    13
  1.1242899144416613E-02 a      1124     0    75     1    14
  5.8774995983591052E-02 a      1125     0    75     1    15
 -1.8849704799750688E-01 a      1126     0    76     1     1
 -1.0901773821703382E-01 a      1127     0    76     1     2
  1.8812668523047898E-01 a      1128     0    76     1     3
 -1.4830885179424122E-01 a      1129     0    76     1     4
  1.0348173483225494E-01 a      1130     0    76     1     5
  1.0860778590612077E-01 a      1131     0    76     1     6
  5.2335973105590974E-02 a      1132     0    76     1     7
  5.5799688914593991E-02 a      1133     0    76     1     8
  1.7685167817581904E-01 a      1134     0    76     1     9
 -1.2035065410558489E-01 a      1135     0    76     1    10
 -1.5796804349145582E-01 a      1136     0    76     1    11
 -4.1953822798719301E-02 a      1137     0    76     1    12
 -3.0855255334217759E-02 a      1138     0    76     1    13
 -4.2443379815034030E-02 a      1139     0    76     1    14
 -2.5878737252020984E-01 a      1140     0    76     1    15
 -6.2114682922020450E-02 a      1141     0    77     1     1
  4.4088286630212706E-02 a      1142     0    77     1     2
  4.1838193986400103E-02 a      1143     0    77     1     3
  4.7271625806467446E-02 a      1144     0    77     1     4
  2.4193553823163790E-02 a      1145     0    77     1     5
  1.7629554166000105E-01 a      1146     0    77     1     6
 -1.4265281081037695E-01 a      1147     0    77     1     7
 -7.8692178952477876E-02 a      1148     0    77     1     8
  2.6674463392044789E-01 a      1149     0    77     1     9
 -2.2399728867090976E-02 a      1150     0    77     1    10
  2.3844408478984036E-01 a      1151     0    77     1    11
 -1.4528023591987166E-01 a      1152     0    77     1    12
 -1.8448675121576041E-01 a      1153     0    77     1    13
  2.3650882330774828E-01 a      1154     0    77     1    14
  2.4207285595088660E-01 a      1155     0    77     1    15
 -9.7376818938297319E-02 a      1156     0    78     1     1
 -1.3617933005545638E-01 a      1157     0    78     1     2
  1.6934122003291968E-01 a      1158     0    78     1     3
 -1.3566470081682624E-01 a      1159     0    78     1     4
 -1.7416773798541318E-01 a      1160     0    78     1     5
  1.0771027960198415E-01 a      1161     0    78     1     6
 -1.0529526994615929E-01 a      1162     0    78     1     7
  1.4363991720346388E-02 a      1163     0    78     1     8
 -1.3459779809815020E-01 a      1164     0    78     1     9
  2.9769639213559457E-01 a      1165     0    78     1    10
  2.7975562795321407E-01 a      1166     0    78     1    11
  1.7595399337862395E-02 a      1167     0    78     1    12
  1.9226038416184105E-01 a      1168     0    78     1    13
 -2.2235839954340170E-01 a      1169     0    78     1    14
 -1.7954633185987098E-01 a      1170     0    78     1    15
 -1.5348574864761313E-01 b      1171     1     1
  1.3164419976607882E+00 b      1172     1     2
 -9.8028244557406363E-01 b      1173     1     3
 -7.8602123009185043E-01 b      1174     1     4
  7.4325710634577782E-02 b      1175     1     5
 -5.1575006170153079E-02 b      1176     1     6
 -1.0861271852864258E+00 b      1177     1     7
  4.0254937223157400E-02 b      1178     1     8
  6.5686178199109324E-01 b      1179     1     9
 -1.0272285082662693E+00 b      1180     1    10
  1.0982332742558281E+00 b      1181     1    11
 -1.0028845263459603E+00 b      1182     1    12
 -1.2282381535869125E+00 b      1183     1    13
  2.9856928023353008E-01 b      1184     1    14
 -8.2340009349417331E-01 b      1185     1    15
  4.0850867320100015E-01 a      1186     1     1     2     1
 -2.3036592158010116E-01 a      1187     1     1     2     2
  1.0474328234390821E-01 a      1188     1     1     2     3
 -2.3100592040932702E-01 a      1189     1     1     2     4
 -2.9073132223243164E-01 a      1190     1     1     2     5
  3.2072171409095240E-01 a      1191     1     1     2     6
 -6.4290403444771577E-02 a      1192     1     1     2     7
 -3.4777205492310925E-01 a      1193     1     1     2     8
  5.0518046363579827E-01 a      1194     1     1     2     9
 -6.1740771374646464E-01 a      1195     1     1     2    10
 -5.5527347902660784E-02 a      1196     1     1     2    11
 -1.3395261482380830E-01 a      1197     1     1     2    12
  3.5239196329879185E-01 a      1198     1     1     2    13
  7.3749103134290702E-03 a      1199     1     1     2    14
 -6.1873888917152842E-01 a      1200     1     1     2    15
  6.7906160984127439E-01 a      1201     1     2     2     1
  5.1189008781198764E-01 a      1202     1     2     2     2
 -5.2992878777868527E-02 a      1203     1     2     2     3
  6.8155299268231384E-01 a      1204     1     2     2     4
  6.3769868902381566E-01 a      1205     1     2     2     5
  6.6129467759469485E-01 a      1206     1     2     2     6
 -2.3064008302517081E-01 a      1207     1     2     2     7
  1.5054719053867549E-01 a      1208     1     2     2     8
 -2.3278356796649610E-01 a      1209     1     2     2     9
 -5.4285675270478118E-01 a      1210     1     2     2    10
  2.8689876353668176E-01 a      1211     1     2     2    11
  6.5736680829608596E-01 a      1212     1     2     2    12
  1.7380716021756537E-01 a      1213     1     2     2    13
  3.3952387823564362E-01 a      1214     1     2     2    14
  2.4454537622241870E-01 a      1215     1     2     2    15
  3.1511743029359607E-01 a      1216     1     3     2     1
 -9.0589484434001305E-02 a      1217     1     3     2     2
 -4.6775012718185865E-01 a      1218     1     3     2     3
 -1.4109887248109895E-01 a      1219     1     3     2     4
  3.1374434999083495E-01 a      1220     1     3     2     5
  2.4154394608984522E-01 a      1221     1     3     2     6
 -3.1609111777375276E-01 a      1222     1     3     2     7
 -5.1359725747750762E-01 a      1223     1     3     2     8
  7.1165015331849402E-01 a      1224     1     3     2     9
  3.7900399959837705E-01 a      1225     1     3     2    10
  4.0235860807291712E-01 a      1226     1     3     2    11
  3.3927679690089979E-01 a      1227     1     3     2    12
 -2.5285295053408979E-01 a      1228     1     3     2    13
  2.7866009519996798E-01 a      1229     1     3     2    14
 -2.7504921146455480E-01 a      1230     1     3     2    15
  3.7405334804081580E-01 a      1231     1     4     2     1
  4.7574309792322750E-01 a      1232     1     4     2     2
 -3.7588741827665656E-01 a      1233     1     4     2     3
  6.4505514157409505E-01 a      1234     1     4     2     4
 -5.3206083977380292E-01 a      1235     1     4     2     5
 -1.2595474851830685E-01 a      1236     1     4     2     6
  1.8369552831457581E-01 a      1237     1     4     2     7
  1.3800751210861675E-01 a      1238     1     4     2     8
  3.8994002026166558E-01 a      1239     1     4     2     9
 -3.5767200013228875E-02 a      1240     1     4     2    10
  1.3043379412929021E-01 a      1241     1     4     2    11
 -8.0090997311996004E-01 a      1242     1     4     2    12
 -4.4846087333801904E-01 a      1243     1     4     2    13
 -8.6419808702248613E-01 a      1244     1     4     2    14
  4.3616568056398386E-01 a      1245     1     4     2    15
 -2.5417788139670405E-01 a      1246     1     5     2     1
  5.3249221898064170E-01 a      1247     1     5     2     2
 -3.0300216635701449E-01 a      1248     1     5     2     3
 -3.9827021875774687E-01 a      1249     1     5     2     4
  5.5549175856801553E-02 a      1250     1     5     2     5
  1.2289958423800536E-01 a      1251     1     5     2     6
  6.1241121516276520E-01 a      1252     1     5     2     7
 -5.5013828768073236E-01 a      1253     1     5     2     8
 -6.7661355788630506E-01 a      1254     1     5     2     9
 -5.3607031362818525E-01 a      1255     1     5     2    10
  3.9968576341390522E-01 a      1256     1     5     2    11
 -4.0948904117306689E-01 a      1257     1     5     2    12
  1.4024413425947707E-01 a      1258     1     5     2    13
 -5.4113866125533328E-01 a      1259     1     5     2    14
 -3.2788079007406262E-01 a      1260     1     5     2    15
 -3.0122893869080258E-01 a      1261     1     6     2     1
 -7.7347362212208248E-01 a      1262     1     6     2     2
 -5.8780287337738946E-01 a      1263     1     6     2     3
  6.3807214820414571E-02 a      1264     1     6     2     4
 -6.1497132971054258E-01 a      1265     1     6     2     5
  7.9094646652443801E-01 a      1266     1     6     2     6
 -6.7716524063898414E-02 a      1267     1     6     2     7
  3.8501954641220908E-02 a      1268     1     6     2     8
  4.6856715539091570E-01 a      1269     1     6     2     9
  4.5247088418020215E-01 a      1270     1     6     2    10
  4.6240892945834655E-01 a      1271     1     6     2    11
  1.2588650020345768E-02 a      1272     1     6     2    12
 -6.2128570619601964E-01 a      1273     1     6     2    13
  1.6487258632641588E-01 a      1274     1     6     2    14
 -1.8550773395921233E-01 a      1275     1     6     2    15
  4.9579766444506190E-01 a      1276     1     7     2     1
 -1.1957756402185379E-01 a      1277     1     7     2     2
 -6.8056145952981439E-01 a      1278     1     7     2     3
 -2.3416852787195921E-01 a      1279     1     7     2     4
 -5.8395885423366600E-01 a      1280     1     7     2     5
 -2.1402836304651440E-01 a      1281     1     7     2     6
 -1.5337617053128175E-01 a      1282     1     7     2     7
  2.4277442249089662E-01 a      1283     1     7     2     8
 -4.2480223539812423E-01 a      1284     1     7     2     9
  6.5485105704766433E-01 a      1285     1     7     2    10
  5.8185979612677341E-01 a      1286     1     7     2    11
 -1.1967180203439727E-01 a      1287     1     7     2    12
 -6.8635768190224977E-01 a      1288     1     7     2    13
 -2.9721799548734978E-01 a      1289     1     7     2    14
 -4.9264591255570317E-01 a      1290     1     7     2    15
  3.1781876279840271E-01 a      1291     1     8     2     1
 -3.0347838594755377E-01 a      1292     1     8     2     2
  3.8957661596710724E-01 a      1293     1     8     2     3
 -2.1958600727007557E-01 a      1294     1     8     2     4
 -1.5200847350511409E-01 a      1295     1     8     2     5
 -3.7456204511614805E-01 a      1296     1     8     2     6
 -2.1650481059472432E-01 a      1297     1     8     2     7
  1.7339973582468088E-01 a      1298     1     8     2     8
 -4.9934983197538413E-01 a      1299     1     8     2     9
  5.9295517363510264E-01 a      1300     1     8     2    10
 -4.4894838559969769E-01 a      1301     1     8     2    11
 -4.0601620730242627E-01 a      1302     1     8     2    12
 -1.8616614100405429E-01 a      1303     1     8     2    13
  1.7788725754099818E-01 a      1304     1     8     2    14
 -5.3690767729966282E-01 a      1305     1     8     2    15
 -2.0699772389278046E-01 a      1306     1     9     2     1
 -1.8851796555859940E-01 a      1307     1     9     2     2
  2.5568433137971891E-01 a      1308     1     9     2     3
  5.3288044108939647E-01 a      1309     1     9     2     4
 -2.0984842194242081E-02 a      1310     1     9     2     5
 -3.7457855070671903E-01 a      1311     1     9     2     6
 -7.3357628225785942E-01 a      1312     1     9     2     7
 -7.6146790418824806E-01 a      1313     1     9     2     8
 -4.9797099624976349E-01 a      1314     1     9     2     9
  8.4451032466575801E-02 a      1315     1     9     2    10
 -8.0623897518789556E-01 a      1316     1     9     2    11
  3.8105942278116001E-01 a      1317     1     9     2    12
 -4.6504910632809304E-01 a      1318     1     9     2    13
  2.7721792712841986E-01 a      1319     1     9     2    14
 -2.5970333635424758E-01 a      1320     1     9     2    15
 -3.8352060801694488E-01 a      1321     1    10     2     1
  1.7097284061728615E-01 a      1322     1    10     2     2
 -3.5538505341768195E-01 a      1323     1    10     2     3
 -5.9123201745897680E-01 a      1324     1    10     2     4
  6.6928007219118041E-02 a      1325     1    10     2     5
 -6.9126730090208532E-01 a      1326     1    10     2     6
  6.3586671577043019E-01 a      1327     1    10     2     7
 -5.1698083118295303E-02 a      1328     1    10     2     8
 -4.6387245476430661E-01 a      1329     1    10     2     9
 -3.9034608566049456E-02 a      1330     1    10     2    10
  5.7379699528325911E-01 a      1331     1    10     2    11
  3.9971309845979586E-01 a      1332     1    10     2    12
  5.0155462729440337E-01 a      1333     1    10     2    13
  3.0275503812346083E-01 a      1334     1    10     2    14
  4.2876445786889511E-01 a      1335     1    10     2    15
 -5.1995643205759989E-01 a      1336     1    11     2     1
 -4.5117101569937423E-01 a      1337     1    11     2     2
  4.3791140066438289E-01 a      1338     1    11     2     3
  3.5366999413699141E-01 a      1339     1    11     2     4
  4.1279914562631520E-01 a      1340     1    11     2     5
 -3.7120927887999899E-01 a      1341     1    11     2     6
 -2.8220450775326672E-01 a      1342     1    11     2     7
 -2.4772701284143372E-01 a      1343     1    11     2     8
 -1.6259378581636985E-01 a      1344     1    11     2     9
  2.0641827364558840E-01 a      1345     1    11     2    10
 -5.9851129074774079E-01 a      1346     1    11     2    11
 -4.7938019555049766E-01 a      1347     1    11     2    12
  1.7531892459140475E-01 a      1348     1    11     2    13
 -3.0788872974702708E-01 a      1349     1    11     2    14
 -5.9918532792442225E-01 a      1350     1    11     2    15
  1.5408759340980918E-01 a      1351     1    12     2     1
 -6.5194417450135012E-01 a      1352     1    12     2     2
 -3.4276115471065988E-01 a      1353     1    12     2     3
 -6.8966766413341840E-01 a      1354     1    12     2     4
 -4.2205387303361308E-01 a      1355     1    12     2     5
  5.0220773099632066E-01 a      1356     1    12     2     6
 -5.0931516373017460E-01 a      1357     1    12     2     7
 -5.9364209670710510E-01 a      1358     1    12     2     8
 -4.0867965662399586E-01 a      1359     1    12     2     9
  5.1229346227194150E-01 a      1360     1    12     2    10
 -2.3873530592116032E-01 a      1361     1    12     2    11
 -7.6135473883719176E-02 a      1362     1    12     2    12
 -7.9024686520473542E-01 a      1363     1    12     2    13
 -5.3242884813785130E-01 a      1364     1    12     2    14
 -6.6498520653769821E-01 a      1365     1    12     2    15
  4.3787249053104127E-01 a      1366     1    13     2     1
 -2.4585697717612429E-01 a      1367     1    13     2     2
  2.3652147881639729E-01 a      1368     1    13     2     3
  5.1534141309104653E-01 a      1369     1    13     2     4
 -5.6056959019372654E-01 a      1370     1    13     2     5
 -5.2088872657277885E-01 a      1371     1    13     2     6
 -5.2839445228509163E-01 a      1372     1    13     2     7
  7.7049633284663244E-01 a      1373     1    13     2     8
 -2.8432371944115405E-02 a      1374     1    13     2     9
 -5.4861386395038636E-01 a      1375     1    13     2    10
 -3.1637061344778583E-01 a      1376     1    13     2    11
  7.5451515132054980E-01 a      1377     1    13     2    12
  1.4169700843874397E-01 a      1378     1    13     2    13
 -1.9291321813702306E-01 a      1379     1    13     2    14
  2.8835703379882738E-01 a      1380     1    13     2    15
  6.6529767855456323E-01 a      1381     1    14     2     1
  1.8763647980889331E-01 a      1382     1    14     2     2
  3.3436116059238524E-01 a      1383     1    14     2     3
 -2.9961645831868272E-01 a      1384     1    14     2     4
 -6.2008935045622493E-01 a      1385     1    14     2     5
 -4.9568756011074749E-01 a      1386     1    14     2     6
 -5.9270489291806050E-01 a      1387     1    14     2     7
  2.1903078144450011E-01 a      1388     1    14     2     8
 -2.3624219504655156E-01 a      1389     1    14     2     9
  1.9350381151479157E-01 a      1390     1    14     2    10
 -3.1588002949192234E-01 a      1391     1    14     2    11
 -4.0955721362009490E-01 a      1392     1    14     2    12
  2.6000486601747064E-01 a      1393     1    14     2    13
 -2.7688546990735496E-01 a      1394     1    14     2    14
 -2.6684539223923665E-01 a      1395     1    14     2    15
 -5.4143403867607620E-01 a      1396     1    15     2     1
 -6.6433660932607830E-01 a      1397     1    15     2     2
 -2.1403504159460351E-01 a      1398     1    15     2     3
  5.4117889977150668E-01 a      1399     1    15     2     4
  3.7780265416085140E-01 a      1400     1    15     2     5
  1.5595374333523873E-01 a      1401     1    15     2     6
 -3.4373863047759895E-01 a      1402     1    15     2     7
  5.8839890064344136E-01 a      1403     1    15     2     8
  1.4965675257907718E-01 a      1404     1    15     2     9
 -4.4253541064198598E-01 a      1405     1    15     2    10
  2.8127084187457019E-01 a      1406     1    15     2    11
 -3.7929768600486524E-01 a      1407     1    15     2    12
  2.1719497076406902E-01 a      1408     1    15     2    13
  8.2749077353818545E-01 a      1409     1    15     2    14
 -1.3148674290413084E-01 a      1410     1    15     2    15
 -1.1769946406014613E+00 b      1411     2     1
  9.2551945041936090E-01 b      1412     2     2
 -1.4343332996393796E+00 b      1413     2     3
 -9.4447492193622173E-01 b      1414     2     4
  1.4655154999425921E+00 b      1415     2     5
  1.8561461645809493E-01 b      1416     2     6
 -1.6380375207092219E+00 b      1417     2     7
 -1.1765232630020830E+00 b      1418     2     8
 -2.8279285416390931E-01 b      1419     2     9
 -2.2882010588126950E-01 b      1420     2    10
  1.0504059898101825E+00 b      1421     2    11
 -1.4303632558480650E+00 b      1422     2    12
  1.3619685045429353E-01 b      1423     2    13
 -1.4986590443066248E+00 b      1424     2    14
 -1.1009405337744540E+00 b      1425     2    15
  5.8137862722416216E-02 a      1426     2     1     3     1
 -8.1694087006469029E-01 a      1427     2     2     3     1
  8.6122549248978342E-01 a      1428     2     3     3     1
  6.0995234874066467E-02 a      1429     2     4     3     1
  5.4271253897725091E-01 a      1430     2     5     3     1
  6.5815826825054435E-02 a      1431     2     6     3     1
 -2.4137404443292029E-01 a      1432     2     7     3     1
 -3.5350433235815332E-01 a      1433     2     8     3     1
  3.7008286659821282E-02 a      1434     2     9     3     1
 -1.4919363840408262E-01 a      1435     2    10     3     1
  7.2803100835611156E-01 a      1436     2    11     3     1
  2.0777294059055337E-01 a      1437     2    12     3     1
 -8.7689559573156850E-01 a      1438     2    13     3     1
 -4.2371759023357894E-02 a      1439     2    14     3     1
 -3.2008911727530304E-01 a      1440     2    15     3     1
  8.7179377515028111E-01 b      1441     3     1
