################################################################################
# Neural network connection values (weights and biases).
################################################################################
# Col  Name       Description
################################################################################
# 1    connection Neural network connection value.
# 2    t          Connection type (a = weight, b = bias).
# 3    index      Index enumerating weights.
# 4    l_s        Starting point layer (end point layer for biases).
# 5    n_s        Starting point neuron in starting layer (end point neuron for biases).
# 6    l_e        End point layer.
# 7    n_e        End point neuron in end layer.
################################################################################
#                      1 2         3     4     5     6     7
#             connection t     index   l_s   n_s   l_e   n_e
############################################################
  2.2119934812226746E-01 a         1     0     1     1     1
 -2.2752442242935783E-01 a         2     0     1     1     2
  1.3948471021162734E-01 a         3     0     1     1     3
  1.9424741866683218E-01 a         4     0     1     1     4
  9.7964666757818508E-02 a         5     0     1     1     5
  2.2588820102629234E-02 a         6     0     1     1     6
 -5.3893252763250708E-02 a         7     0     1     1     7
 -2.2516620749093028E-01 a         8     0     1     1     8
 -1.3093418307862439E-01 a         9     0     1     1     9
 -2.6489332980363253E-02 a        10     0     1     1    10
  1.8454811566924043E-01 a        11     0     1     1    11
  1.2422031591378618E-01 a        12     0     1     1    12
  3.5656051036575251E-02 a        13     0     1     1    13
 -2.3505808893388511E-01 a        14     0     1     1    14
  4.9209660885797285E-02 a        15     0     1     1    15
 -1.9564743041803784E-01 a        16     0     2     1     1
  6.0769517231408075E-02 a        17     0     2     1     2
 -8.7733475419233070E-02 a        18     0     2     1     3
  1.8910632093719781E-01 a        19     0     2     1     4
  1.3497587851497755E-01 a        20     0     2     1     5
  1.5543439409869933E-01 a        21     0     2     1     6
 -4.1533275279145724E-03 a        22     0     2     1     7
 -1.6735469732532743E-01 a        23     0     2     1     8
  1.7284649770277236E-01 a        24     0     2     1     9
 -1.2548192846925210E-02 a        25     0     2     1    10
 -9.9075877788506322E-02 a        26     0     2     1    11
 -2.4197388449823315E-01 a        27     0     2     1    12
  1.2963593555056743E-01 a        28     0     2     1    13
  1.7761123809107540E-01 a        29     0     2     1    14
 -1.8568605347604242E-01 a        30     0     2     1    15
  1.1645668864596824E-01 a        31     0     3     1     1
 -2.0345805142657791E-01 a        32     0     3     1     2
  1.9648544071554554E-02 a        33     0     3     1     3
 -6.6425124017616105E-02 a        34     0     3     1     4
 -1.4103358742575689E-01 a        35     0     3     1     5
 -3.5651957136554224E-02 a        36     0     3     1     6
  7.3240396696176990E-02 a        37     0     3     1     7
  1.8810228166925153E-01 a        38     0     3     1     8
  1.0030605349736965E-01 a        39     0     3     1     9
  1.1609639652704134E-02 a        40     0     3     1    10
 -3.5271529921409028E-02 a        41     0     3     1    11
  1.3783157119194792E-01 a        42     0     3     1    12
  1.3076594433643203E-02 a        43     0     3     1    13
  1.0401290180625875E-01 a        44     0     3     1    14
  9.9536860108462272E-02 a        45     0     3     1    15
 -1.5941278286324581E-01 a        46     0     4     1     1
  3.9461287662255908E-02 a        47     0     4     1     2
  1.7468022656903698E-01 a        48     0     4     1     3
  2.6052681653689397E-01 a        49     0     4     1     4
 -2.1200610474847484E-01 a        50     0     4     1     5
  7.6135527272506651E-03 a        51     0     4     1     6
  1.7222198332006847E-02 a        52     0     4     1     7
  2.7399866643547716E-01 a        53     0     4     1     8
  1.0495531382768572E-01 a        54     0     4     1     9
 -1.9266745095353154E-02 a        55     0     4     1    10
 -6.7444211007529092E-02 a        56     0     4     1    11
  1.2618621736041044E-01 a        57     0     4     1    12
  8.8301692589714098E-02 a        58     0     4     1    13
 -2.0639991755631754E-01 a        59     0     4     1    14
  1.5062211370517836E-01 a        60     0     4     1    15
  1.4976860428261962E-01 a        61     0     5     1     1
  2.5078707825182250E-01 a        62     0     5     1     2
  1.0321566476863590E-01 a        63     0     5     1     3
 -2.6602514105542896E-01 a        64     0     5     1     4
 -4.7470684361881191E-02 a        65     0     5     1     5
 -1.1084845528149240E-01 a        66     0     5     1     6
 -6.0921868611547782E-02 a        67     0     5     1     7
  1.6659471171642659E-01 a        68     0     5     1     8
 -1.4739603107183358E-01 a        69     0     5     1     9
 -1.9120726285614547E-02 a        70     0     5     1    10
  4.0601421092267012E-02 a        71     0     5     1    11
  6.2021813535437058E-02 a        72     0     5     1    12
 -1.3273286627072103E-01 a        73     0     5     1    13
 -9.6044352916047668E-02 a        74     0     5     1    14
  1.4094472331878195E-02 a        75     0     5     1    15
 -1.1097571626413084E-01 a        76     0     6     1     1
 -1.0623834940178392E-01 a        77     0     6     1     2
  4.8739610259500507E-02 a        78     0     6     1     3
 -4.8708828240396650E-02 a        79     0     6     1     4
  8.6117465990998412E-02 a        80     0     6     1     5
  2.0755840232027295E-01 a        81     0     6     1     6
 -1.0154037551274918E-02 a        82     0     6     1     7
 -1.3367194726257273E-01 a        83     0     6     1     8
 -1.6880084088527467E-02 a        84     0     6     1     9
 -5.6090510300825784E-02 a        85     0     6     1    10
  1.2721436432227010E-01 a        86     0     6     1    11
  1.6521412974318128E-01 a        87     0     6     1    12
  6.8643207257933658E-02 a        88     0     6     1    13
 -9.2236182771629524E-02 a        89     0     6     1    14
  1.3360789687011740E-01 a        90     0     6     1    15
 -1.2055195507483100E-01 a        91     0     7     1     1
 -2.0531301631772858E-01 a        92     0     7     1     2
  2.4417264441975717E-01 a        93     0     7     1     3
  1.7974646374515079E-02 a        94     0     7     1     4
 -1.9572279226603070E-01 a        95     0     7     1     5
  1.8454245575376577E-01 a        96     0     7     1     6
  3.4239858555833336E-02 a        97     0     7     1     7
  1.0107733092591656E-01 a        98     0     7     1     8
  1.4980021277246852E-01 a        99     0     7     1     9
 -1.6797269159980383E-01 a       100     0     7     1    10
 -9.5470739886395178E-02 a       101     0     7     1    11
  1.1679226030387815E-01 a       102     0     7     1    12
  3.1630600862888497E-01 a       103     0     7     1    13
 -4.3713822534558480E-02 a       104     0     7     1    14
 -1.5957986323046000E-01 a       105     0     7     1    15
 -3.7576161239366586E-02 a       106     0     8     1     1
 -1.8722780681451665E-01 a       107     0     8     1     2
 -8.9645647122080230E-02 a       108     0     8     1     3
 -2.6029753540708186E-02 a       109     0     8     1     4
  1.1966331705481342E-01 a       110     0     8     1     5
  1.1164387160228298E-01 a       111     0     8     1     6
 -2.1507187795881519E-01 a       112     0     8     1     7
  1.4288809850145739E-01 a       113     0     8     1     8
 -1.2932782524482109E-01 a       114     0     8     1     9
  1.9381811288044218E-01 a       115     0     8     1    10
  2.2939101421308805E-01 a       116     0     8     1    11
 -2.1579236428348306E-01 a       117     0     8     1    12
  2.8497564962989219E-01 a       118     0     8     1    13
  1.0562704113769894E-01 a       119     0     8     1    14
 -2.5118742618283396E-01 a       120     0     8     1    15
 -8.4623179199377022E-02 a       121     0     9     1     1
  2.5770550965580730E-01 a       122     0     9     1     2
 -2.6132002901081454E-02 a       123     0     9     1     3
  2.2984513304811282E-02 a       124     0     9     1     4
  9.2242611416322187E-02 a       125     0     9     1     5
 -1.2237992503732165E-01 a       126     0     9     1     6
 -1.1476082563973149E-01 a       127     0     9     1     7
 -1.4560699707493838E-02 a       128     0     9     1     8
  1.5749163319197629E-01 a       129     0     9     1     9
  3.4377263481704384E-01 a       130     0     9     1    10
 -1.8748957022078525E-01 a       131     0     9     1    11
 -1.4016640499607063E-02 a       132     0     9     1    12
  5.2278662524209839E-02 a       133     0     9     1    13
  1.8259051526723121E-03 a       134     0     9     1    14
 -1.4897674370901912E-01 a       135     0     9     1    15
 -9.4857705382755272E-02 a       136     0    10     1     1
  9.0616637969805361E-02 a       137     0    10     1     2
  9.7490463731150612E-02 a       138     0    10     1     3
  1.3916885887130014E-02 a       139     0    10     1     4
  1.5764678286502187E-01 a       140     0    10     1     5
 -7.2232179280226058E-02 a       141     0    10     1     6
 -4.6856309251678604E-03 a       142     0    10     1     7
  1.1091712388435328E-01 a       143     0    10     1     8
  1.6339262491034318E-02 a       144     0    10     1     9
  9.8524075305361739E-02 a       145     0    10     1    10
 -1.5236065147455913E-01 a       146     0    10     1    11
 -1.5921691375199470E-01 a       147     0    10     1    12
 -1.8467402087907112E-01 a       148     0    10     1    13
 -2.8222787370407046E-03 a       149     0    10     1    14
  1.1645838803330521E-02 a       150     0    10     1    15
  1.1728827886344598E-01 a       151     0    11     1     1
 -1.2377434247327377E-02 a       152     0    11     1     2
  9.8744897979320748E-02 a       153     0    11     1     3
 -4.3924284063746565E-02 a       154     0    11     1     4
  1.9926428988292047E-01 a       155     0    11     1     5
  8.2555441716360645E-02 a       156     0    11     1     6
 -2.1945067144603392E-01 a       157     0    11     1     7
  1.7397628587530082E-02 a       158     0    11     1     8
  3.0786081716229940E-01 a       159     0    11     1     9
 -1.0477012772641611E-01 a       160     0    11     1    10
  9.2586816410819325E-02 a       161     0    11     1    11
  1.3022561036068880E-01 a       162     0    11     1    12
 -1.9317039919804230E-01 a       163     0    11     1    13
 -2.7929734894839803E-01 a       164     0    11     1    14
  2.7402844491765088E-01 a       165     0    11     1    15
 -1.3335078482955134E-01 a       166     0    12     1     1
  2.1246246263996491E-01 a       167     0    12     1     2
  1.8209830836352364E-01 a       168     0    12     1     3
 -4.1590345160316004E-02 a       169     0    12     1     4
  1.5287996999018871E-01 a       170     0    12     1     5
  1.9936425577995137E-01 a       171     0    12     1     6
  1.3512597512874508E-01 a       172     0    12     1     7
 -1.4762333107217113E-01 a       173     0    12     1     8
  3.7325862158463882E-02 a       174     0    12     1     9
  3.5979739112348380E-01 a       175     0    12     1    10
 -5.1499445542845454E-02 a       176     0    12     1    11
 -1.8154818577503304E-01 a       177     0    12     1    12
 -1.6679154455802855E-01 a       178     0    12     1    13
  1.8626541646003150E-01 a       179     0    12     1    14
  2.3573947636396292E-01 a       180     0    12     1    15
 -2.4252463714192235E-02 a       181     0    13     1     1
  1.7598263966068070E-01 a       182     0    13     1     2
  2.2091026597146021E-01 a       183     0    13     1     3
 -6.3085382790534203E-02 a       184     0    13     1     4
 -6.6237888955905794E-02 a       185     0    13     1     5
  2.3837922782231818E-01 a       186     0    13     1     6
 -5.8099617418155114E-02 a       187     0    13     1     7
 -2.1262876030220484E-01 a       188     0    13     1     8
  1.9950113359167010E-01 a       189     0    13     1     9
 -5.9190927222643318E-02 a       190     0    13     1    10
  1.1276023698367955E-01 a       191     0    13     1    11
 -9.6391759907216795E-02 a       192     0    13     1    12
  8.2691010655749145E-02 a       193     0    13     1    13
  5.9943090164179112E-02 a       194     0    13     1    14
  9.5735083746911795E-02 a       195     0    13     1    15
  9.5515035864630310E-02 a       196     0    14     1     1
 -1.2884126619564926E-01 a       197     0    14     1     2
  3.5691563526332799E-02 a       198     0    14     1     3
 -3.5032619976695561E-01 a       199     0    14     1     4
 -2.7777242741364538E-01 a       200     0    14     1     5
  1.3233929511664589E-02 a       201     0    14     1     6
 -5.7851371371049273E-02 a       202     0    14     1     7
  1.4407582008376510E-01 a       203     0    14     1     8
 -4.1583973806626137E-02 a       204     0    14     1     9
 -5.5585048538070309E-02 a       205     0    14     1    10
 -1.0906714570400876E-01 a       206     0    14     1    11
 -3.3465297459335080E-01 a       207     0    14     1    12
 -1.2212817145113361E-01 a       208     0    14     1    13
 -2.2865713987365519E-01 a       209     0    14     1    14
  2.5745583581919279E-01 a       210     0    14     1    15
  1.5019277007645787E-01 a       211     0    15     1     1
  8.3399521293261988E-02 a       212     0    15     1     2
 -8.5979747926568151E-02 a       213     0    15     1     3
  9.0797569656937360E-02 a       214     0    15     1     4
  2.0318857323791514E-01 a       215     0    15     1     5
 -1.1522078078406826E-01 a       216     0    15     1     6
 -1.8043983393307272E-01 a       217     0    15     1     7
  1.7782952058335705E-01 a       218     0    15     1     8
  1.7037242030188540E-02 a       219     0    15     1     9
 -1.8668133614657081E-01 a       220     0    15     1    10
  9.9385737389275558E-02 a       221     0    15     1    11
  5.9742543253027094E-02 a       222     0    15     1    12
 -1.1704561363109175E-01 a       223     0    15     1    13
  4.8772104310349888E-02 a       224     0    15     1    14
  1.9476270220616201E-01 a       225     0    15     1    15
  2.5528394367850071E-01 a       226     0    16     1     1
 -2.5562238465835713E-01 a       227     0    16     1     2
 -5.1946869574013559E-02 a       228     0    16     1     3
 -4.5018268513952013E-02 a       229     0    16     1     4
  7.0831641663226516E-02 a       230     0    16     1     5
 -3.0123575216042090E-02 a       231     0    16     1     6
 -2.2861080772036753E-02 a       232     0    16     1     7
  2.0636970195593554E-01 a       233     0    16     1     8
 -1.9920764569311195E-01 a       234     0    16     1     9
  1.6523827394350354E-01 a       235     0    16     1    10
 -2.8508292089718057E-01 a       236     0    16     1    11
  7.0304054839964306E-03 a       237     0    16     1    12
 -1.4511979347698333E-02 a       238     0    16     1    13
 -1.5629869136435559E-01 a       239     0    16     1    14
  1.0234589126311563E-01 a       240     0    16     1    15
  2.2547371173092971E-02 a       241     0    17     1     1
  2.6411720637320801E-01 a       242     0    17     1     2
  6.7889423249367281E-02 a       243     0    17     1     3
  1.0804433238481980E-03 a       244     0    17     1     4
 -2.4274108011648508E-02 a       245     0    17     1     5
  1.6366049919424905E-01 a       246     0    17     1     6
  1.6571174604270400E-01 a       247     0    17     1     7
 -7.7916082958949015E-02 a       248     0    17     1     8
 -1.2583800170278192E-01 a       249     0    17     1     9
 -4.0904380811126956E-03 a       250     0    17     1    10
 -6.0472237311363281E-02 a       251     0    17     1    11
  2.5098596513690480E-01 a       252     0    17     1    12
  1.5983780975471740E-01 a       253     0    17     1    13
 -3.5533325411104370E-02 a       254     0    17     1    14
  9.3663639364137893E-02 a       255     0    17     1    15
 -6.3895582269652695E-02 a       256     0    18     1     1
  4.7413242088823644E-02 a       257     0    18     1     2
  7.6040997736751131E-02 a       258     0    18     1     3
 -1.3735088296434395E-01 a       259     0    18     1     4
 -6.0578016590686110E-02 a       260     0    18     1     5
 -1.9075948183451950E-02 a       261     0    18     1     6
  5.7027461032362392E-02 a       262     0    18     1     7
 -4.5575052628407532E-02 a       263     0    18     1     8
 -6.6450625923652584E-02 a       264     0    18     1     9
  6.0745861361182457E-02 a       265     0    18     1    10
 -1.6944027869635964E-02 a       266     0    18     1    11
  6.9700781826081068E-02 a       267     0    18     1    12
 -3.3771800284990043E-02 a       268     0    18     1    13
  8.7022469014742421E-02 a       269     0    18     1    14
 -8.9873283411361744E-04 a       270     0    18     1    15
  1.1235919500926979E-01 a       271     0    19     1     1
  2.7381424763761830E-01 a       272     0    19     1     2
  5.1906717130873005E-02 a       273     0    19     1     3
  1.8610997752624953E-01 a       274     0    19     1     4
 -1.8803506041178400E-01 a       275     0    19     1     5
 -1.1979564727288561E-01 a       276     0    19     1     6
 -9.8075675198441792E-02 a       277     0    19     1     7
  7.1337721197116261E-02 a       278     0    19     1     8
 -1.5770579711738081E-01 a       279     0    19     1     9
 -3.8876017745625424E-01 a       280     0    19     1    10
  2.6140948666843244E-01 a       281     0    19     1    11
  5.4986923388956555E-02 a       282     0    19     1    12
 -1.0030570974856914E-01 a       283     0    19     1    13
  1.5857588547744306E-01 a       284     0    19     1    14
 -7.7995386145586473E-02 a       285     0    19     1    15
  8.1313093347438303E-02 a       286     0    20     1     1
  1.1458012172998194E-02 a       287     0    20     1     2
 -1.8598612632797325E-02 a       288     0    20     1     3
  1.4593798524626203E-01 a       289     0    20     1     4
  1.5630960885825107E-01 a       290     0    20     1     5
 -5.1994402098505171E-02 a       291     0    20     1     6
 -2.1871315680793130E-01 a       292     0    20     1     7
 -1.0158245366448876E-01 a       293     0    20     1     8
 -1.6162482407472317E-01 a       294     0    20     1     9
  7.1322769114931336E-02 a       295     0    20     1    10
  1.2267490033801776E-01 a       296     0    20     1    11
 -2.0067684756634688E-01 a       297     0    20     1    12
 -1.6613830045433955E-02 a       298     0    20     1    13
 -7.5303676235349989E-02 a       299     0    20     1    14
 -1.7565751264850676E-01 a       300     0    20     1    15
  7.1540819798669553E-02 a       301     0    21     1     1
 -8.9653847030373227E-03 a       302     0    21     1     2
  1.5741678350150939E-01 a       303     0    21     1     3
  1.6637350191915570E-01 a       304     0    21     1     4
  1.5867157537588059E-01 a       305     0    21     1     5
 -1.2253176481508943E-02 a       306     0    21     1     6
 -2.2307005966911461E-03 a       307     0    21     1     7
  1.1473913490254459E-01 a       308     0    21     1     8
  5.2844008174776948E-02 a       309     0    21     1     9
 -1.0712340138965076E-01 a       310     0    21     1    10
  6.0589938375345737E-02 a       311     0    21     1    11
 -1.8219151534497952E-01 a       312     0    21     1    12
  1.2122780703066641E-01 a       313     0    21     1    13
 -1.3594073893293171E-01 a       314     0    21     1    14
  9.3282645839188938E-02 a       315     0    21     1    15
  6.6525590865610038E-02 a       316     0    22     1     1
 -1.8676304105282877E-02 a       317     0    22     1     2
 -2.7407627869787989E-02 a       318     0    22     1     3
 -1.6247844983383938E-01 a       319     0    22     1     4
 -2.0557623885453033E-01 a       320     0    22     1     5
  5.7199728815511851E-02 a       321     0    22     1     6
  1.0486451159869756E-01 a       322     0    22     1     7
 -3.6043343133505976E-02 a       323     0    22     1     8
 -1.4036198991661711E-01 a       324     0    22     1     9
  4.0017907365514541E-02 a       325     0    22     1    10
 -1.8637821964226578E-01 a       326     0    22     1    11
  8.7249257236559713E-02 a       327     0    22     1    12
  1.2663514298553077E-01 a       328     0    22     1    13
 -3.7285331323803077E-03 a       329     0    22     1    14
 -5.6190825349840268E-02 a       330     0    22     1    15
 -9.1808747667635568E-02 a       331     0    23     1     1
  1.2932725644405443E-01 a       332     0    23     1     2
 -2.3716734146994996E-02 a       333     0    23     1     3
  6.5380520933407529E-02 a       334     0    23     1     4
 -1.0222677382514629E-01 a       335     0    23     1     5
  2.9674805418586436E-01 a       336     0    23     1     6
 -2.1606480976781828E-01 a       337     0    23     1     7
  2.6155715271060986E-02 a       338     0    23     1     8
  1.0357682784446105E-01 a       339     0    23     1     9
 -6.1875551649346033E-04 a       340     0    23     1    10
 -2.2017913557176222E-01 a       341     0    23     1    11
 -1.2156388658702152E-01 a       342     0    23     1    12
  8.6714292993212164E-02 a       343     0    23     1    13
 -2.6607152869676694E-02 a       344     0    23     1    14
 -1.5142385980172782E-01 a       345     0    23     1    15
 -1.6926961953995975E-01 a       346     0    24     1     1
 -3.1657004338244560E-01 a       347     0    24     1     2
 -1.4436264235773863E-01 a       348     0    24     1     3
  1.2390276187850015E-01 a       349     0    24     1     4
  1.0247148604346995E-01 a       350     0    24     1     5
  1.5968372206813530E-01 a       351     0    24     1     6
 -1.0730899023773331E-01 a       352     0    24     1     7
 -1.4400212757191691E-01 a       353     0    24     1     8
  1.7695410214917129E-01 a       354     0    24     1     9
  9.4600974956511683E-03 a       355     0    24     1    10
  1.2576358045624911E-01 a       356     0    24     1    11
  9.6333360094853382E-02 a       357     0    24     1    12
  6.0770633165803667E-02 a       358     0    24     1    13
  5.7627546776847553E-02 a       359     0    24     1    14
  1.8088482689904969E-01 a       360     0    24     1    15
  1.2594942676530452E-01 a       361     0    25     1     1
 -2.0289669489248369E-01 a       362     0    25     1     2
 -2.0330630943978306E-01 a       363     0    25     1     3
  1.5445811183774402E-01 a       364     0    25     1     4
 -2.1297660851326294E-01 a       365     0    25     1     5
 -1.0250808648938327E-01 a       366     0    25     1     6
  4.3374882712774544E-02 a       367     0    25     1     7
 -2.7120310537775562E-02 a       368     0    25     1     8
  2.2108812715617474E-01 a       369     0    25     1     9
 -6.1035495748205187E-02 a       370     0    25     1    10
 -3.8912944817524026E-02 a       371     0    25     1    11
  9.8349888577214425E-02 a       372     0    25     1    12
  5.7079707224079311E-02 a       373     0    25     1    13
 -1.3723664871922661E-01 a       374     0    25     1    14
 -9.7508341431204931E-02 a       375     0    25     1    15
  5.3165463212972802E-02 a       376     0    26     1     1
  1.0933698116129464E-01 a       377     0    26     1     2
 -1.0584225951443900E-01 a       378     0    26     1     3
 -2.9107973356898093E-02 a       379     0    26     1     4
 -2.5591994115708246E-04 a       380     0    26     1     5
  1.3451256394548081E-01 a       381     0    26     1     6
 -2.0091507682315271E-01 a       382     0    26     1     7
  9.4983391678367009E-03 a       383     0    26     1     8
  2.1723301695857869E-01 a       384     0    26     1     9
  9.5671005840650053E-02 a       385     0    26     1    10
 -1.2195604348347010E-01 a       386     0    26     1    11
 -1.8980268270035880E-01 a       387     0    26     1    12
 -1.6903593539558337E-02 a       388     0    26     1    13
 -5.6835262556048836E-02 a       389     0    26     1    14
 -1.6105349775164926E-01 a       390     0    26     1    15
  9.5117066596817346E-02 a       391     0    27     1     1
 -7.1557865730986200E-02 a       392     0    27     1     2
 -2.4358222650173629E-02 a       393     0    27     1     3
  2.2061441078139867E-02 a       394     0    27     1     4
 -9.8277851090664059E-02 a       395     0    27     1     5
  2.1255892730647907E-01 a       396     0    27     1     6
 -3.0180429834965727E-02 a       397     0    27     1     7
 -1.7948475286545001E-02 a       398     0    27     1     8
 -2.2668813598957563E-01 a       399     0    27     1     9
  3.6518050494071396E-03 a       400     0    27     1    10
  5.9232064855565258E-02 a       401     0    27     1    11
 -1.8396098451115322E-02 a       402     0    27     1    12
 -2.3782450962988622E-01 a       403     0    27     1    13
 -5.6591197100443073E-02 a       404     0    27     1    14
 -6.7660465749206167E-03 a       405     0    27     1    15
 -6.2727371626384365E-02 a       406     0    28     1     1
  1.3836989715892772E-01 a       407     0    28     1     2
 -2.2154151564186009E-01 a       408     0    28     1     3
  1.1413978350660381E-02 a       409     0    28     1     4
 -2.3559828745475386E-01 a       410     0    28     1     5
 -6.8997573676682009E-02 a       411     0    28     1     6
  1.3097159451962281E-01 a       412     0    28     1     7
 -1.9515587652226951E-01 a       413     0    28     1     8
 -1.1776740466580738E-02 a       414     0    28     1     9
 -4.0161796914086251E-02 a       415     0    28     1    10
 -1.6622608555065196E-02 a       416     0    28     1    11
  1.2274304285745870E-01 a       417     0    28     1    12
  5.2655199609670002E-02 a       418     0    28     1    13
 -3.8803137655159469E-03 a       419     0    28     1    14
  3.1685707994491080E-02 a       420     0    28     1    15
  4.5691011660910705E-02 a       421     0    29     1     1
  1.4641903623709285E-01 a       422     0    29     1     2
  5.8517797274209318E-02 a       423     0    29     1     3
  1.8999990910545236E-01 a       424     0    29     1     4
 -8.0596057002773017E-02 a       425     0    29     1     5
 -1.7862460529318791E-01 a       426     0    29     1     6
  2.5906011762040093E-01 a       427     0    29     1     7
 -1.5618146712640452E-01 a       428     0    29     1     8
  2.7604645467698130E-01 a       429     0    29     1     9
 -1.0351501184708448E-01 a       430     0    29     1    10
 -1.1420317733874476E-01 a       431     0    29     1    11
  3.5485852291066329E-02 a       432     0    29     1    12
  1.6365316334287960E-01 a       433     0    29     1    13
  5.1475913646519419E-02 a       434     0    29     1    14
  4.7363038867206789E-02 a       435     0    29     1    15
 -2.0819643427322629E-01 a       436     0    30     1     1
  1.4799939603755188E-01 a       437     0    30     1     2
  3.9237044146581648E-02 a       438     0    30     1     3
 -2.2715519696592526E-01 a       439     0    30     1     4
 -1.9135005027747695E-01 a       440     0    30     1     5
 -8.6894109876422002E-02 a       441     0    30     1     6
 -2.7961560317172677E-02 a       442     0    30     1     7
 -1.9431011739091983E-01 a       443     0    30     1     8
 -2.2877279984207308E-01 a       444     0    30     1     9
 -7.1254731164601169E-03 a       445     0    30     1    10
  5.5848386369568612E-02 a       446     0    30     1    11
  3.0042818262882226E-01 a       447     0    30     1    12
  9.3741730283935371E-02 a       448     0    30     1    13
  2.6436017078251961E-01 a       449     0    30     1    14
  2.4430638664517872E-02 a       450     0    30     1    15
  1.8735585062999632E-01 a       451     0    31     1     1
  1.6560075548711442E-01 a       452     0    31     1     2
  1.3129061198970667E-02 a       453     0    31     1     3
 -8.6654834493112509E-02 a       454     0    31     1     4
  1.3045214070451003E-01 a       455     0    31     1     5
  5.4788659106867775E-02 a       456     0    31     1     6
  1.5854288726213212E-03 a       457     0    31     1     7
  5.1068992440718074E-02 a       458     0    31     1     8
 -1.9725303422641757E-01 a       459     0    31     1     9
  1.0865373120073786E-01 a       460     0    31     1    10
 -1.0415040972169923E-01 a       461     0    31     1    11
 -1.4688639352521504E-01 a       462     0    31     1    12
  2.8494565900236363E-01 a       463     0    31     1    13
 -6.0718838960127516E-02 a       464     0    31     1    14
 -3.4858512775143354E-02 a       465     0    31     1    15
  1.1647440894712328E-01 a       466     0    32     1     1
  1.2669652898938835E-01 a       467     0    32     1     2
 -6.1829776957500249E-02 a       468     0    32     1     3
 -1.5264543914815432E-01 a       469     0    32     1     4
  1.0277960068379928E-01 a       470     0    32     1     5
  3.2335255310966785E-03 a       471     0    32     1     6
 -7.5304257855278625E-02 a       472     0    32     1     7
 -4.9361846318258566E-02 a       473     0    32     1     8
 -1.8132876755669441E-01 a       474     0    32     1     9
  7.8565422856434225E-02 a       475     0    32     1    10
  8.7203541469451903E-02 a       476     0    32     1    11
 -2.5094060422459835E-01 a       477     0    32     1    12
  1.8773536246785524E-01 a       478     0    32     1    13
 -1.2090107899799312E-02 a       479     0    32     1    14
 -1.3956513347931077E-01 a       480     0    32     1    15
 -1.3680185646522836E-03 a       481     0    33     1     1
  7.8929812459106075E-02 a       482     0    33     1     2
 -1.3650130719552125E-01 a       483     0    33     1     3
  1.1891357322097609E-01 a       484     0    33     1     4
  9.3372924391800602E-02 a       485     0    33     1     5
 -2.5239055702095192E-01 a       486     0    33     1     6
  2.9557146541563784E-01 a       487     0    33     1     7
  2.2312574913145050E-01 a       488     0    33     1     8
  1.0640574394513973E-02 a       489     0    33     1     9
 -1.6186309247104608E-01 a       490     0    33     1    10
 -2.1540006570793771E-01 a       491     0    33     1    11
 -8.0380321108868155E-02 a       492     0    33     1    12
 -2.4564016315850281E-02 a       493     0    33     1    13
 -2.1660009612737605E-01 a       494     0    33     1    14
  2.6331144212305452E-01 a       495     0    33     1    15
  1.9478620064395930E-01 a       496     0    34     1     1
 -8.5789076957159865E-04 a       497     0    34     1     2
 -4.2007866104805452E-03 a       498     0    34     1     3
  8.7757668120021587E-02 a       499     0    34     1     4
 -8.6936783630877298E-02 a       500     0    34     1     5
 -5.2474377031462550E-02 a       501     0    34     1     6
 -9.3570824106028287E-03 a       502     0    34     1     7
  2.0294941909365944E-02 a       503     0    34     1     8
 -2.7090073007179898E-02 a       504     0    34     1     9
 -6.2953758052583700E-02 a       505     0    34     1    10
 -4.0817646260435929E-02 a       506     0    34     1    11
 -3.5113992136417606E-03 a       507     0    34     1    12
 -9.9538883466909034E-02 a       508     0    34     1    13
 -1.4082608549471173E-01 a       509     0    34     1    14
  1.3334713334657380E-01 a       510     0    34     1    15
 -1.6658058669087195E-01 a       511     0    35     1     1
  7.6871044620880138E-02 a       512     0    35     1     2
 -1.8620290638436651E-01 a       513     0    35     1     3
 -1.1077846554023220E-01 a       514     0    35     1     4
  2.0312846908392151E-01 a       515     0    35     1     5
 -1.7338710471473114E-02 a       516     0    35     1     6
  1.0372961027502493E-01 a       517     0    35     1     7
 -1.2599917311810679E-01 a       518     0    35     1     8
 -2.0471965455698671E-02 a       519     0    35     1     9
  8.7443212113716764E-02 a       520     0    35     1    10
 -6.8614150884951635E-03 a       521     0    35     1    11
 -1.5553034887107733E-01 a       522     0    35     1    12
  2.3052513820044346E-01 a       523     0    35     1    13
 -1.8816787205652510E-02 a       524     0    35     1    14
 -3.1161270386572026E-01 a       525     0    35     1    15
  8.4487109427915250E-02 a       526     0    36     1     1
  1.5687309037241107E-01 a       527     0    36     1     2
  7.9352890006661972E-02 a       528     0    36     1     3
 -1.4068818099868707E-01 a       529     0    36     1     4
  2.3125405236262130E-02 a       530     0    36     1     5
  3.6788177321999196E-02 a       531     0    36     1     6
  7.2892685783066999E-02 a       532     0    36     1     7
  6.9891704437588575E-02 a       533     0    36     1     8
 -1.2611375896231466E-01 a       534     0    36     1     9
 -6.2695589995278744E-02 a       535     0    36     1    10
  1.1597872075953695E-01 a       536     0    36     1    11
  1.6250253314967908E-01 a       537     0    36     1    12
  1.6045012420698390E-01 a       538     0    36     1    13
 -2.8604775030679486E-02 a       539     0    36     1    14
 -2.5421922403137513E-02 a       540     0    36     1    15
 -3.2950417247319640E-02 a       541     0    37     1     1
  1.2687948768569665E-03 a       542     0    37     1     2
 -2.2526523594423828E-01 a       543     0    37     1     3
  1.5584035664690263E-01 a       544     0    37     1     4
  1.4905860116036737E-02 a       545     0    37     1     5
 -1.5880474836650224E-01 a       546     0    37     1     6
  1.9240525969940910E-02 a       547     0    37     1     7
 -2.1934644229945421E-01 a       548     0    37     1     8
 -2.8718061801073936E-02 a       549     0    37     1     9
  2.0303749439094975E-02 a       550     0    37     1    10
  1.1692043317417920E-01 a       551     0    37     1    11
  5.4681641266470064E-02 a       552     0    37     1    12
 -2.8373188290687207E-01 a       553     0    37     1    13
  6.3368325822674404E-02 a       554     0    37     1    14
 -2.1429536434297519E-01 a       555     0    37     1    15
  1.6946561366488039E-01 a       556     0    38     1     1
 -6.7574725279246753E-02 a       557     0    38     1     2
 -4.4798162578066989E-03 a       558     0    38     1     3
 -3.1077730965996943E-02 a       559     0    38     1     4
 -6.5833822370070266E-02 a       560     0    38     1     5
  6.5874932462601052E-02 a       561     0    38     1     6
 -9.9684947255551534E-02 a       562     0    38     1     7
  1.3395783108013043E-01 a       563     0    38     1     8
  1.0581034747092252E-01 a       564     0    38     1     9
 -2.1867053555343630E-02 a       565     0    38     1    10
 -2.5894764651713299E-02 a       566     0    38     1    11
 -4.5806263168889229E-02 a       567     0    38     1    12
  8.6125732879942848E-03 a       568     0    38     1    13
 -9.2902615615160736E-02 a       569     0    38     1    14
  8.6426664993656629E-02 a       570     0    38     1    15
  8.4605972561866846E-02 a       571     0    39     1     1
  1.1814085993471900E-01 a       572     0    39     1     2
 -1.0732746527061181E-01 a       573     0    39     1     3
 -8.2904273477824170E-02 a       574     0    39     1     4
  1.4994832160949623E-01 a       575     0    39     1     5
  8.1031691143720191E-02 a       576     0    39     1     6
 -6.3537072765160615E-02 a       577     0    39     1     7
 -8.6793101793264951E-02 a       578     0    39     1     8
 -1.0455838432484053E-01 a       579     0    39     1     9
  1.4068048144914727E-02 a       580     0    39     1    10
  8.4511569009844009E-02 a       581     0    39     1    11
 -1.9100429901393684E-01 a       582     0    39     1    12
 -1.5907893273436624E-01 a       583     0    39     1    13
 -1.7557261008528338E-01 a       584     0    39     1    14
  2.1031238898318852E-01 a       585     0    39     1    15
  4.2155165422771507E-02 a       586     0    40     1     1
  3.4340350566668149E-02 a       587     0    40     1     2
 -5.6556510906619097E-02 a       588     0    40     1     3
 -1.8491755204932203E-01 a       589     0    40     1     4
 -1.6352983454128417E-01 a       590     0    40     1     5
 -2.2353747974668263E-02 a       591     0    40     1     6
  8.7190940165840398E-03 a       592     0    40     1     7
  1.5219336528977259E-01 a       593     0    40     1     8
  7.1482484732146634E-02 a       594     0    40     1     9
  8.8460905612611621E-02 a       595     0    40     1    10
 -2.2325084362600434E-02 a       596     0    40     1    11
  1.7443634756470314E-01 a       597     0    40     1    12
  5.0820372117910385E-02 a       598     0    40     1    13
 -1.2050207640624390E-01 a       599     0    40     1    14
 -4.4627614079272480E-02 a       600     0    40     1    15
 -1.3090849018598019E-01 a       601     0    41     1     1
  1.9474220961823208E-01 a       602     0    41     1     2
  2.6715302057046658E-01 a       603     0    41     1     3
 -4.4079989864531009E-02 a       604     0    41     1     4
 -8.1630151783995034E-02 a       605     0    41     1     5
 -1.0763674955289970E-01 a       606     0    41     1     6
  1.3807909388831302E-01 a       607     0    41     1     7
  3.0241126529073712E-02 a       608     0    41     1     8
 -4.7622407307705644E-02 a       609     0    41     1     9
 -6.6413018642940622E-02 a       610     0    41     1    10
 -2.7692231322896899E-01 a       611     0    41     1    11
 -1.1134435292207581E-01 a       612     0    41     1    12
 -7.4413944573209476E-02 a       613     0    41     1    13
  1.1648217735367544E-01 a       614     0    41     1    14
  1.5155197545425597E-01 a       615     0    41     1    15
  6.7605582526422472E-02 a       616     0    42     1     1
  8.6125299235859931E-02 a       617     0    42     1     2
 -1.3665303402721679E-01 a       618     0    42     1     3
 -1.6897064192807426E-01 a       619     0    42     1     4
 -1.5022566120517575E-01 a       620     0    42     1     5
 -1.0628120580220289E-01 a       621     0    42     1     6
 -4.8834031152434475E-02 a       622     0    42     1     7
 -9.7487968692895707E-02 a       623     0    42     1     8
  7.4898057577363272E-02 a       624     0    42     1     9
  5.6930393580001515E-02 a       625     0    42     1    10
  1.6309852514101442E-03 a       626     0    42     1    11
 -1.1810741383661150E-01 a       627     0    42     1    12
 -1.7871509300398369E-01 a       628     0    42     1    13
  2.0093974614251062E-01 a       629     0    42     1    14
  1.0453307397579907E-01 a       630     0    42     1    15
  1.5429360735081021E-01 a       631     0    43     1     1
 -1.9573252507303668E-01 a       632     0    43     1     2
 -1.3075368907911122E-01 a       633     0    43     1     3
 -2.5255516268321693E-02 a       634     0    43     1     4
  1.4790207532783733E-01 a       635     0    43     1     5
 -7.8214018039867564E-02 a       636     0    43     1     6
  1.0285199945114440E-01 a       637     0    43     1     7
 -1.7788323124234529E-01 a       638     0    43     1     8
 -1.9317140420732551E-01 a       639     0    43     1     9
 -1.5132413457553651E-03 a       640     0    43     1    10
  1.4946849527613740E-01 a       641     0    43     1    11
 -1.1529657460214272E-02 a       642     0    43     1    12
  1.3133762830703943E-01 a       643     0    43     1    13
  1.2161508374821238E-01 a       644     0    43     1    14
 -1.6613341503178342E-01 a       645     0    43     1    15
 -1.4730573855311280E-01 a       646     0    44     1     1
  1.3762979697368893E-01 a       647     0    44     1     2
 -1.3528065079543103E-01 a       648     0    44     1     3
 -1.6136052952857964E-02 a       649     0    44     1     4
  1.7391881255689849E-03 a       650     0    44     1     5
 -7.8966037113689880E-02 a       651     0    44     1     6
 -5.4130400433555749E-02 a       652     0    44     1     7
 -8.4283567879274490E-02 a       653     0    44     1     8
  1.5864466492017526E-01 a       654     0    44     1     9
  4.2424090099694965E-02 a       655     0    44     1    10
  6.6735656487952641E-02 a       656     0    44     1    11
 -1.2072714574044337E-01 a       657     0    44     1    12
  9.0169481962184949E-03 a       658     0    44     1    13
  5.4224615145257579E-03 a       659     0    44     1    14
 -1.8035612206241436E-01 a       660     0    44     1    15
 -1.8630156361066061E-01 a       661     0    45     1     1
 -1.0318445876246706E-02 a       662     0    45     1     2
  1.0610886805443483E-01 a       663     0    45     1     3
  1.3771613899060800E-01 a       664     0    45     1     4
  1.3453691574084869E-01 a       665     0    45     1     5
 -1.1142622436656565E-02 a       666     0    45     1     6
 -1.2206344726604462E-01 a       667     0    45     1     7
 -9.9666813667035642E-02 a       668     0    45     1     8
 -7.9491890599931475E-02 a       669     0    45     1     9
 -2.5085558577586521E-02 a       670     0    45     1    10
  2.6246858380811744E-01 a       671     0    45     1    11
 -5.0887898678333023E-02 a       672     0    45     1    12
 -9.1016632420426208E-02 a       673     0    45     1    13
  1.2126865879350664E-01 a       674     0    45     1    14
 -3.9475753255437507E-02 a       675     0    45     1    15
 -1.3602794195411461E-01 a       676     0    46     1     1
 -4.4660123638621853E-02 a       677     0    46     1     2
 -1.3529426234075265E-01 a       678     0    46     1     3
  1.7019672535730820E-01 a       679     0    46     1     4
  7.0762814107516473E-03 a       680     0    46     1     5
  8.8635673095928902E-02 a       681     0    46     1     6
  8.3920092312756503E-02 a       682     0    46     1     7
 -1.0258263343555284E-01 a       683     0    46     1     8
 -1.2127629592995216E-01 a       684     0    46     1     9
 -4.2916997004973423E-02 a       685     0    46     1    10
 -2.6550422927822306E-02 a       686     0    46     1    11
  1.4668493574653443E-01 a       687     0    46     1    12
  9.0561612778794140E-02 a       688     0    46     1    13
  4.8571427620643481E-02 a       689     0    46     1    14
 -2.1792742846363871E-03 a       690     0    46     1    15
  1.9341277511591362E-01 a       691     0    47     1     1
 -5.8697484814395594E-02 a       692     0    47     1     2
  1.1599394011109224E-01 a       693     0    47     1     3
 -4.7894178850584820E-02 a       694     0    47     1     4
  1.3198692788725080E-01 a       695     0    47     1     5
 -1.4703493597795089E-01 a       696     0    47     1     6
 -1.7984377921612952E-02 a       697     0    47     1     7
 -9.8133777765380237E-02 a       698     0    47     1     8
  1.1284513075629501E-01 a       699     0    47     1     9
  1.6741615652256039E-02 a       700     0    47     1    10
  7.2321472125046971E-02 a       701     0    47     1    11
 -1.4558280490600481E-01 a       702     0    47     1    12
 -1.6198721373602543E-01 a       703     0    47     1    13
  1.0281545801858261E-01 a       704     0    47     1    14
  1.0393843004619131E-01 a       705     0    47     1    15
  2.5983127512303456E-01 a       706     0    48     1     1
 -2.0803432037131794E-01 a       707     0    48     1     2
  8.5375446166271476E-02 a       708     0    48     1     3
  2.4007398393773013E-02 a       709     0    48     1     4
 -2.5089831090957332E-01 a       710     0    48     1     5
 -2.2765652888450194E-01 a       711     0    48     1     6
  1.1278263870761347E-01 a       712     0    48     1     7
  2.0859730350542358E-01 a       713     0    48     1     8
 -9.5947464230538904E-02 a       714     0    48     1     9
 -1.3427652955972763E-01 a       715     0    48     1    10
  2.8572710172709787E-03 a       716     0    48     1    11
  2.6156143902381978E-02 a       717     0    48     1    12
 -2.9508792719487004E-01 a       718     0    48     1    13
 -1.9167002382304236E-02 a       719     0    48     1    14
 -1.7822449977156365E-01 a       720     0    48     1    15
 -2.0680044538257228E-01 a       721     0    49     1     1
 -3.4579894712229699E-02 a       722     0    49     1     2
 -2.4528584433322895E-01 a       723     0    49     1     3
 -4.6610257748584107E-02 a       724     0    49     1     4
  6.4092250653504559E-02 a       725     0    49     1     5
 -3.8974274907338027E-02 a       726     0    49     1     6
  2.8742878063086293E-03 a       727     0    49     1     7
  2.4235030508846702E-02 a       728     0    49     1     8
  2.4892382232401070E-01 a       729     0    49     1     9
  5.4083711252825808E-02 a       730     0    49     1    10
  5.8735858618088138E-02 a       731     0    49     1    11
  7.8541344326673965E-02 a       732     0    49     1    12
 -2.2760181946898449E-02 a       733     0    49     1    13
  1.4866850516754446E-01 a       734     0    49     1    14
  1.3220442988515752E-01 a       735     0    49     1    15
 -1.8960359327784607E-01 a       736     0    50     1     1
  2.5336893353220824E-01 a       737     0    50     1     2
 -1.8587008319059375E-01 a       738     0    50     1     3
 -9.8437208525986586E-02 a       739     0    50     1     4
 -4.1645562503543732E-02 a       740     0    50     1     5
 -1.1607129679060306E-01 a       741     0    50     1     6
  3.4906485928698175E-02 a       742     0    50     1     7
 -1.0416031626203412E-01 a       743     0    50     1     8
 -9.0883443516306672E-02 a       744     0    50     1     9
  9.0538767087390017E-04 a       745     0    50     1    10
  1.2125213465073725E-01 a       746     0    50     1    11
  2.0957059611827114E-01 a       747     0    50     1    12
 -1.0185661433968821E-01 a       748     0    50     1    13
  1.8936527350353483E-01 a       749     0    50     1    14
  1.7451653132433356E-01 a       750     0    50     1    15
  9.8629331425473712E-02 a       751     0    51     1     1
 -5.8002418762536499E-02 a       752     0    51     1     2
 -4.6039293984089090E-02 a       753     0    51     1     3
 -1.6051239378242443E-01 a       754     0    51     1     4
  3.9842548150952964E-02 a       755     0    51     1     5
 -4.3418043755135815E-03 a       756     0    51     1     6
 -1.0098152842153195E-01 a       757     0    51     1     7
  1.2894977791663695E-01 a       758     0    51     1     8
 -2.4945694269800346E-02 a       759     0    51     1     9
 -3.2851492003535092E-02 a       760     0    51     1    10
  5.6276488748573210E-02 a       761     0    51     1    11
 -1.9335945088120432E-01 a       762     0    51     1    12
 -2.2557234539184137E-01 a       763     0    51     1    13
  8.5342245302090211E-02 a       764     0    51     1    14
  1.2894267843767659E-01 a       765     0    51     1    15
 -1.9994163299438941E-01 a       766     0    52     1     1
  3.3303294512724090E-02 a       767     0    52     1     2
  2.3426793848441071E-01 a       768     0    52     1     3
  9.8564796619048812E-03 a       769     0    52     1     4
 -1.3111902883328500E-01 a       770     0    52     1     5
 -3.4540757422250178E-02 a       771     0    52     1     6
 -5.3140675103006182E-03 a       772     0    52     1     7
  1.3266068075171130E-02 a       773     0    52     1     8
 -1.0203247890738411E-01 a       774     0    52     1     9
 -2.1356353364373630E-02 a       775     0    52     1    10
 -7.0365693636136151E-02 a       776     0    52     1    11
 -3.2099004139392380E-02 a       777     0    52     1    12
 -2.2906661390903671E-01 a       778     0    52     1    13
  1.6710703130764834E-01 a       779     0    52     1    14
  1.6046398430988695E-01 a       780     0    52     1    15
  2.5753006485925733E-01 a       781     0    53     1     1
 -9.2465093145451066E-02 a       782     0    53     1     2
  5.6932352551497589E-02 a       783     0    53     1     3
  1.9621950704384836E-01 a       784     0    53     1     4
 -3.8482435736319306E-02 a       785     0    53     1     5
  2.6324997668452099E-01 a       786     0    53     1     6
 -2.6174499477518232E-01 a       787     0    53     1     7
 -7.7483435986767088E-02 a       788     0    53     1     8
  1.5541747675063078E-01 a       789     0    53     1     9
  9.4626859388797377E-02 a       790     0    53     1    10
 -1.6813879147374675E-01 a       791     0    53     1    11
 -1.5434595267797746E-01 a       792     0    53     1    12
  6.8623152401653106E-02 a       793     0    53     1    13
 -7.2939499130064853E-02 a       794     0    53     1    14
 -1.8818003127916610E-01 a       795     0    53     1    15
 -1.4740591363331035E-01 a       796     0    54     1     1
 -1.7258668888130105E-01 a       797     0    54     1     2
 -2.0007172806904427E-01 a       798     0    54     1     3
  8.6081354586270920E-02 a       799     0    54     1     4
 -4.0003283618159788E-02 a       800     0    54     1     5
 -1.9342126690809047E-01 a       801     0    54     1     6
  2.4768256067255823E-01 a       802     0    54     1     7
  1.3120423084926192E-01 a       803     0    54     1     8
 -5.3463472568920520E-02 a       804     0    54     1     9
 -2.1165010615366070E-01 a       805     0    54     1    10
 -1.6166372038664045E-01 a       806     0    54     1    11
 -1.6642351460456795E-01 a       807     0    54     1    12
  1.3992413166103712E-01 a       808     0    54     1    13
 -1.0120021598658817E-02 a       809     0    54     1    14
 -9.3553673789054048E-02 a       810     0    54     1    15
 -5.2236447143111563E-02 a       811     0    55     1     1
  1.9239770659899624E-02 a       812     0    55     1     2
  1.6273500287669937E-01 a       813     0    55     1     3
  1.5438464410525693E-01 a       814     0    55     1     4
 -5.3867805788004597E-02 a       815     0    55     1     5
  9.1738406115964621E-02 a       816     0    55     1     6
 -1.7912722529616568E-01 a       817     0    55     1     7
 -2.0388502384037321E-01 a       818     0    55     1     8
  2.0882521110392616E-01 a       819     0    55     1     9
  1.1113992220522800E-01 a       820     0    55     1    10
  1.2885265403130041E-02 a       821     0    55     1    11
  1.3146988774767324E-01 a       822     0    55     1    12
  2.2693522594010468E-01 a       823     0    55     1    13
  1.8826778221184268E-01 a       824     0    55     1    14
 -1.6083728769234482E-01 a       825     0    55     1    15
  1.9808215034213297E-01 a       826     0    56     1     1
  1.3522210572052104E-01 a       827     0    56     1     2
 -2.2130389502090014E-01 a       828     0    56     1     3
 -1.6240431924140496E-02 a       829     0    56     1     4
 -5.5954998835508488E-02 a       830     0    56     1     5
 -2.7349610002666856E-02 a       831     0    56     1     6
 -8.3235466042472825E-02 a       832     0    56     1     7
 -1.6566652488238853E-02 a       833     0    56     1     8
 -1.0596653120536563E-01 a       834     0    56     1     9
  1.7674089176484059E-01 a       835     0    56     1    10
  1.0697305905707072E-01 a       836     0    56     1    11
  1.2045091900584549E-01 a       837     0    56     1    12
 -9.7064239019034632E-02 a       838     0    56     1    13
 -3.0952901655486859E-01 a       839     0    56     1    14
 -1.0990821154082070E-01 a       840     0    56     1    15
 -1.0911768055261695E-03 a       841     0    57     1     1
 -1.3188351155848613E-01 a       842     0    57     1     2
 -1.2701254134329626E-02 a       843     0    57     1     3
  2.7872793032000553E-01 a       844     0    57     1     4
  1.3352859794565639E-01 a       845     0    57     1     5
  4.9133113554998199E-02 a       846     0    57     1     6
 -4.9343946557741054E-02 a       847     0    57     1     7
  1.0334077835039489E-01 a       848     0    57     1     8
  1.1121458229136641E-01 a       849     0    57     1     9
 -1.2180832749381879E-01 a       850     0    57     1    10
  1.2346149959024309E-01 a       851     0    57     1    11
  1.6726384535755745E-01 a       852     0    57     1    12
  1.6269937756480380E-02 a       853     0    57     1    13
 -2.3691034305940559E-01 a       854     0    57     1    14
  5.4682285794535802E-02 a       855     0    57     1    15
  7.2567011447207105E-02 a       856     0    58     1     1
  5.8564278981707900E-02 a       857     0    58     1     2
  9.0088079010902503E-02 a       858     0    58     1     3
 -7.6978541960971425E-02 a       859     0    58     1     4
  2.6248727427226750E-02 a       860     0    58     1     5
  6.2531462631822854E-02 a       861     0    58     1     6
 -3.1194649404767398E-02 a       862     0    58     1     7
 -4.1281371238613453E-02 a       863     0    58     1     8
 -8.9552773955676637E-02 a       864     0    58     1     9
  5.1668634211339250E-02 a       865     0    58     1    10
  3.2855567243124245E-02 a       866     0    58     1    11
  3.2949787535786687E-02 a       867     0    58     1    12
  5.4451210053042730E-02 a       868     0    58     1    13
  3.3141332716883097E-02 a       869     0    58     1    14
  3.7614864461471921E-02 a       870     0    58     1    15
  1.5214820830912687E-01 a       871     0    59     1     1
  1.7025986970738052E-01 a       872     0    59     1     2
 -2.6737040494243136E-01 a       873     0    59     1     3
  9.2964817872872405E-02 a       874     0    59     1     4
 -1.1815237194342475E-01 a       875     0    59     1     5
  1.5829413241219706E-01 a       876     0    59     1     6
  4.6243877803435730E-02 a       877     0    59     1     7
 -2.9973531530211905E-01 a       878     0    59     1     8
  3.0089360906349078E-02 a       879     0    59     1     9
 -6.6003915792043191E-02 a       880     0    59     1    10
 -8.7583644288160969E-02 a       881     0    59     1    11
  6.5495067978645016E-02 a       882     0    59     1    12
  2.4587181886352175E-01 a       883     0    59     1    13
 -2.4251255070551821E-02 a       884     0    59     1    14
 -1.4155573056556281E-01 a       885     0    59     1    15
 -7.0301396159843890E-02 a       886     0    60     1     1
 -3.7035102748379969E-02 a       887     0    60     1     2
 -1.0065588670229518E-01 a       888     0    60     1     3
 -1.9278645984426068E-01 a       889     0    60     1     4
 -2.7432221360409220E-02 a       890     0    60     1     5
 -9.5952591655792396E-02 a       891     0    60     1     6
 -5.8320332025254523E-02 a       892     0    60     1     7
  1.0059733229814072E-01 a       893     0    60     1     8
  6.1057926471997780E-02 a       894     0    60     1     9
  2.1271824461734832E-03 a       895     0    60     1    10
  3.9907882259206717E-02 a       896     0    60     1    11
 -1.6390625155577584E-01 a       897     0    60     1    12
 -1.5037328886757856E-01 a       898     0    60     1    13
  2.3218730612822175E-02 a       899     0    60     1    14
  1.3050428315543528E-02 a       900     0    60     1    15
  1.8003381772533100E-01 a       901     0    61     1     1
  2.7416464459238704E-01 a       902     0    61     1     2
  1.1106878543910054E-01 a       903     0    61     1     3
  1.0586113160374987E-01 a       904     0    61     1     4
  1.0372731187708313E-03 a       905     0    61     1     5
  8.4412674514276823E-02 a       906     0    61     1     6
 -1.3458889203520435E-01 a       907     0    61     1     7
  1.9012661546653431E-01 a       908     0    61     1     8
  1.7120919878844976E-01 a       909     0    61     1     9
  8.7921415367353137E-02 a       910     0    61     1    10
 -1.1687304968916271E-01 a       911     0    61     1    11
  4.0090571251772900E-02 a       912     0    61     1    12
  7.7934874397686552E-02 a       913     0    61     1    13
 -2.9917425911753787E-01 a       914     0    61     1    14
  1.8912889156362553E-01 a       915     0    61     1    15
  1.2025066757507007E-01 a       916     0    62     1     1
 -1.3171960694105467E-01 a       917     0    62     1     2
  2.6315773456767683E-01 a       918     0    62     1     3
  1.4198050500619683E-01 a       919     0    62     1     4
  4.4660629873721609E-02 a       920     0    62     1     5
 -3.2926076920751723E-02 a       921     0    62     1     6
  8.4132312440435578E-02 a       922     0    62     1     7
  1.5733658594261352E-01 a       923     0    62     1     8
 -1.0044077787798109E-01 a       924     0    62     1     9
  7.3897379801500324E-02 a       925     0    62     1    10
 -1.7053245786215906E-01 a       926     0    62     1    11
  3.0279359978829240E-01 a       927     0    62     1    12
  1.1066864826789395E-01 a       928     0    62     1    13
 -2.1998555781437185E-01 a       929     0    62     1    14
  1.8735977756993061E-01 a       930     0    62     1    15
  2.1722583995035242E-02 a       931     0    63     1     1
  1.2884777371561482E-01 a       932     0    63     1     2
 -1.9712834828865607E-02 a       933     0    63     1     3
 -5.7362348108018733E-02 a       934     0    63     1     4
  1.2559595561143871E-01 a       935     0    63     1     5
  1.7878400511145609E-01 a       936     0    63     1     6
 -2.0559378751767207E-01 a       937     0    63     1     7
 -1.3695463219897477E-01 a       938     0    63     1     8
  2.6978891755442561E-02 a       939     0    63     1     9
  2.2426294772935128E-02 a       940     0    63     1    10
  2.1151606292020578E-01 a       941     0    63     1    11
  6.5120130264033470E-03 a       942     0    63     1    12
 -3.2700233427259411E-02 a       943     0    63     1    13
  1.8151361499108820E-01 a       944     0    63     1    14
  1.2866349546867706E-01 a       945     0    63     1    15
 -2.0124022323854007E-01 a       946     0    64     1     1
  7.5401890602586577E-02 a       947     0    64     1     2
 -1.9749071592070491E-01 a       948     0    64     1     3
 -1.3320081127610020E-01 a       949     0    64     1     4
 -1.1388886405661197E-01 a       950     0    64     1     5
  4.4230491058007458E-04 a       951     0    64     1     6
  1.1600783014267635E-01 a       952     0    64     1     7
  2.3747692305733853E-01 a       953     0    64     1     8
 -1.9073461083974730E-01 a       954     0    64     1     9
 -5.7843290293122011E-02 a       955     0    64     1    10
 -2.0352908202159134E-01 a       956     0    64     1    11
 -1.3927926927232046E-01 a       957     0    64     1    12
 -8.3995811899523473E-02 a       958     0    64     1    13
 -1.7323257915674956E-01 a       959     0    64     1    14
  2.4058507448878830E-01 a       960     0    64     1    15
  1.1097441510123313E-01 a       961     0    65     1     1
 -1.7118468170758593E-02 a       962     0    65     1     2
 -2.2560115729754684E-01 a       963     0    65     1     3
  1.8126733415044347E-01 a       964     0    65     1     4
  8.5835584614998545E-02 a       965     0    65     1     5
 -5.5948493131037676E-03 a       966     0    65     1     6
 -2.2653790781606363E-02 a       967     0    65     1     7
 -7.8207403983550139E-02 a       968     0    65     1     8
 -2.3418233524406909E-01 a       969     0    65     1     9
 -1.4373497716075573E-01 a       970     0    65     1    10
  9.3890913083215843E-02 a       971     0    65     1    11
 -1.2034490530090210E-01 a       972     0    65     1    12
  6.7442034409652643E-02 a       973     0    65     1    13
  2.4995802553515890E-02 a       974     0    65     1    14
  2.2376695094710981E-02 a       975     0    65     1    15
  1.7637837406109402E-01 a       976     0    66     1     1
  1.2491058879369377E-01 a       977     0    66     1     2
 -1.0296593825407079E-02 a       978     0    66     1     3
 -9.1011905302799345E-02 a       979     0    66     1     4
 -1.1378109455944696E-01 a       980     0    66     1     5
 -5.4323575195077939E-02 a       981     0    66     1     6
  1.1951002175199671E-01 a       982     0    66     1     7
  3.7597400653894233E-02 a       983     0    66     1     8
 -1.4736832264754229E-01 a       984     0    66     1     9
  2.1987694484187945E-02 a       985     0    66     1    10
 -6.7734034700363779E-02 a       986     0    66     1    11
  8.5071450129994827E-02 a       987     0    66     1    12
  1.2343699587395811E-01 a       988     0    66     1    13
 -7.6809063274321382E-02 a       989     0    66     1    14
 -1.1046323952592738E-01 a       990     0    66     1    15
 -9.5870463282689944E-02 a       991     0    67     1     1
 -1.1011179875580603E-01 a       992     0    67     1     2
  1.1742646829644209E-01 a       993     0    67     1     3
  8.8939624326159650E-02 a       994     0    67     1     4
  2.0853765206317365E-01 a       995     0    67     1     5
 -1.5344928692144461E-01 a       996     0    67     1     6
  1.2434583064164287E-01 a       997     0    67     1     7
 -2.6852638803561096E-01 a       998     0    67     1     8
 -1.2861649762136301E-01 a       999     0    67     1     9
  6.4876718841980444E-02 a      1000     0    67     1    10
  1.3251586139676702E-01 a      1001     0    67     1    11
  1.1442824290409087E-01 a      1002     0    67     1    12
  4.4168996203718558E-02 a      1003     0    67     1    13
  2.0881114617831412E-01 a      1004     0    67     1    14
 -4.1242247935134403E-02 a      1005     0    67     1    15
 -8.4541464609759490E-02 a      1006     0    68     1     1
 -1.7332934737657968E-01 a      1007     0    68     1     2
  1.6165924292998693E-01 a      1008     0    68     1     3
  2.2161076688217925E-02 a      1009     0    68     1     4
 -5.7018270114854658E-03 a      1010     0    68     1     5
 -4.8795983273251055E-02 a      1011     0    68     1     6
  9.6039012728012393E-02 a      1012     0    68     1     7
  1.6696687502302371E-01 a      1013     0    68     1     8
  1.7133324756431076E-01 a      1014     0    68     1     9
 -7.1115897714384202E-02 a      1015     0    68     1    10
 -1.0772603933851967E-01 a      1016     0    68     1    11
 -4.7707011560443560E-02 a      1017     0    68     1    12
 -4.4856793570396493E-02 a      1018     0    68     1    13
  5.4913252923736292E-02 a      1019     0    68     1    14
  1.1789209951175721E-01 a      1020     0    68     1    15
  1.4479782558283888E-01 a      1021     0    69     1     1
  4.5682905041215117E-02 a      1022     0    69     1     2
 -9.4176358452502634E-02 a      1023     0    69     1     3
 -8.0653807242400136E-02 a      1024     0    69     1     4
  5.6058681841795105E-02 a      1025     0    69     1     5
 -7.5466521803611755E-02 a      1026     0    69     1     6
 -5.1364616723995046E-02 a      1027     0    69     1     7
  2.2790906027981284E-01 a      1028     0    69     1     8
  3.1925238286299745E-01 a      1029     0    69     1     9
 -3.7337498301290781E-02 a      1030     0    69     1    10
 -6.4776919421413393E-02 a      1031     0    69     1    11
 -1.4406291694018136E-01 a      1032     0    69     1    12
 -1.4745345380104444E-01 a      1033     0    69     1    13
 -5.1088844606480234E-03 a      1034     0    69     1    14
  2.5429928550993475E-01 a      1035     0    69     1    15
 -3.6547626455257630E-02 a      1036     0    70     1     1
  1.1539891805218742E-01 a      1037     0    70     1     2
  1.5565094015557704E-01 a      1038     0    70     1     3
  8.8397848788020164E-02 a      1039     0    70     1     4
 -1.0936872684033802E-01 a      1040     0    70     1     5
 -2.5089284339394152E-01 a      1041     0    70     1     6
  1.9460545998155929E-01 a      1042     0    70     1     7
  1.4371367902830937E-01 a      1043     0    70     1     8
  1.2532746692690938E-01 a      1044     0    70     1     9
 -9.9416616845559413E-02 a      1045     0    70     1    10
  2.0515689884338554E-02 a      1046     0    70     1    11
  1.8527075635682616E-01 a      1047     0    70     1    12
 -1.1314224751665444E-01 a      1048     0    70     1    13
 -8.9415749377222201E-02 a      1049     0    70     1    14
  2.1831590392298353E-01 a      1050     0    70     1    15
 -5.3466441603395674E-03 a      1051     0    71     1     1
  2.3311107037913256E-01 a      1052     0    71     1     2
 -9.7507307239887986E-02 a      1053     0    71     1     3
 -4.4435083511074287E-02 a      1054     0    71     1     4
 -8.0951274533493323E-02 a      1055     0    71     1     5
 -1.4452879228877499E-01 a      1056     0    71     1     6
  2.1295246838621301E-02 a      1057     0    71     1     7
  4.5993722982282062E-02 a      1058     0    71     1     8
 -2.0386958072004474E-01 a      1059     0    71     1     9
 -5.6189110947493369E-02 a      1060     0    71     1    10
  3.5896060221194619E-02 a      1061     0    71     1    11
 -7.6218622615090867E-02 a      1062     0    71     1    12
 -1.7831593471159055E-01 a      1063     0    71     1    13
 -2.7537556727440991E-02 a      1064     0    71     1    14
  1.3923293991312194E-01 a      1065     0    71     1    15
 -2.5447126600140840E-02 a      1066     0    72     1     1
 -9.4194900423582847E-02 a      1067     0    72     1     2
  1.3704146905161255E-01 a      1068     0    72     1     3
  7.1673488577193245E-02 a      1069     0    72     1     4
 -2.3240418624854566E-02 a      1070     0    72     1     5
 -2.1286969504264567E-02 a      1071     0    72     1     6
 -4.9003539183585257E-02 a      1072     0    72     1     7
  4.6154484973960228E-02 a      1073     0    72     1     8
 -2.1938423420069686E-02 a      1074     0    72     1     9
  6.5175784002330719E-02 a      1075     0    72     1    10
  8.2745722051103573E-02 a      1076     0    72     1    11
  2.6586017562756942E-01 a      1077     0    72     1    12
  1.7023060218260058E-03 a      1078     0    72     1    13
 -8.3892050210333372E-02 a      1079     0    72     1    14
  1.2905420411999188E-01 a      1080     0    72     1    15
 -9.9132466600591898E-02 a      1081     0    73     1     1
 -1.1390781241464250E-01 a      1082     0    73     1     2
 -7.7750570027390623E-02 a      1083     0    73     1     3
 -1.4325767410804718E-01 a      1084     0    73     1     4
 -1.7504267678580859E-01 a      1085     0    73     1     5
 -5.1359471730568144E-02 a      1086     0    73     1     6
  2.4898713853016299E-02 a      1087     0    73     1     7
 -1.0211802254656413E-01 a      1088     0    73     1     8
  6.2245442633554270E-02 a      1089     0    73     1     9
  6.2101316853923186E-02 a      1090     0    73     1    10
  1.4020632352484602E-01 a      1091     0    73     1    11
  2.7715397963013572E-01 a      1092     0    73     1    12
 -1.1886036274964490E-01 a      1093     0    73     1    13
  1.1161897702396482E-01 a      1094     0    73     1    14
 -9.0613057212832929E-02 a      1095     0    73     1    15
 -2.9594831626465212E-01 a      1096     0    74     1     1
  1.8691539243419955E-01 a      1097     0    74     1     2
 -1.6642818481587270E-02 a      1098     0    74     1     3
  3.3530382483447183E-02 a      1099     0    74     1     4
 -1.2604398358938179E-01 a      1100     0    74     1     5
  5.4598637068816579E-03 a      1101     0    74     1     6
 -2.8699399951957902E-02 a      1102     0    74     1     7
 -1.5023985965506523E-01 a      1103     0    74     1     8
  1.5541299137346173E-01 a      1104     0    74     1     9
 -1.8593628804152285E-01 a      1105     0    74     1    10
  2.0973295305731710E-01 a      1106     0    74     1    11
 -7.2839722246707525E-02 a      1107     0    74     1    12
 -1.0869131382487721E-01 a      1108     0    74     1    13
  2.0575409217438087E-01 a      1109     0    74     1    14
  6.6322879428173470E-02 a      1110     0    74     1    15
 -5.3072748917297512E-02 a      1111     0    75     1     1
  1.5110175542021856E-01 a      1112     0    75     1     2
 -1.5684808671105319E-01 a      1113     0    75     1     3
  1.1169603667376085E-01 a      1114     0    75     1     4
 -8.8755762971778146E-02 a      1115     0    75     1     5
 -2.9350856230302178E-02 a      1116     0    75     1     6
 -1.9916875091356721E-02 a      1117     0    75     1     7
  2.2281011688747537E-01 a      1118     0    75     1     8
 -3.2555267075427002E-01 a      1119     0    75     1     9
  1.4997623655223563E-01 a      1120     0    75     1    10
 -3.7099865827154987E-01 a      1121     0    75     1    11
 -2.8069775421993702E-02 a      1122     0    75     1    12
 -2.1947802115779486E-02 a      1123     0    75     1    13
 -2.2426500934332230E-01 a      1124     0    75     1    14
 -1.3608557379501057E-01 a      1125     0    75     1    15
 -1.7076493755473801E-01 a      1126     0    76     1     1
 -3.2933070893253223E-02 a      1127     0    76     1     2
  2.4190514337647274E-02 a      1128     0    76     1     3
  2.5575014489207504E-01 a      1129     0    76     1     4
 -1.1133700976312849E-01 a      1130     0    76     1     5
  1.2184909392669510E-01 a      1131     0    76     1     6
 -1.3521290051447099E-01 a      1132     0    76     1     7
 -1.8889985129083070E-01 a      1133     0    76     1     8
  1.5164429721172146E-01 a      1134     0    76     1     9
 -9.3524974400533603E-02 a      1135     0    76     1    10
  1.0379128969752796E-01 a      1136     0    76     1    11
  5.4209686408053445E-02 a      1137     0    76     1    12
  1.5877786583471727E-02 a      1138     0    76     1    13
  2.2605539247932706E-02 a      1139     0    76     1    14
 -9.9015755537131780E-02 a      1140     0    76     1    15
  2.7887156751923503E-01 a      1141     0    77     1     1
  1.7111430058826396E-01 a      1142     0    77     1     2
  1.1615317411930096E-01 a      1143     0    77     1     3
  3.6844976196911419E-02 a      1144     0    77     1     4
  1.9069559604987900E-02 a      1145     0    77     1     5
 -6.8391522445536646E-02 a      1146     0    77     1     6
 -8.6841882289202574E-02 a      1147     0    77     1     7
 -3.4427193506946274E-01 a      1148     0    77     1     8
 -1.3406550648491838E-01 a      1149     0    77     1     9
  1.7083774470616417E-01 a      1150     0    77     1    10
  7.7170394381492674E-02 a      1151     0    77     1    11
  1.9319774045505399E-02 a      1152     0    77     1    12
 -5.1418905907665326E-02 a      1153     0    77     1    13
 -1.4218639248254950E-01 a      1154     0    77     1    14
  4.6818585070710850E-02 a      1155     0    77     1    15
  2.0095295999881230E-01 a      1156     0    78     1     1
 -1.2396859729281590E-01 a      1157     0    78     1     2
 -5.4917689582608439E-02 a      1158     0    78     1     3
 -4.8817497145241494E-02 a      1159     0    78     1     4
  1.7426008352845893E-01 a      1160     0    78     1     5
 -2.6400421391753670E-01 a      1161     0    78     1     6
 -1.4658543070876873E-01 a      1162     0    78     1     7
  3.1228530463252646E-01 a      1163     0    78     1     8
  3.0019511447661861E-02 a      1164     0    78     1     9
  1.7034857084424862E-01 a      1165     0    78     1    10
 -1.0728698852060392E-01 a      1166     0    78     1    11
  1.0745254715757710E-01 a      1167     0    78     1    12
 -2.9000803601497432E-01 a      1168     0    78     1    13
 -1.0847081170931715E-01 a      1169     0    78     1    14
 -3.3658447992933993E-02 a      1170     0    78     1    15
 -9.3999536957722940E-01 b      1171     1     1
  8.6485774783506075E-01 b      1172     1     2
  1.2536499822298870E+00 b      1173     1     3
  2.2264775885220309E-01 b      1174     1     4
 -1.2833896620161398E+00 b      1175     1     5
 -1.4475458421448499E+00 b      1176     1     6
  8.5098747484160053E-01 b      1177     1     7
  2.2779540135045825E-01 b      1178     1     8
  1.3001044232105969E+00 b      1179     1     9
 -1.6834313970162235E-01 b      1180     1    10
 -7.9589852206346934E-01 b      1181     1    11
  1.0635462778775746E+00 b      1182     1    12
 -6.4703073001029754E-01 b      1183     1    13
 -3.0010770204054610E-01 b      1184     1    14
  1.4862232145959782E+00 b      1185     1    15
  6.9355568042288496E-01 a      1186     1     1     2     1
  5.6248006218005464E-01 a      1187     1     1     2     2
  4.4581021884270589E-01 a      1188     1     1     2     3
  1.9535624730583390E-01 a      1189     1     1     2     4
 -4.4654726792198335E-01 a      1190     1     1     2     5
  5.8619864337190308E-01 a      1191     1     1     2     6
  2.5290543905347446E-01 a      1192     1     1     2     7
 -3.3487283969928899E-01 a      1193     1     1     2     8
  3.9215299269944670E-01 a      1194     1     1     2     9
  2.8071252325061902E-01 a      1195     1     1     2    10
 -1.7686018886769819E-01 a      1196     1     1     2    11
 -6.2286088403864215E-01 a      1197     1     1     2    12
  1.6957706037549988E-01 a      1198     1     1     2    13
 -3.4763242416253776E-01 a      1199     1     1     2    14
  4.2201422374267406E-01 a      1200     1     1     2    15
 -6.0773141542874654E-01 a      1201     1     2     2     1
 -1.7378178959326152E-01 a      1202     1     2     2     2
  6.1274126263823103E-01 a      1203     1     2     2     3
  2.4561195048579496E-02 a      1204     1     2     2     4
  1.9978568608768205E-01 a      1205     1     2     2     5
 -5.0402449106113489E-01 a      1206     1     2     2     6
 -5.3705235470183910E-01 a      1207     1     2     2     7
  3.9440220301878604E-01 a      1208     1     2     2     8
 -5.5220380400464475E-01 a      1209     1     2     2     9
 -2.5396032291605575E-01 a      1210     1     2     2    10
 -1.9986872912995160E-01 a      1211     1     2     2    11
  1.5541859090108556E-01 a      1212     1     2     2    12
 -5.2200972609061647E-01 a      1213     1     2     2    13
 -6.5907270385696848E-01 a      1214     1     2     2    14
 -2.0410645097783864E-01 a      1215     1     2     2    15
  7.6355134250267243E-02 a      1216     1     3     2     1
  4.6628431690207156E-01 a      1217     1     3     2     2
 -3.1191869271486056E-01 a      1218     1     3     2     3
  2.1178098212993490E-01 a      1219     1     3     2     4
  5.1841534943235545E-01 a      1220     1     3     2     5
  1.5659413498650568E-01 a      1221     1     3     2     6
  4.9532831490129398E-01 a      1222     1     3     2     7
  2.7535917013554956E-01 a      1223     1     3     2     8
 -3.2146125220310318E-01 a      1224     1     3     2     9
  2.3306028440670495E-01 a      1225     1     3     2    10
  1.4709812563829633E-01 a      1226     1     3     2    11
 -2.8488961979062405E-01 a      1227     1     3     2    12
 -8.3901227099309902E-02 a      1228     1     3     2    13
  2.5614721538312731E-02 a      1229     1     3     2    14
  6.2969279266491740E-01 a      1230     1     3     2    15
 -6.5958235720092839E-01 a      1231     1     4     2     1
  1.6481613268526019E-01 a      1232     1     4     2     2
 -5.1563923078612472E-01 a      1233     1     4     2     3
 -6.0155529684622167E-01 a      1234     1     4     2     4
 -6.0144886082286242E-01 a      1235     1     4     2     5
 -1.1336573652236571E-01 a      1236     1     4     2     6
 -5.6165474787323622E-01 a      1237     1     4     2     7
 -3.2031923357713232E-01 a      1238     1     4     2     8
  8.4276301140272250E-02 a      1239     1     4     2     9
  3.4218500590409512E-02 a      1240     1     4     2    10
  4.5143619191533607E-01 a      1241     1     4     2    11
  6.4776007376443723E-01 a      1242     1     4     2    12
 -7.5010983540685516E-01 a      1243     1     4     2    13
  7.1314370967343399E-01 a      1244     1     4     2    14
 -7.4950101525970181E-01 a      1245     1     4     2    15
 -2.1554940551124130E-01 a      1246     1     5     2     1
  2.5524820774565055E-01 a      1247     1     5     2     2
  4.4070159786912888E-01 a      1248     1     5     2     3
  9.3561886271979633E-01 a      1249     1     5     2     4
 -1.0766084153674876E-01 a      1250     1     5     2     5
 -2.4692944416264129E-01 a      1251     1     5     2     6
 -3.4113804567820938E-01 a      1252     1     5     2     7
  1.8635131259544427E-01 a      1253     1     5     2     8
 -4.6947140452236129E-02 a      1254     1     5     2     9
  1.0961938548152508E-01 a      1255     1     5     2    10
 -2.7506610028532225E-01 a      1256     1     5     2    11
  1.5767764868688533E-01 a      1257     1     5     2    12
 -1.8377151110806153E-01 a      1258     1     5     2    13
  4.0220880791095098E-01 a      1259     1     5     2    14
  7.1131662932404660E-01 a      1260     1     5     2    15
  5.9122066505325488E-01 a      1261     1     6     2     1
 -6.2844051759941411E-01 a      1262     1     6     2     2
  2.8886969939854351E-01 a      1263     1     6     2     3
 -4.7359768330584007E-01 a      1264     1     6     2     4
 -5.9724614785233998E-02 a      1265     1     6     2     5
  3.6045461114293503E-01 a      1266     1     6     2     6
  4.6521663619393738E-01 a      1267     1     6     2     7
 -1.5512674607032176E-01 a      1268     1     6     2     8
 -3.0766847702887767E-01 a      1269     1     6     2     9
 -9.5715431385071281E-01 a      1270     1     6     2    10
 -4.6323483190409792E-01 a      1271     1     6     2    11
  6.7507841430690407E-01 a      1272     1     6     2    12
 -3.0998146184962089E-01 a      1273     1     6     2    13
  1.6817189839428939E-01 a      1274     1     6     2    14
  5.4430577514802070E-01 a      1275     1     6     2    15
  5.9556489504855570E-01 a      1276     1     7     2     1
  7.5733107107831110E-01 a      1277     1     7     2     2
  5.2597204822366939E-01 a      1278     1     7     2     3
 -3.1063614027443487E-01 a      1279     1     7     2     4
 -2.2116711918574247E-01 a      1280     1     7     2     5
  4.8561903622001745E-01 a      1281     1     7     2     6
 -6.7250099301877730E-01 a      1282     1     7     2     7
  4.9427731542242148E-01 a      1283     1     7     2     8
 -1.5247424184153344E-01 a      1284     1     7     2     9
 -4.3327396613213753E-01 a      1285     1     7     2    10
 -7.4666639394472634E-01 a      1286     1     7     2    11
 -4.4568028533486598E-01 a      1287     1     7     2    12
 -1.4913129663388261E-01 a      1288     1     7     2    13
 -3.3384052592978081E-01 a      1289     1     7     2    14
  1.0738309306529602E-01 a      1290     1     7     2    15
  3.7942651953573409E-01 a      1291     1     8     2     1
 -2.0832497520647439E-01 a      1292     1     8     2     2
  4.3561647014430926E-01 a      1293     1     8     2     3
  4.9976281942905992E-01 a      1294     1     8     2     4
  6.1485316270182400E-01 a      1295     1     8     2     5
  2.2516801681065901E-01 a      1296     1     8     2     6
 -3.7029022537449545E-02 a      1297     1     8     2     7
 -6.9750504032195526E-01 a      1298     1     8     2     8
 -6.6779962710057705E-01 a      1299     1     8     2     9
  7.8224481218345143E-01 a      1300     1     8     2    10
  3.7225695766916278E-01 a      1301     1     8     2    11
  6.5723563867898091E-03 a      1302     1     8     2    12
 -4.1251473172201403E-01 a      1303     1     8     2    13
  7.2335721267505582E-01 a      1304     1     8     2    14
 -8.6948665306605971E-02 a      1305     1     8     2    15
 -5.9101924568321647E-02 a      1306     1     9     2     1
  6.5692347051333824E-02 a      1307     1     9     2     2
  3.0025671260592374E-01 a      1308     1     9     2     3
  2.2554266071830081E-01 a      1309     1     9     2     4
 -2.6283997904835582E-01 a      1310     1     9     2     5
 -2.4172811328914315E-01 a      1311     1     9     2     6
 -5.4682855816543963E-01 a      1312     1     9     2     7
 -6.2170095845039755E-02 a      1313     1     9     2     8
 -5.4699053376498752E-01 a      1314     1     9     2     9
 -1.3587564894290460E-01 a      1315     1     9     2    10
 -2.0562947669181769E-01 a      1316     1     9     2    11
  5.2480034079872429E-01 a      1317     1     9     2    12
  4.8723377630338860E-01 a      1318     1     9     2    13
 -3.4856012387944502E-01 a      1319     1     9     2    14
  3.4546346451681592E-01 a      1320     1     9     2    15
  4.5780601445923819E-01 a      1321     1    10     2     1
 -6.0324501516504980E-01 a      1322     1    10     2     2
  4.1037089578627445E-01 a      1323     1    10     2     3
 -2.1995255650489942E-01 a      1324     1    10     2     4
 -6.9650460466055752E-01 a      1325     1    10     2     5
 -1.2099687118415822E-02 a      1326     1    10     2     6
  2.3785688101734259E-01 a      1327     1    10     2     7
 -6.5296277806685277E-01 a      1328     1    10     2     8
  7.0515021251242860E-01 a      1329     1    10     2     9
  1.0349828390640770E-01 a      1330     1    10     2    10
  1.1489275068875149E-01 a      1331     1    10     2    11
 -2.2216083219761534E-01 a      1332     1    10     2    12
 -7.3767217758166570E-01 a      1333     1    10     2    13
  1.0511110455356770E-01 a      1334     1    10     2    14
 -4.0594311700417551E-01 a      1335     1    10     2    15
  4.3573640577130057E-01 a      1336     1    11     2     1
 -6.0263058754665388E-01 a      1337     1    11     2     2
  4.0547470387579426E-01 a      1338     1    11     2     3
  1.1780383726916742E-01 a      1339     1    11     2     4
  7.2460093173764217E-01 a      1340     1    11     2     5
 -1.5221863703049771E-01 a      1341     1    11     2     6
 -2.0953974036233147E-01 a      1342     1    11     2     7
 -5.7398060124295314E-01 a      1343     1    11     2     8
 -4.4717157882314279E-01 a      1344     1    11     2     9
  5.5007632128183570E-01 a      1345     1    11     2    10
 -7.0641818985007029E-02 a      1346     1    11     2    11
 -3.4655229081243122E-01 a      1347     1    11     2    12
 -4.2188769612249860E-01 a      1348     1    11     2    13
 -2.1780495185143356E-01 a      1349     1    11     2    14
 -2.0480600228413612E-01 a      1350     1    11     2    15
 -4.2554748248314822E-01 a      1351     1    12     2     1
  4.5187342071445957E-01 a      1352     1    12     2     2
 -8.4138091767625667E-01 a      1353     1    12     2     3
 -6.8675227425837893E-01 a      1354     1    12     2     4
 -1.8703886763657887E-01 a      1355     1    12     2     5
  7.0797234370460305E-01 a      1356     1    12     2     6
  2.4019919241761487E-01 a      1357     1    12     2     7
  3.2014185845617488E-01 a      1358     1    12     2     8
  4.9393450231316521E-01 a      1359     1    12     2     9
  1.0133071878180550E-01 a      1360     1    12     2    10
  8.9951314341232924E-01 a      1361     1    12     2    11
 -3.4452804641605106E-01 a      1362     1    12     2    12
 -4.6342534526552764E-01 a      1363     1    12     2    13
 -3.6498226215996299E-01 a      1364     1    12     2    14
  3.5114125775118760E-01 a      1365     1    12     2    15
 -4.1523380839734575E-01 a      1366     1    13     2     1
  4.9211052892824980E-01 a      1367     1    13     2     2
 -1.7867616233681427E-01 a      1368     1    13     2     3
 -3.3269707762167322E-01 a      1369     1    13     2     4
  2.8329783367243250E-01 a      1370     1    13     2     5
  7.5992484243890412E-01 a      1371     1    13     2     6
 -4.4720381064101916E-01 a      1372     1    13     2     7
  6.9005174764762547E-02 a      1373     1    13     2     8
 -6.0918140028977397E-01 a      1374     1    13     2     9
 -1.5973889929254684E-01 a      1375     1    13     2    10
  1.8245830881059610E-01 a      1376     1    13     2    11
  6.3732219021608250E-01 a      1377     1    13     2    12
  7.2262750611281379E-01 a      1378     1    13     2    13
  6.2428933182121338E-01 a      1379     1    13     2    14
 -3.0160822178929830E-01 a      1380     1    13     2    15
  4.3804479884454783E-01 a      1381     1    14     2     1
 -3.8910644060260319E-01 a      1382     1    14     2     2
  3.8958958931699583E-01 a      1383     1    14     2     3
  1.7263411088935957E-01 a      1384     1    14     2     4
 -3.8722914436033146E-01 a      1385     1    14     2     5
 -3.1010228338243512E-01 a      1386     1    14     2     6
  5.2069276694502409E-01 a      1387     1    14     2     7
 -5.0080631712751966E-01 a      1388     1    14     2     8
 -2.3474376939225619E-01 a      1389     1    14     2     9
 -7.2414535476240915E-01 a      1390     1    14     2    10
  5.4817082705105069E-01 a      1391     1    14     2    11
 -2.8131649244228640E-01 a      1392     1    14     2    12
 -2.0588340590135012E-01 a      1393     1    14     2    13
  3.8930144483216367E-01 a      1394     1    14     2    14
  6.3802067717741573E-01 a      1395     1    14     2    15
 -3.5124099245113161E-01 a      1396     1    15     2     1
  3.0683352217583386E-02 a      1397     1    15     2     2
  2.9538118183171258E-01 a      1398     1    15     2     3
 -7.4357650624206251E-01 a      1399     1    15     2     4
 -2.5536481623369295E-01 a      1400     1    15     2     5
  6.3014860643158344E-01 a      1401     1    15     2     6
 -2.6621437578014107E-01 a      1402     1    15     2     7
 -7.4633716198262179E-01 a      1403     1    15     2     8
  3.8177832612194923E-01 a      1404     1    15     2     9
  2.4650874745554416E-01 a      1405     1    15     2    10
  1.1527832215433463E-01 a      1406     1    15     2    11
 -4.1457930233251172E-01 a      1407     1    15     2    12
  4.2357856845592090E-01 a      1408     1    15     2    13
  2.9618296192104970E-01 a      1409     1    15     2    14
 -4.2067456126925912E-01 a      1410     1    15     2    15
  1.0529200381367945E+00 b      1411     2     1
  2.0601842690193875E-01 b      1412     2     2
  1.5244553579504256E+00 b      1413     2     3
  1.7101369948124964E-01 b      1414     2     4
  1.0973769139100831E+00 b      1415     2     5
  1.3101829440866557E+00 b      1416     2     6
  1.6036368119816309E+00 b      1417     2     7
  5.1333923734603137E-01 b      1418     2     8
 -2.1321530505495144E-02 b      1419     2     9
  5.7423743420570961E-01 b      1420     2    10
 -1.3688169161548964E+00 b      1421     2    11
  8.2967880906176530E-02 b      1422     2    12
 -1.2203180234968771E+00 b      1423     2    13
 -8.5720402042201527E-01 b      1424     2    14
  1.1837196762751723E+00 b      1425     2    15
  3.2782640073779840E-01 a      1426     2     1     3     1
 -4.8408000880794089E-01 a      1427     2     2     3     1
 -3.5129443451683812E-01 a      1428     2     3     3     1
 -1.1537246285735476E+00 a      1429     2     4     3     1
 -8.3291056049786250E-01 a      1430     2     5     3     1
  4.5617468801204958E-01 a      1431     2     6     3     1
  4.8618296506453224E-01 a      1432     2     7     3     1
 -9.6666112262411730E-01 a      1433     2     8     3     1
 -6.8334724844491213E-01 a      1434     2     9     3     1
  1.2660797578408986E-01 a      1435     2    10     3     1
 -7.9119861791034174E-01 a      1436     2    11     3     1
 -2.7085890919142863E-01 a      1437     2    12     3     1
 -9.2962434821357642E-01 a      1438     2    13     3     1
  1.2419228641034262E-01 a      1439     2    14     3     1
 -4.0534402542199938E-01 a      1440     2    15     3     1
 -3.6288449833767239E-01 b      1441     3     1
