################################################################################
# Neural network connection values (weights and biases).
################################################################################
# Col  Name       Description
################################################################################
# 1    connection Neural network connection value.
# 2    t          Connection type (a = weight, b = bias).
# 3    index      Index enumerating weights.
# 4    l_s        Starting point layer (end point layer for biases).
# 5    n_s        Starting point neuron in starting layer (end point neuron for biases).
# 6    l_e        End point layer.
# 7    n_e        End point neuron in end layer.
################################################################################
#                      1 2         3     4     5     6     7
#             connection t     index   l_s   n_s   l_e   n_e
############################################################
  3.0683071711645077E-01 a         1     0     1     1     1
  5.3409971019460899E-02 a         2     0     1     1     2
  1.9929649396728699E-01 a         3     0     1     1     3
 -2.8593230541479170E-01 a         4     0     1     1     4
  2.6205120121278375E-01 a         5     0     1     1     5
  1.1418317421075652E-01 a         6     0     1     1     6
  1.0120996937491187E-02 a         7     0     1     1     7
  2.2682452067662506E-02 a         8     0     1     1     8
 -1.5513442959947901E-01 a         9     0     1     1     9
 -1.5310928529826237E-01 a        10     0     1     1    10
  1.2538943945130654E-01 a        11     0     1     1    11
 -3.7869801538158898E-01 a        12     0     1     1    12
 -2.3311044838325032E-01 a        13     0     1     1    13
 -3.8960060588157881E-02 a        14     0     1     1    14
 -8.0326735892874715E-02 a        15     0     1     1    15
  4.7736398555276775E-02 a        16     0     2     1     1
  5.7259281473885572E-02 a        17     0     2     1     2
  2.4273101278573334E-01 a        18     0     2     1     3
  1.1473482971459999E-01 a        19     0     2     1     4
  4.3095245617936366E-02 a        20     0     2     1     5
  1.7115880584283771E-02 a        21     0     2     1     6
  9.5754486395412647E-02 a        22     0     2     1     7
  6.6409027074121704E-02 a        23     0     2     1     8
  1.5266364062333945E-01 a        24     0     2     1     9
 -5.1406337538921973E-02 a        25     0     2     1    10
 -1.2317754640899349E-01 a        26     0     2     1    11
  2.6668651131977911E-01 a        27     0     2     1    12
  1.5333372975983720E-01 a        28     0     2     1    13
 -2.2263488716246174E-01 a        29     0     2     1    14
  1.9743538458317555E-02 a        30     0     2     1    15
 -1.2649753389759660E-01 a        31     0     3     1     1
 -1.5318158303720339E-01 a        32     0     3     1     2
  2.6036826652115108E-03 a        33     0     3     1     3
  2.5769673708383777E-03 a        34     0     3     1     4
 -1.5482899508189668E-01 a        35     0     3     1     5
 -1.1786209286494109E-01 a        36     0     3     1     6
  1.1963800550530429E-01 a        37     0     3     1     7
  2.7076067043238922E-01 a        38     0     3     1     8
  1.6959764254583018E-01 a        39     0     3     1     9
  7.3151250951128607E-02 a        40     0     3     1    10
  4.1588289272751253E-02 a        41     0     3     1    11
 -1.2262512446743599E-01 a        42     0     3     1    12
 -1.2988331352795895E-01 a        43     0     3     1    13
  1.9844202338916883E-01 a        44     0     3     1    14
  2.7478377000564713E-02 a        45     0     3     1    15
 -2.2245240358268570E-01 a        46     0     4     1     1
  1.7235568527707293E-01 a        47     0     4     1     2
  5.4784658569075231E-02 a        48     0     4     1     3
 -1.8690327934505910E-01 a        49     0     4     1     4
  2.6986205163353799E-01 a        50     0     4     1     5
 -1.4448745306662297E-01 a        51     0     4     1     6
 -2.8650174466549794E-01 a        52     0     4     1     7
 -1.9135749851874645E-01 a        53     0     4     1     8
 -1.5947644302288269E-01 a        54     0     4     1     9
  4.5400175329163260E-02 a        55     0     4     1    10
 -1.1611886829602780E-01 a        56     0     4     1    11
 -3.1025955340915451E-01 a        57     0     4     1    12
  1.6623482857999147E-01 a        58     0     4     1    13
  1.3183920414277975E-01 a        59     0     4     1    14
  2.7332364197680070E-01 a        60     0     4     1    15
  1.6687688315510002E-01 a        61     0     5     1     1
 -4.9892140818273423E-02 a        62     0     5     1     2
 -2.2655798196465257E-01 a        63     0     5     1     3
  4.9909566493410752E-02 a        64     0     5     1     4
  1.1575158681420056E-02 a        65     0     5     1     5
 -3.0247962609592938E-01 a        66     0     5     1     6
  2.4418594856115661E-01 a        67     0     5     1     7
  2.5629624039787235E-01 a        68     0     5     1     8
 -5.7632453070693347E-02 a        69     0     5     1     9
  9.0146856452862273E-02 a        70     0     5     1    10
 -5.8762971692203861E-02 a        71     0     5     1    11
  1.9567427468280180E-01 a        72     0     5     1    12
  2.6483384918075087E-01 a        73     0     5     1    13
 -8.1871941226376144E-02 a        74     0     5     1    14
 -1.2761048560865940E-01 a        75     0     5     1    15
 -1.4659449892164328E-01 a        76     0     6     1     1
 -1.0898192630207096E-02 a        77     0     6     1     2
 -3.3719147193091553E-01 a        78     0     6     1     3
 -1.0673432144000948E-02 a        79     0     6     1     4
 -3.0182062323306019E-01 a        80     0     6     1     5
 -1.7967221822907509E-01 a        81     0     6     1     6
 -2.5795113693023464E-01 a        82     0     6     1     7
  1.1668864022114553E-01 a        83     0     6     1     8
  1.9955531563807541E-01 a        84     0     6     1     9
 -6.1593898540026983E-02 a        85     0     6     1    10
 -1.5644722955069959E-01 a        86     0     6     1    11
  2.5355148541699690E-01 a        87     0     6     1    12
 -7.3752928504560625E-02 a        88     0     6     1    13
  8.9011314535293817E-02 a        89     0     6     1    14
 -1.2640858055196091E-01 a        90     0     6     1    15
 -2.6975936439958792E-01 a        91     0     7     1     1
  4.6995652678069447E-02 a        92     0     7     1     2
 -1.3618056620799676E-01 a        93     0     7     1     3
 -1.6391004500583550E-01 a        94     0     7     1     4
  2.1894484848030102E-01 a        95     0     7     1     5
 -1.4361539151679348E-01 a        96     0     7     1     6
  2.7621448030248588E-02 a        97     0     7     1     7
 -2.4244595199031790E-01 a        98     0     7     1     8
 -9.2852096648373322E-02 a        99     0     7     1     9
  1.6811166820378687E-01 a       100     0     7     1    10
 -2.5640279395781612E-01 a       101     0     7     1    11
  2.7816836171353615E-01 a       102     0     7     1    12
 -1.8661297448451722E-01 a       103     0     7     1    13
 -1.7358404869716704E-01 a       104     0     7     1    14
 -2.1885309217447166E-01 a       105     0     7     1    15
  6.8324567906334455E-02 a       106     0     8     1     1
 -1.9875512850096963E-01 a       107     0     8     1     2
 -1.4707575792087307E-01 a       108     0     8     1     3
  2.4416318430533424E-01 a       109     0     8     1     4
  1.4109715221592162E-01 a       110     0     8     1     5
  3.5441961532077605E-02 a       111     0     8     1     6
 -1.4480305654218179E-01 a       112     0     8     1     7
 -1.4155799089433820E-02 a       113     0     8     1     8
 -8.0805817860056216E-03 a       114     0     8     1     9
  1.3914609213642923E-01 a       115     0     8     1    10
  2.1216707777921653E-01 a       116     0     8     1    11
 -5.1058283031638320E-02 a       117     0     8     1    12
  2.0615805751744715E-01 a       118     0     8     1    13
 -2.0630412476724025E-01 a       119     0     8     1    14
  1.0672243195769879E-01 a       120     0     8     1    15
 -1.7812216833084932E-01 a       121     0     9     1     1
 -6.3551533340682809E-02 a       122     0     9     1     2
 -4.5836137264698235E-02 a       123     0     9     1     3
 -1.2000533804727523E-01 a       124     0     9     1     4
 -5.2835598371348054E-02 a       125     0     9     1     5
  4.4961965326088760E-02 a       126     0     9     1     6
 -1.8120577635936205E-01 a       127     0     9     1     7
 -5.6416275670187657E-02 a       128     0     9     1     8
 -2.8808708229454449E-01 a       129     0     9     1     9
  2.6066312671546309E-02 a       130     0     9     1    10
 -2.5954387570607321E-03 a       131     0     9     1    11
 -4.9283389304095787E-02 a       132     0     9     1    12
  5.7288813194032152E-02 a       133     0     9     1    13
  2.9240131675130743E-01 a       134     0     9     1    14
 -5.6832843947151747E-02 a       135     0     9     1    15
 -1.7949506675338453E-01 a       136     0    10     1     1
 -6.4899670067684143E-02 a       137     0    10     1     2
 -1.3095678608378900E-01 a       138     0    10     1     3
  5.0467158364406260E-02 a       139     0    10     1     4
  3.6049307270579957E-02 a       140     0    10     1     5
  6.5245904914117331E-02 a       141     0    10     1     6
 -1.7921652433758550E-01 a       142     0    10     1     7
 -1.9803036946264249E-01 a       143     0    10     1     8
  1.5215129811549366E-01 a       144     0    10     1     9
 -2.2353601671154502E-01 a       145     0    10     1    10
 -1.9451937626255211E-01 a       146     0    10     1    11
 -5.4971677333095534E-02 a       147     0    10     1    12
  3.2486719343638593E-01 a       148     0    10     1    13
 -2.4458343287381909E-01 a       149     0    10     1    14
  4.8849442890449533E-03 a       150     0    10     1    15
  1.0179774851250130E-01 a       151     0    11     1     1
 -5.9489690946251247E-03 a       152     0    11     1     2
  4.9416574813442166E-02 a       153     0    11     1     3
  2.0463452094001530E-01 a       154     0    11     1     4
  1.2802197079036090E-01 a       155     0    11     1     5
 -5.5198969027161773E-02 a       156     0    11     1     6
  1.1773858896440138E-01 a       157     0    11     1     7
  9.4943384443321122E-02 a       158     0    11     1     8
  2.6000131867377113E-01 a       159     0    11     1     9
 -2.4764320794199973E-02 a       160     0    11     1    10
  1.0286501010444621E-02 a       161     0    11     1    11
 -1.3118189471727418E-01 a       162     0    11     1    12
 -1.8050034296493092E-01 a       163     0    11     1    13
 -1.6340585224066842E-01 a       164     0    11     1    14
 -3.6524556675115949E-02 a       165     0    11     1    15
  2.0910697358160762E-01 a       166     0    12     1     1
  1.1412479476022813E-01 a       167     0    12     1     2
  1.8486458620747995E-01 a       168     0    12     1     3
  1.6414081498801103E-01 a       169     0    12     1     4
 -4.0824261294215125E-02 a       170     0    12     1     5
 -1.5771647295473731E-01 a       171     0    12     1     6
  1.5801532164878418E-01 a       172     0    12     1     7
  2.3932565022844612E-01 a       173     0    12     1     8
 -9.7952288563585052E-02 a       174     0    12     1     9
  5.7285858656630224E-02 a       175     0    12     1    10
 -4.2266526684581002E-02 a       176     0    12     1    11
  4.4098873532403819E-02 a       177     0    12     1    12
 -1.4984709328246407E-01 a       178     0    12     1    13
  2.2821712022565657E-01 a       179     0    12     1    14
 -1.0657750358258050E-01 a       180     0    12     1    15
  1.8588025620193297E-02 a       181     0    13     1     1
  6.5368880744528915E-02 a       182     0    13     1     2
  1.4177293148441203E-01 a       183     0    13     1     3
 -1.2434591133692442E-01 a       184     0    13     1     4
 -1.4737554094239547E-02 a       185     0    13     1     5
 -1.8419975514967418E-01 a       186     0    13     1     6
  2.6451043863172352E-01 a       187     0    13     1     7
 -1.4790716971910831E-01 a       188     0    13     1     8
  6.5545504106082966E-02 a       189     0    13     1     9
  5.5998898763887736E-02 a       190     0    13     1    10
 -4.4895529488071184E-02 a       191     0    13     1    11
  5.0170350097610214E-02 a       192     0    13     1    12
  1.4821632523852746E-01 a       193     0    13     1    13
 -1.4661194474928760E-02 a       194     0    13     1    14
  1.0083448330339394E-01 a       195     0    13     1    15
  1.3958262624378032E-01 a       196     0    14     1     1
  9.5554429286484385E-03 a       197     0    14     1     2
  2.1039594958193303E-01 a       198     0    14     1     3
  9.5729594294953462E-03 a       199     0    14     1     4
 -2.3317916953169010E-01 a       200     0    14     1     5
 -6.9672494574785582E-02 a       201     0    14     1     6
  1.1416351515160873E-01 a       202     0    14     1     7
 -5.0260894445632491E-03 a       203     0    14     1     8
  9.2917230980904750E-02 a       204     0    14     1     9
  9.1936800775749811E-02 a       205     0    14     1    10
  6.1814935987345727E-02 a       206     0    14     1    11
 -1.3870868211119269E-02 a       207     0    14     1    12
  3.4746598364989417E-02 a       208     0    14     1    13
 -1.5527032715769160E-01 a       209     0    14     1    14
  7.6335814831960669E-02 a       210     0    14     1    15
 -1.6342271811881265E-01 a       211     0    15     1     1
  6.3416391995768623E-02 a       212     0    15     1     2
 -2.8453792529262656E-01 a       213     0    15     1     3
  1.0115299603084030E-01 a       214     0    15     1     4
 -1.8238066188201457E-01 a       215     0    15     1     5
 -7.1387901463508069E-02 a       216     0    15     1     6
 -1.5604449992514688E-01 a       217     0    15     1     7
  9.6367853619278590E-02 a       218     0    15     1     8
 -1.7285187839897723E-01 a       219     0    15     1     9
 -2.1034123627537168E-01 a       220     0    15     1    10
 -1.9155527500033404E-01 a       221     0    15     1    11
 -1.6919621411634431E-01 a       222     0    15     1    12
  1.2828209668964166E-01 a       223     0    15     1    13
 -2.5201845349629569E-02 a       224     0    15     1    14
 -3.9490765345983725E-02 a       225     0    15     1    15
 -1.1090951857969296E-01 a       226     0    16     1     1
 -4.7211229951174619E-02 a       227     0    16     1     2
  8.2375895281999470E-02 a       228     0    16     1     3
 -1.4389968750444329E-01 a       229     0    16     1     4
  2.1835208353229277E-01 a       230     0    16     1     5
  1.0796737498024533E-01 a       231     0    16     1     6
  2.1712269541448037E-01 a       232     0    16     1     7
  7.9741743795114020E-03 a       233     0    16     1     8
 -1.7789662716978988E-01 a       234     0    16     1     9
  1.0113331158369074E-01 a       235     0    16     1    10
  1.5955127662530211E-01 a       236     0    16     1    11
 -5.3602776101199866E-02 a       237     0    16     1    12
  7.1339908364155005E-02 a       238     0    16     1    13
 -1.4292046657234184E-01 a       239     0    16     1    14
  9.9531763941074852E-02 a       240     0    16     1    15
  6.6214962183601483E-02 a       241     0    17     1     1
 -4.7884359580684287E-02 a       242     0    17     1     2
  4.3731967468262516E-02 a       243     0    17     1     3
  1.7353888495254390E-03 a       244     0    17     1     4
 -2.1474608887341645E-01 a       245     0    17     1     5
  1.5327880891784096E-01 a       246     0    17     1     6
 -1.0174053753764307E-02 a       247     0    17     1     7
 -1.2746759279735770E-01 a       248     0    17     1     8
  7.3600756039807230E-02 a       249     0    17     1     9
  3.9784452092775480E-02 a       250     0    17     1    10
  5.4390866987157858E-02 a       251     0    17     1    11
  1.7454189567278391E-01 a       252     0    17     1    12
 -2.0755334990595758E-01 a       253     0    17     1    13
  2.4432732443900504E-01 a       254     0    17     1    14
 -1.9827811778453724E-01 a       255     0    17     1    15
 -1.8837327081831640E-01 a       256     0    18     1     1
  2.3510665055110472E-02 a       257     0    18     1     2
 -1.3445629648207857E-01 a       258     0    18     1     3
  2.5006795058114645E-01 a       259     0    18     1     4
  4.5934092329639208E-02 a       260     0    18     1     5
 -5.3998248376832286E-02 a       261     0    18     1     6
  2.7609749583257261E-02 a       262     0    18     1     7
  1.5578351496055621E-02 a       263     0    18     1     8
 -1.2242505479244734E-01 a       264     0    18     1     9
  4.9339201344451522E-02 a       265     0    18     1    10
  4.4939852779694499E-02 a       266     0    18     1    11
 -1.3049166395711473E-01 a       267     0    18     1    12
 -2.1726483845090325E-01 a       268     0    18     1    13
  1.5113012356372612E-04 a       269     0    18     1    14
  1.3566333908550188E-01 a       270     0    18     1    15
  1.5773864067575796E-01 a       271     0    19     1     1
 -1.4365319623468622E-02 a       272     0    19     1     2
  2.0224082378179939E-01 a       273     0    19     1     3
  1.3590923034078656E-01 a       274     0    19     1     4
 -2.2449587917618929E-02 a       275     0    19     1     5
  3.9973994955082366E-02 a       276     0    19     1     6
  1.3890633351881887E-01 a       277     0    19     1     7
 -1.4687279129730130E-01 a       278     0    19     1     8
  2.1565566337385469E-01 a       279     0    19     1     9
  1.9379763614179343E-01 a       280     0    19     1    10
  1.1197990153773366E-01 a       281     0    19     1    11
  8.6790083859851819E-02 a       282     0    19     1    12
 -7.5918204395567915E-02 a       283     0    19     1    13
 -1.2508157225580746E-02 a       284     0    19     1    14
  9.9395246386104683E-02 a       285     0    19     1    15
  7.1993060541895776E-02 a       286     0    20     1     1
 -2.9787887901838742E-02 a       287     0    20     1     2
 -5.4326326383590730E-02 a       288     0    20     1     3
 -1.3336342348727451E-01 a       289     0    20     1     4
  1.5890291737356582E-01 a       290     0    20     1     5
 -2.9595254753110589E-02 a       291     0    20     1     6
  2.4910779619615409E-02 a       292     0    20     1     7
 -7.3743252929044253E-02 a       293     0    20     1     8
 -1.0073039813347165E-01 a       294     0    20     1     9
  4.5552695542147234E-02 a       295     0    20     1    10
  2.2133071764802795E-02 a       296     0    20     1    11
  6.2589821391909703E-02 a       297     0    20     1    12
  6.3921905602575574E-02 a       298     0    20     1    13
 -4.7567960193255862E-02 a       299     0    20     1    14
  8.8115815475344778E-02 a       300     0    20     1    15
 -1.1344534012202831E-01 a       301     0    21     1     1
  1.4877679717248250E-02 a       302     0    21     1     2
 -7.0924595317442024E-02 a       303     0    21     1     3
 -1.0651804869479963E-02 a       304     0    21     1     4
  2.0977906240772565E-01 a       305     0    21     1     5
  9.2296203315963540E-02 a       306     0    21     1     6
  4.5691258301801277E-02 a       307     0    21     1     7
 -8.7341655276906127E-02 a       308     0    21     1     8
  4.3120825371617731E-02 a       309     0    21     1     9
 -3.1541709314038784E-04 a       310     0    21     1    10
 -1.3645529149069566E-01 a       311     0    21     1    11
  5.8341923898569133E-02 a       312     0    21     1    12
  1.6821056633288103E-01 a       313     0    21     1    13
  2.3083707804792170E-01 a       314     0    21     1    14
 -2.3589655286610423E-01 a       315     0    21     1    15
 -2.9392834394519580E-02 a       316     0    22     1     1
  4.5681418527105673E-02 a       317     0    22     1     2
 -1.5384302890086746E-01 a       318     0    22     1     3
 -1.0620423738277822E-01 a       319     0    22     1     4
 -1.9363899794763298E-01 a       320     0    22     1     5
 -8.5184597586808450E-02 a       321     0    22     1     6
  1.0888554847251208E-01 a       322     0    22     1     7
  3.0695999425452421E-03 a       323     0    22     1     8
 -1.8165779852117772E-01 a       324     0    22     1     9
  1.3287549362061757E-02 a       325     0    22     1    10
 -5.4450332108119198E-02 a       326     0    22     1    11
  4.8394467565580062E-03 a       327     0    22     1    12
  1.0482039968225912E-01 a       328     0    22     1    13
  1.3028897046126062E-01 a       329     0    22     1    14
 -2.3452947628278559E-03 a       330     0    22     1    15
 -2.1179077768191276E-01 a       331     0    23     1     1
 -1.1205117326043045E-01 a       332     0    23     1     2
 -9.8269219618037876E-02 a       333     0    23     1     3
  2.4699442472044136E-01 a       334     0    23     1     4
  1.3664070934458034E-02 a       335     0    23     1     5
 -1.2002115764989497E-01 a       336     0    23     1     6
  2.7891847847992212E-02 a       337     0    23     1     7
  6.0058487722632392E-02 a       338     0    23     1     8
  1.8607362546005107E-01 a       339     0    23     1     9
  2.1562822608599516E-01 a       340     0    23     1    10
  7.6753438771410928E-02 a       341     0    23     1    11
  6.2413848633471568E-02 a       342     0    23     1    12
 -1.7784032812251480E-01 a       343     0    23     1    13
 -2.7564924465261187E-01 a       344     0    23     1    14
  6.2104907856472137E-02 a       345     0    23     1    15
 -4.5949975508939089E-02 a       346     0    24     1     1
  9.3940539629102579E-02 a       347     0    24     1     2
 -1.4960787197741748E-01 a       348     0    24     1     3
 -1.0101639984546482E-01 a       349     0    24     1     4
 -2.0448549984699266E-01 a       350     0    24     1     5
  1.2408005094850523E-01 a       351     0    24     1     6
  5.3940353429660318E-02 a       352     0    24     1     7
  7.1323266594492729E-02 a       353     0    24     1     8
 -7.3531562833744360E-02 a       354     0    24     1     9
 -9.8027488026351500E-02 a       355     0    24     1    10
  6.8976746684351095E-02 a       356     0    24     1    11
 -3.6574780538928674E-02 a       357     0    24     1    12
 -1.8570991209576004E-01 a       358     0    24     1    13
 -7.2479590892920637E-02 a       359     0    24     1    14
  1.2514867897627935E-01 a       360     0    24     1    15
  1.7039103360669333E-01 a       361     0    25     1     1
 -2.2254198435381839E-03 a       362     0    25     1     2
 -8.9110299811338070E-02 a       363     0    25     1     3
 -2.2239883156861209E-01 a       364     0    25     1     4
 -2.3785197885184509E-01 a       365     0    25     1     5
 -1.2710403943489137E-01 a       366     0    25     1     6
 -5.1868733604319602E-03 a       367     0    25     1     7
  2.6194124945362351E-01 a       368     0    25     1     8
 -1.6352715647984814E-01 a       369     0    25     1     9
  1.0197099810254351E-01 a       370     0    25     1    10
 -7.8211897540523823E-02 a       371     0    25     1    11
 -9.1628680480702399E-03 a       372     0    25     1    12
 -6.0674596744972428E-02 a       373     0    25     1    13
 -3.1886400265899645E-02 a       374     0    25     1    14
  1.7306200401765803E-01 a       375     0    25     1    15
  2.3565932309403868E-02 a       376     0    26     1     1
  1.9668834961686102E-02 a       377     0    26     1     2
 -6.6059200002434218E-02 a       378     0    26     1     3
  9.2689002670516205E-03 a       379     0    26     1     4
 -1.1021541914920305E-01 a       380     0    26     1     5
  1.3828229027162312E-01 a       381     0    26     1     6
  1.1133384298191069E-01 a       382     0    26     1     7
  2.5147495127928643E-01 a       383     0    26     1     8
 -3.6675078065672738E-02 a       384     0    26     1     9
  1.2598869166597010E-01 a       385     0    26     1    10
  5.9986062562466261E-02 a       386     0    26     1    11
  6.0228220407300644E-02 a       387     0    26     1    12
 -1.1413703224412014E-02 a       388     0    26     1    13
  7.3788492824416768E-02 a       389     0    26     1    14
  1.6371435906111406E-01 a       390     0    26     1    15
 -1.0710499455323289E-01 a       391     0    27     1     1
 -5.1338787735667628E-02 a       392     0    27     1     2
 -7.6024632746806847E-02 a       393     0    27     1     3
 -1.2117198169756220E-01 a       394     0    27     1     4
  6.1973531180840577E-02 a       395     0    27     1     5
  5.6053607093937474E-02 a       396     0    27     1     6
 -2.6440993346319597E-02 a       397     0    27     1     7
 -2.5883386982378936E-02 a       398     0    27     1     8
  8.0969897021189369E-02 a       399     0    27     1     9
 -2.3488403906697075E-01 a       400     0    27     1    10
 -1.8007439817718335E-01 a       401     0    27     1    11
  3.0586962656723693E-01 a       402     0    27     1    12
  7.9034527747509020E-02 a       403     0    27     1    13
  1.6359900727179003E-01 a       404     0    27     1    14
 -2.2724954591088301E-01 a       405     0    27     1    15
  1.3415741919460120E-01 a       406     0    28     1     1
  4.3653703661266856E-02 a       407     0    28     1     2
  1.7193068464273217E-01 a       408     0    28     1     3
  6.2854374302631022E-02 a       409     0    28     1     4
  2.1915996860679899E-02 a       410     0    28     1     5
 -1.2020837812433231E-01 a       411     0    28     1     6
 -3.4878854018399394E-02 a       412     0    28     1     7
  1.6933985015168238E-01 a       413     0    28     1     8
 -3.2521030439434961E-01 a       414     0    28     1     9
  1.0624139780397161E-01 a       415     0    28     1    10
 -2.0234945661275391E-01 a       416     0    28     1    11
 -6.4610499767288151E-02 a       417     0    28     1    12
  2.2101303471053907E-01 a       418     0    28     1    13
 -8.5869115334938267E-02 a       419     0    28     1    14
 -1.9920157993027010E-01 a       420     0    28     1    15
  3.0309788625622100E-02 a       421     0    29     1     1
  2.0056864639407482E-02 a       422     0    29     1     2
  8.3962295183557190E-02 a       423     0    29     1     3
 -2.0365107538730653E-01 a       424     0    29     1     4
 -2.4178986051635462E-01 a       425     0    29     1     5
  1.6208817108459248E-01 a       426     0    29     1     6
 -6.8447944321924470E-02 a       427     0    29     1     7
 -8.0266508257852462E-02 a       428     0    29     1     8
  1.6278662816266162E-01 a       429     0    29     1     9
 -2.1109844349371684E-01 a       430     0    29     1    10
  4.4925166952286336E-02 a       431     0    29     1    11
 -1.1884263980918365E-01 a       432     0    29     1    12
 -8.6785457960598292E-02 a       433     0    29     1    13
 -3.1905229411070664E-02 a       434     0    29     1    14
 -1.5565112662704549E-03 a       435     0    29     1    15
  1.2808268693178121E-01 a       436     0    30     1     1
  2.1888523824384654E-02 a       437     0    30     1     2
  1.3483275061457425E-01 a       438     0    30     1     3
  1.6786971535594084E-01 a       439     0    30     1     4
 -2.8197109217859434E-01 a       440     0    30     1     5
 -1.6977007744530392E-01 a       441     0    30     1     6
 -9.8627543718158114E-02 a       442     0    30     1     7
 -1.6725663469665622E-01 a       443     0    30     1     8
 -8.7202670419455980E-02 a       444     0    30     1     9
  1.4503378723476198E-01 a       445     0    30     1    10
  1.9308783539294383E-01 a       446     0    30     1    11
  4.7243928362800988E-02 a       447     0    30     1    12
 -1.1177422516018405E-01 a       448     0    30     1    13
 -1.8254814455114760E-01 a       449     0    30     1    14
  1.8020707559742272E-01 a       450     0    30     1    15
 -8.4470210796061165E-02 a       451     0    31     1     1
  1.5150145348361149E-01 a       452     0    31     1     2
  1.4059135770282880E-01 a       453     0    31     1     3
  1.5261187063923656E-01 a       454     0    31     1     4
  7.4411251807052547E-02 a       455     0    31     1     5
  6.1023448984596537E-02 a       456     0    31     1     6
  1.9121886093977838E-01 a       457     0    31     1     7
 -3.8964902144368749E-02 a       458     0    31     1     8
 -2.5508845270246668E-02 a       459     0    31     1     9
 -1.7546827083477373E-01 a       460     0    31     1    10
 -2.3997911431026892E-01 a       461     0    31     1    11
  9.8675687729919109E-02 a       462     0    31     1    12
  1.5718747692796758E-01 a       463     0    31     1    13
  1.4910185923739969E-01 a       464     0    31     1    14
 -1.4312527449626422E-01 a       465     0    31     1    15
 -1.8338695342437532E-02 a       466     0    32     1     1
  1.4514596747401012E-01 a       467     0    32     1     2
 -1.5545535845097382E-02 a       468     0    32     1     3
 -1.9648562288150573E-01 a       469     0    32     1     4
 -1.1758200198811473E-01 a       470     0    32     1     5
 -2.2918703007990077E-01 a       471     0    32     1     6
  2.0115141346457064E-02 a       472     0    32     1     7
 -2.8528405924222251E-03 a       473     0    32     1     8
  1.0794351283244239E-02 a       474     0    32     1     9
 -1.5126230617995964E-02 a       475     0    32     1    10
 -1.3136907177914992E-01 a       476     0    32     1    11
  1.8688617047362133E-01 a       477     0    32     1    12
 -1.4107623188975943E-01 a       478     0    32     1    13
 -7.8371818366690979E-02 a       479     0    32     1    14
 -2.5146940447688754E-01 a       480     0    32     1    15
  3.5012496686485463E-02 a       481     0    33     1     1
  2.7803090856170949E-02 a       482     0    33     1     2
  1.5973017941240564E-01 a       483     0    33     1     3
 -1.1414679965089203E-01 a       484     0    33     1     4
 -1.3467365971643833E-01 a       485     0    33     1     5
 -1.5093755647536239E-01 a       486     0    33     1     6
  1.1236901633358419E-01 a       487     0    33     1     7
  2.4279398137731806E-02 a       488     0    33     1     8
 -1.6967729119004907E-01 a       489     0    33     1     9
 -1.4057226767704883E-01 a       490     0    33     1    10
 -1.4031615862724037E-01 a       491     0    33     1    11
  9.9984963916606329E-02 a       492     0    33     1    12
 -1.7206281309755586E-01 a       493     0    33     1    13
  1.3906597098210899E-01 a       494     0    33     1    14
  1.0812635205586026E-01 a       495     0    33     1    15
 -1.6254729151216746E-01 a       496     0    34     1     1
 -4.3245934389678021E-03 a       497     0    34     1     2
  2.5560848558614141E-01 a       498     0    34     1     3
  1.7609307692281448E-01 a       499     0    34     1     4
 -1.2927661160527612E-01 a       500     0    34     1     5
 -1.1074848569850532E-01 a       501     0    34     1     6
  1.8716293822250193E-01 a       502     0    34     1     7
 -4.7247991155777137E-02 a       503     0    34     1     8
  2.2280227426163079E-01 a       504     0    34     1     9
  2.0139633900244064E-01 a       505     0    34     1    10
  8.7938484794001459E-02 a       506     0    34     1    11
  8.5451825225928230E-02 a       507     0    34     1    12
 -1.6785529924212583E-01 a       508     0    34     1    13
  2.9937297765048265E-01 a       509     0    34     1    14
 -8.3179797742350736E-02 a       510     0    34     1    15
  2.3471409221308115E-01 a       511     0    35     1     1
 -9.9429897122187347E-03 a       512     0    35     1     2
  9.3654284570186874E-02 a       513     0    35     1     3
 -4.0245745509080652E-02 a       514     0    35     1     4
  1.6002697562248158E-01 a       515     0    35     1     5
 -1.3500635256649920E-01 a       516     0    35     1     6
  1.4410606219663957E-01 a       517     0    35     1     7
 -1.7535990739984909E-03 a       518     0    35     1     8
 -1.1015625679054677E-01 a       519     0    35     1     9
  1.0784694415003894E-01 a       520     0    35     1    10
  3.9294795488996885E-02 a       521     0    35     1    11
  9.9806635527691506E-02 a       522     0    35     1    12
 -3.3660956637600359E-01 a       523     0    35     1    13
 -1.7192785537031993E-01 a       524     0    35     1    14
  1.5081510995837683E-01 a       525     0    35     1    15
 -1.4202354277950099E-01 a       526     0    36     1     1
  3.0887646643389440E-03 a       527     0    36     1     2
  2.0424253823778815E-01 a       528     0    36     1     3
  6.5068512734906631E-02 a       529     0    36     1     4
  1.2058890621964193E-01 a       530     0    36     1     5
  2.2938128073683847E-01 a       531     0    36     1     6
 -1.2562630609879821E-01 a       532     0    36     1     7
  2.1578939821557933E-01 a       533     0    36     1     8
  2.0906756357476147E-01 a       534     0    36     1     9
 -5.7091612046866164E-02 a       535     0    36     1    10
  3.1955753900432531E-02 a       536     0    36     1    11
 -2.6786710810482661E-01 a       537     0    36     1    12
  1.3078489230248419E-01 a       538     0    36     1    13
  1.8908898884388953E-01 a       539     0    36     1    14
 -2.9142790543323882E-01 a       540     0    36     1    15
 -1.8325966341167449E-01 a       541     0    37     1     1
  8.8754637344118037E-02 a       542     0    37     1     2
 -1.4951390945500531E-01 a       543     0    37     1     3
 -4.3721329966000429E-02 a       544     0    37     1     4
 -5.5663031571135405E-02 a       545     0    37     1     5
 -1.4981708366159596E-01 a       546     0    37     1     6
  6.4850443486488621E-02 a       547     0    37     1     7
 -8.7897030000831669E-02 a       548     0    37     1     8
  7.6365054248777667E-02 a       549     0    37     1     9
 -6.1667783255329900E-02 a       550     0    37     1    10
  2.3105563631646506E-01 a       551     0    37     1    11
  9.9656264586463650E-02 a       552     0    37     1    12
 -2.4548712237400849E-01 a       553     0    37     1    13
  9.5125647441864858E-02 a       554     0    37     1    14
  9.9197845889030994E-02 a       555     0    37     1    15
  1.8651049728583310E-01 a       556     0    38     1     1
 -5.3402015258331458E-02 a       557     0    38     1     2
  1.4024617255187322E-01 a       558     0    38     1     3
  7.6679578267902615E-02 a       559     0    38     1     4
 -9.6789490896453848E-02 a       560     0    38     1     5
  2.5065529749580279E-01 a       561     0    38     1     6
 -2.5791548173313206E-01 a       562     0    38     1     7
 -1.1190982525069569E-01 a       563     0    38     1     8
  6.1381195587779325E-02 a       564     0    38     1     9
 -1.8873457260051571E-01 a       565     0    38     1    10
  1.3371110951536311E-01 a       566     0    38     1    11
  1.7602899511123413E-01 a       567     0    38     1    12
  6.7728168602367272E-02 a       568     0    38     1    13
  4.8503372799921611E-02 a       569     0    38     1    14
 -8.5159259561438438E-02 a       570     0    38     1    15
  1.4148275566486135E-01 a       571     0    39     1     1
 -5.8817916345521699E-02 a       572     0    39     1     2
 -2.1651289035381419E-01 a       573     0    39     1     3
 -1.7543773706160268E-01 a       574     0    39     1     4
  2.0015306050795045E-02 a       575     0    39     1     5
  1.4878633356881152E-03 a       576     0    39     1     6
 -1.5676086491937458E-02 a       577     0    39     1     7
 -2.2791953965971928E-01 a       578     0    39     1     8
  3.6271791674955749E-02 a       579     0    39     1     9
 -1.3055830407110293E-02 a       580     0    39     1    10
 -1.1602967356363958E-01 a       581     0    39     1    11
 -2.4149040988636730E-01 a       582     0    39     1    12
 -4.0305282643546894E-02 a       583     0    39     1    13
 -1.9354176186465821E-01 a       584     0    39     1    14
  1.0632275242573153E-01 a       585     0    39     1    15
  6.9313899039064680E-02 a       586     0    40     1     1
 -1.2610722762455448E-01 a       587     0    40     1     2
 -1.1609789940305676E-01 a       588     0    40     1     3
 -1.3427636702413006E-02 a       589     0    40     1     4
 -1.3696954329145217E-01 a       590     0    40     1     5
 -4.5559866033570012E-02 a       591     0    40     1     6
  7.9602429424433241E-02 a       592     0    40     1     7
 -1.8604518785021099E-01 a       593     0    40     1     8
 -2.4886751935224233E-01 a       594     0    40     1     9
  3.3396749543265380E-02 a       595     0    40     1    10
  1.2307337512103531E-01 a       596     0    40     1    11
  1.0744150818888680E-01 a       597     0    40     1    12
 -6.9916413106743930E-02 a       598     0    40     1    13
 -9.2726956884587777E-02 a       599     0    40     1    14
 -1.2349548442314999E-02 a       600     0    40     1    15
 -4.4657300989671640E-02 a       601     0    41     1     1
  2.5777272106223274E-02 a       602     0    41     1     2
 -1.5879770819254826E-01 a       603     0    41     1     3
  1.2328245574799088E-01 a       604     0    41     1     4
 -2.6704194690299640E-03 a       605     0    41     1     5
  1.5306310607630597E-01 a       606     0    41     1     6
 -2.2197262094384891E-02 a       607     0    41     1     7
 -8.5203147768448617E-02 a       608     0    41     1     8
 -1.7840608318919368E-01 a       609     0    41     1     9
 -1.2912969133402563E-01 a       610     0    41     1    10
  1.7781526861848110E-01 a       611     0    41     1    11
  5.7805794453049605E-02 a       612     0    41     1    12
  1.1307318068527536E-01 a       613     0    41     1    13
 -1.4475991931618701E-02 a       614     0    41     1    14
  1.5809231843648378E-01 a       615     0    41     1    15
 -8.9457935911420469E-02 a       616     0    42     1     1
  3.4758877723546702E-02 a       617     0    42     1     2
 -7.7258357231704072E-02 a       618     0    42     1     3
 -1.1661611340360840E-01 a       619     0    42     1     4
 -3.9581344840821577E-02 a       620     0    42     1     5
  4.0092188644578031E-02 a       621     0    42     1     6
  1.7278941943930573E-01 a       622     0    42     1     7
 -2.4209548910895690E-02 a       623     0    42     1     8
  6.6583831543585409E-02 a       624     0    42     1     9
  6.1462458860792164E-02 a       625     0    42     1    10
  4.7086747770074870E-02 a       626     0    42     1    11
  7.1343842350735820E-02 a       627     0    42     1    12
  4.4680411590216171E-02 a       628     0    42     1    13
  1.8471627679675962E-01 a       629     0    42     1    14
 -8.8242792411018720E-02 a       630     0    42     1    15
 -1.5375535794755754E-01 a       631     0    43     1     1
 -5.3358996683041664E-02 a       632     0    43     1     2
  2.9788001389366214E-02 a       633     0    43     1     3
 -2.0620751966126183E-01 a       634     0    43     1     4
  1.5552589071899273E-01 a       635     0    43     1     5
 -1.7387423939925417E-01 a       636     0    43     1     6
  3.9323074475420952E-02 a       637     0    43     1     7
  1.1855786150566412E-01 a       638     0    43     1     8
  1.8093212690692345E-01 a       639     0    43     1     9
  5.1453721041434919E-02 a       640     0    43     1    10
 -5.6601224693076012E-02 a       641     0    43     1    11
 -7.6428665701968684E-02 a       642     0    43     1    12
  1.3051842471495456E-01 a       643     0    43     1    13
 -2.8976619931252917E-01 a       644     0    43     1    14
 -7.2639900063637505E-02 a       645     0    43     1    15
  7.0927729738784542E-02 a       646     0    44     1     1
 -6.4374048764618469E-02 a       647     0    44     1     2
  2.1461177333122847E-01 a       648     0    44     1     3
  9.7220920918865125E-02 a       649     0    44     1     4
  9.1198388626058419E-02 a       650     0    44     1     5
 -7.4470754372923526E-03 a       651     0    44     1     6
 -2.5498503215608709E-01 a       652     0    44     1     7
 -8.9343343879553686E-02 a       653     0    44     1     8
  1.7939054183521397E-01 a       654     0    44     1     9
 -1.7762878691838890E-01 a       655     0    44     1    10
 -1.8311671423365777E-01 a       656     0    44     1    11
 -8.2827404840922977E-02 a       657     0    44     1    12
 -1.1322155384213806E-01 a       658     0    44     1    13
 -2.4439602796571616E-01 a       659     0    44     1    14
  1.7393942028095889E-02 a       660     0    44     1    15
  5.0375814757689229E-02 a       661     0    45     1     1
  4.0917393698495307E-02 a       662     0    45     1     2
  6.1336469846133480E-02 a       663     0    45     1     3
 -1.2736217286600271E-01 a       664     0    45     1     4
  3.2657858404904622E-02 a       665     0    45     1     5
 -8.9662371621140019E-02 a       666     0    45     1     6
 -1.3696737543377710E-01 a       667     0    45     1     7
 -6.4128980469027347E-02 a       668     0    45     1     8
 -1.7936757165654138E-01 a       669     0    45     1     9
 -1.3290590763483523E-01 a       670     0    45     1    10
  1.0057923041607680E-01 a       671     0    45     1    11
 -1.9675760737694492E-01 a       672     0    45     1    12
  1.6154907853140998E-01 a       673     0    45     1    13
 -1.7372793212226173E-01 a       674     0    45     1    14
  1.5894439700846363E-01 a       675     0    45     1    15
 -1.1755036984854288E-01 a       676     0    46     1     1
 -4.5984799157623726E-02 a       677     0    46     1     2
 -1.0397776653797400E-01 a       678     0    46     1     3
  3.0723492053656622E-02 a       679     0    46     1     4
  6.0291271964376142E-02 a       680     0    46     1     5
  2.4841123021344617E-02 a       681     0    46     1     6
  2.9399672258567189E-01 a       682     0    46     1     7
 -7.6144972978920991E-02 a       683     0    46     1     8
 -2.4384988336241631E-01 a       684     0    46     1     9
  2.8816687145608498E-02 a       685     0    46     1    10
  1.0721856344357772E-01 a       686     0    46     1    11
 -1.3532755904427823E-01 a       687     0    46     1    12
 -1.2197980167326823E-01 a       688     0    46     1    13
  2.7560728094803970E-02 a       689     0    46     1    14
 -9.7090783750671844E-02 a       690     0    46     1    15
 -9.3571118462935587E-02 a       691     0    47     1     1
  4.3704197998849843E-02 a       692     0    47     1     2
  9.0519320370840012E-02 a       693     0    47     1     3
 -2.7479993329006341E-01 a       694     0    47     1     4
  4.3746471709456211E-02 a       695     0    47     1     5
 -9.1790810372498685E-02 a       696     0    47     1     6
 -8.7736678462976517E-02 a       697     0    47     1     7
  2.4004191392378446E-01 a       698     0    47     1     8
 -2.9179150760343341E-02 a       699     0    47     1     9
 -8.6076051070146209E-02 a       700     0    47     1    10
 -1.5137349429771904E-01 a       701     0    47     1    11
  2.4908697264673639E-03 a       702     0    47     1    12
 -3.3640012727333121E-02 a       703     0    47     1    13
 -1.9821203018062822E-01 a       704     0    47     1    14
 -2.4358083842998013E-01 a       705     0    47     1    15
  2.2729852930879993E-01 a       706     0    48     1     1
  3.5138040363632617E-04 a       707     0    48     1     2
 -1.6051650885130644E-01 a       708     0    48     1     3
  1.6310505573722434E-01 a       709     0    48     1     4
  2.2105775710816808E-01 a       710     0    48     1     5
 -4.1300086598378541E-02 a       711     0    48     1     6
 -5.2979929118482497E-02 a       712     0    48     1     7
 -1.7862904154075615E-01 a       713     0    48     1     8
 -9.3038646376795181E-02 a       714     0    48     1     9
 -1.8230485780527342E-01 a       715     0    48     1    10
  1.4897809362976774E-01 a       716     0    48     1    11
  6.4670921867307871E-02 a       717     0    48     1    12
 -4.9869481017054518E-02 a       718     0    48     1    13
  4.3330061654321787E-02 a       719     0    48     1    14
  3.0781770191976376E-01 a       720     0    48     1    15
 -1.7374585198690823E-01 a       721     0    49     1     1
  5.1213974985726642E-02 a       722     0    49     1     2
 -1.5485269630857199E-01 a       723     0    49     1     3
  7.9918883783913333E-02 a       724     0    49     1     4
  1.5573497089799240E-01 a       725     0    49     1     5
 -1.5419773932706438E-01 a       726     0    49     1     6
  1.7222450225395097E-01 a       727     0    49     1     7
 -6.2749913107552666E-02 a       728     0    49     1     8
  2.8115261254695950E-01 a       729     0    49     1     9
 -6.8507526753927017E-02 a       730     0    49     1    10
  1.3484452514030368E-01 a       731     0    49     1    11
 -1.9273471555872151E-01 a       732     0    49     1    12
  2.3455153783343265E-02 a       733     0    49     1    13
  6.1811131234104658E-02 a       734     0    49     1    14
  1.7039807828881440E-01 a       735     0    49     1    15
  2.6216649147272686E-01 a       736     0    50     1     1
 -9.0796834954827627E-02 a       737     0    50     1     2
 -8.7494019082585153E-02 a       738     0    50     1     3
 -2.0925182183736565E-01 a       739     0    50     1     4
 -1.0792167917933490E-01 a       740     0    50     1     5
 -9.5505668893930334E-02 a       741     0    50     1     6
 -1.4951264611461304E-01 a       742     0    50     1     7
 -1.5411074180271090E-02 a       743     0    50     1     8
  1.4178607796914880E-01 a       744     0    50     1     9
  2.3432726950001495E-01 a       745     0    50     1    10
  2.3183869269836585E-01 a       746     0    50     1    11
 -7.7312443428201705E-02 a       747     0    50     1    12
  4.1540977682170285E-02 a       748     0    50     1    13
 -2.0489590562316534E-01 a       749     0    50     1    14
  2.4437556335449494E-02 a       750     0    50     1    15
 -1.9255803893824544E-01 a       751     0    51     1     1
 -1.9089647278423613E-01 a       752     0    51     1     2
 -1.1357760032924101E-01 a       753     0    51     1     3
  2.0811877144470364E-01 a       754     0    51     1     4
 -2.2359881013658409E-01 a       755     0    51     1     5
 -1.2830548439331163E-01 a       756     0    51     1     6
 -2.1366198190331726E-01 a       757     0    51     1     7
 -2.5176946169655118E-01 a       758     0    51     1     8
  1.6633593233235702E-01 a       759     0    51     1     9
  1.0815879684811844E-01 a       760     0    51     1    10
 -8.2970499283520488E-02 a       761     0    51     1    11
 -1.3277292016054226E-01 a       762     0    51     1    12
  8.5250529618523974E-02 a       763     0    51     1    13
  2.1420107772936750E-01 a       764     0    51     1    14
  3.6893425807190297E-03 a       765     0    51     1    15
  9.7379117189941966E-02 a       766     0    52     1     1
 -2.9810529298781863E-02 a       767     0    52     1     2
 -6.4954112553793786E-03 a       768     0    52     1     3
  4.7453255325796272E-02 a       769     0    52     1     4
 -2.1783428622667228E-01 a       770     0    52     1     5
 -2.4687903746987844E-01 a       771     0    52     1     6
 -3.8715319587240303E-02 a       772     0    52     1     7
 -2.1731649225678364E-02 a       773     0    52     1     8
  1.1191713457777414E-01 a       774     0    52     1     9
  1.0716707904857511E-01 a       775     0    52     1    10
 -1.3194138462330490E-01 a       776     0    52     1    11
 -2.0073271941823367E-01 a       777     0    52     1    12
  2.4018128103061187E-01 a       778     0    52     1    13
 -3.7458082045020047E-02 a       779     0    52     1    14
 -7.2437332646357225E-02 a       780     0    52     1    15
  9.0847469912297668E-02 a       781     0    53     1     1
  1.9034522214375554E-01 a       782     0    53     1     2
 -1.7305358925363892E-01 a       783     0    53     1     3
 -1.4887935704022009E-01 a       784     0    53     1     4
  1.0512365785044164E-01 a       785     0    53     1     5
 -2.0566523366650705E-01 a       786     0    53     1     6
 -1.2969057530441402E-01 a       787     0    53     1     7
  8.2533920360328472E-02 a       788     0    53     1     8
  1.8471044623300192E-01 a       789     0    53     1     9
 -1.1989546954939075E-01 a       790     0    53     1    10
  3.1742995424065591E-02 a       791     0    53     1    11
  1.8695109351464975E-01 a       792     0    53     1    12
 -8.8511693121114135E-02 a       793     0    53     1    13
  3.4219602668230248E-01 a       794     0    53     1    14
  9.9711644225227339E-02 a       795     0    53     1    15
  3.1131358939967924E-01 a       796     0    54     1     1
 -1.8331164007901105E-01 a       797     0    54     1     2
  1.4205489543099839E-01 a       798     0    54     1     3
  1.1320548861515739E-01 a       799     0    54     1     4
  3.2281151204456848E-02 a       800     0    54     1     5
  1.6520899907053041E-01 a       801     0    54     1     6
 -2.4155982178499052E-01 a       802     0    54     1     7
  6.6591772998486440E-02 a       803     0    54     1     8
 -1.2013037436897044E-01 a       804     0    54     1     9
  1.9946781997699981E-01 a       805     0    54     1    10
 -2.6989595602854871E-01 a       806     0    54     1    11
  9.5960372342012212E-02 a       807     0    54     1    12
 -8.6766961956079941E-02 a       808     0    54     1    13
 -7.2267925787734985E-02 a       809     0    54     1    14
 -1.5395650734650206E-02 a       810     0    54     1    15
  1.3589267798313195E-01 a       811     0    55     1     1
  9.3476514899446042E-02 a       812     0    55     1     2
  2.6296402680063589E-02 a       813     0    55     1     3
  2.6442757276742573E-01 a       814     0    55     1     4
 -6.8335438507793320E-02 a       815     0    55     1     5
  2.1817058562509381E-01 a       816     0    55     1     6
  1.1002135699382014E-01 a       817     0    55     1     7
 -1.3115147115131953E-02 a       818     0    55     1     8
  7.2444491450749979E-02 a       819     0    55     1     9
 -2.6992848735227355E-02 a       820     0    55     1    10
  5.3985196739607617E-02 a       821     0    55     1    11
 -2.0375159137991578E-01 a       822     0    55     1    12
  1.7072992940415879E-01 a       823     0    55     1    13
  1.9305095547623230E-01 a       824     0    55     1    14
 -1.3520048649985168E-02 a       825     0    55     1    15
 -1.2280432825092354E-01 a       826     0    56     1     1
 -1.1156119633112203E-01 a       827     0    56     1     2
  1.9641654509329115E-02 a       828     0    56     1     3
  1.7709960576206268E-01 a       829     0    56     1     4
 -1.7608741240395259E-01 a       830     0    56     1     5
  1.7703305546973575E-01 a       831     0    56     1     6
  5.8088464832141057E-02 a       832     0    56     1     7
  8.6697311672269933E-02 a       833     0    56     1     8
 -2.1047767424942285E-02 a       834     0    56     1     9
 -1.5547945260965866E-03 a       835     0    56     1    10
 -1.8794336288285948E-01 a       836     0    56     1    11
 -6.3657369364550020E-02 a       837     0    56     1    12
 -1.1785899847057313E-01 a       838     0    56     1    13
  7.3395513046879052E-02 a       839     0    56     1    14
 -8.7864728636972506E-02 a       840     0    56     1    15
 -1.2805292757107251E-01 a       841     0    57     1     1
  1.3753636719197387E-01 a       842     0    57     1     2
  1.7419892975775483E-01 a       843     0    57     1     3
 -1.9865992895817478E-01 a       844     0    57     1     4
  2.1476166397963073E-01 a       845     0    57     1     5
  2.6061484577025390E-01 a       846     0    57     1     6
  1.7803794010277949E-01 a       847     0    57     1     7
  1.1567918236444613E-01 a       848     0    57     1     8
 -9.7433224750385836E-02 a       849     0    57     1     9
 -1.2665432574725612E-02 a       850     0    57     1    10
  1.4656820699303139E-01 a       851     0    57     1    11
 -1.0654471611516074E-01 a       852     0    57     1    12
 -3.9870509455933255E-02 a       853     0    57     1    13
  1.0146709953210632E-02 a       854     0    57     1    14
 -1.5782712877697669E-01 a       855     0    57     1    15
 -4.4470954004843299E-02 a       856     0    58     1     1
 -9.4198466699747345E-03 a       857     0    58     1     2
 -1.1402108880645812E-01 a       858     0    58     1     3
  7.0508718905267137E-02 a       859     0    58     1     4
 -1.8149563694023593E-03 a       860     0    58     1     5
  4.3103739581756791E-02 a       861     0    58     1     6
  6.0761056961567222E-02 a       862     0    58     1     7
 -3.1073035295990682E-02 a       863     0    58     1     8
 -1.5658897107579861E-01 a       864     0    58     1     9
  5.9657598330362917E-02 a       865     0    58     1    10
  8.2917283518221654E-02 a       866     0    58     1    11
  5.4745817490651161E-02 a       867     0    58     1    12
 -1.2952455325229278E-01 a       868     0    58     1    13
 -4.3002467462781545E-02 a       869     0    58     1    14
  1.5981766038867060E-01 a       870     0    58     1    15
 -9.2806314231295983E-02 a       871     0    59     1     1
 -2.0328786553664910E-01 a       872     0    59     1     2
  5.0991455531674917E-02 a       873     0    59     1     3
  1.1424284698218211E-01 a       874     0    59     1     4
  5.7533907131288996E-02 a       875     0    59     1     5
  5.0025174235730871E-02 a       876     0    59     1     6
  5.2847782375689052E-02 a       877     0    59     1     7
 -9.8579981052084348E-02 a       878     0    59     1     8
 -2.4150043249291808E-01 a       879     0    59     1     9
  2.0481616810342665E-01 a       880     0    59     1    10
 -1.1192017085536890E-01 a       881     0    59     1    11
 -1.2423634040199034E-01 a       882     0    59     1    12
 -2.1487040113561359E-01 a       883     0    59     1    13
 -2.5318023717421689E-01 a       884     0    59     1    14
 -1.9864137835528264E-01 a       885     0    59     1    15
  2.2419431924785248E-02 a       886     0    60     1     1
 -2.5943564902366309E-02 a       887     0    60     1     2
  1.1586824159365375E-01 a       888     0    60     1     3
  6.6228153685252830E-03 a       889     0    60     1     4
  5.1864892259604167E-02 a       890     0    60     1     5
  4.4563517370584567E-02 a       891     0    60     1     6
 -2.3410386263873526E-01 a       892     0    60     1     7
  5.7333691558733212E-02 a       893     0    60     1     8
 -1.2457679532475366E-01 a       894     0    60     1     9
 -2.3750323261932105E-01 a       895     0    60     1    10
 -7.6958886378428362E-02 a       896     0    60     1    11
 -1.2349640711130068E-01 a       897     0    60     1    12
 -8.9941151973216518E-02 a       898     0    60     1    13
 -2.4818291436811496E-01 a       899     0    60     1    14
  5.7525095438738752E-02 a       900     0    60     1    15
 -2.0417893316366394E-02 a       901     0    61     1     1
 -5.8098408383678163E-02 a       902     0    61     1     2
  4.4239022672207785E-02 a       903     0    61     1     3
  3.9599508503885182E-02 a       904     0    61     1     4
  1.4878494642177456E-02 a       905     0    61     1     5
  3.1738967544838320E-02 a       906     0    61     1     6
  9.6500960394585125E-02 a       907     0    61     1     7
 -9.9116608859276950E-03 a       908     0    61     1     8
 -1.8323337482129851E-01 a       909     0    61     1     9
  3.3967079552962291E-02 a       910     0    61     1    10
  3.0236471573014255E-02 a       911     0    61     1    11
  1.1161860421221872E-01 a       912     0    61     1    12
  1.3430512929369398E-01 a       913     0    61     1    13
 -1.9180168323018687E-01 a       914     0    61     1    14
 -9.7414523956695739E-02 a       915     0    61     1    15
  7.3838337298241408E-02 a       916     0    62     1     1
  8.1617107722286752E-02 a       917     0    62     1     2
  1.1703380191346620E-01 a       918     0    62     1     3
  4.0794231034291334E-02 a       919     0    62     1     4
 -4.2599922804134896E-02 a       920     0    62     1     5
  1.5134935191040432E-02 a       921     0    62     1     6
 -5.4671335933147290E-02 a       922     0    62     1     7
 -5.9173610405335753E-02 a       923     0    62     1     8
 -7.5391330525559325E-02 a       924     0    62     1     9
 -6.4786885594185301E-02 a       925     0    62     1    10
  2.1769819665410350E-01 a       926     0    62     1    11
 -5.1952757462824482E-02 a       927     0    62     1    12
 -2.1707518046596624E-01 a       928     0    62     1    13
 -1.7265403385899894E-01 a       929     0    62     1    14
  2.4603881597659791E-01 a       930     0    62     1    15
 -1.4391396327883688E-01 a       931     0    63     1     1
 -6.9965024041671112E-02 a       932     0    63     1     2
 -1.4957369212922081E-01 a       933     0    63     1     3
  6.2500910586912484E-02 a       934     0    63     1     4
 -1.1903096346539233E-01 a       935     0    63     1     5
  9.6307027183132790E-02 a       936     0    63     1     6
 -8.9511108343115042E-02 a       937     0    63     1     7
  1.4464958812509288E-01 a       938     0    63     1     8
 -8.6388057339592192E-02 a       939     0    63     1     9
  1.6173801249776296E-01 a       940     0    63     1    10
  1.3110576172899399E-01 a       941     0    63     1    11
 -1.9912304418708088E-01 a       942     0    63     1    12
 -1.0527111651657294E-01 a       943     0    63     1    13
 -1.2618925196982833E-01 a       944     0    63     1    14
 -3.3189327265174103E-02 a       945     0    63     1    15
  8.7357127735708071E-02 a       946     0    64     1     1
  6.3034773961399615E-02 a       947     0    64     1     2
 -1.5832468621520679E-01 a       948     0    64     1     3
 -4.2129570575917076E-02 a       949     0    64     1     4
 -1.7413412575099937E-01 a       950     0    64     1     5
  8.2276220258200305E-02 a       951     0    64     1     6
 -2.2099823631904969E-01 a       952     0    64     1     7
 -6.0490011205372257E-02 a       953     0    64     1     8
  8.6171809420511392E-02 a       954     0    64     1     9
 -1.1537717718648005E-01 a       955     0    64     1    10
 -1.1538336761857557E-01 a       956     0    64     1    11
  1.8050662750663143E-01 a       957     0    64     1    12
  9.6469372835704684E-02 a       958     0    64     1    13
  1.7559639563276525E-01 a       959     0    64     1    14
 -5.5470991612295489E-02 a       960     0    64     1    15
 -1.0108093537786661E-01 a       961     0    65     1     1
 -9.0067771617992213E-04 a       962     0    65     1     2
 -1.8860184154213064E-01 a       963     0    65     1     3
  3.6333029096850385E-02 a       964     0    65     1     4
 -1.9958570719013826E-02 a       965     0    65     1     5
 -6.3146281755709066E-04 a       966     0    65     1     6
 -2.1145019015124575E-03 a       967     0    65     1     7
 -1.0012626726101373E-01 a       968     0    65     1     8
  3.5728743494394498E-02 a       969     0    65     1     9
 -1.1458875872998714E-01 a       970     0    65     1    10
 -2.3346953960691082E-02 a       971     0    65     1    11
 -5.8294718232073536E-02 a       972     0    65     1    12
 -1.2347568050322556E-01 a       973     0    65     1    13
  1.5511869920241544E-01 a       974     0    65     1    14
  2.1683390585416037E-01 a       975     0    65     1    15
 -1.2112309042517058E-01 a       976     0    66     1     1
 -3.8990158543192314E-02 a       977     0    66     1     2
 -1.0929099811975215E-01 a       978     0    66     1     3
  7.1112253123214411E-02 a       979     0    66     1     4
 -2.2021087020895358E-01 a       980     0    66     1     5
  1.9995124919370583E-02 a       981     0    66     1     6
  3.7111809370188618E-02 a       982     0    66     1     7
 -4.9493694408885687E-02 a       983     0    66     1     8
 -5.9803978105378713E-03 a       984     0    66     1     9
  6.4503292869918048E-03 a       985     0    66     1    10
 -8.8034982482347188E-02 a       986     0    66     1    11
 -6.5255110201166838E-02 a       987     0    66     1    12
  1.1363163632504665E-01 a       988     0    66     1    13
  5.2658548546642168E-02 a       989     0    66     1    14
 -8.8445537070128047E-02 a       990     0    66     1    15
 -1.6665816962466351E-01 a       991     0    67     1     1
 -3.4976685510428297E-02 a       992     0    67     1     2
  4.6450967571108386E-02 a       993     0    67     1     3
 -9.3581469842285631E-02 a       994     0    67     1     4
  4.3638293727688189E-02 a       995     0    67     1     5
  1.1281849372464578E-01 a       996     0    67     1     6
 -1.0114029128553194E-02 a       997     0    67     1     7
  8.1910658139353859E-02 a       998     0    67     1     8
  2.4889064989559659E-01 a       999     0    67     1     9
  9.8420113316860972E-02 a      1000     0    67     1    10
 -2.3313662024394294E-02 a      1001     0    67     1    11
  6.5846677250021399E-02 a      1002     0    67     1    12
 -1.6642715180988241E-01 a      1003     0    67     1    13
  1.1066860276876424E-01 a      1004     0    67     1    14
 -7.6159047419301990E-02 a      1005     0    67     1    15
 -2.9976829296961754E-01 a      1006     0    68     1     1
  1.0190379904464619E-01 a      1007     0    68     1     2
 -2.3203149649652949E-01 a      1008     0    68     1     3
  1.9124069049168760E-01 a      1009     0    68     1     4
  8.2898822703524281E-03 a      1010     0    68     1     5
  9.6150044889943331E-02 a      1011     0    68     1     6
  1.5255624600107703E-01 a      1012     0    68     1     7
  1.1426263767781646E-01 a      1013     0    68     1     8
 -1.4545970762573646E-01 a      1014     0    68     1     9
  2.3247748987765926E-01 a      1015     0    68     1    10
  2.6300170965201813E-01 a      1016     0    68     1    11
  1.2542380429027516E-01 a      1017     0    68     1    12
 -1.5469983012172933E-01 a      1018     0    68     1    13
  5.6543645471380903E-02 a      1019     0    68     1    14
 -6.1080388873009685E-02 a      1020     0    68     1    15
 -1.2641359293675666E-01 a      1021     0    69     1     1
  1.5448941958065565E-01 a      1022     0    69     1     2
 -1.3211880975162668E-01 a      1023     0    69     1     3
 -2.6618510101684978E-01 a      1024     0    69     1     4
  2.1216539563053649E-01 a      1025     0    69     1     5
  2.2583099038863816E-03 a      1026     0    69     1     6
 -8.0261123898103855E-03 a      1027     0    69     1     7
  1.4588299376359540E-01 a      1028     0    69     1     8
 -1.2822443091474489E-01 a      1029     0    69     1     9
 -1.8621043296649917E-01 a      1030     0    69     1    10
  3.1365265134434349E-02 a      1031     0    69     1    11
  1.6777934223985932E-01 a      1032     0    69     1    12
 -5.8278613888898129E-02 a      1033     0    69     1    13
 -2.7068725624351458E-02 a      1034     0    69     1    14
 -1.0440226895217790E-01 a      1035     0    69     1    15
  1.3038763481888646E-01 a      1036     0    70     1     1
  1.8382612723065034E-02 a      1037     0    70     1     2
  1.1146116482035295E-01 a      1038     0    70     1     3
  6.0540896874473324E-02 a      1039     0    70     1     4
 -1.7903953025307284E-01 a      1040     0    70     1     5
 -6.4010187550394629E-02 a      1041     0    70     1     6
  1.2318712725446417E-02 a      1042     0    70     1     7
 -6.9610039053909487E-02 a      1043     0    70     1     8
 -1.9920123068334689E-01 a      1044     0    70     1     9
 -1.7126054089257686E-01 a      1045     0    70     1    10
 -1.1953814738767181E-01 a      1046     0    70     1    11
  1.3265799382978970E-02 a      1047     0    70     1    12
  1.1733281658865213E-01 a      1048     0    70     1    13
  3.3418551581891082E-02 a      1049     0    70     1    14
 -2.9206512738442680E-01 a      1050     0    70     1    15
  6.9538919660769749E-02 a      1051     0    71     1     1
  7.8095389071496879E-02 a      1052     0    71     1     2
  5.3098211109960033E-02 a      1053     0    71     1     3
  1.7022304857106679E-01 a      1054     0    71     1     4
  1.8446159476417959E-01 a      1055     0    71     1     5
  6.9591482658908882E-02 a      1056     0    71     1     6
 -1.4934934845010350E-01 a      1057     0    71     1     7
  1.8675433038031503E-01 a      1058     0    71     1     8
  1.2341019217512532E-02 a      1059     0    71     1     9
 -1.0095149300754402E-01 a      1060     0    71     1    10
 -5.7087812317983801E-02 a      1061     0    71     1    11
  1.9047205540107287E-01 a      1062     0    71     1    12
 -1.3200232536756512E-01 a      1063     0    71     1    13
  9.7810565619919881E-02 a      1064     0    71     1    14
 -3.5556140088812013E-02 a      1065     0    71     1    15
  2.1433913935448960E-02 a      1066     0    72     1     1
  7.4692089010011137E-03 a      1067     0    72     1     2
 -1.2670925319559920E-01 a      1068     0    72     1     3
 -3.3059394290709443E-01 a      1069     0    72     1     4
  2.2125242013164215E-01 a      1070     0    72     1     5
 -3.1493476511622487E-02 a      1071     0    72     1     6
 -7.5550294985032004E-02 a      1072     0    72     1     7
  1.0529313460518141E-02 a      1073     0    72     1     8
  6.4292980791047852E-02 a      1074     0    72     1     9
 -4.0155019104737226E-02 a      1075     0    72     1    10
  7.4376556695789769E-02 a      1076     0    72     1    11
  9.4142041689549608E-02 a      1077     0    72     1    12
  2.3402085343151974E-01 a      1078     0    72     1    13
  4.0273389802238373E-02 a      1079     0    72     1    14
  1.6680273337411664E-01 a      1080     0    72     1    15
 -1.9059954390194112E-01 a      1081     0    73     1     1
 -2.5635134669043047E-02 a      1082     0    73     1     2
 -1.1307159455377368E-01 a      1083     0    73     1     3
 -2.5370434392525551E-02 a      1084     0    73     1     4
  5.7293164659273220E-02 a      1085     0    73     1     5
 -1.5470133858832952E-01 a      1086     0    73     1     6
  3.1810095043872326E-02 a      1087     0    73     1     7
  3.1612303037816696E-02 a      1088     0    73     1     8
 -1.7473366482917460E-01 a      1089     0    73     1     9
 -8.9229777738479218E-03 a      1090     0    73     1    10
 -1.0993058801815897E-01 a      1091     0    73     1    11
  2.5738688108583027E-02 a      1092     0    73     1    12
  8.7520854750656463E-03 a      1093     0    73     1    13
 -1.1968313352163681E-01 a      1094     0    73     1    14
 -2.9130328881902467E-01 a      1095     0    73     1    15
 -3.8623583735878848E-03 a      1096     0    74     1     1
 -8.9892994395750200E-02 a      1097     0    74     1     2
  5.5518390818366042E-02 a      1098     0    74     1     3
  1.5909552337681462E-01 a      1099     0    74     1     4
 -9.8042457574284494E-03 a      1100     0    74     1     5
  1.8886790037388534E-01 a      1101     0    74     1     6
 -1.7228480271307259E-01 a      1102     0    74     1     7
 -1.4811588687300206E-01 a      1103     0    74     1     8
  1.0916427264364402E-01 a      1104     0    74     1     9
 -2.0955349010806865E-01 a      1105     0    74     1    10
  1.2117310631931241E-02 a      1106     0    74     1    11
 -1.5491123069206483E-02 a      1107     0    74     1    12
  1.8408874492982713E-01 a      1108     0    74     1    13
 -9.4828611425306519E-02 a      1109     0    74     1    14
  1.6084695291281262E-01 a      1110     0    74     1    15
  7.7574473007711364E-02 a      1111     0    75     1     1
 -1.3922130006829436E-01 a      1112     0    75     1     2
  2.3600694246366311E-01 a      1113     0    75     1     3
 -1.7924817043967717E-01 a      1114     0    75     1     4
  2.5635592061255191E-01 a      1115     0    75     1     5
  1.8786079416613938E-02 a      1116     0    75     1     6
 -3.8863865994080128E-02 a      1117     0    75     1     7
 -2.3435335669411257E-02 a      1118     0    75     1     8
  1.4780219695642502E-01 a      1119     0    75     1     9
  5.7761926601183934E-02 a      1120     0    75     1    10
 -2.9674106942074632E-02 a      1121     0    75     1    11
 -2.5678058970042233E-01 a      1122     0    75     1    12
 -1.6030183839096085E-01 a      1123     0    75     1    13
 -4.6239789791089676E-02 a      1124     0    75     1    14
  8.2969921448820066E-02 a      1125     0    75     1    15
 -1.1208195632549002E-01 a      1126     0    76     1     1
  3.4870589060506808E-02 a      1127     0    76     1     2
 -1.0361895415864425E-01 a      1128     0    76     1     3
  1.0169357925052745E-01 a      1129     0    76     1     4
 -2.4834380181174368E-01 a      1130     0    76     1     5
  7.5121098774573944E-02 a      1131     0    76     1     6
  3.7695814531247401E-02 a      1132     0    76     1     7
  2.8111529608488818E-02 a      1133     0    76     1     8
  1.8291522798575477E-01 a      1134     0    76     1     9
  8.9179581682543085E-02 a      1135     0    76     1    10
  8.0955435000196294E-02 a      1136     0    76     1    11
 -4.7143000016712219E-02 a      1137     0    76     1    12
  1.6679002333300177E-01 a      1138     0    76     1    13
  8.8632639939632288E-02 a      1139     0    76     1    14
  1.1532301780368905E-01 a      1140     0    76     1    15
  1.5185979523368176E-01 a      1141     0    77     1     1
  4.7485764515041023E-03 a      1142     0    77     1     2
  8.2076578303273987E-02 a      1143     0    77     1     3
 -3.5979425433362237E-02 a      1144     0    77     1     4
 -3.6407373431413377E-02 a      1145     0    77     1     5
 -6.2250706580482457E-02 a      1146     0    77     1     6
  1.1317174296987983E-01 a      1147     0    77     1     7
  7.9061400653268915E-02 a      1148     0    77     1     8
  1.8244056019402607E-01 a      1149     0    77     1     9
  2.5378677979205977E-01 a      1150     0    77     1    10
  2.5658990858658436E-02 a      1151     0    77     1    11
 -1.4293132701152917E-02 a      1152     0    77     1    12
  7.1312078877361296E-02 a      1153     0    77     1    13
 -1.7637988475231210E-04 a      1154     0    77     1    14
  2.4602122237555907E-01 a      1155     0    77     1    15
 -1.1530035563915571E-01 a      1156     0    78     1     1
  1.5919518074464036E-02 a      1157     0    78     1     2
 -6.2641777116693623E-02 a      1158     0    78     1     3
  7.0166560535660893E-02 a      1159     0    78     1     4
 -3.7945370365794241E-02 a      1160     0    78     1     5
 -8.2396865580154716E-02 a      1161     0    78     1     6
  1.8212132099948822E-01 a      1162     0    78     1     7
 -3.4391470568628894E-02 a      1163     0    78     1     8
 -1.2093394399065854E-01 a      1164     0    78     1     9
  1.2025277671666106E-01 a      1165     0    78     1    10
  1.4870515947168630E-01 a      1166     0    78     1    11
 -1.3445518901518910E-01 a      1167     0    78     1    12
 -2.8813328386091192E-01 a      1168     0    78     1    13
 -1.7398231770566058E-01 a      1169     0    78     1    14
  2.1148268039606610E-01 a      1170     0    78     1    15
 -4.1709242654211365E-01 b      1171     1     1
  5.4465216958985832E-02 b      1172     1     2
 -8.0229195531475839E-01 b      1173     1     3
 -1.0360224627058607E+00 b      1174     1     4
  1.0579531581848545E+00 b      1175     1     5
  2.5161692143387937E-01 b      1176     1     6
 -6.8046236268208915E-01 b      1177     1     7
  6.5061752646464721E-01 b      1178     1     8
 -7.1661090081447898E-01 b      1179     1     9
  3.9379521147047195E-02 b      1180     1    10
  1.1812707410644818E+00 b      1181     1    11
  1.2083206106622817E+00 b      1182     1    12
 -1.4284131421071000E+00 b      1183     1    13
  2.1199876348754942E-01 b      1184     1    14
 -1.4260716164333038E+00 b      1185     1    15
 -5.7961985975687635E-01 a      1186     1     1     2     1
 -6.6072236580302901E-01 a      1187     1     1     2     2
  5.2164343282744674E-01 a      1188     1     1     2     3
 -1.8061891800445196E-01 a      1189     1     1     2     4
  2.2612624519605595E-01 a      1190     1     1     2     5
 -1.3840769498912719E-01 a      1191     1     1     2     6
  7.6807615230906279E-01 a      1192     1     1     2     7
 -6.1605466603556303E-01 a      1193     1     1     2     8
  2.5033223227589735E-01 a      1194     1     1     2     9
  4.4157348753780426E-02 a      1195     1     1     2    10
  6.1313896123037404E-01 a      1196     1     1     2    11
 -1.4649015840692911E-02 a      1197     1     1     2    12
 -5.7390358573836764E-01 a      1198     1     1     2    13
  1.9468764193807941E-02 a      1199     1     1     2    14
  1.5507593717605983E-01 a      1200     1     1     2    15
 -3.1257367417792326E-01 a      1201     1     2     2     1
 -2.2315090630059747E-02 a      1202     1     2     2     2
  4.2283811177728309E-02 a      1203     1     2     2     3
  4.9355209319237364E-01 a      1204     1     2     2     4
 -3.6936659190526838E-01 a      1205     1     2     2     5
 -3.0649240023783847E-01 a      1206     1     2     2     6
  5.0505525424307429E-01 a      1207     1     2     2     7
 -4.9352093176998418E-01 a      1208     1     2     2     8
 -3.5165079948544081E-01 a      1209     1     2     2     9
  2.6514022170814222E-01 a      1210     1     2     2    10
 -9.3422687374264887E-02 a      1211     1     2     2    11
 -2.4303629302442098E-01 a      1212     1     2     2    12
  4.2989164165380334E-01 a      1213     1     2     2    13
 -6.5679757733594046E-01 a      1214     1     2     2    14
 -5.0624328325457979E-01 a      1215     1     2     2    15
  1.5409708141066658E-01 a      1216     1     3     2     1
  5.2604826665798921E-01 a      1217     1     3     2     2
 -6.4456803420552211E-01 a      1218     1     3     2     3
 -6.9937247364896493E-01 a      1219     1     3     2     4
  5.5710080202884238E-01 a      1220     1     3     2     5
 -9.1772807596262870E-02 a      1221     1     3     2     6
 -4.2038559415892862E-01 a      1222     1     3     2     7
  9.9445615395568773E-02 a      1223     1     3     2     8
  6.4996500544898905E-01 a      1224     1     3     2     9
 -1.8674994365382763E-01 a      1225     1     3     2    10
 -4.2743747837966189E-01 a      1226     1     3     2    11
 -7.2234935467379480E-01 a      1227     1     3     2    12
 -2.8230877868705906E-01 a      1228     1     3     2    13
 -5.3731435214271783E-01 a      1229     1     3     2    14
 -3.9200937620540943E-01 a      1230     1     3     2    15
 -1.1268780120561900E-01 a      1231     1     4     2     1
  6.1054671264008364E-01 a      1232     1     4     2     2
  4.7803154447677348E-01 a      1233     1     4     2     3
  4.0324762650153839E-01 a      1234     1     4     2     4
  5.9055677422607245E-01 a      1235     1     4     2     5
 -4.9209180362331456E-01 a      1236     1     4     2     6
  4.9902197729952180E-01 a      1237     1     4     2     7
  6.0274672554110931E-01 a      1238     1     4     2     8
  3.4240582494761951E-01 a      1239     1     4     2     9
 -3.8942890590487927E-01 a      1240     1     4     2    10
  2.6425471329479799E-01 a      1241     1     4     2    11
  4.6791944690960602E-01 a      1242     1     4     2    12
 -3.5120309168636177E-01 a      1243     1     4     2    13
 -3.8870801278790484E-01 a      1244     1     4     2    14
 -6.3314832821987979E-02 a      1245     1     4     2    15
 -5.6359086543340864E-01 a      1246     1     5     2     1
  3.6764008859933145E-01 a      1247     1     5     2     2
 -5.4332541269284462E-01 a      1248     1     5     2     3
  6.3810814789432213E-01 a      1249     1     5     2     4
  6.6662320503336092E-01 a      1250     1     5     2     5
 -5.8323330730502287E-01 a      1251     1     5     2     6
  1.5970491714221338E-01 a      1252     1     5     2     7
 -3.1276163095917703E-01 a      1253     1     5     2     8
  1.8838297952571403E-01 a      1254     1     5     2     9
  5.3870957323704016E-01 a      1255     1     5     2    10
 -3.8919263455554173E-02 a      1256     1     5     2    11
  6.4819594186328977E-01 a      1257     1     5     2    12
  7.5898734169761872E-01 a      1258     1     5     2    13
  3.3412749512806578E-01 a      1259     1     5     2    14
  3.9849308459047528E-01 a      1260     1     5     2    15
  3.4601501799200263E-01 a      1261     1     6     2     1
 -6.6990476809033539E-01 a      1262     1     6     2     2
 -3.1209933742073354E-01 a      1263     1     6     2     3
 -4.3553796645738846E-01 a      1264     1     6     2     4
 -5.0023551561030588E-01 a      1265     1     6     2     5
  6.4039729817892088E-01 a      1266     1     6     2     6
  1.9218020252665768E-01 a      1267     1     6     2     7
  4.1245149815782617E-01 a      1268     1     6     2     8
 -2.7867893982158002E-02 a      1269     1     6     2     9
  2.0671808169208739E-01 a      1270     1     6     2    10
 -1.0879968633460735E-01 a      1271     1     6     2    11
 -4.8497444988681793E-01 a      1272     1     6     2    12
  3.1061392924840298E-01 a      1273     1     6     2    13
 -2.3822335861853511E-01 a      1274     1     6     2    14
 -1.4111858517778933E-01 a      1275     1     6     2    15
 -5.3127602873855040E-01 a      1276     1     7     2     1
 -4.6466203451642235E-01 a      1277     1     7     2     2
 -8.5293180345328568E-02 a      1278     1     7     2     3
  2.6510143027009525E-01 a      1279     1     7     2     4
  2.2371629868062670E-01 a      1280     1     7     2     5
 -9.5441608853586740E-02 a      1281     1     7     2     6
  9.0962486388974112E-02 a      1282     1     7     2     7
 -3.6206233414076899E-01 a      1283     1     7     2     8
  2.6933324225427890E-01 a      1284     1     7     2     9
  1.5497379913437243E-01 a      1285     1     7     2    10
  4.0267039249815678E-01 a      1286     1     7     2    11
  4.9545981199947925E-01 a      1287     1     7     2    12
  5.3823109281198800E-01 a      1288     1     7     2    13
  4.9673357273124030E-01 a      1289     1     7     2    14
  7.0199927410372009E-01 a      1290     1     7     2    15
 -4.6659154260239838E-01 a      1291     1     8     2     1
 -1.0791490858252721E-01 a      1292     1     8     2     2
  1.7807309833673066E-01 a      1293     1     8     2     3
 -5.5705576671502033E-01 a      1294     1     8     2     4
  3.2722816862983883E-01 a      1295     1     8     2     5
 -5.1490384672059963E-01 a      1296     1     8     2     6
 -6.5168525914525668E-02 a      1297     1     8     2     7
  8.0984943388845709E-01 a      1298     1     8     2     8
  5.6542021606776771E-01 a      1299     1     8     2     9
 -8.4933016394194882E-01 a      1300     1     8     2    10
  6.5485003697218258E-01 a      1301     1     8     2    11
 -6.1961133189997164E-01 a      1302     1     8     2    12
 -4.4439913582146501E-01 a      1303     1     8     2    13
  6.3552858532585321E-01 a      1304     1     8     2    14
  3.2693014938855564E-01 a      1305     1     8     2    15
 -6.7492866686049269E-01 a      1306     1     9     2     1
  6.4010379726005551E-01 a      1307     1     9     2     2
  1.7872990339658310E-01 a      1308     1     9     2     3
 -8.6989391540924554E-02 a      1309     1     9     2     4
  4.1209863347705586E-03 a      1310     1     9     2     5
  3.6623338685338380E-01 a      1311     1     9     2     6
 -4.1582679419295498E-01 a      1312     1     9     2     7
 -5.0158983181975828E-02 a      1313     1     9     2     8
 -5.5511990638052788E-01 a      1314     1     9     2     9
 -6.1301553389789987E-01 a      1315     1     9     2    10
 -6.2706298330022436E-01 a      1316     1     9     2    11
  2.1394947945156387E-01 a      1317     1     9     2    12
  3.0556172410906396E-01 a      1318     1     9     2    13
  2.2074611586237047E-01 a      1319     1     9     2    14
 -4.9845481334259611E-01 a      1320     1     9     2    15
  4.1700570697587724E-01 a      1321     1    10     2     1
  1.7918418519889315E-01 a      1322     1    10     2     2
  2.1954586924588446E-01 a      1323     1    10     2     3
 -7.8097768677400259E-02 a      1324     1    10     2     4
  5.0801915342805881E-01 a      1325     1    10     2     5
 -5.5513226537918459E-01 a      1326     1    10     2     6
 -4.3499746704054085E-02 a      1327     1    10     2     7
  5.5431907727526486E-01 a      1328     1    10     2     8
 -6.8989802935465094E-01 a      1329     1    10     2     9
 -4.5326345725606837E-01 a      1330     1    10     2    10
 -1.7262250533300991E-01 a      1331     1    10     2    11
 -5.8218610394531523E-01 a      1332     1    10     2    12
 -5.6944192778948001E-02 a      1333     1    10     2    13
  3.7077948568297142E-01 a      1334     1    10     2    14
 -6.3010702716325440E-01 a      1335     1    10     2    15
  1.7188542781743485E-01 a      1336     1    11     2     1
 -1.4315718485458231E-01 a      1337     1    11     2     2
  2.0942691530109594E-01 a      1338     1    11     2     3
 -5.6461206970314859E-01 a      1339     1    11     2     4
 -3.5418537037355019E-01 a      1340     1    11     2     5
  5.4654896956809229E-01 a      1341     1    11     2     6
 -3.3591204703071531E-01 a      1342     1    11     2     7
  5.4789427171867600E-01 a      1343     1    11     2     8
 -2.7283241590016305E-01 a      1344     1    11     2     9
 -6.5477569522276302E-01 a      1345     1    11     2    10
  4.1522726820543121E-01 a      1346     1    11     2    11
  5.2330395336232094E-01 a      1347     1    11     2    12
 -5.7327114240867127E-01 a      1348     1    11     2    13
 -4.8538018532463462E-01 a      1349     1    11     2    14
  6.2217969248453664E-01 a      1350     1    11     2    15
  3.2438873904786908E-01 a      1351     1    12     2     1
 -3.1511666994836690E-01 a      1352     1    12     2     2
  5.4678233157183898E-01 a      1353     1    12     2     3
  4.0648311247977414E-01 a      1354     1    12     2     4
  6.8778027401782893E-01 a      1355     1    12     2     5
  6.4427271383008977E-01 a      1356     1    12     2     6
 -5.9089235666273476E-01 a      1357     1    12     2     7
 -1.9875114651180116E-02 a      1358     1    12     2     8
  5.3634647475687158E-01 a      1359     1    12     2     9
 -4.3897116456798357E-01 a      1360     1    12     2    10
 -7.3982577653670767E-01 a      1361     1    12     2    11
  1.0720597123692995E-01 a      1362     1    12     2    12
  5.8483883092322342E-01 a      1363     1    12     2    13
  5.9804465056183853E-01 a      1364     1    12     2    14
  2.5778434544230178E-01 a      1365     1    12     2    15
 -6.7050206915669686E-01 a      1366     1    13     2     1
 -2.8653687460355087E-01 a      1367     1    13     2     2
  5.2955405956366786E-01 a      1368     1    13     2     3
  2.0184043953424158E-01 a      1369     1    13     2     4
  2.5121952511745449E-01 a      1370     1    13     2     5
 -1.6653873136778310E-01 a      1371     1    13     2     6
 -7.8921500764140928E-01 a      1372     1    13     2     7
  1.2615720477486058E-02 a      1373     1    13     2     8
 -8.5099076469441981E-02 a      1374     1    13     2     9
  3.2330089645126725E-01 a      1375     1    13     2    10
 -5.0575338428492989E-01 a      1376     1    13     2    11
  2.3833016829999423E-01 a      1377     1    13     2    12
 -1.2551578951418638E-01 a      1378     1    13     2    13
 -2.2090180127591583E-01 a      1379     1    13     2    14
  3.2655560995886852E-02 a      1380     1    13     2    15
  3.0507602168799369E-01 a      1381     1    14     2     1
 -4.1211115629395539E-01 a      1382     1    14     2     2
 -6.1556879953661303E-01 a      1383     1    14     2     3
  4.4049833045242998E-01 a      1384     1    14     2     4
  1.8393720648374592E-01 a      1385     1    14     2     5
 -7.0765407021059856E-01 a      1386     1    14     2     6
  6.4597069611455749E-01 a      1387     1    14     2     7
  5.7136884899794183E-02 a      1388     1    14     2     8
  4.3222759119983911E-01 a      1389     1    14     2     9
 -4.3539167325006078E-01 a      1390     1    14     2    10
 -2.4294245311790616E-01 a      1391     1    14     2    11
  3.0176989944487115E-01 a      1392     1    14     2    12
  1.8225351308536236E-01 a      1393     1    14     2    13
  3.1255386386388434E-01 a      1394     1    14     2    14
 -6.4221885600440587E-01 a      1395     1    14     2    15
 -3.2392155349801349E-01 a      1396     1    15     2     1
 -3.8499288361463635E-01 a      1397     1    15     2     2
  5.6395684250979139E-01 a      1398     1    15     2     3
  1.5235401855619995E-01 a      1399     1    15     2     4
  3.4257055932763847E-01 a      1400     1    15     2     5
  1.3957826306617593E-01 a      1401     1    15     2     6
  3.2852243031409170E-02 a      1402     1    15     2     7
  1.4625103522592622E-01 a      1403     1    15     2     8
  5.7902196960326535E-01 a      1404     1    15     2     9
  1.1051717538920837E-01 a      1405     1    15     2    10
 -1.9227270811971198E-01 a      1406     1    15     2    11
  1.1863057423635646E-01 a      1407     1    15     2    12
 -4.4794236641958202E-01 a      1408     1    15     2    13
  3.6528095587538373E-01 a      1409     1    15     2    14
 -1.9368132176070016E-01 a      1410     1    15     2    15
  4.8493333510708708E-01 b      1411     2     1
 -1.6597314336264934E+00 b      1412     2     2
  8.5404065868246740E-02 b      1413     2     3
  1.5304154504067748E+00 b      1414     2     4
  1.6197030106845109E+00 b      1415     2     5
 -1.0521557818787048E+00 b      1416     2     6
 -6.2461216232866668E-01 b      1417     2     7
  1.2111036152075147E+00 b      1418     2     8
 -8.7304835989143792E-01 b      1419     2     9
 -1.2081265573228095E+00 b      1420     2    10
  6.0653753426853696E-01 b      1421     2    11
  1.0105737810897002E+00 b      1422     2    12
  1.2950312905440431E-01 b      1423     2    13
  5.7950640835607270E-01 b      1424     2    14
  1.5453753639216619E-01 b      1425     2    15
 -1.3961830238218126E-01 a      1426     2     1     3     1
  5.7498383166910338E-01 a      1427     2     2     3     1
  2.0610609970785815E-01 a      1428     2     3     3     1
  9.9553500976640485E-01 a      1429     2     4     3     1
  5.1109128216476361E-02 a      1430     2     5     3     1
 -6.4393646938997393E-02 a      1431     2     6     3     1
  3.0125808134603915E-01 a      1432     2     7     3     1
 -5.2275112953313874E-01 a      1433     2     8     3     1
 -5.0115102681724166E-01 a      1434     2     9     3     1
  7.5618450292713935E-01 a      1435     2    10     3     1
 -6.6626346115624979E-01 a      1436     2    11     3     1
 -1.1242766840772556E+00 a      1437     2    12     3     1
  6.1290561134983823E-01 a      1438     2    13     3     1
 -8.0635642795284479E-01 a      1439     2    14     3     1
  6.1728141668022141E-01 a      1440     2    15     3     1
 -7.5688116916297210E-01 b      1441     3     1
