################################################################################
# Neural network connection values (weights and biases).
################################################################################
# Col  Name       Description
################################################################################
# 1    connection Neural network connection value.
# 2    t          Connection type (a = weight, b = bias).
# 3    index      Index enumerating weights.
# 4    l_s        Starting point layer (end point layer for biases).
# 5    n_s        Starting point neuron in starting layer (end point neuron for biases).
# 6    l_e        End point layer.
# 7    n_e        End point neuron in end layer.
################################################################################
#                      1 2         3     4     5     6     7
#             connection t     index   l_s   n_s   l_e   n_e
############################################################
  3.7050950176959485E-01 a         1     0     1     1     1
 -2.4167775384655155E-01 a         2     0     1     1     2
  5.2745298517256711E-01 a         3     0     1     1     3
  1.3791091748991732E-02 a         4     0     1     1     4
 -1.4863439076330425E-03 a         5     0     1     1     5
  1.9673916566378680E-02 a         6     0     1     1     6
  3.0051042410595324E-01 a         7     0     1     1     7
  1.9508013269465585E-01 a         8     0     1     1     8
  2.6148062290391544E-01 a         9     0     1     1     9
 -2.3163079503302809E-02 a        10     0     1     1    10
  1.7230815500775154E-01 a        11     0     2     1     1
 -1.8694662760858125E-01 a        12     0     2     1     2
 -7.7514192662481496E-02 a        13     0     2     1     3
 -1.3179887951157745E-01 a        14     0     2     1     4
 -3.5204550455942474E-01 a        15     0     2     1     5
  4.1036649166053141E-01 a        16     0     2     1     6
  4.2472228350207036E-01 a        17     0     2     1     7
 -7.6461989537097305E-02 a        18     0     2     1     8
 -8.4958204551858998E-02 a        19     0     2     1     9
  9.3742939113634988E-02 a        20     0     2     1    10
  1.6363908330920879E-01 a        21     0     3     1     1
 -2.0099950626202581E-01 a        22     0     3     1     2
  4.9252387706888745E-01 a        23     0     3     1     3
 -2.2207183945037054E-01 a        24     0     3     1     4
 -3.2123891721426728E-01 a        25     0     3     1     5
  1.6554052409066580E-01 a        26     0     3     1     6
 -1.4692277422582878E-01 a        27     0     3     1     7
  2.6378321003676752E-01 a        28     0     3     1     8
 -7.5777793268752992E-03 a        29     0     3     1     9
 -1.2280273219010958E-01 a        30     0     3     1    10
  4.5352073863422729E-02 a        31     0     4     1     1
  5.5263281581587366E-02 a        32     0     4     1     2
 -1.5114261924284420E-01 a        33     0     4     1     3
  2.8327845331086066E-01 a        34     0     4     1     4
  3.1176682428018526E-01 a        35     0     4     1     5
  2.6079450316130431E-01 a        36     0     4     1     6
  3.8143989103272968E-01 a        37     0     4     1     7
 -5.1153338886066553E-02 a        38     0     4     1     8
  2.8955781314983681E-01 a        39     0     4     1     9
  4.3904998424868023E-02 a        40     0     4     1    10
  7.6018936655742530E-03 a        41     0     5     1     1
 -1.9065708065670893E-02 a        42     0     5     1     2
 -2.8462988397939504E-01 a        43     0     5     1     3
 -1.2013437263690993E-03 a        44     0     5     1     4
 -1.7880120987522155E-01 a        45     0     5     1     5
 -1.5984240549549869E-01 a        46     0     5     1     6
 -5.7512784328748734E-02 a        47     0     5     1     7
  5.8593298584380137E-02 a        48     0     5     1     8
  1.2730375657180837E-01 a        49     0     5     1     9
  1.9361636916471039E-01 a        50     0     5     1    10
  1.2085646750065970E-01 a        51     0     6     1     1
 -1.6962370543822874E-01 a        52     0     6     1     2
  3.2619189710504493E-01 a        53     0     6     1     3
 -1.6946267520473390E-01 a        54     0     6     1     4
 -3.0896199296662080E-01 a        55     0     6     1     5
 -2.1086915925757541E-01 a        56     0     6     1     6
  8.8619388350585623E-02 a        57     0     6     1     7
  1.9699310023034550E-01 a        58     0     6     1     8
 -1.1551484232107191E-01 a        59     0     6     1     9
 -2.0218427696348468E-01 a        60     0     6     1    10
 -4.1272537958835775E-01 a        61     0     7     1     1
  2.6157536134309850E-01 a        62     0     7     1     2
 -3.7631125369664301E-02 a        63     0     7     1     3
  1.2208580363474675E-01 a        64     0     7     1     4
  2.2945494085215581E-01 a        65     0     7     1     5
 -3.9891795665706165E-01 a        66     0     7     1     6
 -4.1344279848794147E-01 a        67     0     7     1     7
 -5.3818165639360004E-02 a        68     0     7     1     8
 -3.1685286742883151E-01 a        69     0     7     1     9
 -1.2008546935516069E-01 a        70     0     7     1    10
  2.9774532433478197E-02 a        71     0     8     1     1
  1.5130894774608469E-01 a        72     0     8     1     2
  3.1564920804058133E-01 a        73     0     8     1     3
 -6.7346912652799140E-01 a        74     0     8     1     4
  9.1120710840841557E-02 a        75     0     8     1     5
 -1.1008668592110109E-01 a        76     0     8     1     6
 -9.5291394245391361E-02 a        77     0     8     1     7
 -1.6423152119145426E-01 a        78     0     8     1     8
 -1.3955575171442408E-01 a        79     0     8     1     9
 -8.2887590078136925E-02 a        80     0     8     1    10
 -1.3441941113244071E-01 a        81     0     9     1     1
  1.2207288119847000E-01 a        82     0     9     1     2
 -1.9211832497597711E-01 a        83     0     9     1     3
  2.2518673205509984E-01 a        84     0     9     1     4
 -2.5379658802941771E-02 a        85     0     9     1     5
  2.9484438868980961E-01 a        86     0     9     1     6
  2.0668831041325217E-01 a        87     0     9     1     7
 -2.0005909516841838E-01 a        88     0     9     1     8
 -3.0393188069325994E-01 a        89     0     9     1     9
  1.3528198997928173E-01 a        90     0     9     1    10
  1.3592707520672575E-02 a        91     0    10     1     1
 -1.1348456359239305E-01 a        92     0    10     1     2
  4.0802307434912266E-01 a        93     0    10     1     3
 -1.3450231136666749E-01 a        94     0    10     1     4
  8.2560304190253814E-02 a        95     0    10     1     5
 -1.5858015676302631E-01 a        96     0    10     1     6
  1.0297966855541998E-01 a        97     0    10     1     7
  2.9065832593350337E-02 a        98     0    10     1     8
  2.6584962414485341E-01 a        99     0    10     1     9
  3.4744406914272730E-01 a       100     0    10     1    10
 -4.3274272260430346E-02 a       101     0    11     1     1
 -4.1575047721162767E-01 a       102     0    11     1     2
 -2.8648116075158281E-01 a       103     0    11     1     3
  2.7237174226651972E-01 a       104     0    11     1     4
  3.7163781248518718E-01 a       105     0    11     1     5
 -3.1469293025273670E-01 a       106     0    11     1     6
  2.4085888885001761E-01 a       107     0    11     1     7
 -8.9176922036169656E-02 a       108     0    11     1     8
  4.3695234037862355E-03 a       109     0    11     1     9
  1.0740573458267647E-01 a       110     0    11     1    10
  4.3406192643592995E-02 a       111     0    12     1     1
 -4.4970924156450300E-02 a       112     0    12     1     2
 -2.2195870826423350E-01 a       113     0    12     1     3
  2.8682383536066790E-02 a       114     0    12     1     4
  2.9087066899752800E-01 a       115     0    12     1     5
 -1.2685412955042150E-01 a       116     0    12     1     6
  1.6295252697946808E-01 a       117     0    12     1     7
  7.0090383863576369E-02 a       118     0    12     1     8
  8.0560734587595759E-02 a       119     0    12     1     9
 -3.1501656793269495E-02 a       120     0    12     1    10
  1.7236849401399240E-01 a       121     0    13     1     1
 -1.2016852850358721E-02 a       122     0    13     1     2
 -3.8919706852473607E-01 a       123     0    13     1     3
  1.7602131766504450E-01 a       124     0    13     1     4
 -2.4648952663899773E-01 a       125     0    13     1     5
  5.6454611873169891E-01 a       126     0    13     1     6
  4.0163009412613186E-02 a       127     0    13     1     7
 -1.1944115483122748E-02 a       128     0    13     1     8
  1.8172135666250766E-01 a       129     0    13     1     9
 -2.2078629869784438E-02 a       130     0    13     1    10
 -4.0130568160132697E-02 a       131     0    14     1     1
 -6.0308435418082243E-02 a       132     0    14     1     2
  4.7520016444285113E-01 a       133     0    14     1     3
 -1.7432034718239575E-01 a       134     0    14     1     4
 -1.5079595698761886E-01 a       135     0    14     1     5
  2.4621209666279192E-01 a       136     0    14     1     6
 -2.0674976087185637E-01 a       137     0    14     1     7
  1.3980177798575102E-02 a       138     0    14     1     8
  1.7276242101399544E-01 a       139     0    14     1     9
  3.9443814094841087E-02 a       140     0    14     1    10
 -1.4639541503277978E-01 a       141     0    15     1     1
 -3.9929079076280966E-01 a       142     0    15     1     2
  5.1444696801103207E-01 a       143     0    15     1     3
  1.8398827425014797E-01 a       144     0    15     1     4
 -1.7742055090817421E-01 a       145     0    15     1     5
 -2.3559533359470694E-01 a       146     0    15     1     6
 -6.7705827015211592E-02 a       147     0    15     1     7
  1.0653334877444748E-01 a       148     0    15     1     8
  2.1347918897607024E-01 a       149     0    15     1     9
 -6.0374057254762241E-02 a       150     0    15     1    10
  1.8787375981732096E-01 a       151     0    16     1     1
  1.7832264910992132E-01 a       152     0    16     1     2
 -3.4129074997344344E-01 a       153     0    16     1     3
  6.7368756369428712E-02 a       154     0    16     1     4
  7.0469898621875623E-02 a       155     0    16     1     5
 -1.2572107749772798E-01 a       156     0    16     1     6
 -3.9289917912723282E-01 a       157     0    16     1     7
  2.3881426116977736E-01 a       158     0    16     1     8
  3.2193510228439116E-02 a       159     0    16     1     9
 -7.2564185065931916E-02 a       160     0    16     1    10
  1.5830933180546106E-01 a       161     0    17     1     1
 -2.5269547034488588E-01 a       162     0    17     1     2
  2.7113742239051334E-02 a       163     0    17     1     3
  2.3192207408185372E-01 a       164     0    17     1     4
 -4.1361490960023312E-01 a       165     0    17     1     5
  2.7872941920745731E-01 a       166     0    17     1     6
 -5.1871137475982182E-02 a       167     0    17     1     7
  6.8940818810647134E-02 a       168     0    17     1     8
 -5.3974500212175036E-02 a       169     0    17     1     9
 -3.7798154554607416E-02 a       170     0    17     1    10
  1.8015406961955999E-01 a       171     0    18     1     1
  2.6063710602658774E-01 a       172     0    18     1     2
 -6.3422276556572410E-01 a       173     0    18     1     3
 -2.3787869175500655E-02 a       174     0    18     1     4
  2.6909033599739529E-01 a       175     0    18     1     5
  1.0476444094241280E-01 a       176     0    18     1     6
  1.3017805580812264E-01 a       177     0    18     1     7
  1.0154997571010745E-01 a       178     0    18     1     8
 -2.1492902771198047E-01 a       179     0    18     1     9
 -2.1887413607310113E-02 a       180     0    18     1    10
 -1.0957643788809023E-01 a       181     0    19     1     1
 -2.2370871894392574E-01 a       182     0    19     1     2
  1.7487604556704736E-01 a       183     0    19     1     3
 -1.7049070622486653E-01 a       184     0    19     1     4
  2.3776234233036742E-01 a       185     0    19     1     5
  2.1478290453878171E-01 a       186     0    19     1     6
 -6.9456644230703329E-02 a       187     0    19     1     7
  9.6471279139857397E-02 a       188     0    19     1     8
 -1.1277973472682680E-01 a       189     0    19     1     9
 -3.4171059021973610E-01 a       190     0    19     1    10
 -7.9629578452111646E-02 a       191     0    20     1     1
  3.9194821632251839E-02 a       192     0    20     1     2
 -2.9207409197383363E-02 a       193     0    20     1     3
 -1.8585938013976414E-02 a       194     0    20     1     4
  2.7965484949988068E-01 a       195     0    20     1     5
 -4.9715683650981855E-02 a       196     0    20     1     6
  6.0070852226230619E-02 a       197     0    20     1     7
 -4.1414991910177841E-02 a       198     0    20     1     8
 -5.9129751482737358E-02 a       199     0    20     1     9
 -7.6989818933759589E-03 a       200     0    20     1    10
  1.6345911389852119E-01 a       201     0    21     1     1
  4.8366155737536731E-01 a       202     0    21     1     2
  2.8044252035694453E-02 a       203     0    21     1     3
  8.0333091418189312E-02 a       204     0    21     1     4
  2.7076908858322707E-01 a       205     0    21     1     5
  5.7870869359891212E-02 a       206     0    21     1     6
  2.5818798444547580E-01 a       207     0    21     1     7
  3.0278585458460641E-02 a       208     0    21     1     8
  1.6765337462217905E-01 a       209     0    21     1     9
  1.6333254570581160E-01 a       210     0    21     1    10
 -2.1495905229244813E-01 a       211     0    22     1     1
 -3.6851884747901903E-01 a       212     0    22     1     2
 -9.0579676485395597E-02 a       213     0    22     1     3
  2.9960500967287135E-01 a       214     0    22     1     4
 -2.2280202758774917E-02 a       215     0    22     1     5
 -2.1467911604182469E-01 a       216     0    22     1     6
 -1.7415992462707708E-01 a       217     0    22     1     7
 -3.6561642100409401E-02 a       218     0    22     1     8
  1.8018003747066094E-01 a       219     0    22     1     9
  2.6634030765104161E-01 a       220     0    22     1    10
 -5.2339893414782301E-01 a       221     0    23     1     1
 -8.5868929534452632E-02 a       222     0    23     1     2
  1.4209868268187523E-01 a       223     0    23     1     3
 -7.5613743708091929E-02 a       224     0    23     1     4
  1.0911394578880719E-01 a       225     0    23     1     5
  4.2860418038030390E-01 a       226     0    23     1     6
 -3.3184650164768137E-01 a       227     0    23     1     7
 -2.1365545691431617E-01 a       228     0    23     1     8
  3.9550723287734174E-01 a       229     0    23     1     9
  1.5520706516737900E-01 a       230     0    23     1    10
  2.5073822652434245E-02 a       231     0    24     1     1
 -3.3275523356662612E-01 a       232     0    24     1     2
  2.6384893675060828E-01 a       233     0    24     1     3
  3.5294807919804293E-02 a       234     0    24     1     4
 -2.8940820113583776E-01 a       235     0    24     1     5
 -2.0243275191684595E-01 a       236     0    24     1     6
 -3.2269305912683122E-01 a       237     0    24     1     7
 -1.7740808547334749E-01 a       238     0    24     1     8
  1.9889894086371168E-01 a       239     0    24     1     9
  6.8692140985995506E-02 a       240     0    24     1    10
 -1.6753041677911587E-01 a       241     0    25     1     1
  6.8276864633065953E-02 a       242     0    25     1     2
  1.3590993240081109E-02 a       243     0    25     1     3
  1.9683869116046962E-01 a       244     0    25     1     4
  2.9053524499580663E-01 a       245     0    25     1     5
  9.3454795081556297E-02 a       246     0    25     1     6
 -1.4637220448890334E-01 a       247     0    25     1     7
 -3.6021124465533355E-01 a       248     0    25     1     8
  1.9119011128575067E-01 a       249     0    25     1     9
  2.6627613766551195E-01 a       250     0    25     1    10
  3.2898727284360135E-01 a       251     0    26     1     1
 -5.1974163147427935E-02 a       252     0    26     1     2
 -1.7926958096192722E-01 a       253     0    26     1     3
  1.9017682224633506E-01 a       254     0    26     1     4
 -1.5166919236027454E-02 a       255     0    26     1     5
  5.4174842545673085E-01 a       256     0    26     1     6
  1.1441777735438886E-01 a       257     0    26     1     7
  2.0774453790364775E-01 a       258     0    26     1     8
  2.8110911911287367E-01 a       259     0    26     1     9
 -1.3027040633936147E-02 a       260     0    26     1    10
  1.4328416359175902E-01 a       261     0    27     1     1
  8.6574409847838235E-02 a       262     0    27     1     2
 -5.9597913898995081E-01 a       263     0    27     1     3
  2.8105564338461747E-01 a       264     0    27     1     4
 -1.9478683597210789E-01 a       265     0    27     1     5
  3.1989037665034559E-01 a       266     0    27     1     6
  2.9184806940694852E-01 a       267     0    27     1     7
 -4.7246394599121097E-02 a       268     0    27     1     8
 -1.4103242465652632E-01 a       269     0    27     1     9
  9.3729595864092421E-02 a       270     0    27     1    10
  3.0246553719001368E-02 a       271     0    28     1     1
 -9.5731862284274952E-02 a       272     0    28     1     2
  2.5114251230309831E-01 a       273     0    28     1     3
  1.1969072789891734E-01 a       274     0    28     1     4
  9.6626171522125145E-02 a       275     0    28     1     5
 -3.5422568725922560E-01 a       276     0    28     1     6
 -1.0518509484323572E-01 a       277     0    28     1     7
  1.1843770742686847E-01 a       278     0    28     1     8
 -3.0793812030140827E-01 a       279     0    28     1     9
 -4.2821393303712700E-02 a       280     0    28     1    10
  1.4613351223931459E-01 a       281     0    29     1     1
 -3.2991761003912337E-02 a       282     0    29     1     2
  9.9127398800378047E-02 a       283     0    29     1     3
  3.7471947868119061E-02 a       284     0    29     1     4
  1.6572502866412705E-02 a       285     0    29     1     5
 -6.4827826966854088E-02 a       286     0    29     1     6
 -1.4356703496640283E-01 a       287     0    29     1     7
  2.2103770812816975E-01 a       288     0    29     1     8
  9.0874856678118940E-02 a       289     0    29     1     9
 -6.5636465408003691E-02 a       290     0    29     1    10
  2.5483291454677304E-01 a       291     0    30     1     1
  4.5323869258295690E-01 a       292     0    30     1     2
 -3.2162650210316812E-01 a       293     0    30     1     3
 -4.1447980440001177E-02 a       294     0    30     1     4
  1.0515990625684545E-01 a       295     0    30     1     5
  1.2626372248630127E-01 a       296     0    30     1     6
  1.0025960679577085E-01 a       297     0    30     1     7
 -2.0224191641633267E-03 a       298     0    30     1     8
  1.6685933382344820E-01 a       299     0    30     1     9
  5.0010188738352640E-02 a       300     0    30     1    10
  1.6802140690439674E-01 a       301     0    31     1     1
 -6.0798898652650778E-02 a       302     0    31     1     2
  3.7606795250235531E-01 a       303     0    31     1     3
 -3.1306942166458979E-01 a       304     0    31     1     4
 -1.2853445682978989E-01 a       305     0    31     1     5
 -2.4737965279296772E-01 a       306     0    31     1     6
  9.5884644023039450E-02 a       307     0    31     1     7
  1.4956504539493262E-01 a       308     0    31     1     8
 -4.6799193056256953E-02 a       309     0    31     1     9
 -1.1486258258627406E-01 a       310     0    31     1    10
  3.8656825235807940E-01 a       311     0    32     1     1
  2.9398023252425666E-02 a       312     0    32     1     2
  7.8507931915835855E-02 a       313     0    32     1     3
  3.1450489890915201E-02 a       314     0    32     1     4
 -7.2833060609751296E-02 a       315     0    32     1     5
  2.1597881305667427E-01 a       316     0    32     1     6
  2.4765323740893928E-02 a       317     0    32     1     7
 -2.8566970603224754E-04 a       318     0    32     1     8
 -1.3562236088550123E-01 a       319     0    32     1     9
 -1.0035282409806297E-01 a       320     0    32     1    10
 -2.1628184095316480E-01 a       321     0    33     1     1
  6.4359003721392360E-02 a       322     0    33     1     2
  8.5568487876212546E-02 a       323     0    33     1     3
 -1.8736506504849046E-01 a       324     0    33     1     4
  2.0343618504742492E-01 a       325     0    33     1     5
 -9.2093754793320201E-02 a       326     0    33     1     6
 -2.4191028070233928E-01 a       327     0    33     1     7
 -3.4663249752143313E-02 a       328     0    33     1     8
 -7.5004692347400800E-02 a       329     0    33     1     9
 -2.2144604187811637E-01 a       330     0    33     1    10
 -1.5057431959319365E-01 a       331     0    34     1     1
 -1.5596369202061572E-01 a       332     0    34     1     2
  1.7747790278831835E-01 a       333     0    34     1     3
 -1.9783945127673990E-02 a       334     0    34     1     4
 -4.2933531546812467E-02 a       335     0    34     1     5
 -3.1530891565390955E-02 a       336     0    34     1     6
 -1.1053290934265340E-01 a       337     0    34     1     7
 -1.5407482825954247E-01 a       338     0    34     1     8
  1.1524953656780437E-01 a       339     0    34     1     9
  5.0801105266707641E-02 a       340     0    34     1    10
  9.5154245786731775E-02 a       341     0    35     1     1
  3.7881429162106672E-01 a       342     0    35     1     2
 -1.8193339877644005E-01 a       343     0    35     1     3
 -1.2255310497400219E-01 a       344     0    35     1     4
  6.2754112417167274E-02 a       345     0    35     1     5
 -6.7543172645916388E-02 a       346     0    35     1     6
  4.4325744685204914E-02 a       347     0    35     1     7
  1.7874569932810824E-01 a       348     0    35     1     8
 -2.5083620945557378E-01 a       349     0    35     1     9
 -2.4595831272492841E-01 a       350     0    35     1    10
  2.4868253516978500E-01 a       351     0    36     1     1
 -7.1926596876507695E-02 a       352     0    36     1     2
 -3.1970430343526407E-01 a       353     0    36     1     3
 -7.8105500571175462E-02 a       354     0    36     1     4
 -1.7035044293591450E-01 a       355     0    36     1     5
  1.8425648776928019E-01 a       356     0    36     1     6
  1.0052824066730276E-01 a       357     0    36     1     7
  9.7962889102931425E-02 a       358     0    36     1     8
  1.0175062347391781E-01 a       359     0    36     1     9
  1.5656810374428298E-01 a       360     0    36     1    10
 -1.5871724227965162E-01 a       361     0    37     1     1
  5.2816736500391301E-02 a       362     0    37     1     2
  2.7341345702165454E-01 a       363     0    37     1     3
 -8.9544095202331808E-02 a       364     0    37     1     4
  1.4483699811389950E-01 a       365     0    37     1     5
  2.2563297853204584E-01 a       366     0    37     1     6
 -6.8438044060863415E-02 a       367     0    37     1     7
 -1.6873394496253044E-01 a       368     0    37     1     8
  5.2776189862218992E-02 a       369     0    37     1     9
 -2.3307471348139191E-02 a       370     0    37     1    10
  1.9709698573958173E-01 a       371     0    38     1     1
 -1.0875060959870876E-01 a       372     0    38     1     2
  9.9729848920453515E-02 a       373     0    38     1     3
  3.6472222414116146E-01 a       374     0    38     1     4
 -2.2859791528024906E-02 a       375     0    38     1     5
 -3.2403865603838017E-01 a       376     0    38     1     6
  9.3586349761333607E-02 a       377     0    38     1     7
  9.1586928303012377E-02 a       378     0    38     1     8
  7.7045901216600224E-02 a       379     0    38     1     9
 -1.7268313310543794E-04 a       380     0    38     1    10
  4.1176973302223846E-01 a       381     0    39     1     1
  1.9646791295424051E-01 a       382     0    39     1     2
 -1.8011665950164435E-01 a       383     0    39     1     3
 -1.6695276631406819E-01 a       384     0    39     1     4
 -8.9371226389063210E-02 a       385     0    39     1     5
  1.2794589997598324E-01 a       386     0    39     1     6
 -1.5922558785690583E-01 a       387     0    39     1     7
  4.0936236666887577E-01 a       388     0    39     1     8
  3.7708379921936563E-01 a       389     0    39     1     9
 -1.3839145144827400E-01 a       390     0    39     1    10
 -2.5300755105068551E-01 a       391     0    40     1     1
 -2.7291759945046873E-01 a       392     0    40     1     2
  3.0240007908886191E-02 a       393     0    40     1     3
  1.4938466646733059E-01 a       394     0    40     1     4
  3.3840793176520600E-01 a       395     0    40     1     5
 -2.0641921527558446E-01 a       396     0    40     1     6
  4.2023780574831288E-01 a       397     0    40     1     7
 -1.8231919512994338E-01 a       398     0    40     1     8
 -2.8484857990025680E-01 a       399     0    40     1     9
  1.9531743699537307E-01 a       400     0    40     1    10
 -3.3391082394593591E-01 a       401     0    41     1     1
  4.0154920268103028E-01 a       402     0    41     1     2
 -7.3648268550292315E-02 a       403     0    41     1     3
 -1.2244635672360406E-01 a       404     0    41     1     4
  1.2113392603601594E-01 a       405     0    41     1     5
  3.4208369482579361E-02 a       406     0    41     1     6
  9.6153833411358105E-03 a       407     0    41     1     7
 -3.6488181992123525E-01 a       408     0    41     1     8
 -4.3731813902424421E-01 a       409     0    41     1     9
 -7.1754506392797929E-02 a       410     0    41     1    10
  1.5330887122914957E-01 a       411     0    42     1     1
  3.4746102556233317E-02 a       412     0    42     1     2
  3.2820118580466795E-02 a       413     0    42     1     3
 -1.5508866399347895E-01 a       414     0    42     1     4
 -2.0843805598455872E-01 a       415     0    42     1     5
 -1.2273763145704505E-01 a       416     0    42     1     6
  1.5859538917944799E-01 a       417     0    42     1     7
  2.0606920163202450E-01 a       418     0    42     1     8
 -1.6015704325248314E-01 a       419     0    42     1     9
  6.0293463836234858E-02 a       420     0    42     1    10
 -1.7814387250649991E-01 a       421     0    43     1     1
 -3.4263561705072892E-01 a       422     0    43     1     2
 -2.2393028521427624E-01 a       423     0    43     1     3
  9.2536290944693345E-02 a       424     0    43     1     4
  1.2620259618669664E-02 a       425     0    43     1     5
  3.0392489875019829E-01 a       426     0    43     1     6
  1.3164210348288524E-01 a       427     0    43     1     7
 -2.6452276559353066E-01 a       428     0    43     1     8
  9.7535664393262785E-03 a       429     0    43     1     9
  3.4947812148154171E-02 a       430     0    43     1    10
 -2.6001438093351493E-03 a       431     0    44     1     1
 -1.5823512699642098E-01 a       432     0    44     1     2
 -3.3429201841098044E-02 a       433     0    44     1     3
 -4.0285495806380849E-02 a       434     0    44     1     4
 -1.5166899135878270E-01 a       435     0    44     1     5
  2.4024564813263591E-01 a       436     0    44     1     6
  7.3922018704058968E-03 a       437     0    44     1     7
 -4.6701108346312400E-02 a       438     0    44     1     8
 -1.1087310544940585E-01 a       439     0    44     1     9
 -2.3007862545167776E-02 a       440     0    44     1    10
 -3.3860836802266336E-01 a       441     0    45     1     1
  1.1134642763607566E-01 a       442     0    45     1     2
  3.1154110835761117E-01 a       443     0    45     1     3
  2.6700575579713823E-02 a       444     0    45     1     4
 -1.1604620520232706E-01 a       445     0    45     1     5
 -2.2826951502999965E-01 a       446     0    45     1     6
 -1.1144944862821353E-01 a       447     0    45     1     7
  3.4016003841957396E-02 a       448     0    45     1     8
 -4.1447915070950157E-02 a       449     0    45     1     9
  2.7000081697943684E-01 a       450     0    45     1    10
  7.7085280918354274E-02 a       451     0    46     1     1
 -3.5166215405652866E-02 a       452     0    46     1     2
 -3.6690610280350289E-01 a       453     0    46     1     3
  1.9668901094259239E-01 a       454     0    46     1     4
  6.1017958406186824E-02 a       455     0    46     1     5
 -1.6419095434367789E-01 a       456     0    46     1     6
  1.1316504588076211E-01 a       457     0    46     1     7
 -2.4649299898131059E-03 a       458     0    46     1     8
  5.3775996799579923E-02 a       459     0    46     1     9
  8.6943997476340643E-02 a       460     0    46     1    10
 -8.0535898641248521E-02 a       461     0    47     1     1
 -1.8265581733635289E-01 a       462     0    47     1     2
 -8.5338343881421252E-02 a       463     0    47     1     3
  1.2416120635929626E-01 a       464     0    47     1     4
 -1.6139646284823100E-02 a       465     0    47     1     5
 -2.7954916879979413E-01 a       466     0    47     1     6
  2.1169993294611045E-01 a       467     0    47     1     7
  1.8454790063343840E-01 a       468     0    47     1     8
  1.0312823233505952E-01 a       469     0    47     1     9
 -2.1052116552714648E-01 a       470     0    47     1    10
  2.7404428670708103E-01 b       471     1     1
  1.2477782064656771E+00 b       472     1     2
 -1.1828539557769775E+00 b       473     1     3
 -1.1418850714039741E+00 b       474     1     4
  9.3461441710813264E-01 b       475     1     5
 -3.9699129371571229E-01 b       476     1     6
 -1.1733482714727697E+00 b       477     1     7
 -2.7971472471673109E-01 b       478     1     8
  8.0356374476756742E-01 b       479     1     9
 -8.7165821084833295E-01 b       480     1    10
 -1.0332801112780404E-02 a       481     1     1     2     1
  9.7465801623619830E-01 a       482     1     1     2     2
  2.7644221325156010E-01 a       483     1     1     2     3
  1.0933586345539369E-01 a       484     1     1     2     4
 -7.4301445851095205E-01 a       485     1     1     2     5
 -5.3378539315348938E-01 a       486     1     1     2     6
  8.7157774925842380E-01 a       487     1     1     2     7
  5.2643118546850554E-01 a       488     1     1     2     8
  1.4082747715319480E-01 a       489     1     1     2     9
 -2.4498000546615811E-01 a       490     1     1     2    10
  4.5818221449104313E-01 a       491     1     2     2     1
 -2.8924953936002934E-01 a       492     1     2     2     2
 -8.8053291467065509E-01 a       493     1     2     2     3
  8.2713894314124248E-01 a       494     1     2     2     4
  3.3337099691237389E-02 a       495     1     2     2     5
  2.1649991737165691E-01 a       496     1     2     2     6
 -2.1133617426193979E-01 a       497     1     2     2     7
 -4.9603352234012704E-01 a       498     1     2     2     8
 -9.8738099896598364E-01 a       499     1     2     2     9
  6.7146214743173172E-01 a       500     1     2     2    10
 -3.2440245747273538E-01 a       501     1     3     2     1
 -7.5740491263454654E-02 a       502     1     3     2     2
 -7.0052001029929234E-01 a       503     1     3     2     3
  7.1990351086866233E-01 a       504     1     3     2     4
  1.9533536964371112E-01 a       505     1     3     2     5
  7.2324888610846061E-01 a       506     1     3     2     6
  8.8173332833668427E-01 a       507     1     3     2     7
 -4.3412649447503360E-01 a       508     1     3     2     8
 -7.1162782605743724E-01 a       509     1     3     2     9
  6.4293546011385505E-01 a       510     1     3     2    10
  6.9328844822170577E-01 a       511     1     4     2     1
  5.6775206030374592E-01 a       512     1     4     2     2
 -3.5761048066200603E-03 a       513     1     4     2     3
  6.3396602776624858E-02 a       514     1     4     2     4
 -6.4119810105480468E-01 a       515     1     4     2     5
 -6.0978174428872300E-01 a       516     1     4     2     6
 -9.5665517924557145E-02 a       517     1     4     2     7
 -4.7780931836639201E-01 a       518     1     4     2     8
  2.7974458104893579E-01 a       519     1     4     2     9
 -4.7735499626593803E-01 a       520     1     4     2    10
 -5.7790295138919236E-03 a       521     1     5     2     1
  7.2191151806824916E-01 a       522     1     5     2     2
  8.5330676966364138E-01 a       523     1     5     2     3
 -9.7439024277557107E-01 a       524     1     5     2     4
 -6.4485022956604587E-01 a       525     1     5     2     5
  6.5785380212051547E-01 a       526     1     5     2     6
 -6.2267472108431932E-01 a       527     1     5     2     7
 -9.3104623178337908E-03 a       528     1     5     2     8
  4.9406127497626601E-01 a       529     1     5     2     9
 -3.2029410871785718E-01 a       530     1     5     2    10
  9.2758657424890434E-01 a       531     1     6     2     1
 -7.3805491088574149E-01 a       532     1     6     2     2
  4.2743685686022392E-01 a       533     1     6     2     3
 -5.9652492671962654E-01 a       534     1     6     2     4
  5.4571625036203897E-01 a       535     1     6     2     5
  5.1702878751584580E-01 a       536     1     6     2     6
  4.5784702746912914E-01 a       537     1     6     2     7
 -6.0631753769106726E-02 a       538     1     6     2     8
  8.8059112999153089E-02 a       539     1     6     2     9
 -1.3159405715108059E-02 a       540     1     6     2    10
 -6.0412689746157433E-01 a       541     1     7     2     1
 -3.2211417434445838E-01 a       542     1     7     2     2
  4.0602268555368642E-01 a       543     1     7     2     3
  3.4600679449339228E-01 a       544     1     7     2     4
  6.6648571606368179E-01 a       545     1     7     2     5
 -4.9656664247752624E-01 a       546     1     7     2     6
  6.8963847474579010E-01 a       547     1     7     2     7
  5.2890013079392584E-01 a       548     1     7     2     8
  5.3877059871819466E-01 a       549     1     7     2     9
 -2.4009513704918822E-01 a       550     1     7     2    10
  2.1221560215475610E-01 a       551     1     8     2     1
 -1.2023367971169123E-01 a       552     1     8     2     2
  1.6026852485785853E-01 a       553     1     8     2     3
 -3.2734728672394553E-01 a       554     1     8     2     4
 -7.8997830592969265E-01 a       555     1     8     2     5
 -3.8072571292583385E-01 a       556     1     8     2     6
  3.7661093351246222E-01 a       557     1     8     2     7
 -8.1468064795107265E-01 a       558     1     8     2     8
  9.9166214424657548E-02 a       559     1     8     2     9
 -3.1991043264459829E-01 a       560     1     8     2    10
 -7.5537888139573595E-01 a       561     1     9     2     1
  1.6483707886283730E-01 a       562     1     9     2     2
  7.1049091921789664E-01 a       563     1     9     2     3
 -5.4274164214283627E-01 a       564     1     9     2     4
  6.7367513570231657E-02 a       565     1     9     2     5
  7.1085696387786679E-01 a       566     1     9     2     6
  7.4145516313437121E-01 a       567     1     9     2     7
 -6.8908618724150339E-01 a       568     1     9     2     8
  7.8404468611887834E-01 a       569     1     9     2     9
 -8.6854344280278117E-01 a       570     1     9     2    10
 -8.0703441313902868E-01 a       571     1    10     2     1
 -8.8459499765530625E-01 a       572     1    10     2     2
 -6.0079710831209099E-01 a       573     1    10     2     3
  2.0437365183403938E-01 a       574     1    10     2     4
 -3.5443555531132515E-02 a       575     1    10     2     5
 -5.3973520789008211E-01 a       576     1    10     2     6
 -3.7228116625369517E-01 a       577     1    10     2     7
 -5.9610080489893624E-01 a       578     1    10     2     8
 -7.4488656336386638E-01 a       579     1    10     2     9
  9.4295196649428248E-01 a       580     1    10     2    10
  8.5247707013132790E-01 b       581     2     1
 -1.9977960185554841E-01 b       582     2     2
 -7.6318251088522504E-01 b       583     2     3
  6.0035811379582360E-01 b       584     2     4
 -3.8127606361592170E-01 b       585     2     5
  3.7160965411037578E-01 b       586     2     6
 -8.1714455074688130E-01 b       587     2     7
  6.8407944353496353E-01 b       588     2     8
 -3.9269799313954884E-01 b       589     2     9
 -1.2256963632964690E+00 b       590     2    10
 -5.6167936211346615E-02 a       591     2     1     3     1
  1.0355042802171026E+00 a       592     2     2     3     1
  4.4895819371002793E-01 a       593     2     3     3     1
  3.1538503983316768E-01 a       594     2     4     3     1
  6.6815881687521816E-01 a       595     2     5     3     1
  1.8575691177163528E-01 a       596     2     6     3     1
  5.4411977574214831E-01 a       597     2     7     3     1
  2.1250718841591526E-01 a       598     2     8     3     1
 -3.5006864140538285E-01 a       599     2     9     3     1
 -8.0403584161919639E-01 a       600     2    10     3     1
  5.2184714016967082E-01 b       601     3     1
