################################################################################
# Neural network connection values (weights and biases).
################################################################################
# Col  Name       Description
################################################################################
# 1    connection Neural network connection value.
# 2    t          Connection type (a = weight, b = bias).
# 3    index      Index enumerating weights.
# 4    l_s        Starting point layer (end point layer for biases).
# 5    n_s        Starting point neuron in starting layer (end point neuron for biases).
# 6    l_e        End point layer.
# 7    n_e        End point neuron in end layer.
################################################################################
#                      1 2         3     4     5     6     7
#             connection t     index   l_s   n_s   l_e   n_e
############################################################
 -1.4405671042810766E-01 a         1     0     1     1     1
  5.2461828356881873E-02 a         2     0     1     1     2
  1.6604875965835403E-02 a         3     0     1     1     3
  1.3757128974363794E-01 a         4     0     1     1     4
 -1.2111694279177679E-01 a         5     0     1     1     5
 -1.1396327691125319E-01 a         6     0     1     1     6
  2.3670051450842234E-03 a         7     0     1     1     7
 -2.6409600869850414E-01 a         8     0     1     1     8
  1.8347869696630251E-01 a         9     0     1     1     9
  1.8722098017116687E-01 a        10     0     1     1    10
  2.1378166612490207E-01 a        11     0     1     1    11
 -1.4957038259138528E-01 a        12     0     1     1    12
 -2.1639316229745870E-01 a        13     0     1     1    13
  9.4356670657355410E-02 a        14     0     1     1    14
  2.6060169619943002E-01 a        15     0     1     1    15
  6.1896103472029368E-02 a        16     0     2     1     1
  1.0883157138029036E-01 a        17     0     2     1     2
 -5.8331816330639212E-02 a        18     0     2     1     3
  5.7467305093029291E-03 a        19     0     2     1     4
 -8.0634354631316407E-02 a        20     0     2     1     5
 -1.2718799551696505E-01 a        21     0     2     1     6
  1.8542219074706934E-01 a        22     0     2     1     7
 -2.3070561566195785E-01 a        23     0     2     1     8
 -2.1788891128919800E-02 a        24     0     2     1     9
  1.2420494966904558E-01 a        25     0     2     1    10
 -1.5448689061342211E-01 a        26     0     2     1    11
  4.1796864087704076E-02 a        27     0     2     1    12
  2.3837269383069778E-01 a        28     0     2     1    13
 -2.7850611373373541E-01 a        29     0     2     1    14
  2.2082907093014500E-01 a        30     0     2     1    15
  8.2255625033608726E-02 a        31     0     3     1     1
  1.0659201992689719E-02 a        32     0     3     1     2
  1.3832529766299448E-01 a        33     0     3     1     3
 -2.1596078407718541E-01 a        34     0     3     1     4
  4.9693164139538115E-02 a        35     0     3     1     5
  2.2795400868517005E-01 a        36     0     3     1     6
 -2.8415641872662289E-01 a        37     0     3     1     7
  2.8175339022906615E-01 a        38     0     3     1     8
  1.1291154181986671E-01 a        39     0     3     1     9
 -1.5064036784459112E-01 a        40     0     3     1    10
  9.5384117254722220E-02 a        41     0     3     1    11
 -4.9301202429708001E-02 a        42     0     3     1    12
 -8.0336639141662405E-02 a        43     0     3     1    13
  4.5298313487073097E-02 a        44     0     3     1    14
  1.8068873996085361E-01 a        45     0     3     1    15
 -3.4931725008967782E-02 a        46     0     4     1     1
 -1.2550056245307251E-01 a        47     0     4     1     2
  1.7475788497044237E-01 a        48     0     4     1     3
  2.4621297832057826E-02 a        49     0     4     1     4
  2.7341676197285364E-02 a        50     0     4     1     5
 -1.2059441321156872E-01 a        51     0     4     1     6
 -4.9080641615753345E-02 a        52     0     4     1     7
 -1.3276584454446555E-01 a        53     0     4     1     8
 -1.9974316214502250E-01 a        54     0     4     1     9
  1.9278750872490172E-01 a        55     0     4     1    10
  1.9018882512649032E-01 a        56     0     4     1    11
  2.0875148703635640E-01 a        57     0     4     1    12
  1.9043768140684514E-01 a        58     0     4     1    13
 -5.4894323943914525E-02 a        59     0     4     1    14
 -1.9625250266405597E-01 a        60     0     4     1    15
  1.4947847331576242E-01 a        61     0     5     1     1
  1.3775791784954813E-01 a        62     0     5     1     2
 -1.5341613686505248E-01 a        63     0     5     1     3
 -1.6495181449843160E-01 a        64     0     5     1     4
  1.8999265653120700E-01 a        65     0     5     1     5
  1.9374628067595190E-01 a        66     0     5     1     6
 -3.7464032675185582E-02 a        67     0     5     1     7
  2.3912344908551492E-01 a        68     0     5     1     8
  2.2622677282975370E-01 a        69     0     5     1     9
  4.1504143810681141E-02 a        70     0     5     1    10
 -8.6630220328393445E-02 a        71     0     5     1    11
  2.3049143031226862E-01 a        72     0     5     1    12
 -3.9814436550000921E-02 a        73     0     5     1    13
 -1.5107631312721154E-01 a        74     0     5     1    14
 -2.4769008685051666E-01 a        75     0     5     1    15
 -3.1819581563904087E-01 a        76     0     6     1     1
 -2.2295243965318726E-01 a        77     0     6     1     2
 -6.2589173575413215E-02 a        78     0     6     1     3
  1.0770652840386995E-01 a        79     0     6     1     4
  2.7912247685793579E-01 a        80     0     6     1     5
  1.1018733368648016E-02 a        81     0     6     1     6
  7.5384914247535670E-02 a        82     0     6     1     7
 -2.1929659595362982E-01 a        83     0     6     1     8
  1.6981568057450030E-02 a        84     0     6     1     9
 -6.6652857468492508E-03 a        85     0     6     1    10
 -2.9214500885996175E-01 a        86     0     6     1    11
 -3.4251489651944286E-02 a        87     0     6     1    12
  1.4258424869377134E-01 a        88     0     6     1    13
 -1.3810471744268743E-01 a        89     0     6     1    14
 -1.4279995830086370E-02 a        90     0     6     1    15
  1.2834477695885718E-01 a        91     0     7     1     1
  2.3204147328362504E-01 a        92     0     7     1     2
  1.9837068982163628E-01 a        93     0     7     1     3
 -5.9408104308845272E-02 a        94     0     7     1     4
 -2.1565057590685255E-01 a        95     0     7     1     5
  3.1020864746518401E-02 a        96     0     7     1     6
  2.0196703850504780E-01 a        97     0     7     1     7
 -5.0357559954752260E-03 a        98     0     7     1     8
  1.0987424834969993E-02 a        99     0     7     1     9
 -9.6534875647090845E-02 a       100     0     7     1    10
 -2.0138734856494273E-01 a       101     0     7     1    11
  1.7292733399211407E-01 a       102     0     7     1    12
 -2.0710684365131068E-01 a       103     0     7     1    13
  1.8439468042609372E-01 a       104     0     7     1    14
  2.5429394546699569E-01 a       105     0     7     1    15
  1.0401391400813485E-01 a       106     0     8     1     1
 -1.3771133726702686E-01 a       107     0     8     1     2
  7.0286941042223508E-02 a       108     0     8     1     3
  1.8960864378147904E-01 a       109     0     8     1     4
  1.9256569576632521E-01 a       110     0     8     1     5
  8.0853993128806867E-02 a       111     0     8     1     6
  6.1403774139033161E-02 a       112     0     8     1     7
 -8.6553234449838506E-02 a       113     0     8     1     8
 -3.1205896278887113E-01 a       114     0     8     1     9
  2.6999070246399200E-02 a       115     0     8     1    10
 -1.5118142680029570E-01 a       116     0     8     1    11
  1.2945255133006076E-01 a       117     0     8     1    12
  9.9683439063272886E-02 a       118     0     8     1    13
  3.1258075673372952E-03 a       119     0     8     1    14
  2.8554612308861976E-01 a       120     0     8     1    15
  1.3406958589881168E-01 a       121     0     9     1     1
  2.9328629805778761E-01 a       122     0     9     1     2
  1.0478718495810832E-01 a       123     0     9     1     3
  1.6943281360375065E-01 a       124     0     9     1     4
 -1.5078688398790893E-01 a       125     0     9     1     5
  1.5764584190777872E-01 a       126     0     9     1     6
 -6.3616054886911577E-02 a       127     0     9     1     7
  1.1552101245987456E-01 a       128     0     9     1     8
 -1.6050078227712813E-02 a       129     0     9     1     9
 -2.2859712340548278E-02 a       130     0     9     1    10
  8.6571579128312509E-02 a       131     0     9     1    11
  2.0201360415451723E-03 a       132     0     9     1    12
  2.8415305981907259E-02 a       133     0     9     1    13
 -2.2884219551860430E-01 a       134     0     9     1    14
 -2.5503413151030480E-01 a       135     0     9     1    15
 -1.1247145686453769E-01 a       136     0    10     1     1
 -2.4723299064437296E-02 a       137     0    10     1     2
  2.2991110584443883E-01 a       138     0    10     1     3
 -2.7576211939621304E-02 a       139     0    10     1     4
  2.7301547667429582E-01 a       140     0    10     1     5
  2.8918245239901785E-01 a       141     0    10     1     6
 -6.7375022527747006E-02 a       142     0    10     1     7
 -2.6189298785564930E-01 a       143     0    10     1     8
  1.0554282380120628E-01 a       144     0    10     1     9
  5.2008124606883165E-02 a       145     0    10     1    10
 -2.1808061371084358E-01 a       146     0    10     1    11
 -7.3753533979133992E-02 a       147     0    10     1    12
 -6.9532012388407408E-02 a       148     0    10     1    13
  1.1574610998041929E-01 a       149     0    10     1    14
  2.9015481610393973E-01 a       150     0    10     1    15
  3.4578831606748781E-02 a       151     0    11     1     1
 -2.4823935108534648E-01 a       152     0    11     1     2
  2.5438067567792833E-01 a       153     0    11     1     3
  9.6940873456400883E-03 a       154     0    11     1     4
 -2.5709446004193733E-02 a       155     0    11     1     5
 -2.3795126204973216E-01 a       156     0    11     1     6
 -8.9836772123139383E-02 a       157     0    11     1     7
  1.8081218325985585E-01 a       158     0    11     1     8
  1.0951567468484717E-01 a       159     0    11     1     9
 -1.9725186461857427E-01 a       160     0    11     1    10
  1.7102254345679571E-01 a       161     0    11     1    11
 -9.5527020492851430E-02 a       162     0    11     1    12
 -2.1855708524919987E-01 a       163     0    11     1    13
  3.8132815884207569E-02 a       164     0    11     1    14
  1.4255321413075278E-01 a       165     0    11     1    15
 -1.4742815570537557E-01 a       166     0    12     1     1
  8.0667810582123869E-02 a       167     0    12     1     2
 -1.5235353280882025E-01 a       168     0    12     1     3
  5.4687978581243205E-02 a       169     0    12     1     4
 -1.0766229602531766E-01 a       170     0    12     1     5
  2.6557235451857647E-01 a       171     0    12     1     6
 -1.0494370814113586E-01 a       172     0    12     1     7
 -2.2598026474770047E-01 a       173     0    12     1     8
  1.7954626166471785E-01 a       174     0    12     1     9
 -2.2529005260960683E-01 a       175     0    12     1    10
 -9.6034608417714384E-02 a       176     0    12     1    11
 -1.2729522701430102E-01 a       177     0    12     1    12
  6.0749454935854867E-02 a       178     0    12     1    13
  1.5472890684328158E-01 a       179     0    12     1    14
 -2.2389411893784272E-01 a       180     0    12     1    15
 -7.8118507935271253E-02 a       181     0    13     1     1
  2.0168884683285482E-01 a       182     0    13     1     2
  3.4220225049257535E-02 a       183     0    13     1     3
 -1.1712861698532744E-01 a       184     0    13     1     4
  6.5134627495463089E-03 a       185     0    13     1     5
 -2.0946164654178892E-01 a       186     0    13     1     6
  5.9387850627078589E-02 a       187     0    13     1     7
 -1.8665904741006187E-02 a       188     0    13     1     8
 -7.9972773363583480E-03 a       189     0    13     1     9
  7.8629775170705643E-02 a       190     0    13     1    10
  1.1130295103391756E-01 a       191     0    13     1    11
 -2.6530544156211724E-02 a       192     0    13     1    12
  1.1664530371159552E-02 a       193     0    13     1    13
 -8.6185641140146263E-02 a       194     0    13     1    14
  1.7468051416019365E-01 a       195     0    13     1    15
 -6.1074585171502381E-03 a       196     0    14     1     1
 -1.3586762248267143E-02 a       197     0    14     1     2
  8.1801614525160174E-02 a       198     0    14     1     3
  5.6957177513715131E-02 a       199     0    14     1     4
 -1.3385647027180334E-01 a       200     0    14     1     5
 -1.0715053829432948E-01 a       201     0    14     1     6
  1.4162451442368762E-01 a       202     0    14     1     7
 -1.2193117583247229E-01 a       203     0    14     1     8
  1.6410858382014237E-01 a       204     0    14     1     9
 -3.5358517280065414E-02 a       205     0    14     1    10
  1.8991374538548245E-01 a       206     0    14     1    11
  6.6391234451818673E-02 a       207     0    14     1    12
 -1.0418709796561847E-01 a       208     0    14     1    13
  1.7791944161466547E-01 a       209     0    14     1    14
  4.9785985188646832E-02 a       210     0    14     1    15
  6.4956285343630502E-02 a       211     0    15     1     1
 -1.9654469474046854E-01 a       212     0    15     1     2
  8.5052353027359265E-03 a       213     0    15     1     3
 -9.5173223605077684E-02 a       214     0    15     1     4
 -9.0598027684252569E-02 a       215     0    15     1     5
  2.9639125107176240E-01 a       216     0    15     1     6
 -2.5230778639129436E-01 a       217     0    15     1     7
 -6.9324633508091021E-03 a       218     0    15     1     8
  1.4432987683170986E-02 a       219     0    15     1     9
 -2.1304211511493429E-01 a       220     0    15     1    10
  1.9781115699787921E-01 a       221     0    15     1    11
  1.0530076251535679E-01 a       222     0    15     1    12
 -3.0810205277676628E-02 a       223     0    15     1    13
 -1.8920581607848427E-01 a       224     0    15     1    14
  9.1846592332691754E-02 a       225     0    15     1    15
  8.8361067500659057E-02 a       226     0    16     1     1
 -1.0049023851526641E-01 a       227     0    16     1     2
 -1.0406526556915049E-01 a       228     0    16     1     3
 -7.3782140222116280E-02 a       229     0    16     1     4
  7.6228923092129378E-02 a       230     0    16     1     5
 -1.0711597303756459E-01 a       231     0    16     1     6
 -1.8879678581864182E-01 a       232     0    16     1     7
  2.7659319918326632E-02 a       233     0    16     1     8
 -6.7335697555977278E-02 a       234     0    16     1     9
 -1.0105488219948827E-01 a       235     0    16     1    10
 -5.5085111688249540E-02 a       236     0    16     1    11
 -9.6531022423708840E-02 a       237     0    16     1    12
  4.3356807673139652E-02 a       238     0    16     1    13
  1.5100461832833473E-01 a       239     0    16     1    14
 -2.7559781801029382E-01 a       240     0    16     1    15
 -7.0621413690532278E-02 a       241     0    17     1     1
  4.9662632866269228E-02 a       242     0    17     1     2
  3.0737372846133509E-01 a       243     0    17     1     3
 -1.2150743469798569E-01 a       244     0    17     1     4
  3.2198234725344416E-01 a       245     0    17     1     5
  7.1527602546464272E-02 a       246     0    17     1     6
 -1.3619229581243011E-01 a       247     0    17     1     7
 -3.3314295131457256E-01 a       248     0    17     1     8
  5.7377673952223630E-02 a       249     0    17     1     9
  2.2841225902103954E-01 a       250     0    17     1    10
  1.0240126464597588E-01 a       251     0    17     1    11
 -1.0740600894509400E-02 a       252     0    17     1    12
 -2.9868446842961759E-02 a       253     0    17     1    13
 -2.1654367106103625E-01 a       254     0    17     1    14
  2.9147980613124197E-01 a       255     0    17     1    15
  4.4378564300804460E-02 a       256     0    18     1     1
  1.2657059055347217E-01 a       257     0    18     1     2
  7.1412472703824378E-02 a       258     0    18     1     3
  1.2812893547141369E-01 a       259     0    18     1     4
 -5.5193229096822838E-02 a       260     0    18     1     5
  2.0696073577650569E-02 a       261     0    18     1     6
 -1.0163131381965011E-01 a       262     0    18     1     7
 -4.2333384413145179E-02 a       263     0    18     1     8
 -8.7266788441904511E-02 a       264     0    18     1     9
 -1.8891840576356428E-02 a       265     0    18     1    10
  4.9270233649591433E-02 a       266     0    18     1    11
 -6.2086091005950556E-02 a       267     0    18     1    12
 -1.6305540744391341E-02 a       268     0    18     1    13
  8.8934703457317466E-02 a       269     0    18     1    14
 -4.2828771896909784E-02 a       270     0    18     1    15
  8.5440169995531126E-02 a       271     0    19     1     1
 -1.5629418007334928E-01 a       272     0    19     1     2
 -2.4124401460403003E-01 a       273     0    19     1     3
 -1.0891362006403371E-01 a       274     0    19     1     4
  1.8765305136782193E-01 a       275     0    19     1     5
 -1.2294904612772048E-01 a       276     0    19     1     6
  2.7879698334021513E-01 a       277     0    19     1     7
 -5.5018958892041925E-01 a       278     0    19     1     8
 -2.0778505124993255E-01 a       279     0    19     1     9
  8.4746395103610025E-03 a       280     0    19     1    10
  2.7216326815314673E-01 a       281     0    19     1    11
 -1.9728098763282984E-01 a       282     0    19     1    12
  8.4904491818466946E-02 a       283     0    19     1    13
 -3.5031085570136716E-01 a       284     0    19     1    14
 -1.1899424332556152E-01 a       285     0    19     1    15
 -2.2137277005018219E-01 a       286     0    20     1     1
 -8.5558782111004664E-02 a       287     0    20     1     2
 -2.2631748499506923E-01 a       288     0    20     1     3
  1.0106618436299639E-01 a       289     0    20     1     4
  3.3242874182426990E-01 a       290     0    20     1     5
  1.7261996567842594E-01 a       291     0    20     1     6
  1.9202871024546303E-01 a       292     0    20     1     7
 -8.5990907099421685E-02 a       293     0    20     1     8
  5.1275534721596620E-02 a       294     0    20     1     9
 -3.0936725030293277E-02 a       295     0    20     1    10
 -3.0663097595535756E-02 a       296     0    20     1    11
 -1.0241616958015755E-01 a       297     0    20     1    12
 -4.6265969599329923E-02 a       298     0    20     1    13
 -1.9279186989212638E-01 a       299     0    20     1    14
 -1.6052014028239953E-01 a       300     0    20     1    15
 -3.0098719734395100E-02 a       301     0    21     1     1
 -2.9494280605757695E-01 a       302     0    21     1     2
  4.7222288787165272E-02 a       303     0    21     1     3
 -2.4206805034056680E-01 a       304     0    21     1     4
  1.2359236741841260E-01 a       305     0    21     1     5
  6.7383259609290161E-02 a       306     0    21     1     6
  1.7341507241973658E-01 a       307     0    21     1     7
 -7.0006948414482309E-02 a       308     0    21     1     8
  9.0758582695722900E-02 a       309     0    21     1     9
 -3.3131124638113900E-02 a       310     0    21     1    10
 -3.5972143477342552E-02 a       311     0    21     1    11
 -1.9409071543962896E-02 a       312     0    21     1    12
 -2.8474210512230324E-02 a       313     0    21     1    13
 -1.9183248129217751E-02 a       314     0    21     1    14
  1.5508709345880273E-01 a       315     0    21     1    15
 -9.9777706703936084E-02 a       316     0    22     1     1
  3.8241606088745189E-02 a       317     0    22     1     2
  1.0513781840831932E-02 a       318     0    22     1     3
 -1.6843837599674390E-02 a       319     0    22     1     4
  2.9583761386488057E-02 a       320     0    22     1     5
 -6.8241826194684829E-02 a       321     0    22     1     6
 -1.5558263314369161E-01 a       322     0    22     1     7
  1.6623384110349881E-01 a       323     0    22     1     8
 -1.2618853514165598E-01 a       324     0    22     1     9
  7.0063866247913664E-02 a       325     0    22     1    10
  4.6928519289100794E-02 a       326     0    22     1    11
 -2.0010681977359671E-01 a       327     0    22     1    12
 -5.6785310661512427E-02 a       328     0    22     1    13
  9.6767679588065744E-02 a       329     0    22     1    14
 -8.8360275306799491E-02 a       330     0    22     1    15
 -4.4234660331960517E-02 a       331     0    23     1     1
  1.1214675544625999E-01 a       332     0    23     1     2
  2.0667385854628548E-01 a       333     0    23     1     3
  2.5239297025884077E-02 a       334     0    23     1     4
  2.1461382821137895E-02 a       335     0    23     1     5
 -1.2211145584762434E-01 a       336     0    23     1     6
 -1.2096070086729513E-01 a       337     0    23     1     7
  3.3654463961639952E-01 a       338     0    23     1     8
  1.0538139142380432E-01 a       339     0    23     1     9
  1.1760114735732010E-02 a       340     0    23     1    10
  1.6928480980321317E-01 a       341     0    23     1    11
 -4.0668961543418564E-02 a       342     0    23     1    12
  8.5863760865705491E-02 a       343     0    23     1    13
 -1.4381995543840562E-01 a       344     0    23     1    14
  6.9181149830732896E-02 a       345     0    23     1    15
 -5.3257376854780790E-02 a       346     0    24     1     1
 -5.3830273569442602E-02 a       347     0    24     1     2
 -4.5624978973449047E-02 a       348     0    24     1     3
 -3.0248059194176330E-01 a       349     0    24     1     4
 -1.1077008346951345E-02 a       350     0    24     1     5
 -1.8295396200008476E-01 a       351     0    24     1     6
  1.6671223670258375E-01 a       352     0    24     1     7
 -1.4458885460492937E-02 a       353     0    24     1     8
  6.4214310747249509E-02 a       354     0    24     1     9
  1.8781534614857595E-01 a       355     0    24     1    10
 -1.6669292934447535E-02 a       356     0    24     1    11
 -1.4636850629218970E-01 a       357     0    24     1    12
 -1.8920113484435178E-02 a       358     0    24     1    13
 -5.2882375559714291E-02 a       359     0    24     1    14
 -2.3332281380021472E-01 a       360     0    24     1    15
 -5.2376372588265621E-02 a       361     0    25     1     1
  3.4633525752489437E-02 a       362     0    25     1     2
 -2.5321962619522721E-02 a       363     0    25     1     3
  1.9625684676071670E-01 a       364     0    25     1     4
  1.1209719246269921E-02 a       365     0    25     1     5
 -7.2804256064426920E-02 a       366     0    25     1     6
 -1.0709421538522991E-01 a       367     0    25     1     7
  1.9348828041516889E-02 a       368     0    25     1     8
 -4.6189434351855276E-02 a       369     0    25     1     9
 -5.7516554557122783E-02 a       370     0    25     1    10
  4.8676843935307815E-03 a       371     0    25     1    11
 -1.2874679664533975E-01 a       372     0    25     1    12
  6.7852393446085860E-02 a       373     0    25     1    13
  2.1431014647195774E-02 a       374     0    25     1    14
 -1.3409660023294603E-01 a       375     0    25     1    15
  9.3209029353521114E-02 a       376     0    26     1     1
  2.9980133533519512E-02 a       377     0    26     1     2
 -1.3239155923880616E-01 a       378     0    26     1     3
 -5.0564039889588810E-02 a       379     0    26     1     4
 -2.7662900743419962E-02 a       380     0    26     1     5
  1.9113565175051701E-02 a       381     0    26     1     6
 -7.2214470619286764E-02 a       382     0    26     1     7
  1.9175988637435290E-01 a       383     0    26     1     8
 -9.1568815669192241E-02 a       384     0    26     1     9
  1.6017965493446213E-02 a       385     0    26     1    10
 -1.3843972089312503E-01 a       386     0    26     1    11
  3.0031360455125949E-01 a       387     0    26     1    12
 -1.0152262659735066E-01 a       388     0    26     1    13
 -1.5126404616035322E-01 a       389     0    26     1    14
  5.2172469979614888E-02 a       390     0    26     1    15
 -2.8277821508348028E-02 a       391     0    27     1     1
 -1.6477219768702762E-02 a       392     0    27     1     2
  2.9959394562612068E-02 a       393     0    27     1     3
 -3.6619173314702713E-02 a       394     0    27     1     4
  4.3318142630537800E-02 a       395     0    27     1     5
 -4.4767778326403496E-02 a       396     0    27     1     6
 -2.6280011395295923E-02 a       397     0    27     1     7
  2.0929957179896780E-01 a       398     0    27     1     8
  2.6331702670095752E-02 a       399     0    27     1     9
  2.3872374653890130E-01 a       400     0    27     1    10
  1.8873624213319634E-01 a       401     0    27     1    11
  2.2854694970172579E-01 a       402     0    27     1    12
  1.0855368929184793E-01 a       403     0    27     1    13
  5.1191750753443344E-02 a       404     0    27     1    14
 -1.8732646752123339E-01 a       405     0    27     1    15
  3.2203093849575516E-02 a       406     0    28     1     1
  1.0170244367369559E-03 a       407     0    28     1     2
  9.4404092077728111E-02 a       408     0    28     1     3
  2.6474567055793752E-02 a       409     0    28     1     4
 -2.1981552074609625E-01 a       410     0    28     1     5
  2.4705575846263133E-02 a       411     0    28     1     6
  1.1956556399221502E-01 a       412     0    28     1     7
  3.4961462937715425E-02 a       413     0    28     1     8
 -6.1334427566821240E-02 a       414     0    28     1     9
  1.7809008988325575E-01 a       415     0    28     1    10
 -9.1967819050395277E-02 a       416     0    28     1    11
  1.7808869431205987E-01 a       417     0    28     1    12
 -2.0407884773325022E-01 a       418     0    28     1    13
  7.4412217446479467E-02 a       419     0    28     1    14
  2.1184301055274349E-01 a       420     0    28     1    15
  1.6128713864845631E-01 a       421     0    29     1     1
  1.6913663490915656E-01 a       422     0    29     1     2
  1.4495937638150105E-01 a       423     0    29     1     3
 -1.3031602915146523E-01 a       424     0    29     1     4
 -4.0617149769066663E-02 a       425     0    29     1     5
 -1.8775617266919492E-01 a       426     0    29     1     6
 -2.4219229398276007E-01 a       427     0    29     1     7
  1.7280977050959506E-01 a       428     0    29     1     8
 -1.3357251372185247E-01 a       429     0    29     1     9
 -1.3318846016580260E-01 a       430     0    29     1    10
 -1.8232382198478153E-01 a       431     0    29     1    11
 -1.7917826736013490E-01 a       432     0    29     1    12
  1.5047158384192100E-01 a       433     0    29     1    13
 -9.4275682283425477E-02 a       434     0    29     1    14
 -1.4101798520653794E-01 a       435     0    29     1    15
  4.2588494174087714E-02 a       436     0    30     1     1
 -1.3015487303440322E-02 a       437     0    30     1     2
 -1.1965951667355804E-01 a       438     0    30     1     3
 -1.4638896991340608E-01 a       439     0    30     1     4
 -7.6579664106181472E-02 a       440     0    30     1     5
 -2.5098818757957458E-01 a       441     0    30     1     6
  2.0667967148992996E-03 a       442     0    30     1     7
 -1.6439343513237375E-02 a       443     0    30     1     8
  1.3703308322284741E-01 a       444     0    30     1     9
 -1.6583800661293058E-01 a       445     0    30     1    10
  6.2669505017628371E-02 a       446     0    30     1    11
 -1.6544725174690418E-02 a       447     0    30     1    12
  3.6227883925589011E-02 a       448     0    30     1    13
  2.3195651205983750E-01 a       449     0    30     1    14
  9.3675760640655387E-02 a       450     0    30     1    15
 -6.9914541038956874E-03 a       451     0    31     1     1
 -1.6073621477739070E-01 a       452     0    31     1     2
  4.0484695408555156E-02 a       453     0    31     1     3
 -1.3008664303938027E-02 a       454     0    31     1     4
  7.1532493081393950E-02 a       455     0    31     1     5
 -1.6708960960745686E-01 a       456     0    31     1     6
  2.3975703653173090E-02 a       457     0    31     1     7
 -2.4103099790567278E-01 a       458     0    31     1     8
 -5.7204635894856519E-02 a       459     0    31     1     9
 -1.6236698493793261E-01 a       460     0    31     1    10
 -2.2534356534182776E-02 a       461     0    31     1    11
 -1.3619950691496491E-01 a       462     0    31     1    12
  3.8132178575756480E-02 a       463     0    31     1    13
 -5.7467454878075946E-02 a       464     0    31     1    14
  1.3877568500455292E-01 a       465     0    31     1    15
  1.7171693895938295E-01 a       466     0    32     1     1
 -1.7946323820592172E-01 a       467     0    32     1     2
 -6.3479559156661119E-02 a       468     0    32     1     3
  1.3310308998551970E-01 a       469     0    32     1     4
 -1.6405378786370130E-03 a       470     0    32     1     5
 -7.7677239945007914E-02 a       471     0    32     1     6
  4.9667031383873302E-02 a       472     0    32     1     7
  1.1202346656898727E-02 a       473     0    32     1     8
 -6.9018532222136483E-02 a       474     0    32     1     9
  1.5629291478667215E-01 a       475     0    32     1    10
  1.8209003744276638E-02 a       476     0    32     1    11
  5.3866295183914545E-02 a       477     0    32     1    12
  1.0400957454339967E-01 a       478     0    32     1    13
 -1.1703424703679829E-01 a       479     0    32     1    14
  7.3403602242101736E-03 a       480     0    32     1    15
  1.6447136555201688E-01 a       481     0    33     1     1
 -3.1855325034128089E-03 a       482     0    33     1     2
 -2.1081838014338261E-01 a       483     0    33     1     3
 -1.3345560867954856E-01 a       484     0    33     1     4
  5.9473527900096149E-02 a       485     0    33     1     5
  1.6737816680306264E-01 a       486     0    33     1     6
  4.1433939330817382E-03 a       487     0    33     1     7
 -9.8455720953706652E-02 a       488     0    33     1     8
 -2.6966984506879543E-01 a       489     0    33     1     9
 -1.3855130898242363E-01 a       490     0    33     1    10
 -7.9464926179665385E-02 a       491     0    33     1    11
  2.3669637973314974E-02 a       492     0    33     1    12
 -1.2475102930936838E-01 a       493     0    33     1    13
  1.7897070726884851E-01 a       494     0    33     1    14
  5.8091628598521588E-03 a       495     0    33     1    15
 -8.9249617113780193E-03 a       496     0    34     1     1
  1.0968897740712313E-01 a       497     0    34     1     2
 -7.1532818995612688E-02 a       498     0    34     1     3
  7.3277210386800462E-02 a       499     0    34     1     4
  1.5184270562069088E-01 a       500     0    34     1     5
  2.5507307874585217E-02 a       501     0    34     1     6
 -2.3787460974887745E-01 a       502     0    34     1     7
  1.2067694388133474E-01 a       503     0    34     1     8
  2.7258360912413099E-02 a       504     0    34     1     9
  1.6388424816123723E-01 a       505     0    34     1    10
  1.0610243145852567E-01 a       506     0    34     1    11
 -1.3454579988082947E-02 a       507     0    34     1    12
  7.6516003179351200E-02 a       508     0    34     1    13
  8.8339980489850450E-02 a       509     0    34     1    14
  1.6288461623229483E-01 a       510     0    34     1    15
 -9.3335070491334118E-02 a       511     0    35     1     1
 -9.0260393877667641E-02 a       512     0    35     1     2
 -6.0760376479840852E-02 a       513     0    35     1     3
 -1.1666952869577725E-01 a       514     0    35     1     4
 -3.1080613841430432E-02 a       515     0    35     1     5
 -1.3936599312943002E-01 a       516     0    35     1     6
  7.4232078482812644E-02 a       517     0    35     1     7
 -8.0259594340979568E-02 a       518     0    35     1     8
  8.9516647980117294E-03 a       519     0    35     1     9
  5.8522638483304343E-02 a       520     0    35     1    10
 -9.1771509870506918E-02 a       521     0    35     1    11
  1.0075800371620079E-01 a       522     0    35     1    12
 -2.4487433319896525E-02 a       523     0    35     1    13
 -2.4617175019859692E-02 a       524     0    35     1    14
 -1.4596750686831634E-02 a       525     0    35     1    15
  1.8519987760723725E-01 a       526     0    36     1     1
 -1.0189814912296084E-01 a       527     0    36     1     2
 -5.5453372392234350E-02 a       528     0    36     1     3
 -8.9994918014149314E-02 a       529     0    36     1     4
 -2.7531943881656078E-02 a       530     0    36     1     5
 -1.1714035555800817E-01 a       531     0    36     1     6
  2.1985101403434787E-01 a       532     0    36     1     7
  7.3488309689565767E-02 a       533     0    36     1     8
 -1.5621979627671809E-01 a       534     0    36     1     9
 -7.3828571212968264E-03 a       535     0    36     1    10
 -1.3327696128149963E-01 a       536     0    36     1    11
  1.8365795229177150E-02 a       537     0    36     1    12
 -1.1223120270473715E-01 a       538     0    36     1    13
 -1.2220778432654938E-01 a       539     0    36     1    14
  4.1300701137781753E-02 a       540     0    36     1    15
 -2.4043927568994573E-02 a       541     0    37     1     1
 -7.9933908221427499E-02 a       542     0    37     1     2
  1.2051767160972864E-01 a       543     0    37     1     3
 -1.0854767151150915E-01 a       544     0    37     1     4
  2.3468001286961870E-01 a       545     0    37     1     5
  5.3724057582185104E-02 a       546     0    37     1     6
 -1.0527884627576811E-01 a       547     0    37     1     7
 -1.1795098323979838E-01 a       548     0    37     1     8
  7.1143839572149425E-02 a       549     0    37     1     9
 -2.1176063101152967E-01 a       550     0    37     1    10
 -1.7976588378431961E-02 a       551     0    37     1    11
  1.5999266740316787E-01 a       552     0    37     1    12
  1.9173400660577858E-01 a       553     0    37     1    13
 -1.8261142697343258E-01 a       554     0    37     1    14
 -9.5516738196795556E-02 a       555     0    37     1    15
 -6.6150123204553726E-02 a       556     0    38     1     1
 -3.9755799093215298E-02 a       557     0    38     1     2
  1.2960551908974779E-01 a       558     0    38     1     3
 -2.7310621915908107E-01 a       559     0    38     1     4
 -7.7354355017442589E-02 a       560     0    38     1     5
 -5.7139592992077770E-02 a       561     0    38     1     6
  2.4911072933567735E-01 a       562     0    38     1     7
 -1.4212083577998955E-02 a       563     0    38     1     8
 -1.8024469077097413E-02 a       564     0    38     1     9
  6.6096629190077083E-02 a       565     0    38     1    10
  8.5087532091111487E-02 a       566     0    38     1    11
 -9.2607029082646924E-02 a       567     0    38     1    12
 -1.1939759857309558E-01 a       568     0    38     1    13
 -3.7744863684422023E-02 a       569     0    38     1    14
 -6.2770926031617907E-02 a       570     0    38     1    15
  8.1642864006320578E-02 a       571     0    39     1     1
  3.1435589760925703E-01 a       572     0    39     1     2
 -1.5496549333795184E-01 a       573     0    39     1     3
  2.4065854832560027E-01 a       574     0    39     1     4
 -5.0107162356103447E-03 a       575     0    39     1     5
  1.8991206335423427E-01 a       576     0    39     1     6
  1.3215392201229523E-01 a       577     0    39     1     7
 -1.6335345621641204E-01 a       578     0    39     1     8
  9.4666237375676379E-02 a       579     0    39     1     9
 -1.2639273321504535E-01 a       580     0    39     1    10
 -1.0331129028432579E-03 a       581     0    39     1    11
  1.8438931260719513E-01 a       582     0    39     1    12
  1.8822076838580881E-01 a       583     0    39     1    13
  2.2636330121128331E-01 a       584     0    39     1    14
 -2.2641096962348745E-01 a       585     0    39     1    15
  5.5790708985841909E-02 a       586     0    40     1     1
  1.8945331627141296E-01 a       587     0    40     1     2
 -3.4695484019053543E-04 a       588     0    40     1     3
  1.3890523823589873E-01 a       589     0    40     1     4
  4.3619452053852481E-02 a       590     0    40     1     5
 -3.8059427500517591E-03 a       591     0    40     1     6
 -1.6324803679563341E-01 a       592     0    40     1     7
  6.6297979473334712E-02 a       593     0    40     1     8
 -9.2039009590987361E-02 a       594     0    40     1     9
 -3.6458651386679648E-02 a       595     0    40     1    10
 -1.5524088195461477E-01 a       596     0    40     1    11
  5.6853200157325978E-02 a       597     0    40     1    12
  6.7020766001654811E-02 a       598     0    40     1    13
  2.4510896059309003E-02 a       599     0    40     1    14
  3.0570744328673221E-02 a       600     0    40     1    15
  2.4026755257874424E-01 a       601     0    41     1     1
 -2.9179957921919003E-01 a       602     0    41     1     2
  1.1565149248357982E-01 a       603     0    41     1     3
  6.6685857887545177E-02 a       604     0    41     1     4
  9.2573454126657670E-02 a       605     0    41     1     5
 -5.2368061166557414E-02 a       606     0    41     1     6
  1.3228939371451590E-01 a       607     0    41     1     7
 -9.8928879690856023E-02 a       608     0    41     1     8
  1.3606749452681061E-02 a       609     0    41     1     9
 -1.1051333367268344E-01 a       610     0    41     1    10
  9.8697843214010719E-02 a       611     0    41     1    11
 -1.1599203550828746E-01 a       612     0    41     1    12
 -1.1817218026542219E-02 a       613     0    41     1    13
  2.0927681421165134E-01 a       614     0    41     1    14
  6.5580821563683001E-02 a       615     0    41     1    15
 -2.3461698607885242E-02 a       616     0    42     1     1
  5.8669698980230799E-02 a       617     0    42     1     2
  9.8063183496290160E-02 a       618     0    42     1     3
 -2.0257552371343726E-01 a       619     0    42     1     4
  2.0775141237367255E-02 a       620     0    42     1     5
  7.9932109866352366E-02 a       621     0    42     1     6
  1.1863457881618421E-01 a       622     0    42     1     7
  3.5676088355384890E-02 a       623     0    42     1     8
 -1.6909273726210508E-01 a       624     0    42     1     9
 -3.5567893557814693E-02 a       625     0    42     1    10
  5.0138628653143370E-02 a       626     0    42     1    11
 -1.0170259611074879E-01 a       627     0    42     1    12
 -1.7744434373014092E-01 a       628     0    42     1    13
  7.1570222935738476E-02 a       629     0    42     1    14
  3.1708121634491424E-02 a       630     0    42     1    15
  1.2982844154855624E-01 a       631     0    43     1     1
  8.5054703546583427E-02 a       632     0    43     1     2
 -1.3536156648212722E-01 a       633     0    43     1     3
 -1.0137133494433077E-01 a       634     0    43     1     4
  6.4625597758080175E-02 a       635     0    43     1     5
 -1.1362098078241031E-01 a       636     0    43     1     6
 -1.4518373317006666E-01 a       637     0    43     1     7
  3.0600851664838286E-01 a       638     0    43     1     8
 -1.9674605287657995E-01 a       639     0    43     1     9
  2.7833691183577802E-01 a       640     0    43     1    10
 -1.0273879621434527E-01 a       641     0    43     1    11
  7.4219830280374335E-02 a       642     0    43     1    12
  1.8986549150597175E-02 a       643     0    43     1    13
  1.8295648839343198E-01 a       644     0    43     1    14
 -2.6197193548267861E-01 a       645     0    43     1    15
  4.0106286605854073E-02 a       646     0    44     1     1
  1.0000377518508449E-01 a       647     0    44     1     2
  2.4091232307874721E-01 a       648     0    44     1     3
  1.4885922429387802E-01 a       649     0    44     1     4
 -8.7343761296791236E-02 a       650     0    44     1     5
  4.6534992675223902E-02 a       651     0    44     1     6
  2.2358395300251877E-03 a       652     0    44     1     7
 -2.2226724369087464E-01 a       653     0    44     1     8
 -2.1229278007840802E-02 a       654     0    44     1     9
 -1.5476162421233394E-01 a       655     0    44     1    10
  8.9773604712940991E-02 a       656     0    44     1    11
 -1.0875687838430702E-01 a       657     0    44     1    12
 -5.4005772968216820E-03 a       658     0    44     1    13
  5.1885558660939076E-03 a       659     0    44     1    14
  2.8204193057147740E-02 a       660     0    44     1    15
 -1.8992695967740439E-01 a       661     0    45     1     1
  1.3759949897454299E-01 a       662     0    45     1     2
  1.8832884203078130E-03 a       663     0    45     1     3
 -3.0805232963711426E-01 a       664     0    45     1     4
 -6.6323867895325295E-02 a       665     0    45     1     5
 -3.2113540012895320E-01 a       666     0    45     1     6
  2.1317400431077485E-01 a       667     0    45     1     7
  1.9186524701304375E-01 a       668     0    45     1     8
  1.0588911136020300E-01 a       669     0    45     1     9
  1.3464914358530991E-01 a       670     0    45     1    10
  1.0326683656142745E-01 a       671     0    45     1    11
 -1.4839041820182172E-01 a       672     0    45     1    12
  2.0783622069160493E-01 a       673     0    45     1    13
 -1.3055902389784624E-02 a       674     0    45     1    14
 -1.5879459650905295E-01 a       675     0    45     1    15
 -1.3863853176356095E-01 a       676     0    46     1     1
  1.0794830153093024E-01 a       677     0    46     1     2
  1.6386154558973770E-01 a       678     0    46     1     3
 -1.1711171730560763E-01 a       679     0    46     1     4
 -1.9705586387429298E-02 a       680     0    46     1     5
 -3.6594705123990331E-03 a       681     0    46     1     6
  7.5108024105413479E-02 a       682     0    46     1     7
 -5.8999844853454352E-02 a       683     0    46     1     8
 -1.0145657751671679E-01 a       684     0    46     1     9
 -1.5808627866057391E-02 a       685     0    46     1    10
 -7.2975707770955550E-02 a       686     0    46     1    11
 -8.5939325852516291E-02 a       687     0    46     1    12
 -8.7290485511704430E-02 a       688     0    46     1    13
  6.4977265105624377E-02 a       689     0    46     1    14
 -1.3138032668808414E-02 a       690     0    46     1    15
  8.3745101618426770E-02 a       691     0    47     1     1
 -9.4380468020114280E-02 a       692     0    47     1     2
 -1.8864725992612041E-01 a       693     0    47     1     3
 -8.2065343435871810E-03 a       694     0    47     1     4
  1.5349442812680131E-01 a       695     0    47     1     5
  7.3467877416450542E-02 a       696     0    47     1     6
 -1.6262232748921823E-01 a       697     0    47     1     7
  6.2108506040075520E-02 a       698     0    47     1     8
  1.4852627541070934E-01 a       699     0    47     1     9
 -9.5085562771939414E-02 a       700     0    47     1    10
  2.1774353185820505E-02 a       701     0    47     1    11
  2.3958433996012999E-02 a       702     0    47     1    12
  1.6358052996902087E-01 a       703     0    47     1    13
  2.1317809594373477E-01 a       704     0    47     1    14
 -3.4446473320830777E-02 a       705     0    47     1    15
 -1.4446359518644789E-01 a       706     0    48     1     1
 -1.3531173638385235E-01 a       707     0    48     1     2
  1.3060398157042305E-01 a       708     0    48     1     3
 -3.2680612395000204E-02 a       709     0    48     1     4
  2.6661786717799830E-02 a       710     0    48     1     5
  4.8521930931552715E-02 a       711     0    48     1     6
  2.4931725289820791E-02 a       712     0    48     1     7
  7.0022432092847628E-02 a       713     0    48     1     8
  1.7849176055547922E-01 a       714     0    48     1     9
 -9.6924753222716348E-02 a       715     0    48     1    10
  7.4384692145143066E-02 a       716     0    48     1    11
 -3.2455364234209125E-02 a       717     0    48     1    12
 -3.9574125995813898E-02 a       718     0    48     1    13
 -1.2693688290410718E-01 a       719     0    48     1    14
  1.3325873895199661E-01 a       720     0    48     1    15
 -8.7085445661609154E-02 a       721     0    49     1     1
 -1.4556406462257135E-01 a       722     0    49     1     2
  1.2596690241066499E-01 a       723     0    49     1     3
  7.1086828014524914E-02 a       724     0    49     1     4
 -6.1860274175184853E-02 a       725     0    49     1     5
  3.0978978435090641E-02 a       726     0    49     1     6
  5.3917944203122556E-02 a       727     0    49     1     7
  2.7288929277023199E-01 a       728     0    49     1     8
 -9.1326794821153176E-03 a       729     0    49     1     9
  5.0038992407673059E-02 a       730     0    49     1    10
 -1.3352356525556081E-01 a       731     0    49     1    11
 -3.7463331784905352E-02 a       732     0    49     1    12
  1.0640123755501814E-01 a       733     0    49     1    13
  6.7558761619356034E-02 a       734     0    49     1    14
  1.1365622934101180E-01 a       735     0    49     1    15
  1.7136594316146903E-01 a       736     0    50     1     1
 -5.6477661799544977E-02 a       737     0    50     1     2
 -9.9803829936629909E-02 a       738     0    50     1     3
  1.7428998528077710E-01 a       739     0    50     1     4
 -3.1803032576530593E-01 a       740     0    50     1     5
  2.8006708286160714E-01 a       741     0    50     1     6
  3.3768710153404054E-02 a       742     0    50     1     7
  1.1820756948278584E-01 a       743     0    50     1     8
  5.5160513131010183E-02 a       744     0    50     1     9
 -2.5550859478184490E-01 a       745     0    50     1    10
  2.1919427332667676E-02 a       746     0    50     1    11
  2.2377602490911336E-01 a       747     0    50     1    12
 -1.9076204661417859E-01 a       748     0    50     1    13
 -9.6026966119621068E-02 a       749     0    50     1    14
  3.9414971572185729E-02 a       750     0    50     1    15
 -1.0862573840988841E-01 a       751     0    51     1     1
  2.3134231897615772E-02 a       752     0    51     1     2
  1.2854444229686113E-01 a       753     0    51     1     3
  9.6184994308348259E-02 a       754     0    51     1     4
 -2.3801519656082590E-01 a       755     0    51     1     5
 -3.2522526924322864E-01 a       756     0    51     1     6
  6.3563740087934043E-02 a       757     0    51     1     7
  1.2078902289630778E-02 a       758     0    51     1     8
  1.5469161662610514E-01 a       759     0    51     1     9
  1.4380083081051589E-01 a       760     0    51     1    10
  2.6173195800353499E-01 a       761     0    51     1    11
 -1.1652323455147887E-02 a       762     0    51     1    12
 -8.5701367811896648E-02 a       763     0    51     1    13
  1.2096539627915254E-01 a       764     0    51     1    14
  9.1189349190308661E-02 a       765     0    51     1    15
  1.8596560022301958E-01 a       766     0    52     1     1
  1.7782531932848752E-01 a       767     0    52     1     2
  4.4641183968458807E-02 a       768     0    52     1     3
  1.5525415198149201E-01 a       769     0    52     1     4
 -2.4977887146416108E-01 a       770     0    52     1     5
  1.4696861624462573E-01 a       771     0    52     1     6
  9.8705300407004315E-02 a       772     0    52     1     7
  2.8358944394947605E-01 a       773     0    52     1     8
 -6.7813307612764578E-02 a       774     0    52     1     9
  1.8904602494639777E-01 a       775     0    52     1    10
 -4.8208683831601684E-03 a       776     0    52     1    11
  1.9609098274298256E-01 a       777     0    52     1    12
 -1.0575406664986957E-01 a       778     0    52     1    13
  4.6377887394121686E-02 a       779     0    52     1    14
  4.3164201883874716E-02 a       780     0    52     1    15
 -1.0426998652793440E-01 a       781     0    53     1     1
  7.8795911691420015E-02 a       782     0    53     1     2
  7.9716668842158889E-02 a       783     0    53     1     3
 -1.0599350281725382E-01 a       784     0    53     1     4
  6.2994671657466738E-03 a       785     0    53     1     5
  7.4319547572406469E-02 a       786     0    53     1     6
 -1.0148306987663533E-01 a       787     0    53     1     7
  1.9247741364546597E-01 a       788     0    53     1     8
  1.7209485143169636E-02 a       789     0    53     1     9
  1.6677283769514543E-03 a       790     0    53     1    10
  2.0815866531186938E-01 a       791     0    53     1    11
 -1.6348241653912465E-01 a       792     0    53     1    12
  5.7597555453413218E-02 a       793     0    53     1    13
 -9.8029534323315834E-03 a       794     0    53     1    14
 -2.7435933548429690E-02 a       795     0    53     1    15
 -3.2150986885756204E-02 a       796     0    54     1     1
  2.9527498166390952E-02 a       797     0    54     1     2
 -2.8347346263862350E-01 a       798     0    54     1     3
  7.9045822536863430E-02 a       799     0    54     1     4
 -1.2150395040718599E-01 a       800     0    54     1     5
 -6.1234661339971172E-02 a       801     0    54     1     6
  2.6535198460009585E-01 a       802     0    54     1     7
  5.4816244393288442E-03 a       803     0    54     1     8
  1.6824564514414036E-02 a       804     0    54     1     9
 -4.4617092958240949E-02 a       805     0    54     1    10
 -1.1556017166674759E-01 a       806     0    54     1    11
 -1.1552595917582675E-01 a       807     0    54     1    12
  1.4143424059328474E-02 a       808     0    54     1    13
 -1.9631524961038513E-01 a       809     0    54     1    14
  1.6402784635523283E-02 a       810     0    54     1    15
 -5.7707255124042775E-02 a       811     0    55     1     1
 -2.1489632658178542E-01 a       812     0    55     1     2
  1.1741368701768796E-01 a       813     0    55     1     3
 -1.6468287573948290E-01 a       814     0    55     1     4
 -1.2234607402110444E-02 a       815     0    55     1     5
 -1.0917529003124582E-01 a       816     0    55     1     6
 -2.1085575998300948E-01 a       817     0    55     1     7
  1.8805491448639367E-01 a       818     0    55     1     8
 -5.5018679372929438E-02 a       819     0    55     1     9
 -4.0868669186139413E-02 a       820     0    55     1    10
 -5.2502499058174355E-02 a       821     0    55     1    11
 -1.4547191869151102E-01 a       822     0    55     1    12
 -1.3881653551619225E-01 a       823     0    55     1    13
 -2.3224649247978701E-01 a       824     0    55     1    14
  1.2335723812950625E-01 a       825     0    55     1    15
  8.2325449973908643E-02 a       826     0    56     1     1
  1.2363497448163091E-01 a       827     0    56     1     2
 -3.2610272463119615E-02 a       828     0    56     1     3
 -1.3544435804808094E-01 a       829     0    56     1     4
 -3.1475595786643312E-01 a       830     0    56     1     5
  6.5512607375817225E-02 a       831     0    56     1     6
  8.1850519501749153E-02 a       832     0    56     1     7
 -1.1981489326117430E-01 a       833     0    56     1     8
 -2.0431287673364795E-01 a       834     0    56     1     9
  7.8555377485158395E-02 a       835     0    56     1    10
  6.3528534944422288E-02 a       836     0    56     1    11
  3.3428108849046886E-02 a       837     0    56     1    12
 -6.4153869478577569E-02 a       838     0    56     1    13
  1.7365007112233299E-01 a       839     0    56     1    14
 -2.0688121921445354E-01 a       840     0    56     1    15
 -9.7413572975227607E-03 a       841     0    57     1     1
 -1.6184082522597629E-01 a       842     0    57     1     2
  2.0179504885712607E-01 a       843     0    57     1     3
 -3.1433219466269348E-02 a       844     0    57     1     4
  9.5685543189226920E-03 a       845     0    57     1     5
  7.5511391995831553E-02 a       846     0    57     1     6
  1.9232352231791372E-01 a       847     0    57     1     7
 -1.3710181154786488E-01 a       848     0    57     1     8
  1.2687712817312521E-01 a       849     0    57     1     9
  1.3422508284512379E-02 a       850     0    57     1    10
 -1.8358379646723530E-01 a       851     0    57     1    11
  7.3424201757657695E-02 a       852     0    57     1    12
  5.1947698775939674E-02 a       853     0    57     1    13
 -2.2903376266394640E-01 a       854     0    57     1    14
  1.1384088093676593E-01 a       855     0    57     1    15
  4.9197349191909809E-02 a       856     0    58     1     1
  1.4480676682951506E-02 a       857     0    58     1     2
  7.0742611749078407E-02 a       858     0    58     1     3
 -5.2947108762056765E-02 a       859     0    58     1     4
 -2.9842551539206823E-02 a       860     0    58     1     5
  4.0026672259720966E-02 a       861     0    58     1     6
  1.4041026450476721E-01 a       862     0    58     1     7
 -4.5522698076484971E-02 a       863     0    58     1     8
 -5.7601444749159632E-02 a       864     0    58     1     9
  1.9399160923529116E-02 a       865     0    58     1    10
 -8.8724996758296579E-02 a       866     0    58     1    11
  7.2992452353752249E-02 a       867     0    58     1    12
 -6.9451304212733600E-02 a       868     0    58     1    13
  7.0834521675422854E-02 a       869     0    58     1    14
  1.3606734399504036E-01 a       870     0    58     1    15
  1.1373632456020588E-01 a       871     0    59     1     1
  1.2506856507120849E-02 a       872     0    59     1     2
 -1.1969444759106759E-01 a       873     0    59     1     3
  4.7583163010924009E-02 a       874     0    59     1     4
  1.2264476074375998E-01 a       875     0    59     1     5
  4.8512264021374853E-02 a       876     0    59     1     6
 -3.5735243182330796E-02 a       877     0    59     1     7
 -1.9980535973499955E-01 a       878     0    59     1     8
 -6.4241891176245680E-02 a       879     0    59     1     9
 -1.7685052765433343E-01 a       880     0    59     1    10
 -2.0960840211947368E-01 a       881     0    59     1    11
  1.1036621005597401E-01 a       882     0    59     1    12
 -8.4067098946530000E-02 a       883     0    59     1    13
  1.0997045041047698E-01 a       884     0    59     1    14
 -9.7273728521289071E-02 a       885     0    59     1    15
  9.6933320205891585E-02 a       886     0    60     1     1
  5.5103940691905322E-02 a       887     0    60     1     2
 -9.5947333179097455E-02 a       888     0    60     1     3
  1.2532374600545285E-01 a       889     0    60     1     4
 -9.6259693215167627E-02 a       890     0    60     1     5
 -1.1741386387704913E-01 a       891     0    60     1     6
 -8.2232111691920781E-04 a       892     0    60     1     7
 -1.1682006818408698E-01 a       893     0    60     1     8
  1.0686696480101818E-01 a       894     0    60     1     9
  7.6318058564580363E-02 a       895     0    60     1    10
  6.5049453409352601E-02 a       896     0    60     1    11
  1.2965703882424001E-01 a       897     0    60     1    12
  1.8432615316704891E-02 a       898     0    60     1    13
  2.2641789050455596E-01 a       899     0    60     1    14
  2.1309467301289589E-02 a       900     0    60     1    15
 -2.3182707943932034E-02 a       901     0    61     1     1
  1.2411175668739652E-02 a       902     0    61     1     2
 -6.7959975251985286E-02 a       903     0    61     1     3
 -2.0568092565341652E-03 a       904     0    61     1     4
 -2.5579725825950288E-02 a       905     0    61     1     5
 -7.7294716376474268E-02 a       906     0    61     1     6
  1.0579928004644601E-01 a       907     0    61     1     7
 -8.6117760666952370E-02 a       908     0    61     1     8
 -1.2042881328435702E-01 a       909     0    61     1     9
  7.2598411871622678E-02 a       910     0    61     1    10
 -8.9120466304764959E-02 a       911     0    61     1    11
  4.9357265317002290E-02 a       912     0    61     1    12
 -8.2071320903441020E-02 a       913     0    61     1    13
 -2.2422107725426221E-01 a       914     0    61     1    14
  4.6397188779908121E-03 a       915     0    61     1    15
 -1.9740502253107684E-02 a       916     0    62     1     1
  1.6404019750312834E-01 a       917     0    62     1     2
  2.4091238825837146E-02 a       918     0    62     1     3
 -9.0031492773731556E-02 a       919     0    62     1     4
 -3.0784110971224660E-03 a       920     0    62     1     5
  1.9853662256750954E-01 a       921     0    62     1     6
 -1.4258076796290503E-01 a       922     0    62     1     7
  1.8882606139044797E-01 a       923     0    62     1     8
 -1.1945611154283743E-01 a       924     0    62     1     9
  5.2686667249444430E-02 a       925     0    62     1    10
  3.0528393397148305E-02 a       926     0    62     1    11
  2.1071723206386077E-03 a       927     0    62     1    12
 -2.1671524700210937E-01 a       928     0    62     1    13
 -1.2550109995510295E-01 a       929     0    62     1    14
  2.0213652169706187E-01 a       930     0    62     1    15
  1.7221890319713204E-02 a       931     0    63     1     1
  9.2699698602103905E-02 a       932     0    63     1     2
 -1.0080061986703083E-01 a       933     0    63     1     3
 -1.9732185411785699E-02 a       934     0    63     1     4
 -3.7891462290354748E-02 a       935     0    63     1     5
 -8.8382103692963468E-02 a       936     0    63     1     6
  1.2128708878863266E-01 a       937     0    63     1     7
 -4.2759005332928937E-02 a       938     0    63     1     8
  1.2135687013100523E-02 a       939     0    63     1     9
 -1.3777238865934285E-02 a       940     0    63     1    10
 -1.1316073203649838E-02 a       941     0    63     1    11
  6.8819405662553776E-02 a       942     0    63     1    12
  2.2913779847054616E-02 a       943     0    63     1    13
 -6.6712387360715136E-02 a       944     0    63     1    14
 -9.6478739759657844E-02 a       945     0    63     1    15
 -1.2051024003948448E-01 a       946     0    64     1     1
 -5.9563554163922020E-02 a       947     0    64     1     2
 -1.0216285735321506E-01 a       948     0    64     1     3
 -1.2965056220987067E-01 a       949     0    64     1     4
  6.1696018170834900E-02 a       950     0    64     1     5
 -1.7352320597241885E-01 a       951     0    64     1     6
  2.5236441317631192E-01 a       952     0    64     1     7
 -8.8746425509466320E-02 a       953     0    64     1     8
 -2.9448389683994495E-02 a       954     0    64     1     9
  3.5353869801661986E-01 a       955     0    64     1    10
  1.3088261131272697E-01 a       956     0    64     1    11
 -1.4263190301186860E-02 a       957     0    64     1    12
  5.3156332918864103E-02 a       958     0    64     1    13
  1.2593843883370929E-02 a       959     0    64     1    14
 -1.0833173796891737E-01 a       960     0    64     1    15
  1.0736706128614069E-01 a       961     0    65     1     1
 -8.4960312006785624E-02 a       962     0    65     1     2
  1.1027964012615252E-01 a       963     0    65     1     3
  1.0804219791623687E-01 a       964     0    65     1     4
 -1.9715013390230504E-01 a       965     0    65     1     5
  2.0445190660198587E-01 a       966     0    65     1     6
  1.4608671613318061E-01 a       967     0    65     1     7
  1.9332911800892044E-01 a       968     0    65     1     8
 -1.4643602002256328E-01 a       969     0    65     1     9
  1.3029321480367029E-01 a       970     0    65     1    10
 -1.4311342652939119E-01 a       971     0    65     1    11
  3.9697366902870984E-02 a       972     0    65     1    12
  7.4367052541692430E-03 a       973     0    65     1    13
  4.9473643398578966E-02 a       974     0    65     1    14
 -5.4850256346485958E-02 a       975     0    65     1    15
 -2.9896686308989347E-02 a       976     0    66     1     1
  9.3834829273128903E-02 a       977     0    66     1     2
 -2.0544725504371428E-01 a       978     0    66     1     3
 -3.7026882739180887E-02 a       979     0    66     1     4
  8.3587026936347883E-02 a       980     0    66     1     5
 -7.6748383160404290E-02 a       981     0    66     1     6
 -1.0591269917105721E-01 a       982     0    66     1     7
 -1.1869068545237607E-01 a       983     0    66     1     8
 -1.5108370185561560E-02 a       984     0    66     1     9
  3.9938020881411358E-02 a       985     0    66     1    10
  2.6920312960283573E-02 a       986     0    66     1    11
  3.6711472698567518E-02 a       987     0    66     1    12
 -2.5356265105906925E-02 a       988     0    66     1    13
  8.4518214319374466E-02 a       989     0    66     1    14
 -4.4961756704934595E-02 a       990     0    66     1    15
 -7.3171507324585341E-02 a       991     0    67     1     1
  4.2697540616242036E-02 a       992     0    67     1     2
 -1.1489913460679248E-01 a       993     0    67     1     3
 -1.4394099415105732E-01 a       994     0    67     1     4
  1.4280466692019747E-03 a       995     0    67     1     5
 -5.1063316648942099E-02 a       996     0    67     1     6
  2.5392647081625728E-02 a       997     0    67     1     7
 -2.5562026477640076E-01 a       998     0    67     1     8
  8.0342841373407844E-02 a       999     0    67     1     9
 -2.9963005625225919E-01 a      1000     0    67     1    10
  8.4439414093687201E-02 a      1001     0    67     1    11
 -1.0608956312645405E-01 a      1002     0    67     1    12
  5.5591890163362353E-03 a      1003     0    67     1    13
  7.5396409114845284E-02 a      1004     0    67     1    14
 -2.4489294954875115E-01 a      1005     0    67     1    15
 -1.1620449838653582E-02 a      1006     0    68     1     1
 -1.2584295879492910E-01 a      1007     0    68     1     2
 -3.1658369700911314E-02 a      1008     0    68     1     3
 -2.3895956411510415E-02 a      1009     0    68     1     4
 -1.9835198157582090E-01 a      1010     0    68     1     5
  6.3417699829170601E-02 a      1011     0    68     1     6
  9.9641948785516951E-02 a      1012     0    68     1     7
 -3.1728756972204404E-02 a      1013     0    68     1     8
  5.7414506898499036E-02 a      1014     0    68     1     9
  9.5411063676601141E-02 a      1015     0    68     1    10
  5.6449575553937509E-02 a      1016     0    68     1    11
  1.4646531093862655E-01 a      1017     0    68     1    12
 -2.3800691491543380E-01 a      1018     0    68     1    13
  2.7258688505785744E-01 a      1019     0    68     1    14
  9.6768870992608877E-02 a      1020     0    68     1    15
 -1.3694172770676957E-01 a      1021     0    69     1     1
  5.5052626708741247E-02 a      1022     0    69     1     2
 -2.6763757906014823E-01 a      1023     0    69     1     3
 -5.0487095460328181E-02 a      1024     0    69     1     4
  1.6101137688682468E-01 a      1025     0    69     1     5
  7.8924786713721676E-02 a      1026     0    69     1     6
 -1.3532480831709414E-02 a      1027     0    69     1     7
  1.0198721204398833E-01 a      1028     0    69     1     8
  1.1288831939518594E-01 a      1029     0    69     1     9
  3.0406556615036922E-02 a      1030     0    69     1    10
 -2.2228292227789814E-01 a      1031     0    69     1    11
  2.2254365268110088E-01 a      1032     0    69     1    12
 -3.5711718075050712E-02 a      1033     0    69     1    13
 -1.7313666808378153E-01 a      1034     0    69     1    14
  5.0477877231692780E-02 a      1035     0    69     1    15
 -1.3038812677843512E-01 a      1036     0    70     1     1
 -1.1331451619621358E-01 a      1037     0    70     1     2
 -9.3168755885025142E-02 a      1038     0    70     1     3
 -1.5013144758844009E-02 a      1039     0    70     1     4
  3.8127694599774692E-02 a      1040     0    70     1     5
 -4.5078971715970813E-02 a      1041     0    70     1     6
  1.0667831602445217E-01 a      1042     0    70     1     7
 -1.2010822712768419E-01 a      1043     0    70     1     8
  1.0254268022652141E-01 a      1044     0    70     1     9
  2.0755788604047326E-01 a      1045     0    70     1    10
 -1.3000414053216708E-01 a      1046     0    70     1    11
  1.5162336256381356E-01 a      1047     0    70     1    12
 -6.7695562856258898E-02 a      1048     0    70     1    13
 -1.7691742494676121E-01 a      1049     0    70     1    14
  1.3333861511126202E-01 a      1050     0    70     1    15
  6.2793281179492118E-03 a      1051     0    71     1     1
 -1.5154629353628010E-01 a      1052     0    71     1     2
  2.0062532931085034E-01 a      1053     0    71     1     3
 -1.2348643067009532E-01 a      1054     0    71     1     4
 -2.2772732194310856E-02 a      1055     0    71     1     5
  2.0474780023478082E-02 a      1056     0    71     1     6
  1.4817538771124716E-01 a      1057     0    71     1     7
  1.3007881640051605E-01 a      1058     0    71     1     8
 -6.1537655290738055E-02 a      1059     0    71     1     9
 -4.5550313673248062E-03 a      1060     0    71     1    10
  7.2899907319014301E-02 a      1061     0    71     1    11
 -2.1745275675833950E-01 a      1062     0    71     1    12
  4.5583243994098417E-02 a      1063     0    71     1    13
  4.8422820048163583E-02 a      1064     0    71     1    14
  1.3537113692515585E-02 a      1065     0    71     1    15
  7.3042752004361319E-02 a      1066     0    72     1     1
  8.8850826227659885E-02 a      1067     0    72     1     2
  8.7187621194143888E-02 a      1068     0    72     1     3
  1.0012638014306821E-01 a      1069     0    72     1     4
 -1.3231581707582807E-01 a      1070     0    72     1     5
  9.6478527085324589E-02 a      1071     0    72     1     6
 -1.6809726717712409E-01 a      1072     0    72     1     7
  1.6332084033501423E-01 a      1073     0    72     1     8
 -1.8317126352839755E-01 a      1074     0    72     1     9
  1.8898623428838479E-01 a      1075     0    72     1    10
  1.2670434807383379E-01 a      1076     0    72     1    11
 -4.2846321314273982E-02 a      1077     0    72     1    12
 -9.9085657791863374E-02 a      1078     0    72     1    13
 -1.7941446184411608E-01 a      1079     0    72     1    14
 -1.2201464484080582E-01 a      1080     0    72     1    15
  7.2334198747190201E-02 a      1081     0    73     1     1
  7.3786507110458172E-02 a      1082     0    73     1     2
 -1.6054113687961863E-01 a      1083     0    73     1     3
  2.3431644781086801E-02 a      1084     0    73     1     4
 -2.4621169148601904E-01 a      1085     0    73     1     5
  9.1806042303031174E-02 a      1086     0    73     1     6
  2.0045118073495319E-01 a      1087     0    73     1     7
 -1.1159153381882568E-01 a      1088     0    73     1     8
 -1.2222860068424721E-01 a      1089     0    73     1     9
 -1.4863013059548782E-01 a      1090     0    73     1    10
 -7.0579767709983227E-02 a      1091     0    73     1    11
  7.1052625873406577E-02 a      1092     0    73     1    12
 -1.3900891278047248E-01 a      1093     0    73     1    13
  1.1186401086420630E-01 a      1094     0    73     1    14
 -2.4852766190522384E-02 a      1095     0    73     1    15
  2.1810077097649695E-02 a      1096     0    74     1     1
 -3.2915396442999463E-02 a      1097     0    74     1     2
  2.4305465817928651E-01 a      1098     0    74     1     3
  1.8712481330135783E-01 a      1099     0    74     1     4
  2.5647026107688548E-01 a      1100     0    74     1     5
 -7.9884411866994395E-02 a      1101     0    74     1     6
 -2.1213525340293543E-01 a      1102     0    74     1     7
  8.9868736257607898E-02 a      1103     0    74     1     8
  1.1725237635026496E-01 a      1104     0    74     1     9
 -1.7556168925396652E-02 a      1105     0    74     1    10
 -1.8530579307863962E-01 a      1106     0    74     1    11
  1.5734350643841646E-01 a      1107     0    74     1    12
  1.3744672216175471E-01 a      1108     0    74     1    13
 -2.6584505672338954E-01 a      1109     0    74     1    14
  3.1817171283747209E-01 a      1110     0    74     1    15
  8.9616752850411777E-02 a      1111     0    75     1     1
 -1.5383924479777225E-01 a      1112     0    75     1     2
  2.4940410568697638E-01 a      1113     0    75     1     3
  1.4120438811309788E-01 a      1114     0    75     1     4
 -7.5202698197046627E-02 a      1115     0    75     1     5
  1.6390610389956925E-01 a      1116     0    75     1     6
 -2.1310031916112285E-01 a      1117     0    75     1     7
  2.4001380144505796E-01 a      1118     0    75     1     8
 -9.5420339980070004E-02 a      1119     0    75     1     9
 -2.1785291564507278E-01 a      1120     0    75     1    10
 -2.6731451975800874E-01 a      1121     0    75     1    11
 -6.4338271347083767E-02 a      1122     0    75     1    12
  2.6582591161465746E-02 a      1123     0    75     1    13
 -1.9793300016568599E-01 a      1124     0    75     1    14
 -4.7712146784170711E-02 a      1125     0    75     1    15
  1.2618729529677825E-01 a      1126     0    76     1     1
 -1.0255063049548893E-02 a      1127     0    76     1     2
 -8.1303856400413849E-02 a      1128     0    76     1     3
  1.4881462011812732E-01 a      1129     0    76     1     4
 -1.5082813580487198E-01 a      1130     0    76     1     5
 -3.7948576359914457E-02 a      1131     0    76     1     6
  1.9406303837747319E-02 a      1132     0    76     1     7
  1.6053144323808513E-02 a      1133     0    76     1     8
  3.5934704655496766E-02 a      1134     0    76     1     9
 -9.3897195540648709E-02 a      1135     0    76     1    10
 -8.6841982198997109E-02 a      1136     0    76     1    11
  1.6098602507549920E-01 a      1137     0    76     1    12
  1.8994046968791298E-02 a      1138     0    76     1    13
  2.1945303376785733E-01 a      1139     0    76     1    14
  1.0564072302357121E-01 a      1140     0    76     1    15
  8.9446503782464215E-02 a      1141     0    77     1     1
 -1.1376235218274525E-01 a      1142     0    77     1     2
  4.1967937364731346E-02 a      1143     0    77     1     3
 -1.8919436714159396E-01 a      1144     0    77     1     4
 -1.3933165884117150E-02 a      1145     0    77     1     5
  4.3792111321733107E-02 a      1146     0    77     1     6
 -1.1755332493927854E-01 a      1147     0    77     1     7
  2.3038075430397781E-01 a      1148     0    77     1     8
 -2.9766121321750626E-02 a      1149     0    77     1     9
  3.5502791152948035E-02 a      1150     0    77     1    10
  2.6671328387943161E-01 a      1151     0    77     1    11
 -2.1263638551708181E-01 a      1152     0    77     1    12
 -1.3544020647332065E-02 a      1153     0    77     1    13
  7.9226701031568092E-02 a      1154     0    77     1    14
  1.0735254281730759E-03 a      1155     0    77     1    15
  1.6117093644231256E-01 a      1156     0    78     1     1
 -2.8274787196684702E-03 a      1157     0    78     1     2
  7.9651629607101523E-02 a      1158     0    78     1     3
 -2.6725432050116577E-01 a      1159     0    78     1     4
  1.3169030250410185E-01 a      1160     0    78     1     5
 -1.9338717985485793E-01 a      1161     0    78     1     6
  7.3164133902414635E-02 a      1162     0    78     1     7
 -5.6923950481118993E-02 a      1163     0    78     1     8
  4.5818929911018276E-02 a      1164     0    78     1     9
  1.7363080884528767E-01 a      1165     0    78     1    10
 -7.3155063454092631E-02 a      1166     0    78     1    11
  1.4938026610725574E-01 a      1167     0    78     1    12
  2.9682156470425654E-02 a      1168     0    78     1    13
  1.8589233467910871E-01 a      1169     0    78     1    14
 -1.4764838907832042E-01 a      1170     0    78     1    15
 -1.3757943259443535E+00 b      1171     1     1
 -3.6478242676506914E-02 b      1172     1     2
  4.9698693786227122E-01 b      1173     1     3
 -1.0717082723036189E+00 b      1174     1     4
  2.3319760168269071E-02 b      1175     1     5
  1.6495432859402359E-01 b      1176     1     6
  3.4717072449615201E-02 b      1177     1     7
  2.8134255572061095E-01 b      1178     1     8
  7.1251269045290644E-01 b      1179     1     9
 -3.3896502005970658E-01 b      1180     1    10
 -7.7672637484576645E-01 b      1181     1    11
  1.7282041994751138E-01 b      1182     1    12
 -1.7706193654788027E-01 b      1183     1    13
 -1.1193965580466210E+00 b      1184     1    14
 -1.2697393566861441E+00 b      1185     1    15
 -4.7292731120628262E-01 a      1186     1     1     2     1
 -3.5454314035362611E-01 a      1187     1     1     2     2
 -2.1122330112950730E-01 a      1188     1     1     2     3
 -5.2537375454404112E-01 a      1189     1     1     2     4
  2.6084745006332732E-01 a      1190     1     1     2     5
  1.2070263770918732E-01 a      1191     1     1     2     6
 -6.2014782560905346E-01 a      1192     1     1     2     7
  4.2893835016527426E-01 a      1193     1     1     2     8
 -6.6605947580385971E-01 a      1194     1     1     2     9
 -3.1088177941831635E-01 a      1195     1     1     2    10
  3.8939452760228638E-01 a      1196     1     1     2    11
  3.0175977585827171E-02 a      1197     1     1     2    12
  5.8827359549876412E-01 a      1198     1     1     2    13
 -4.3122197985168242E-01 a      1199     1     1     2    14
 -2.3006853799622143E-01 a      1200     1     1     2    15
 -8.8905149293779365E-02 a      1201     1     2     2     1
  6.4192027837691634E-01 a      1202     1     2     2     2
  2.0093221165449071E-01 a      1203     1     2     2     3
 -1.2993888797864119E-02 a      1204     1     2     2     4
 -4.1837294546654358E-01 a      1205     1     2     2     5
  2.0658006934258163E-01 a      1206     1     2     2     6
 -3.8444224605714594E-01 a      1207     1     2     2     7
 -2.5097692029786217E-01 a      1208     1     2     2     8
  2.1449348574322999E-01 a      1209     1     2     2     9
 -1.2045997653870566E-01 a      1210     1     2     2    10
  3.3101991285490906E-01 a      1211     1     2     2    11
  4.2197679297909818E-01 a      1212     1     2     2    12
  6.2861489620871724E-01 a      1213     1     2     2    13
  4.5133050268511904E-01 a      1214     1     2     2    14
  1.2386488145455897E-01 a      1215     1     2     2    15
 -2.8167764771510900E-01 a      1216     1     3     2     1
  6.2411032129945654E-01 a      1217     1     3     2     2
 -2.8124038252830791E-01 a      1218     1     3     2     3
 -4.4578134411982956E-01 a      1219     1     3     2     4
 -5.8709397908299454E-01 a      1220     1     3     2     5
 -3.4207155821470953E-01 a      1221     1     3     2     6
 -1.3216078120551616E-01 a      1222     1     3     2     7
 -7.6107751544575053E-01 a      1223     1     3     2     8
  2.4725380790537735E-01 a      1224     1     3     2     9
 -7.0261802767406600E-01 a      1225     1     3     2    10
 -6.1868826412916011E-01 a      1226     1     3     2    11
  5.8824338004967003E-01 a      1227     1     3     2    12
  4.7015073605226226E-01 a      1228     1     3     2    13
 -4.5112237642243769E-01 a      1229     1     3     2    14
 -6.7470109603820805E-01 a      1230     1     3     2    15
  6.7757904490040133E-01 a      1231     1     4     2     1
 -1.4700384749785980E-01 a      1232     1     4     2     2
 -4.6718083537384569E-01 a      1233     1     4     2     3
  1.8125738429493890E-01 a      1234     1     4     2     4
 -1.0171936317571184E-02 a      1235     1     4     2     5
  6.2399888816274762E-01 a      1236     1     4     2     6
 -2.6351466881910945E-01 a      1237     1     4     2     7
  6.1395974081549154E-01 a      1238     1     4     2     8
 -5.0454981339356619E-01 a      1239     1     4     2     9
 -4.9645714467523688E-01 a      1240     1     4     2    10
  4.2123295524235954E-01 a      1241     1     4     2    11
 -6.5877571048897188E-01 a      1242     1     4     2    12
  6.4341503423289614E-01 a      1243     1     4     2    13
  3.0349103658865513E-02 a      1244     1     4     2    14
 -1.0944215382032181E-01 a      1245     1     4     2    15
 -4.8224751879473803E-02 a      1246     1     5     2     1
  5.4408597548543580E-01 a      1247     1     5     2     2
 -5.9539555200924332E-01 a      1248     1     5     2     3
 -7.5069593823067149E-01 a      1249     1     5     2     4
 -1.9405226371744091E-01 a      1250     1     5     2     5
  4.5631987072494845E-01 a      1251     1     5     2     6
 -6.9360075979156899E-01 a      1252     1     5     2     7
  3.4923999993589250E-01 a      1253     1     5     2     8
 -3.5118955047517120E-01 a      1254     1     5     2     9
 -5.1904064076177669E-01 a      1255     1     5     2    10
 -1.6406252489744150E-01 a      1256     1     5     2    11
 -1.3693281052989423E-01 a      1257     1     5     2    12
 -6.4435526943748700E-01 a      1258     1     5     2    13
  5.4946886186732147E-01 a      1259     1     5     2    14
  5.0275157708895901E-01 a      1260     1     5     2    15
  2.6579870245072479E-03 a      1261     1     6     2     1
  1.8812846981252979E-01 a      1262     1     6     2     2
 -8.4245280343318918E-01 a      1263     1     6     2     3
  4.0641769393765986E-01 a      1264     1     6     2     4
  2.5950483551444775E-01 a      1265     1     6     2     5
  6.6941060105855554E-01 a      1266     1     6     2     6
 -4.7754040129378222E-01 a      1267     1     6     2     7
  4.3703659666581657E-01 a      1268     1     6     2     8
  5.6383895579281662E-01 a      1269     1     6     2     9
  3.2407838444632436E-01 a      1270     1     6     2    10
  3.1737975145260161E-01 a      1271     1     6     2    11
 -2.8616819519479980E-01 a      1272     1     6     2    12
  8.0410679797859874E-03 a      1273     1     6     2    13
  3.4704837919185105E-01 a      1274     1     6     2    14
 -2.2273331419072750E-01 a      1275     1     6     2    15
  8.4670098464408039E-03 a      1276     1     7     2     1
  3.3289237800940069E-01 a      1277     1     7     2     2
  1.9325610944828303E-01 a      1278     1     7     2     3
 -5.7767743737826072E-01 a      1279     1     7     2     4
  6.9173065116258459E-01 a      1280     1     7     2     5
  4.1265079687057599E-01 a      1281     1     7     2     6
 -2.8793376998886355E-01 a      1282     1     7     2     7
  3.6888197011645607E-01 a      1283     1     7     2     8
  5.4821650318493309E-01 a      1284     1     7     2     9
  2.1916513334749951E-01 a      1285     1     7     2    10
  5.1002283111406155E-01 a      1286     1     7     2    11
 -1.9975552532146823E-01 a      1287     1     7     2    12
  5.5420086600854501E-01 a      1288     1     7     2    13
 -5.9919767457307005E-01 a      1289     1     7     2    14
  6.9893521458788899E-01 a      1290     1     7     2    15
  3.1783898196202420E-01 a      1291     1     8     2     1
  3.9547143058486550E-01 a      1292     1     8     2     2
  6.0786451477155912E-01 a      1293     1     8     2     3
 -2.9240913265426960E-01 a      1294     1     8     2     4
  4.1786241053419543E-01 a      1295     1     8     2     5
  1.8046721541273131E-01 a      1296     1     8     2     6
 -5.9521603991648367E-02 a      1297     1     8     2     7
 -3.6631800372182050E-01 a      1298     1     8     2     8
  3.1412176828107430E-01 a      1299     1     8     2     9
  4.3057724019783701E-02 a      1300     1     8     2    10
  2.2981030947116438E-01 a      1301     1     8     2    11
 -6.1356957841655746E-01 a      1302     1     8     2    12
  4.1785619102883353E-01 a      1303     1     8     2    13
  5.6766002738246402E-01 a      1304     1     8     2    14
  5.1577121123412994E-01 a      1305     1     8     2    15
  5.7308101396110189E-01 a      1306     1     9     2     1
  2.9055007369418605E-03 a      1307     1     9     2     2
 -3.1397457681995111E-01 a      1308     1     9     2     3
 -2.9714552283279555E-01 a      1309     1     9     2     4
 -7.8821768931043634E-01 a      1310     1     9     2     5
 -5.7132895838055731E-01 a      1311     1     9     2     6
 -3.4698921677770855E-01 a      1312     1     9     2     7
  1.7744019841781236E-01 a      1313     1     9     2     8
 -1.2176788989897804E-02 a      1314     1     9     2     9
 -5.5090238823833537E-01 a      1315     1     9     2    10
  3.4152239530131989E-01 a      1316     1     9     2    11
  4.1230429934738372E-01 a      1317     1     9     2    12
 -1.0894045175550425E-01 a      1318     1     9     2    13
  3.5008409483748573E-02 a      1319     1     9     2    14
  1.4927715495778660E-01 a      1320     1     9     2    15
  7.2470190152893887E-01 a      1321     1    10     2     1
  6.1598017923304504E-01 a      1322     1    10     2     2
  1.2895263684441741E-01 a      1323     1    10     2     3
 -1.9376646244594020E-01 a      1324     1    10     2     4
  5.4827612319127017E-01 a      1325     1    10     2     5
 -2.7963211977305946E-01 a      1326     1    10     2     6
 -1.6252121544586762E-01 a      1327     1    10     2     7
  4.4392659881083915E-02 a      1328     1    10     2     8
  6.2988417481361703E-01 a      1329     1    10     2     9
 -5.8802120802675251E-01 a      1330     1    10     2    10
 -1.9086242028486344E-01 a      1331     1    10     2    11
  3.5321687476954611E-01 a      1332     1    10     2    12
 -3.6016797410144347E-01 a      1333     1    10     2    13
 -5.6742195542053020E-01 a      1334     1    10     2    14
 -1.4054362604376572E-01 a      1335     1    10     2    15
 -7.1143824175694625E-01 a      1336     1    11     2     1
 -2.2633468640476176E-01 a      1337     1    11     2     2
  5.7494998301827449E-01 a      1338     1    11     2     3
 -1.9020673370231014E-01 a      1339     1    11     2     4
  2.0982310891322592E-01 a      1340     1    11     2     5
  4.1826338780963046E-01 a      1341     1    11     2     6
 -3.4188665818381531E-01 a      1342     1    11     2     7
  1.9403520634216490E-01 a      1343     1    11     2     8
 -3.0977884937582145E-01 a      1344     1    11     2     9
  3.8672828426809053E-01 a      1345     1    11     2    10
 -1.7108295459040862E-01 a      1346     1    11     2    11
 -6.6793636497870856E-01 a      1347     1    11     2    12
 -4.8477246625259024E-01 a      1348     1    11     2    13
  1.1070039402342971E-01 a      1349     1    11     2    14
  3.3386346788105176E-01 a      1350     1    11     2    15
  1.6711605946489069E-01 a      1351     1    12     2     1
 -3.8222892942172626E-01 a      1352     1    12     2     2
 -7.4810566994412908E-02 a      1353     1    12     2     3
  4.7524142385264134E-01 a      1354     1    12     2     4
 -1.2539680523761396E-01 a      1355     1    12     2     5
  6.8774950313032179E-01 a      1356     1    12     2     6
  6.2598122809562540E-01 a      1357     1    12     2     7
 -3.3522753077729317E-01 a      1358     1    12     2     8
  4.3514986267795919E-01 a      1359     1    12     2     9
  5.2223707053309898E-01 a      1360     1    12     2    10
  3.0187303885720146E-01 a      1361     1    12     2    11
  4.5933330465992267E-01 a      1362     1    12     2    12
 -2.2107917654294423E-01 a      1363     1    12     2    13
  6.7957302638547934E-01 a      1364     1    12     2    14
  5.0594824180996201E-01 a      1365     1    12     2    15
 -2.4755819565754587E-02 a      1366     1    13     2     1
 -5.3505358123535440E-01 a      1367     1    13     2     2
  1.9425974586946965E-02 a      1368     1    13     2     3
  4.9978615985584357E-01 a      1369     1    13     2     4
 -1.1441479417566428E-01 a      1370     1    13     2     5
 -1.0204585722076231E-01 a      1371     1    13     2     6
 -4.9727961017440141E-03 a      1372     1    13     2     7
  6.7321779598381648E-01 a      1373     1    13     2     8
  5.2568501680803448E-01 a      1374     1    13     2     9
 -6.0562626314162182E-01 a      1375     1    13     2    10
 -5.2574377734404287E-01 a      1376     1    13     2    11
 -1.7825623172423732E-01 a      1377     1    13     2    12
  3.5655500852138161E-01 a      1378     1    13     2    13
 -4.2621930026225502E-01 a      1379     1    13     2    14
 -5.3490371636093470E-01 a      1380     1    13     2    15
 -3.6402402727516048E-01 a      1381     1    14     2     1
  4.0136964758683030E-01 a      1382     1    14     2     2
 -7.7104880967125522E-01 a      1383     1    14     2     3
 -1.7203076856214447E-01 a      1384     1    14     2     4
  6.7595954493304966E-01 a      1385     1    14     2     5
 -6.2369717986883400E-01 a      1386     1    14     2     6
  2.6668831820486255E-01 a      1387     1    14     2     7
 -1.2551257067662497E-01 a      1388     1    14     2     8
 -1.4569556428947872E-01 a      1389     1    14     2     9
 -1.0729072280248436E-01 a      1390     1    14     2    10
 -5.4798995779607595E-01 a      1391     1    14     2    11
 -1.8157430687509452E-01 a      1392     1    14     2    12
 -1.1955635537263065E-01 a      1393     1    14     2    13
  3.0853460117377068E-01 a      1394     1    14     2    14
 -3.5239326996331227E-01 a      1395     1    14     2    15
  6.0686186228974537E-01 a      1396     1    15     2     1
  3.3133564777029617E-01 a      1397     1    15     2     2
 -2.5973023646806731E-01 a      1398     1    15     2     3
  5.8309290863091323E-01 a      1399     1    15     2     4
 -9.4212505184752868E-02 a      1400     1    15     2     5
  1.9718611106988598E-01 a      1401     1    15     2     6
 -7.2851571985093599E-01 a      1402     1    15     2     7
  6.9942111495171733E-01 a      1403     1    15     2     8
  2.1826320892324338E-01 a      1404     1    15     2     9
 -1.4812870229134445E-01 a      1405     1    15     2    10
 -6.4686717466736730E-03 a      1406     1    15     2    11
 -5.7794518967990627E-01 a      1407     1    15     2    12
 -4.1154043636833626E-01 a      1408     1    15     2    13
  2.9819283109788891E-01 a      1409     1    15     2    14
 -6.7248373049624133E-01 a      1410     1    15     2    15
  1.4923903786297423E+00 b      1411     2     1
  1.2599917517865449E+00 b      1412     2     2
  1.4462657540407420E+00 b      1413     2     3
 -5.9260998654249908E-01 b      1414     2     4
  1.1757265940527777E+00 b      1415     2     5
 -6.0454754242191233E-01 b      1416     2     6
  5.7040611525707019E-01 b      1417     2     7
  3.8679283530514591E-01 b      1418     2     8
 -1.5648749361550498E+00 b      1419     2     9
 -6.8306965817126197E-01 b      1420     2    10
 -4.6308353344168185E-01 b      1421     2    11
  9.7200645960323984E-01 b      1422     2    12
  1.5518626578216528E+00 b      1423     2    13
 -5.9048317062518585E-01 b      1424     2    14
 -1.6463115609136638E+00 b      1425     2    15
  1.7011092888013760E-01 a      1426     2     1     3     1
  5.0974335428526873E-01 a      1427     2     2     3     1
  7.4230711360230406E-01 a      1428     2     3     3     1
  6.2999450184397365E-01 a      1429     2     4     3     1
 -2.1799316787313705E-01 a      1430     2     5     3     1
  1.1572481771639394E-01 a      1431     2     6     3     1
 -3.7040554066343490E-01 a      1432     2     7     3     1
  2.8636955196975256E-01 a      1433     2     8     3     1
  2.6403957002705386E-01 a      1434     2     9     3     1
  3.9401615421343333E-01 a      1435     2    10     3     1
 -7.5645123151672267E-01 a      1436     2    11     3     1
 -6.3101796304119828E-01 a      1437     2    12     3     1
  5.4761268718178539E-02 a      1438     2    13     3     1
 -1.0318261323078740E-01 a      1439     2    14     3     1
  3.3196147107064566E-01 a      1440     2    15     3     1
  2.3723488562177145E-01 b      1441     3     1
