################################################################################
# Neural network connection values (weights and biases).
################################################################################
# Col  Name       Description
################################################################################
# 1    connection Neural network connection value.
# 2    t          Connection type (a = weight, b = bias).
# 3    index      Index enumerating weights.
# 4    l_s        Starting point layer (end point layer for biases).
# 5    n_s        Starting point neuron in starting layer (end point neuron for biases).
# 6    l_e        End point layer.
# 7    n_e        End point neuron in end layer.
################################################################################
#                      1 2         3     4     5     6     7
#             connection t     index   l_s   n_s   l_e   n_e
############################################################
  9.2650662940496775E-01 a         1     0     1     1     1
 -2.6991270899030913E-02 a         2     0     1     1     2
  2.6217480772755799E+00 a         3     0     1     1     3
 -8.2603146356273782E-01 a         4     0     1     1     4
  5.4035362208356374E-01 a         5     0     1     1     5
 -1.0502257164229063E+00 a         6     0     1     1     6
  7.7432072449915457E-01 a         7     0     1     1     7
 -1.7477200725047641E+00 a         8     0     1     1     8
  1.8976620995854213E-01 a         9     0     1     1     9
 -1.2985674115932855E+00 a        10     0     1     1    10
  4.9593855639105422E-01 a        11     0     1     1    11
 -3.2099654813695777E-01 a        12     0     1     1    12
  1.5158078710392831E-01 a        13     0     1     1    13
 -2.9632054517764574E+00 a        14     0     1     1    14
 -2.2770584711962000E-01 a        15     0     1     1    15
  7.6109555162612996E-01 a        16     0     2     1     1
  6.3048646787345661E-02 a        17     0     2     1     2
  4.7137850285159960E-01 a        18     0     2     1     3
 -5.1408247855455634E-02 a        19     0     2     1     4
  2.0898188634341987E-02 a        20     0     2     1     5
  4.3987133340418444E-01 a        21     0     2     1     6
  1.3796003324186235E+00 a        22     0     2     1     7
 -6.1168410503140525E-01 a        23     0     2     1     8
  3.8365772905875217E-01 a        24     0     2     1     9
 -1.3848372904556082E-02 a        25     0     2     1    10
  1.7937648537458539E-01 a        26     0     2     1    11
  3.0026922506574034E-02 a        27     0     2     1    12
  3.6285373945351002E-01 a        28     0     2     1    13
 -5.0385620981092161E-01 a        29     0     2     1    14
  7.2897599881286634E-02 a        30     0     2     1    15
  1.0421222827489607E+00 a        31     0     3     1     1
  4.8065537358521759E-03 a        32     0     3     1     2
  3.2064746565102287E-01 a        33     0     3     1     3
 -4.0093880086051686E-01 a        34     0     3     1     4
 -7.4999663060320035E-02 a        35     0     3     1     5
 -5.2205766022181757E-02 a        36     0     3     1     6
 -2.5092191407293567E-02 a        37     0     3     1     7
 -1.3707429279026684E-01 a        38     0     3     1     8
  1.8883439187769474E-01 a        39     0     3     1     9
 -2.0833495509921937E-01 a        40     0     3     1    10
  5.5377340410672860E-01 a        41     0     3     1    11
 -2.9273912331885432E-01 a        42     0     3     1    12
 -3.4647107453206116E-01 a        43     0     3     1    13
 -4.2582193050120215E-01 a        44     0     3     1    14
 -6.5788116576621494E-02 a        45     0     3     1    15
  7.4960207423747627E-01 a        46     0     4     1     1
  6.0808767193338900E-02 a        47     0     4     1     2
 -1.4979219147225296E+00 a        48     0     4     1     3
  8.5503356791149465E-01 a        49     0     4     1     4
 -8.8184133765981565E-01 a        50     0     4     1     5
  6.6375941492160906E-01 a        51     0     4     1     6
  7.5072712425881774E-02 a        52     0     4     1     7
  7.2539586187440985E-01 a        53     0     4     1     8
  1.3653932957006684E-01 a        54     0     4     1     9
  1.1336155676846140E+00 a        55     0     4     1    10
  3.3191779551980399E-01 a        56     0     4     1    11
  2.4347776436352492E-01 a        57     0     4     1    12
 -1.6105658191916400E-01 a        58     0     4     1    13
  1.2716874693549842E+00 a        59     0     4     1    14
 -2.3046951236540394E-02 a        60     0     4     1    15
  9.8669554549332281E-02 a        61     0     5     1     1
  4.6838255410540292E-01 a        62     0     5     1     2
 -7.3867108255270064E-01 a        63     0     5     1     3
  1.4306381913116741E+00 a        64     0     5     1     4
  6.3849515511256327E-01 a        65     0     5     1     5
 -1.1490751999203248E+00 a        66     0     5     1     6
 -2.1557935537718982E+00 a        67     0     5     1     7
  9.8684154494275633E-01 a        68     0     5     1     8
 -5.4285213393374465E-01 a        69     0     5     1     9
 -3.5975631947272801E-01 a        70     0     5     1    10
  1.7609475502398841E-01 a        71     0     5     1    11
  2.8343383557886342E-01 a        72     0     5     1    12
  1.0160485774661685E+00 a        73     0     5     1    13
  1.8535967713206916E+00 a        74     0     5     1    14
  1.2915871779065635E+00 a        75     0     5     1    15
  2.1269742378907608E-01 a        76     0     6     1     1
  1.1267131343176609E-01 a        77     0     6     1     2
 -3.0550381870028009E-01 a        78     0     6     1     3
  7.1426098064689481E-01 a        79     0     6     1     4
 -4.5919375716886940E-01 a        80     0     6     1     5
  7.0594823200372325E-01 a        81     0     6     1     6
 -6.9221124070916218E-01 a        82     0     6     1     7
 -4.5437336189327626E-01 a        83     0     6     1     8
 -4.5827181594973954E-01 a        84     0     6     1     9
 -2.5572890369359524E-01 a        85     0     6     1    10
 -4.8231496189568351E-01 a        86     0     6     1    11
  5.5177424317034207E-01 a        87     0     6     1    12
 -5.0439119707732838E-01 a        88     0     6     1    13
  9.3350481938299745E-01 a        89     0     6     1    14
 -1.8717495978713045E-01 a        90     0     6     1    15
  1.6544285308919032E-01 a        91     0     7     1     1
 -4.3347409544737914E-01 a        92     0     7     1     2
 -3.1967814532748641E-02 a        93     0     7     1     3
 -1.0674506788239209E+00 a        94     0     7     1     4
  3.8654761928526110E-01 a        95     0     7     1     5
  9.4641511790837896E-01 a        96     0     7     1     6
  9.1884372506070167E-01 a        97     0     7     1     7
 -4.5030418706533631E-01 a        98     0     7     1     8
  5.6531961140658926E-01 a        99     0     7     1     9
  4.0167839820363961E-02 a       100     0     7     1    10
 -7.8897677460470783E-01 a       101     0     7     1    11
 -6.8569944440762143E-02 a       102     0     7     1    12
  3.3998857669390986E-01 a       103     0     7     1    13
 -1.7791705981585948E+00 a       104     0     7     1    14
 -7.1633333013358960E-02 a       105     0     7     1    15
 -7.2083645798710838E-01 a       106     0     8     1     1
  1.5871809979939694E-01 a       107     0     8     1     2
 -7.1538655059137823E-01 a       108     0     8     1     3
  1.4266408231505718E+00 a       109     0     8     1     4
 -1.3910928695935578E+00 a       110     0     8     1     5
  5.0809734852067363E-02 a       111     0     8     1     6
  1.7997370378646380E-01 a       112     0     8     1     7
 -7.4559843127967431E-03 a       113     0     8     1     8
  3.7327328467008070E-01 a       114     0     8     1     9
  1.2278069401509943E+00 a       115     0     8     1    10
  5.8459567869126439E-01 a       116     0     8     1    11
  1.1919810946002061E+00 a       117     0     8     1    12
  1.1042987027222018E-01 a       118     0     8     1    13
  2.1522567559319867E+00 a       119     0     8     1    14
 -6.8591074575352254E-02 a       120     0     8     1    15
  2.4048387890235451E-01 a       121     0     9     1     1
 -7.3383116009813606E-02 a       122     0     9     1     2
  6.0725218110228567E-02 a       123     0     9     1     3
 -1.8382072953736253E-01 a       124     0     9     1     4
  2.5335681778915053E-02 a       125     0     9     1     5
  4.3312647270596460E-01 a       126     0     9     1     6
  2.5295593160576432E-02 a       127     0     9     1     7
  9.6047834567022469E-02 a       128     0     9     1     8
 -1.9894889994645440E-01 a       129     0     9     1     9
  2.4023325524671862E-01 a       130     0     9     1    10
 -1.9649035083879420E-03 a       131     0     9     1    11
  7.4499018406010431E-01 a       132     0     9     1    12
 -1.4994233824634806E-02 a       133     0     9     1    13
  4.5037180457729026E-01 a       134     0     9     1    14
  3.2967040304922507E-02 a       135     0     9     1    15
  4.7465676470853382E-02 a       136     0    10     1     1
 -2.1177960602320048E-01 a       137     0    10     1     2
  1.3919519516184029E+00 a       138     0    10     1     3
  2.1895242061372833E-01 a       139     0    10     1     4
 -1.4160817618519055E-02 a       140     0    10     1     5
 -7.7498410053905098E-01 a       141     0    10     1     6
  8.3682245638595498E-01 a       142     0    10     1     7
 -4.1526642441169193E-01 a       143     0    10     1     8
 -7.7931719929612406E-04 a       144     0    10     1     9
  5.1969195089040843E-01 a       145     0    10     1    10
 -4.8345069407716096E-01 a       146     0    10     1    11
  7.5833558975697574E-02 a       147     0    10     1    12
  2.1088697711529835E-02 a       148     0    10     1    13
 -3.6592143952967876E-01 a       149     0    10     1    14
  1.8063754668546792E-02 a       150     0    10     1    15
 -6.8260254913335328E-01 a       151     0    11     1     1
  2.9039171884252230E-01 a       152     0    11     1     2
 -3.2666852209238062E-01 a       153     0    11     1     3
 -3.9957867997772761E-01 a       154     0    11     1     4
  2.4196142424969058E-01 a       155     0    11     1     5
 -1.3143548023037532E-01 a       156     0    11     1     6
  6.1520913470090122E-01 a       157     0    11     1     7
 -3.7204501818083485E-01 a       158     0    11     1     8
  1.0809591506934653E+00 a       159     0    11     1     9
  2.8696472805107753E-01 a       160     0    11     1    10
 -1.0807360549412467E-01 a       161     0    11     1    11
 -1.0751614035602188E+00 a       162     0    11     1    12
 -5.0045744278330428E-01 a       163     0    11     1    13
  5.7657217402990624E-01 a       164     0    11     1    14
 -1.4803273692986141E+00 a       165     0    11     1    15
 -1.6045909758942434E-01 a       166     0    12     1     1
  5.3824803546066236E-01 a       167     0    12     1     2
  1.2289648349377729E+00 a       168     0    12     1     3
 -2.5315730347233234E-01 a       169     0    12     1     4
  3.8146998230276369E-01 a       170     0    12     1     5
 -4.4488468368022061E-01 a       171     0    12     1     6
  8.6160349140968664E-02 a       172     0    12     1     7
 -9.4041187835515083E-01 a       173     0    12     1     8
 -1.1271317315371032E-01 a       174     0    12     1     9
 -5.1160082627527326E-01 a       175     0    12     1    10
 -5.0357094271460356E-01 a       176     0    12     1    11
  1.3232273853580001E-01 a       177     0    12     1    12
  3.0328934094701127E-01 a       178     0    12     1    13
 -8.5747452688372838E-01 a       179     0    12     1    14
 -1.6248504305327544E-01 a       180     0    12     1    15
  7.3178301553733138E-01 a       181     0    13     1     1
 -2.7452011794292680E-01 a       182     0    13     1     2
  1.2142204601015061E-01 a       183     0    13     1     3
 -3.4153519340053529E-01 a       184     0    13     1     4
  1.4224222410192638E-01 a       185     0    13     1     5
  6.2075757927770370E-02 a       186     0    13     1     6
  3.3369165849546611E-01 a       187     0    13     1     7
 -1.7886251162875219E-01 a       188     0    13     1     8
 -2.4444369875932551E-01 a       189     0    13     1     9
  9.0002443666221663E-02 a       190     0    13     1    10
 -4.1125907991708077E-01 a       191     0    13     1    11
 -5.3326859107148003E-02 a       192     0    13     1    12
 -2.1083872061186640E-01 a       193     0    13     1    13
  6.9288556973641435E-01 a       194     0    13     1    14
 -2.0565637599644052E-01 a       195     0    13     1    15
 -2.1444393058005159E-01 a       196     0    14     1     1
 -9.1568158674345701E-02 a       197     0    14     1     2
  9.2107275537603700E-02 a       198     0    14     1     3
 -2.4279686618284146E-01 a       199     0    14     1     4
  9.7769890155062278E-01 a       200     0    14     1     5
 -4.5832999920154849E-01 a       201     0    14     1     6
 -7.4387484317318742E-01 a       202     0    14     1     7
 -3.4646911880211623E-01 a       203     0    14     1     8
 -1.2437707921931216E+00 a       204     0    14     1     9
  2.6395106159410808E-01 a       205     0    14     1    10
  5.0585697031653676E-01 a       206     0    14     1    11
  2.6985848338020280E-01 a       207     0    14     1    12
  4.0742099699399920E-01 a       208     0    14     1    13
  5.9089009598462228E-01 a       209     0    14     1    14
 -7.8185725976991294E-01 a       210     0    14     1    15
  4.8659390340078390E-01 a       211     0    15     1     1
  6.9121653944709009E-03 a       212     0    15     1     2
  2.0887625548559937E-02 a       213     0    15     1     3
 -3.3208893216784080E-01 a       214     0    15     1     4
  6.0969280193066866E-01 a       215     0    15     1     5
 -5.9228129673707530E-01 a       216     0    15     1     6
 -1.9689693303681835E-01 a       217     0    15     1     7
  7.7281704824799458E-02 a       218     0    15     1     8
 -2.8230152929567259E-01 a       219     0    15     1     9
 -2.0820965430019198E-01 a       220     0    15     1    10
  1.2601920772991680E-02 a       221     0    15     1    11
 -5.0379840720536551E-01 a       222     0    15     1    12
 -7.3482484191547917E-02 a       223     0    15     1    13
 -4.9565468359697828E-01 a       224     0    15     1    14
  7.5644226850612117E-02 a       225     0    15     1    15
 -2.6124833481257498E-01 a       226     0    16     1     1
  1.3555805599687723E-01 a       227     0    16     1     2
 -3.0948944039939097E-01 a       228     0    16     1     3
  1.3300587113719736E-01 a       229     0    16     1     4
  4.1923161780494256E-01 a       230     0    16     1     5
  2.2866032184700982E-01 a       231     0    16     1     6
  6.6372198959784176E-02 a       232     0    16     1     7
  7.6802840520787480E-02 a       233     0    16     1     8
 -1.1767006650154294E-01 a       234     0    16     1     9
  2.4835574515029388E-01 a       235     0    16     1    10
 -4.8369672377318268E-01 a       236     0    16     1    11
  3.9794873731327257E-02 a       237     0    16     1    12
 -6.4319290844842655E-02 a       238     0    16     1    13
  4.5552154943816425E-01 a       239     0    16     1    14
 -2.2058551549186459E-01 a       240     0    16     1    15
 -3.3814413717887909E-01 a       241     0    17     1     1
  8.4530679589078594E-01 a       242     0    17     1     2
 -7.2310743064344474E-01 a       243     0    17     1     3
  1.9667475011559912E-01 a       244     0    17     1     4
  4.5362982468819302E-01 a       245     0    17     1     5
 -3.4808581238536257E-01 a       246     0    17     1     6
 -3.9753303952873037E-01 a       247     0    17     1     7
 -7.7521907961574557E-02 a       248     0    17     1     8
 -4.0845656134550490E-02 a       249     0    17     1     9
 -6.9946271013865122E-02 a       250     0    17     1    10
  7.1996544521635453E-01 a       251     0    17     1    11
  7.3683908774791229E-01 a       252     0    17     1    12
  1.9974759301374834E-01 a       253     0    17     1    13
  7.2251136930315674E-01 a       254     0    17     1    14
 -3.2473470797137860E-01 a       255     0    17     1    15
  7.0853016535714297E-01 a       256     0    18     1     1
 -5.1511021882747843E-01 a       257     0    18     1     2
 -7.4045543369277000E-01 a       258     0    18     1     3
  5.2265422067703855E-02 a       259     0    18     1     4
  1.2799567771662088E-01 a       260     0    18     1     5
  1.7954771133137171E-01 a       261     0    18     1     6
 -3.7138294900114871E-01 a       262     0    18     1     7
  8.6719347160278359E-01 a       263     0    18     1     8
 -4.3311968398957484E-01 a       264     0    18     1     9
  8.2341209312890989E-02 a       265     0    18     1    10
  1.2477356302537576E-01 a       266     0    18     1    11
 -2.4053183302941641E-01 a       267     0    18     1    12
 -3.8770351083488325E-01 a       268     0    18     1    13
  1.7017493318906802E-02 a       269     0    18     1    14
 -3.3435758173219327E-01 a       270     0    18     1    15
 -1.3767642666899849E-01 a       271     0    19     1     1
 -2.3178592588835048E-02 a       272     0    19     1     2
 -1.2582894167615450E-02 a       273     0    19     1     3
  6.4704424891485271E-02 a       274     0    19     1     4
  3.0695337138163464E-01 a       275     0    19     1     5
  1.0524411922914678E-01 a       276     0    19     1     6
  9.7414091629162938E-02 a       277     0    19     1     7
  6.0244707044727147E-02 a       278     0    19     1     8
  4.1358838425282443E-02 a       279     0    19     1     9
 -1.0619998119378411E-01 a       280     0    19     1    10
  2.0783791688319484E-02 a       281     0    19     1    11
 -1.8501994528193366E-01 a       282     0    19     1    12
 -1.9177391080998712E-01 a       283     0    19     1    13
 -2.6220875676340922E-02 a       284     0    19     1    14
  2.8959899668852089E-02 a       285     0    19     1    15
  2.8197738690598179E-01 a       286     0    20     1     1
  5.4381744702919921E-01 a       287     0    20     1     2
 -4.8011825564354743E-01 a       288     0    20     1     3
  3.1904643730496840E-01 a       289     0    20     1     4
 -1.2719304045487467E-01 a       290     0    20     1     5
  3.8861684543476205E-01 a       291     0    20     1     6
 -2.9609042638942240E-01 a       292     0    20     1     7
  6.6077768382535429E-01 a       293     0    20     1     8
 -2.0676726046157118E-01 a       294     0    20     1     9
  1.6568313030234225E-01 a       295     0    20     1    10
  8.2998102250388894E-01 a       296     0    20     1    11
  1.1154129626855587E-01 a       297     0    20     1    12
  8.6007515229533626E-01 a       298     0    20     1    13
 -5.1995465648277295E-01 a       299     0    20     1    14
  2.3455418286720892E-02 a       300     0    20     1    15
 -6.7038633459697550E-01 a       301     0    21     1     1
  1.4083406690037359E-01 a       302     0    21     1     2
  3.5908682069380538E-01 a       303     0    21     1     3
 -3.9571724062201513E-01 a       304     0    21     1     4
  6.0526541119404109E-01 a       305     0    21     1     5
  6.0887516470272018E-01 a       306     0    21     1     6
 -1.1103490754588075E+00 a       307     0    21     1     7
 -4.8803923787556991E-01 a       308     0    21     1     8
  7.4350803637743001E-01 a       309     0    21     1     9
 -8.0119349945326124E-01 a       310     0    21     1    10
  1.6117139204337841E-01 a       311     0    21     1    11
  1.3979669759835389E+00 a       312     0    21     1    12
 -2.8792501404220910E-01 a       313     0    21     1    13
 -2.7730254299944126E-03 a       314     0    21     1    14
 -1.3011708774224001E-01 a       315     0    21     1    15
 -8.1134639869129976E-01 a       316     0    22     1     1
  3.3087505840042003E-01 a       317     0    22     1     2
  4.1915197248790276E-01 a       318     0    22     1     3
  1.9333925050724299E-01 a       319     0    22     1     4
 -8.1391264209514050E-02 a       320     0    22     1     5
 -3.7412896847858318E-01 a       321     0    22     1     6
  4.3735617011724109E-01 a       322     0    22     1     7
 -3.3426080805552011E-01 a       323     0    22     1     8
  1.6228189245202929E-01 a       324     0    22     1     9
 -1.5478514194621365E-01 a       325     0    22     1    10
  5.5530320441682390E-01 a       326     0    22     1    11
  4.9420335723138592E-01 a       327     0    22     1    12
  2.2509469887956421E-01 a       328     0    22     1    13
  2.8717387783524850E-01 a       329     0    22     1    14
  2.2388011771165484E-01 a       330     0    22     1    15
 -2.2963359902205854E-01 a       331     0    23     1     1
  3.8970586247288408E-03 a       332     0    23     1     2
 -7.2293022710457427E-02 a       333     0    23     1     3
 -1.7418479654098507E-01 a       334     0    23     1     4
  3.2057695890054194E-01 a       335     0    23     1     5
  4.5573980064173826E-02 a       336     0    23     1     6
 -1.5441566501810097E-02 a       337     0    23     1     7
 -8.8774776295044780E-02 a       338     0    23     1     8
 -1.2255900850292382E-01 a       339     0    23     1     9
  6.3072116688702761E-03 a       340     0    23     1    10
 -3.9614548665529076E-01 a       341     0    23     1    11
 -1.2132056667507889E-01 a       342     0    23     1    12
  1.0003275645782423E-02 a       343     0    23     1    13
  2.3830660209657187E-02 a       344     0    23     1    14
 -1.9118383042689341E-01 a       345     0    23     1    15
 -3.8909498234725198E-01 a       346     0    24     1     1
 -7.7593312646516477E-01 a       347     0    24     1     2
  3.6992513325866361E-01 a       348     0    24     1     3
 -4.4376622541812533E-01 a       349     0    24     1     4
 -3.8018377655961455E-01 a       350     0    24     1     5
 -6.4316790943224822E-01 a       351     0    24     1     6
  3.4299675538297131E-01 a       352     0    24     1     7
 -1.0689005146525088E-03 a       353     0    24     1     8
  8.9012574237092662E-02 a       354     0    24     1     9
 -3.8895114623351701E-01 a       355     0    24     1    10
 -1.1282708368460852E-01 a       356     0    24     1    11
 -2.3068792538673175E-01 a       357     0    24     1    12
 -2.8991622029804104E-01 a       358     0    24     1    13
 -4.8499950092383587E-02 a       359     0    24     1    14
  3.6236262451238649E-01 a       360     0    24     1    15
  2.9646022329478466E-01 a       361     0    25     1     1
  2.4087604933373569E-01 a       362     0    25     1     2
 -3.8843751306115709E-01 a       363     0    25     1     3
 -8.8042721229622825E-02 a       364     0    25     1     4
 -7.1789504117398606E-01 a       365     0    25     1     5
 -5.6987292517375010E-01 a       366     0    25     1     6
 -5.2981466488361065E-03 a       367     0    25     1     7
 -1.8695607422812216E-01 a       368     0    25     1     8
 -4.2176044648122368E-01 a       369     0    25     1     9
  1.2310249916920127E-01 a       370     0    25     1    10
  2.9547501930595022E-01 a       371     0    25     1    11
 -1.0873864199438346E+00 a       372     0    25     1    12
  3.5002228594825824E-01 a       373     0    25     1    13
 -2.9396460009503422E-01 a       374     0    25     1    14
  1.9558356239430383E-01 a       375     0    25     1    15
  3.8421794574149147E-02 a       376     0    26     1     1
 -1.3761089117041217E-01 a       377     0    26     1     2
 -1.9069019995554889E-01 a       378     0    26     1     3
 -2.3367281769554726E-02 a       379     0    26     1     4
 -1.1867920125703704E-01 a       380     0    26     1     5
  3.6451390398713163E-01 a       381     0    26     1     6
  6.1082200902548053E-02 a       382     0    26     1     7
 -7.7522422407668629E-02 a       383     0    26     1     8
  1.1176223505846482E-01 a       384     0    26     1     9
  1.9706838049639988E-01 a       385     0    26     1    10
 -4.5410225531504533E-01 a       386     0    26     1    11
 -1.7947664246587081E-01 a       387     0    26     1    12
  9.9965965971746271E-02 a       388     0    26     1    13
  1.4619909319628796E-01 a       389     0    26     1    14
  1.5987464962803596E-01 a       390     0    26     1    15
 -1.8135603911540968E-01 a       391     0    27     1     1
  2.5690177137258737E-02 a       392     0    27     1     2
 -1.9498461163586878E-01 a       393     0    27     1     3
  2.5865957580048393E-01 a       394     0    27     1     4
  2.7615466423473994E-01 a       395     0    27     1     5
  3.6811596900830013E-01 a       396     0    27     1     6
  4.9167784868941899E-01 a       397     0    27     1     7
 -2.5550021171587578E-01 a       398     0    27     1     8
  2.8868210040158615E-01 a       399     0    27     1     9
  1.5499909324271330E-01 a       400     0    27     1    10
 -2.1362799094716683E-01 a       401     0    27     1    11
  8.1427497360352943E-02 a       402     0    27     1    12
  3.0831435095231224E-01 a       403     0    27     1    13
  5.1921452253402312E-01 a       404     0    27     1    14
  2.7867013627400794E-01 a       405     0    27     1    15
  7.8283701863538613E-02 a       406     0    28     1     1
  4.5039801862629077E-02 a       407     0    28     1     2
  3.7005277585768948E-01 a       408     0    28     1     3
 -3.0814819400380292E-02 a       409     0    28     1     4
  3.9322094722871487E-02 a       410     0    28     1     5
 -1.4741261915039258E-01 a       411     0    28     1     6
  3.4009488350186620E-02 a       412     0    28     1     7
 -6.7182570932092622E-02 a       413     0    28     1     8
 -7.1825448423155261E-02 a       414     0    28     1     9
  2.4807370976782858E-01 a       415     0    28     1    10
 -3.8428933014179412E-01 a       416     0    28     1    11
  1.0227123750099046E-01 a       417     0    28     1    12
 -1.2127012420129983E-01 a       418     0    28     1    13
 -4.1479480245364658E-02 a       419     0    28     1    14
 -9.9138076645952186E-02 a       420     0    28     1    15
 -3.4747322083638826E-01 a       421     0    29     1     1
 -1.8976949439410687E-01 a       422     0    29     1     2
 -5.9018074713484539E-02 a       423     0    29     1     3
  1.8902753258519053E-01 a       424     0    29     1     4
 -6.7834503192007978E-01 a       425     0    29     1     5
 -4.4035267244511272E-01 a       426     0    29     1     6
  7.5076655182670604E-01 a       427     0    29     1     7
 -2.4218353479135350E-03 a       428     0    29     1     8
 -6.1329388636492543E-01 a       429     0    29     1     9
  6.0828307703707230E-01 a       430     0    29     1    10
 -1.0356026011178749E+00 a       431     0    29     1    11
  7.4487860701310152E-02 a       432     0    29     1    12
  2.2218537023525567E-01 a       433     0    29     1    13
  5.2158030260725530E-01 a       434     0    29     1    14
  6.5438441704631112E-01 a       435     0    29     1    15
 -6.3759125537547076E-02 a       436     0    30     1     1
 -3.4675610634629851E-02 a       437     0    30     1     2
  1.3124221069861072E-01 a       438     0    30     1     3
 -1.4871814530725011E-01 a       439     0    30     1     4
 -2.9680261684442644E-01 a       440     0    30     1     5
 -3.2962531549522961E-01 a       441     0    30     1     6
 -3.0383790162259761E-01 a       442     0    30     1     7
  7.0248927534932754E-02 a       443     0    30     1     8
 -8.8707845020382758E-02 a       444     0    30     1     9
 -1.0249874875733606E-01 a       445     0    30     1    10
  6.4874241795110102E-02 a       446     0    30     1    11
  2.1838265107395477E-01 a       447     0    30     1    12
  2.8399380010918884E-01 a       448     0    30     1    13
 -1.9636890318806413E-01 a       449     0    30     1    14
  9.7685391490457782E-02 a       450     0    30     1    15
 -9.2834595900022996E-03 a       451     0    31     1     1
  2.4642703850216486E-02 a       452     0    31     1     2
  4.2842027320261752E-02 a       453     0    31     1     3
  6.7700429677664709E-01 a       454     0    31     1     4
 -8.6316872548933263E-02 a       455     0    31     1     5
  2.5659081482366525E-01 a       456     0    31     1     6
 -3.6611858053960294E-01 a       457     0    31     1     7
 -4.1311175043643777E-01 a       458     0    31     1     8
  6.7824268617951777E-01 a       459     0    31     1     9
  7.3635319206315453E-01 a       460     0    31     1    10
  3.8224903776469371E-01 a       461     0    31     1    11
  3.3605318355444769E-01 a       462     0    31     1    12
 -3.0435949879509039E-01 a       463     0    31     1    13
 -1.6227744172517924E+00 a       464     0    31     1    14
 -6.4355333945501414E-01 a       465     0    31     1    15
  6.2866192827676998E-02 a       466     0    32     1     1
  1.1329688066033166E+00 a       467     0    32     1     2
 -1.0927297425310918E-01 a       468     0    32     1     3
  2.8083153955309093E-01 a       469     0    32     1     4
  2.7389657009452706E-01 a       470     0    32     1     5
  6.7174438660338187E-01 a       471     0    32     1     6
 -1.6994099306777477E-01 a       472     0    32     1     7
  4.6072032429127219E-01 a       473     0    32     1     8
  2.0927361548796572E-01 a       474     0    32     1     9
  5.2405179984479988E-01 a       475     0    32     1    10
 -1.3394896504623377E+00 a       476     0    32     1    11
  5.3725418181969486E-01 a       477     0    32     1    12
 -3.3558050992452060E-01 a       478     0    32     1    13
  6.5566164175391328E-01 a       479     0    32     1    14
  1.6957768798635853E-01 a       480     0    32     1    15
  1.6606885641007194E-01 a       481     0    33     1     1
  1.1680977299588600E-01 a       482     0    33     1     2
 -8.3810556824136706E-01 a       483     0    33     1     3
  5.8555850972558421E-01 a       484     0    33     1     4
  1.8732796391125689E-01 a       485     0    33     1     5
  2.4070645836725796E-01 a       486     0    33     1     6
 -1.2103198110618996E+00 a       487     0    33     1     7
  5.6874189173313849E-01 a       488     0    33     1     8
  2.3844200841554000E-01 a       489     0    33     1     9
  4.7393573367093300E-01 a       490     0    33     1    10
 -8.4222483994150654E-01 a       491     0    33     1    11
 -3.1245408388964985E-01 a       492     0    33     1    12
 -5.4807305503371528E-01 a       493     0    33     1    13
  2.9295449774542831E-01 a       494     0    33     1    14
 -1.4769665664818682E-01 a       495     0    33     1    15
 -5.3255280674982075E-01 a       496     0    34     1     1
  6.5675396361773297E-01 a       497     0    34     1     2
  3.2422932573671065E-01 a       498     0    34     1     3
 -3.7074853542402342E-01 a       499     0    34     1     4
  2.8203784797674591E-01 a       500     0    34     1     5
  7.6182688363758033E-01 a       501     0    34     1     6
 -1.0040327726962502E-01 a       502     0    34     1     7
  7.8399119426214095E-03 a       503     0    34     1     8
 -6.2432344483534175E-01 a       504     0    34     1     9
 -4.0680468117312002E-01 a       505     0    34     1    10
  9.9456150778292396E-02 a       506     0    34     1    11
  2.6691577393269916E-01 a       507     0    34     1    12
 -6.5535649579777289E-01 a       508     0    34     1    13
  8.5202816779734833E-02 a       509     0    34     1    14
  2.9088995919447269E-01 a       510     0    34     1    15
 -5.0764834059237263E-01 a       511     0    35     1     1
 -1.1670750399582641E+00 a       512     0    35     1     2
  1.5615877612762312E+00 a       513     0    35     1     3
 -1.6225367149987104E-02 a       514     0    35     1     4
  2.3842009696729699E-01 a       515     0    35     1     5
 -7.1522947712583085E-01 a       516     0    35     1     6
  8.9024434367329275E-01 a       517     0    35     1     7
 -5.8267858749042400E-01 a       518     0    35     1     8
 -1.3004856613430005E-01 a       519     0    35     1     9
 -8.9186872425181785E-01 a       520     0    35     1    10
 -1.1675225848123608E-01 a       521     0    35     1    11
  2.2878056076034181E-01 a       522     0    35     1    12
  6.2086324240126944E-01 a       523     0    35     1    13
 -2.0037437589063989E-01 a       524     0    35     1    14
 -6.6423759930870363E-01 a       525     0    35     1    15
 -6.2840146324986124E-01 a       526     0    36     1     1
 -7.0125700625115320E-02 a       527     0    36     1     2
  4.2085514058475902E-02 a       528     0    36     1     3
 -9.0203172422991684E-01 a       529     0    36     1     4
  6.7905155971463804E-01 a       530     0    36     1     5
  1.5735997491166798E-01 a       531     0    36     1     6
  7.2810253205601738E-01 a       532     0    36     1     7
 -3.7966249446722344E-01 a       533     0    36     1     8
  1.5636757663225780E+00 a       534     0    36     1     9
  9.1490910863693531E-01 a       535     0    36     1    10
 -9.1802081399766822E-01 a       536     0    36     1    11
 -6.0227310662157518E-01 a       537     0    36     1    12
 -1.1266307288089802E-01 a       538     0    36     1    13
  4.8854704790436415E-01 a       539     0    36     1    14
  2.5465165842650467E-01 a       540     0    36     1    15
  2.9874712397663983E-01 a       541     0    37     1     1
 -1.9257826446839202E-01 a       542     0    37     1     2
  3.4350237915015275E-01 a       543     0    37     1     3
 -5.1917179139447121E-02 a       544     0    37     1     4
 -7.7060916013022507E-01 a       545     0    37     1     5
 -8.9838435643074910E-01 a       546     0    37     1     6
 -4.8124940389955706E-01 a       547     0    37     1     7
 -2.6374730858736137E-02 a       548     0    37     1     8
 -2.7065281453511253E-01 a       549     0    37     1     9
 -1.0519077069096433E-01 a       550     0    37     1    10
  1.6873365651031860E-01 a       551     0    37     1    11
  6.2559718893850022E-02 a       552     0    37     1    12
  4.3287267745578212E-01 a       553     0    37     1    13
 -2.5612416182709424E-01 a       554     0    37     1    14
 -3.9520541431586349E-02 a       555     0    37     1    15
  4.0994816510572302E-01 a       556     0    38     1     1
 -8.0431166605467827E-02 a       557     0    38     1     2
  4.6017531284445989E-01 a       558     0    38     1     3
  4.8034547011679612E-02 a       559     0    38     1     4
  3.2079470599614335E-01 a       560     0    38     1     5
 -4.2129198170040100E-01 a       561     0    38     1     6
  2.0743741770984650E-01 a       562     0    38     1     7
 -2.1198494191274195E-01 a       563     0    38     1     8
 -1.4459003583784030E-01 a       564     0    38     1     9
 -9.6598190600562919E-02 a       565     0    38     1    10
  1.0495600231956496E-01 a       566     0    38     1    11
 -2.1910666290369626E-02 a       567     0    38     1    12
 -3.4344702056375176E-01 a       568     0    38     1    13
 -1.1309641922100343E-01 a       569     0    38     1    14
 -2.0444326466761692E-01 a       570     0    38     1    15
  4.7636607425674764E-02 a       571     0    39     1     1
  1.8954865429901913E-01 a       572     0    39     1     2
 -1.8879768504911978E-01 a       573     0    39     1     3
 -2.8206479557758313E-01 a       574     0    39     1     4
 -2.4311160984746122E-01 a       575     0    39     1     5
  9.3411862142796412E-02 a       576     0    39     1     6
  3.4624547156936530E-01 a       577     0    39     1     7
  4.0086300111220781E-02 a       578     0    39     1     8
  4.5082684758682545E-01 a       579     0    39     1     9
  1.6624394942678430E-01 a       580     0    39     1    10
  1.6633718742963791E-01 a       581     0    39     1    11
 -2.0775899459088264E-02 a       582     0    39     1    12
 -1.3606776478345092E-02 a       583     0    39     1    13
  9.8482902013136087E-02 a       584     0    39     1    14
 -6.9834001256842276E-02 a       585     0    39     1    15
  8.1833491023194482E-02 a       586     0    40     1     1
 -7.7600213653238798E-02 a       587     0    40     1     2
  2.5752462615806382E-01 a       588     0    40     1     3
 -1.9238896856139906E-01 a       589     0    40     1     4
  9.5488025925234954E-01 a       590     0    40     1     5
 -6.2241269386972353E-01 a       591     0    40     1     6
 -1.9138290031695579E-01 a       592     0    40     1     7
 -2.4175964209236275E-01 a       593     0    40     1     8
  1.5252105518776884E-02 a       594     0    40     1     9
 -1.0234271805675405E-01 a       595     0    40     1    10
  6.2952982094831789E-01 a       596     0    40     1    11
 -3.9817086598233675E-01 a       597     0    40     1    12
  7.6259986415535205E-02 a       598     0    40     1    13
  1.8055500468582245E-01 a       599     0    40     1    14
 -1.7745187539908202E-03 a       600     0    40     1    15
  9.6327864797499108E-01 a       601     0    41     1     1
 -4.4019124400235289E-02 a       602     0    41     1     2
 -5.2686640423879572E-01 a       603     0    41     1     3
  5.1851455216661479E-01 a       604     0    41     1     4
 -1.2446129532030095E+00 a       605     0    41     1     5
 -1.3988090005915069E-01 a       606     0    41     1     6
  1.0879258016823583E+00 a       607     0    41     1     7
  1.7509385865014693E-01 a       608     0    41     1     8
  8.3431780410165135E-01 a       609     0    41     1     9
  8.0285760464153944E-01 a       610     0    41     1    10
  6.7379489724344859E-03 a       611     0    41     1    11
 -1.2201084378147774E-02 a       612     0    41     1    12
 -3.6926605531877377E-01 a       613     0    41     1    13
  5.3952503983148969E-01 a       614     0    41     1    14
 -4.6138960044445038E-01 a       615     0    41     1    15
 -4.2848213705324817E-01 a       616     0    42     1     1
  7.1854971755870833E-01 a       617     0    42     1     2
 -9.2594034674142112E-01 a       618     0    42     1     3
  6.0129517410643762E-01 a       619     0    42     1     4
  3.0859165277670464E-01 a       620     0    42     1     5
  5.9313103196537986E-01 a       621     0    42     1     6
 -1.0898598115680755E+00 a       622     0    42     1     7
  1.2341227737936404E+00 a       623     0    42     1     8
  1.2494634824514114E-01 a       624     0    42     1     9
 -1.2084655924380817E-01 a       625     0    42     1    10
  2.1482907710144033E-02 a       626     0    42     1    11
  2.2135395104519409E-01 a       627     0    42     1    12
 -6.9079713503011542E-01 a       628     0    42     1    13
  3.6713261418565463E-01 a       629     0    42     1    14
  5.8615833749382873E-01 a       630     0    42     1    15
 -3.8026287510144124E-01 a       631     0    43     1     1
  1.2787971702618977E+00 a       632     0    43     1     2
 -7.8449603290190295E-01 a       633     0    43     1     3
 -1.2338165606493312E+00 a       634     0    43     1     4
 -7.7972763226549724E-01 a       635     0    43     1     5
  3.1166530457732694E-01 a       636     0    43     1     6
  6.3436701036180498E-01 a       637     0    43     1     7
  3.7120328632344024E-01 a       638     0    43     1     8
 -6.2222505531303618E-01 a       639     0    43     1     9
  5.3521634271037177E-01 a       640     0    43     1    10
 -4.5063312756178231E-01 a       641     0    43     1    11
  4.0797126346336465E-01 a       642     0    43     1    12
 -2.2798572888531463E-01 a       643     0    43     1    13
  1.0507183494727947E+00 a       644     0    43     1    14
 -2.6866902031031531E-01 a       645     0    43     1    15
  9.7178478527994050E-01 a       646     0    44     1     1
 -2.3827794613456990E-01 a       647     0    44     1     2
  2.6111010773032511E-01 a       648     0    44     1     3
  3.2193806619778825E-01 a       649     0    44     1     4
 -3.6886833956940512E-01 a       650     0    44     1     5
 -6.8571130511594724E-01 a       651     0    44     1     6
 -2.0398644533982990E-01 a       652     0    44     1     7
 -1.0186738100923128E-01 a       653     0    44     1     8
 -4.7892214851670672E-01 a       654     0    44     1     9
 -2.3543917628324068E-01 a       655     0    44     1    10
  9.6867651927063980E-01 a       656     0    44     1    11
  3.8255245534593785E-01 a       657     0    44     1    12
  4.0185578880881667E-01 a       658     0    44     1    13
 -2.7464990908015091E-01 a       659     0    44     1    14
  2.6767241663797597E-01 a       660     0    44     1    15
 -5.1849757071729385E-01 a       661     0    45     1     1
 -4.5252842261117660E-01 a       662     0    45     1     2
 -2.7647844205357097E-01 a       663     0    45     1     3
 -1.2880498491245229E-01 a       664     0    45     1     4
 -9.1714041202197075E-02 a       665     0    45     1     5
 -3.9748460072123892E-01 a       666     0    45     1     6
 -3.1291133920132552E-01 a       667     0    45     1     7
 -2.0523007264610423E-02 a       668     0    45     1     8
 -2.6166105258359545E-01 a       669     0    45     1     9
  1.8645922134953224E-01 a       670     0    45     1    10
 -4.8733060953894586E-01 a       671     0    45     1    11
 -2.3854655490011034E-01 a       672     0    45     1    12
  4.4177820680228824E-01 a       673     0    45     1    13
  4.0046399338070457E-02 a       674     0    45     1    14
  4.2162188591634189E-02 a       675     0    45     1    15
  1.9103659432274303E-01 a       676     0    46     1     1
 -1.8961300096251171E-01 a       677     0    46     1     2
 -7.6653657137680187E-02 a       678     0    46     1     3
 -7.0777064095944572E-02 a       679     0    46     1     4
 -2.6193304465304290E-01 a       680     0    46     1     5
  2.2088596519349104E-02 a       681     0    46     1     6
 -2.1698156860413837E-02 a       682     0    46     1     7
  3.3320165482786496E-01 a       683     0    46     1     8
  2.5304581969747386E-02 a       684     0    46     1     9
  4.4858677700158178E-01 a       685     0    46     1    10
  1.3613489585531502E-01 a       686     0    46     1    11
  2.7141418380222471E-01 a       687     0    46     1    12
 -4.5235090180880344E-01 a       688     0    46     1    13
 -1.7863726464543059E-01 a       689     0    46     1    14
  7.2414784043669600E-01 a       690     0    46     1    15
 -3.1944152752363386E-01 a       691     0    47     1     1
 -1.6022388766188883E-01 a       692     0    47     1     2
  5.7581653816703005E-01 a       693     0    47     1     3
 -8.1690655087993475E-02 a       694     0    47     1     4
 -8.2762256165327386E-01 a       695     0    47     1     5
  1.8010539345904270E-01 a       696     0    47     1     6
  5.2892025285432176E-01 a       697     0    47     1     7
 -2.6633598568351619E-01 a       698     0    47     1     8
 -3.6038072753393902E-01 a       699     0    47     1     9
  5.2586370615050548E-01 a       700     0    47     1    10
 -4.6438832865452345E-01 a       701     0    47     1    11
 -1.6457103917240595E-01 a       702     0    47     1    12
 -2.7112230235267432E-01 a       703     0    47     1    13
  1.9369824963507662E-01 a       704     0    47     1    14
  7.2936543238126962E-04 a       705     0    47     1    15
 -9.7038034118088401E-01 a       706     0    48     1     1
 -4.2104943185679582E-02 a       707     0    48     1     2
 -7.2688519815681762E-01 a       708     0    48     1     3
 -8.0315525654367104E-01 a       709     0    48     1     4
  5.0361134682187836E-01 a       710     0    48     1     5
 -3.7392850273252415E-01 a       711     0    48     1     6
 -1.0208914515580065E+00 a       712     0    48     1     7
  2.7855801842400246E-01 a       713     0    48     1     8
 -2.5038272644703963E-01 a       714     0    48     1     9
 -6.8636558603129760E-01 a       715     0    48     1    10
  7.1262114918063571E-02 a       716     0    48     1    11
 -1.9703244572245088E-01 a       717     0    48     1    12
  6.8426601974237244E-01 a       718     0    48     1    13
 -1.7101348365712660E-01 a       719     0    48     1    14
 -4.1509462462388441E-01 a       720     0    48     1    15
 -1.8415639363603076E-01 a       721     0    49     1     1
 -6.7940965247579566E-01 a       722     0    49     1     2
  7.0580453643330676E-01 a       723     0    49     1     3
 -5.0910692015410053E-01 a       724     0    49     1     4
 -8.0614281860033854E-01 a       725     0    49     1     5
 -6.6836836692134916E-01 a       726     0    49     1     6
  4.9992150052407419E-01 a       727     0    49     1     7
  5.7399337323478650E-01 a       728     0    49     1     8
 -1.0500745571745123E+00 a       729     0    49     1     9
 -5.4251572706869133E-01 a       730     0    49     1    10
 -9.5989732910236186E-02 a       731     0    49     1    11
 -6.6611106631075268E-01 a       732     0    49     1    12
 -5.0138759089043861E-01 a       733     0    49     1    13
  1.3020466730649518E+00 a       734     0    49     1    14
  2.5330829779569047E-01 a       735     0    49     1    15
 -3.9456306450058626E-01 a       736     0    50     1     1
 -1.6690646679271526E-01 a       737     0    50     1     2
 -2.1810491040620625E-01 a       738     0    50     1     3
 -2.9698879226960012E-01 a       739     0    50     1     4
 -7.1692195950347967E-02 a       740     0    50     1     5
 -3.4072626049241733E-01 a       741     0    50     1     6
 -5.4242908255844646E-01 a       742     0    50     1     7
  2.5819352962896769E-01 a       743     0    50     1     8
 -1.1224370318975226E-01 a       744     0    50     1     9
  1.9900285675333884E-01 a       745     0    50     1    10
 -9.9075742772462408E-02 a       746     0    50     1    11
 -7.4135201488311875E-02 a       747     0    50     1    12
  1.1025024292105573E-01 a       748     0    50     1    13
  1.3339435291232868E-02 a       749     0    50     1    14
 -1.5532512032309410E-02 a       750     0    50     1    15
 -7.6803708198850362E-01 a       751     0    51     1     1
 -4.5916170445056670E-01 a       752     0    51     1     2
  6.9663533411078449E-01 a       753     0    51     1     3
 -2.0534545261812082E-01 a       754     0    51     1     4
  3.5878317155855788E-01 a       755     0    51     1     5
 -6.3746975884385026E-01 a       756     0    51     1     6
  4.0206069144475864E-01 a       757     0    51     1     7
 -8.8213685064743429E-03 a       758     0    51     1     8
 -1.7858005238106034E+00 a       759     0    51     1     9
 -4.5644308385524202E-01 a       760     0    51     1    10
  8.5617908703613810E-01 a       761     0    51     1    11
  2.6595820369703377E-01 a       762     0    51     1    12
  8.4065950168946513E-01 a       763     0    51     1    13
 -1.5225583960282477E-01 a       764     0    51     1    14
  7.1285782754466398E-02 a       765     0    51     1    15
 -7.2002410692884766E-02 a       766     0    52     1     1
 -6.6502779264677750E-02 a       767     0    52     1     2
 -1.5921045162533226E-01 a       768     0    52     1     3
  1.9399747955310453E-01 a       769     0    52     1     4
 -2.4336779696979813E-01 a       770     0    52     1     5
  3.3189632093961258E-01 a       771     0    52     1     6
  9.6498778927892867E-02 a       772     0    52     1     7
  2.3430112345372764E-01 a       773     0    52     1     8
 -5.4773046388043652E-02 a       774     0    52     1     9
  6.0282911257588190E-01 a       775     0    52     1    10
 -8.8877263757916769E-01 a       776     0    52     1    11
  2.4365767669001304E-01 a       777     0    52     1    12
 -4.1278850809417877E-01 a       778     0    52     1    13
 -3.1281308729613261E-01 a       779     0    52     1    14
 -4.7628391596154379E-01 a       780     0    52     1    15
 -2.2183881949154421E-02 a       781     0    53     1     1
 -1.8047001135583038E+00 a       782     0    53     1     2
  6.3878659293494244E-01 a       783     0    53     1     3
 -1.2487597560248822E+00 a       784     0    53     1     4
 -6.5133781173659300E-01 a       785     0    53     1     5
 -1.3761871710497695E+00 a       786     0    53     1     6
  8.1024243062574752E-01 a       787     0    53     1     7
 -1.5840950907123510E+00 a       788     0    53     1     8
 -3.6236478510531155E-02 a       789     0    53     1     9
 -4.0637869410241007E-01 a       790     0    53     1    10
  6.8025102520318093E-01 a       791     0    53     1    11
 -7.0244032959213543E-01 a       792     0    53     1    12
  1.6939039809243002E+00 a       793     0    53     1    13
 -1.0160333965377246E+00 a       794     0    53     1    14
 -5.0599775672784519E-01 a       795     0    53     1    15
  6.3309870845308402E-01 a       796     0    54     1     1
  1.3807641921947571E+00 a       797     0    54     1     2
 -7.1803433450973264E-01 a       798     0    54     1     3
  1.4496047418674445E+00 a       799     0    54     1     4
  4.5586179606390470E-02 a       800     0    54     1     5
  1.6506853274436302E+00 a       801     0    54     1     6
 -6.3593456787087888E-01 a       802     0    54     1     7
  3.4118194394828111E-01 a       803     0    54     1     8
 -1.4339008296091527E-01 a       804     0    54     1     9
 -8.4144608670118012E-03 a       805     0    54     1    10
 -1.9458125342377158E-01 a       806     0    54     1    11
  1.1772789534409686E-01 a       807     0    54     1    12
 -8.0483961374224777E-01 a       808     0    54     1    13
 -7.2565035159069077E-02 a       809     0    54     1    14
 -2.1075586604787630E-02 a       810     0    54     1    15
  2.0499722187420319E-01 a       811     0    55     1     1
 -4.3977839987414946E-03 a       812     0    55     1     2
  7.9849627723271206E-03 a       813     0    55     1     3
 -1.2610230884190529E-01 a       814     0    55     1     4
  4.6148440004479302E-01 a       815     0    55     1     5
 -3.2623619007333710E-01 a       816     0    55     1     6
  2.6832527200620307E-02 a       817     0    55     1     7
  1.4942823033489800E-02 a       818     0    55     1     8
  2.7045762758774761E-01 a       819     0    55     1     9
  1.3850021558007780E-01 a       820     0    55     1    10
  7.0019607132908368E-01 a       821     0    55     1    11
 -1.9086719594021198E-01 a       822     0    55     1    12
 -2.2310382016944669E-01 a       823     0    55     1    13
  8.2286400788533082E-02 a       824     0    55     1    14
 -2.8877350158931070E-01 a       825     0    55     1    15
 -5.9017373352376179E-01 a       826     0    56     1     1
  2.8264255461614141E-01 a       827     0    56     1     2
 -4.9130018845590223E-01 a       828     0    56     1     3
 -1.1376813603268005E-01 a       829     0    56     1     4
  1.0219350768022242E+00 a       830     0    56     1     5
  1.1258663604790156E+00 a       831     0    56     1     6
  5.5471375641460141E-01 a       832     0    56     1     7
  1.0095764379197511E-01 a       833     0    56     1     8
  2.9878877756360495E-01 a       834     0    56     1     9
  2.7006002841882575E-02 a       835     0    56     1    10
  4.7034323222761687E-02 a       836     0    56     1    11
 -1.7481893388823402E-01 a       837     0    56     1    12
 -5.0090126472862995E-01 a       838     0    56     1    13
  3.2648918237058627E-01 a       839     0    56     1    14
 -9.2765675428703488E-03 a       840     0    56     1    15
  1.5422928061183344E-01 a       841     0    57     1     1
 -4.0607908076189464E-01 a       842     0    57     1     2
  2.4565864119338193E-03 a       843     0    57     1     3
 -1.1779123846654405E-01 a       844     0    57     1     4
  5.2152875971458693E-02 a       845     0    57     1     5
 -1.1160534361209772E-01 a       846     0    57     1     6
 -1.9153675488453362E-01 a       847     0    57     1     7
 -2.8045368321505726E-01 a       848     0    57     1     8
 -1.3374934938481867E-01 a       849     0    57     1     9
 -6.3392666011431897E-01 a       850     0    57     1    10
  3.4361147527901270E-01 a       851     0    57     1    11
 -5.9497129174690730E-02 a       852     0    57     1    12
  5.1292261392842442E-01 a       853     0    57     1    13
 -3.3816837152359180E-01 a       854     0    57     1    14
  4.6996601584510811E-01 a       855     0    57     1    15
  1.1933569715877225E-01 a       856     0    58     1     1
 -8.4553653377250876E-02 a       857     0    58     1     2
  4.1999587101407367E-02 a       858     0    58     1     3
 -2.3232129587768879E-02 a       859     0    58     1     4
  2.7572917393094398E-01 a       860     0    58     1     5
 -1.0017075835685955E-01 a       861     0    58     1     6
  4.7196747960457931E-04 a       862     0    58     1     7
 -1.5416970235103955E-01 a       863     0    58     1     8
  4.1638367065936516E-02 a       864     0    58     1     9
 -3.7971780656376429E-02 a       865     0    58     1    10
  7.7287681782202980E-02 a       866     0    58     1    11
 -2.8609929708939327E-02 a       867     0    58     1    12
  2.1571517824276079E-01 a       868     0    58     1    13
 -9.8571116356731860E-03 a       869     0    58     1    14
  6.5884021596426340E-02 a       870     0    58     1    15
  4.8783610922882009E-01 a       871     0    59     1     1
  5.4244578278549460E-01 a       872     0    59     1     2
  2.7486149507457652E-01 a       873     0    59     1     3
  1.4761211179687989E-01 a       874     0    59     1     4
  2.8337320893078822E-02 a       875     0    59     1     5
  5.2503828714687362E-01 a       876     0    59     1     6
  2.2760940474260108E-01 a       877     0    59     1     7
  6.3302639639934516E-02 a       878     0    59     1     8
  3.0299994295626986E-01 a       879     0    59     1     9
 -2.5209111925266325E-01 a       880     0    59     1    10
  4.3471075098251011E-01 a       881     0    59     1    11
  3.4191068559852295E-01 a       882     0    59     1    12
 -4.7894724292522606E-01 a       883     0    59     1    13
 -4.2557133196871329E-02 a       884     0    59     1    14
 -1.9715603331646732E-03 a       885     0    59     1    15
 -5.0757428297874396E-01 a       886     0    60     1     1
 -6.8656581140070019E-02 a       887     0    60     1     2
  8.2153647996896517E-01 a       888     0    60     1     3
 -6.5240653848753671E-01 a       889     0    60     1     4
 -8.0654253033599063E-02 a       890     0    60     1     5
 -5.2783914790049358E-01 a       891     0    60     1     6
 -1.5970066976268638E-01 a       892     0    60     1     7
 -8.4478054016414095E-01 a       893     0    60     1     8
 -2.4028035371445713E-01 a       894     0    60     1     9
 -6.4183301234757639E-01 a       895     0    60     1    10
  1.6518981848324762E-01 a       896     0    60     1    11
 -3.1159346000329219E-01 a       897     0    60     1    12
  1.0687193586227821E+00 a       898     0    60     1    13
 -3.2771699806809806E-01 a       899     0    60     1    14
 -9.0867140311049499E-01 a       900     0    60     1    15
  1.3373178526433471E-01 a       901     0    61     1     1
 -8.4655089619289992E-01 a       902     0    61     1     2
  2.0992909896202347E-01 a       903     0    61     1     3
  1.7824928325709422E-01 a       904     0    61     1     4
 -8.8294109141404953E-02 a       905     0    61     1     5
  1.4831556775988444E-01 a       906     0    61     1     6
  1.5397626124579109E-01 a       907     0    61     1     7
 -2.6728053840706567E-01 a       908     0    61     1     8
  6.8880833545634812E-01 a       909     0    61     1     9
  2.2790031062939056E-01 a       910     0    61     1    10
  1.1866168900545568E+00 a       911     0    61     1    11
 -5.1896959776166729E-01 a       912     0    61     1    12
 -9.4737262017131485E-01 a       913     0    61     1    13
 -6.5161016624193191E-01 a       914     0    61     1    14
 -3.4759441470870650E-01 a       915     0    61     1    15
  2.7949025093738800E-01 a       916     0    62     1     1
  1.9412801011229144E-01 a       917     0    62     1     2
 -5.3498120656022430E-01 a       918     0    62     1     3
  1.3173213695664554E-01 a       919     0    62     1     4
  8.4153583584039171E-01 a       920     0    62     1     5
 -7.9252456600161156E-02 a       921     0    62     1     6
 -3.9681798937334106E-01 a       922     0    62     1     7
  2.5232150332156783E-01 a       923     0    62     1     8
  4.1119378672908452E-01 a       924     0    62     1     9
 -4.2398816442636528E-01 a       925     0    62     1    10
  3.0643677964369637E-01 a       926     0    62     1    11
  1.1947488882722987E-01 a       927     0    62     1    12
  1.4212343252361956E-01 a       928     0    62     1    13
 -1.3453262498288318E-01 a       929     0    62     1    14
 -4.1447452550852290E-02 a       930     0    62     1    15
  4.0971855898358028E-01 a       931     0    63     1     1
  2.7855092207725829E-01 a       932     0    63     1     2
  5.1909621420028562E-01 a       933     0    63     1     3
  1.9173615293990123E-01 a       934     0    63     1     4
  1.7366736964756178E+00 a       935     0    63     1     5
 -6.2276459775976645E-01 a       936     0    63     1     6
  1.3926020193677374E-01 a       937     0    63     1     7
 -3.0381481932398952E-01 a       938     0    63     1     8
  1.0586858647513546E-01 a       939     0    63     1     9
  6.2444947401055440E-01 a       940     0    63     1    10
  6.7522137845966967E-01 a       941     0    63     1    11
 -2.2041401505060476E-01 a       942     0    63     1    12
 -2.1616268283554632E-01 a       943     0    63     1    13
  3.4418405719880357E-01 a       944     0    63     1    14
  5.2637178089431559E-02 a       945     0    63     1    15
  5.0524712942398485E-02 a       946     0    64     1     1
  1.2502762702010364E-01 a       947     0    64     1     2
  9.4634114439571260E-02 a       948     0    64     1     3
  2.9794984832542226E-01 a       949     0    64     1     4
  8.5973891817554071E-01 a       950     0    64     1     5
  1.4035403789785766E-01 a       951     0    64     1     6
  1.4216087776132760E-01 a       952     0    64     1     7
 -2.2292978882450423E-01 a       953     0    64     1     8
 -2.0354130338824208E-01 a       954     0    64     1     9
 -3.5312317133832638E-01 a       955     0    64     1    10
 -3.5736357274534736E-01 a       956     0    64     1    11
 -1.4502291059892824E-02 a       957     0    64     1    12
  2.7172308223918951E-01 a       958     0    64     1    13
 -1.4084823594767221E-01 a       959     0    64     1    14
 -1.6847876157377276E-03 a       960     0    64     1    15
 -1.4559132992281593E-01 a       961     0    65     1     1
 -1.1612373447674162E-01 a       962     0    65     1     2
  1.1977498934696904E+00 a       963     0    65     1     3
 -3.2846729759444149E-01 a       964     0    65     1     4
 -2.6039967705897743E-01 a       965     0    65     1     5
 -9.6509218959663701E-01 a       966     0    65     1     6
  4.9214603371648508E-01 a       967     0    65     1     7
 -2.1082919112891504E-01 a       968     0    65     1     8
 -5.0315323171834681E-01 a       969     0    65     1     9
 -1.3803808166811810E-01 a       970     0    65     1    10
  3.0906215535751436E-01 a       971     0    65     1    11
  2.6842369252041054E-01 a       972     0    65     1    12
 -5.9467419008164525E-02 a       973     0    65     1    13
  2.3996160610514550E-01 a       974     0    65     1    14
  9.4443825823451200E-01 a       975     0    65     1    15
 -4.2399170547886389E-01 a       976     0    66     1     1
  3.8308176171101282E-01 a       977     0    66     1     2
 -1.6998856839100851E-01 a       978     0    66     1     3
 -6.4544727086223264E-01 a       979     0    66     1     4
 -8.6149239770356267E-02 a       980     0    66     1     5
 -4.1602158545183381E-03 a       981     0    66     1     6
 -3.0919778066523318E-01 a       982     0    66     1     7
  2.4284605035961829E-03 a       983     0    66     1     8
  6.3025331391436312E-01 a       984     0    66     1     9
  1.2352292920516313E-01 a       985     0    66     1    10
 -5.2900131224851521E-01 a       986     0    66     1    11
 -2.1293320124303380E-01 a       987     0    66     1    12
  2.4854944132553616E-01 a       988     0    66     1    13
  4.5909203980630489E-02 a       989     0    66     1    14
 -2.1712465300075903E-01 a       990     0    66     1    15
  6.9554328000728405E-01 a       991     0    67     1     1
  2.8533515197468201E-01 a       992     0    67     1     2
  1.7810107050454435E-01 a       993     0    67     1     3
  1.6569908564129474E-01 a       994     0    67     1     4
  3.1263243309161282E-01 a       995     0    67     1     5
 -7.1510117609201410E-02 a       996     0    67     1     6
  4.8069678025153662E-02 a       997     0    67     1     7
 -3.6274699921395689E-02 a       998     0    67     1     8
  5.1337240648385896E-01 a       999     0    67     1     9
 -4.7053989885412296E-02 a      1000     0    67     1    10
  3.2843746574217336E-01 a      1001     0    67     1    11
  1.3161498062527303E-02 a      1002     0    67     1    12
  2.5484894596820579E-01 a      1003     0    67     1    13
 -1.7178215521733387E-01 a      1004     0    67     1    14
  1.0889742072941869E-01 a      1005     0    67     1    15
 -9.0664937568814927E-02 a      1006     0    68     1     1
  1.0789113289692828E-01 a      1007     0    68     1     2
 -6.4947107750220959E-02 a      1008     0    68     1     3
 -6.3647365903428885E-02 a      1009     0    68     1     4
 -1.7998849926846602E-01 a      1010     0    68     1     5
  2.3858909038975779E-02 a      1011     0    68     1     6
  4.5298475923165903E-02 a      1012     0    68     1     7
  7.0783556127314129E-02 a      1013     0    68     1     8
  3.5516087298592444E-02 a      1014     0    68     1     9
  1.8977904089196979E-01 a      1015     0    68     1    10
 -1.3302415216837174E-01 a      1016     0    68     1    11
  9.2888101830729111E-02 a      1017     0    68     1    12
 -6.3669238167141470E-02 a      1018     0    68     1    13
  1.2733758392377559E-01 a      1019     0    68     1    14
 -8.0599880791037609E-02 a      1020     0    68     1    15
 -7.4239571922038006E-01 a      1021     0    69     1     1
 -1.7320836270055168E-01 a      1022     0    69     1     2
 -1.1625440835043399E+00 a      1023     0    69     1     3
  4.1658731008620442E-01 a      1024     0    69     1     4
 -7.3575881705669532E-01 a      1025     0    69     1     5
  9.3961303606936741E-01 a      1026     0    69     1     6
 -6.2982764232379349E-02 a      1027     0    69     1     7
  5.6109576850469201E-01 a      1028     0    69     1     8
  9.9934012971908265E-02 a      1029     0    69     1     9
 -2.0009612378502767E-01 a      1030     0    69     1    10
  5.7438792189674692E-01 a      1031     0    69     1    11
 -5.2993458066686476E-02 a      1032     0    69     1    12
 -7.4222526237796493E-01 a      1033     0    69     1    13
  1.1326103084529626E-01 a      1034     0    69     1    14
 -6.4187463769845451E-02 a      1035     0    69     1    15
  1.5392171153918037E+00 a      1036     0    70     1     1
 -4.6977509717845928E-01 a      1037     0    70     1     2
 -2.5554366670674300E+00 a      1038     0    70     1     3
  1.1255219295595929E-01 a      1039     0    70     1     4
 -3.7506083900219311E-01 a      1040     0    70     1     5
  1.5033635545800716E+00 a      1041     0    70     1     6
 -1.1886633631716739E+00 a      1042     0    70     1     7
  1.1196548719912955E+00 a      1043     0    70     1     8
  1.6823186613654859E+00 a      1044     0    70     1     9
 -3.3655834413211272E-01 a      1045     0    70     1    10
  6.3462428481167665E-01 a      1046     0    70     1    11
 -1.3486909168705559E+00 a      1047     0    70     1    12
 -9.0528397806925964E-01 a      1048     0    70     1    13
 -9.7618215988470225E-01 a      1049     0    70     1    14
 -3.4400144573902880E-01 a      1050     0    70     1    15
  3.5194460642518405E-01 a      1051     0    71     1     1
 -1.9410681391483875E-01 a      1052     0    71     1     2
 -2.6654106470526173E-01 a      1053     0    71     1     3
  6.2838802079562461E-01 a      1054     0    71     1     4
 -2.6269990380718732E-04 a      1055     0    71     1     5
  1.4909307740502353E-01 a      1056     0    71     1     6
  2.0568586359437621E-01 a      1057     0    71     1     7
  2.1553410067423834E-03 a      1058     0    71     1     8
 -6.2967329645182957E-01 a      1059     0    71     1     9
 -4.9440919717206855E-01 a      1060     0    71     1    10
  3.8788500824178040E-01 a      1061     0    71     1    11
  4.1311723003708578E-01 a      1062     0    71     1    12
 -2.8586282473769065E-01 a      1063     0    71     1    13
 -2.8223060106567438E-01 a      1064     0    71     1    14
 -1.3162997970904003E-01 a      1065     0    71     1    15
 -4.4280373694514197E-01 a      1066     0    72     1     1
 -1.9229377242316778E-01 a      1067     0    72     1     2
 -1.7137001351981068E-02 a      1068     0    72     1     3
  1.7391886511121848E-01 a      1069     0    72     1     4
 -8.5797022937604739E-01 a      1070     0    72     1     5
  1.0912081679017891E+00 a      1071     0    72     1     6
  3.0077578194942478E-01 a      1072     0    72     1     7
 -7.7372713583313019E-02 a      1073     0    72     1     8
 -5.9776819116972579E-01 a      1074     0    72     1     9
 -3.2023366245408658E-01 a      1075     0    72     1    10
 -1.0784560904577736E+00 a      1076     0    72     1    11
  2.3825652081036106E-01 a      1077     0    72     1    12
  1.2353727401840126E-01 a      1078     0    72     1    13
 -3.3409418497941207E-01 a      1079     0    72     1    14
  3.7874663584902912E-01 a      1080     0    72     1    15
 -9.9156908667184837E-02 a      1081     0    73     1     1
 -3.7024096251914801E-01 a      1082     0    73     1     2
 -5.6086238975737890E-01 a      1083     0    73     1     3
  3.2895804622708608E-01 a      1084     0    73     1     4
 -5.5252659198576892E-01 a      1085     0    73     1     5
  4.7489684245434494E-01 a      1086     0    73     1     6
 -4.7280970149646884E-02 a      1087     0    73     1     7
  5.7620399696414158E-02 a      1088     0    73     1     8
  7.5831246894213014E-02 a      1089     0    73     1     9
  2.0338607179142237E-01 a      1090     0    73     1    10
 -8.1380232988318785E-02 a      1091     0    73     1    11
 -1.6383001906867815E-02 a      1092     0    73     1    12
  1.5039052045550402E-01 a      1093     0    73     1    13
 -1.6201299106562414E-01 a      1094     0    73     1    14
  2.7881396873491543E-01 a      1095     0    73     1    15
  5.0056645339529593E-01 a      1096     0    74     1     1
  2.1876156307080993E-01 a      1097     0    74     1     2
  1.1289138000011993E+00 a      1098     0    74     1     3
 -1.8504705474713989E-01 a      1099     0    74     1     4
  7.2871275364813459E-01 a      1100     0    74     1     5
 -5.3016953789378773E-01 a      1101     0    74     1     6
  5.5538151524997297E-02 a      1102     0    74     1     7
 -4.6920108664734433E-01 a      1103     0    74     1     8
 -3.5266766727978655E-01 a      1104     0    74     1     9
  2.1967243743995443E-01 a      1105     0    74     1    10
 -6.5365407438181444E-01 a      1106     0    74     1    11
  8.5872061918535345E-02 a      1107     0    74     1    12
  2.4874577728014793E-01 a      1108     0    74     1    13
 -9.0398403404396324E-02 a      1109     0    74     1    14
  1.1094851186877952E-02 a      1110     0    74     1    15
 -1.1377805562637613E+00 a      1111     0    75     1     1
 -2.2981763458610461E-02 a      1112     0    75     1     2
  2.1882564622312750E+00 a      1113     0    75     1     3
 -2.1979045406250383E-02 a      1114     0    75     1     4
 -1.0059002579639605E-01 a      1115     0    75     1     5
 -1.6099845345738153E+00 a      1116     0    75     1     6
  6.3687676315686137E-01 a      1117     0    75     1     7
 -5.9698951381652254E-01 a      1118     0    75     1     8
 -8.9848297395367360E-01 a      1119     0    75     1     9
  7.6738273482561126E-01 a      1120     0    75     1    10
  1.5359550595298685E-01 a      1121     0    75     1    11
  5.8813583679245574E-01 a      1122     0    75     1    12
  3.4656775179050733E-02 a      1123     0    75     1    13
  3.2911856936768380E-01 a      1124     0    75     1    14
 -9.1519459502134498E-02 a      1125     0    75     1    15
 -4.8925432649775380E-01 a      1126     0    76     1     1
  1.2484158264525923E-01 a      1127     0    76     1     2
  1.0102813455583153E-01 a      1128     0    76     1     3
 -1.8770773813757163E-01 a      1129     0    76     1     4
  1.1926401499667158E-01 a      1130     0    76     1     5
  2.7107009074127386E-01 a      1131     0    76     1     6
 -1.8129697704998260E-01 a      1132     0    76     1     7
  3.8438877895082282E-02 a      1133     0    76     1     8
  1.3922514719356131E-02 a      1134     0    76     1     9
  1.3432825052615899E-01 a      1135     0    76     1    10
 -4.5182645364781970E-01 a      1136     0    76     1    11
 -2.8792775934598958E-01 a      1137     0    76     1    12
 -4.7367894872251494E-02 a      1138     0    76     1    13
  1.3970515771657549E-01 a      1139     0    76     1    14
  3.6060884596340478E-02 a      1140     0    76     1    15
 -2.6180030418621802E-01 a      1141     0    77     1     1
  2.0832293526912829E-01 a      1142     0    77     1     2
 -1.1887020637370105E+00 a      1143     0    77     1     3
  3.3050196200389798E-01 a      1144     0    77     1     4
 -3.1643038276265334E-01 a      1145     0    77     1     5
  5.7103852410178457E-01 a      1146     0    77     1     6
 -1.6921244602642371E-01 a      1147     0    77     1     7
  6.8724883518930102E-01 a      1148     0    77     1     8
  1.4105441138742478E-01 a      1149     0    77     1     9
 -1.6726104444987930E-01 a      1150     0    77     1    10
  4.4151979479131165E-01 a      1151     0    77     1    11
  1.1067459634612614E-01 a      1152     0    77     1    12
 -1.0369873767054245E-01 a      1153     0    77     1    13
  2.3541294652306438E-01 a      1154     0    77     1    14
  9.9048486885593159E-02 a      1155     0    77     1    15
  2.8908651759944964E-01 a      1156     0    78     1     1
  5.3587292601928782E-01 a      1157     0    78     1     2
 -6.9270181094277195E-01 a      1158     0    78     1     3
 -3.8632361765790393E-02 a      1159     0    78     1     4
  6.8709871213864016E-02 a      1160     0    78     1     5
 -5.7062229138243187E-02 a      1161     0    78     1     6
 -1.6421251332269246E-01 a      1162     0    78     1     7
  3.7337276700815825E-01 a      1163     0    78     1     8
 -6.1228236891570198E-02 a      1164     0    78     1     9
 -5.8512230027984657E-01 a      1165     0    78     1    10
 -2.8428989120107201E-01 a      1166     0    78     1    11
  3.2368371071475538E-01 a      1167     0    78     1    12
  9.2303406538434785E-01 a      1168     0    78     1    13
  2.5588029040287025E-01 a      1169     0    78     1    14
  1.9403617310680976E-01 a      1170     0    78     1    15
 -1.7420821997688941E-02 a      1171     0    79     1     1
  4.6967089423193012E-02 a      1172     0    79     1     2
 -1.3365657772208334E-01 a      1173     0    79     1     3
 -8.7845743934824045E-03 a      1174     0    79     1     4
  5.1881767692814010E-02 a      1175     0    79     1     5
 -8.7557868005187978E-01 a      1176     0    79     1     6
 -2.9393036042442050E-01 a      1177     0    79     1     7
 -5.9111705869027732E-02 a      1178     0    79     1     8
 -3.1731847212924730E-01 a      1179     0    79     1     9
 -2.3091780406343407E-01 a      1180     0    79     1    10
 -2.4834501346098861E-01 a      1181     0    79     1    11
  1.6397609558014811E-01 a      1182     0    79     1    12
  4.9437428845336601E-01 a      1183     0    79     1    13
 -7.7942263242019486E-02 a      1184     0    79     1    14
  1.2262939367036592E-01 a      1185     0    79     1    15
 -5.4925766850378999E-01 a      1186     0    80     1     1
 -6.8358332237192942E-01 a      1187     0    80     1     2
 -2.9576245002113838E-01 a      1188     0    80     1     3
  1.5850566280830145E-01 a      1189     0    80     1     4
 -5.4642818164920226E-01 a      1190     0    80     1     5
 -5.7460880961244309E-01 a      1191     0    80     1     6
 -6.5052651435719833E-01 a      1192     0    80     1     7
 -2.5434256497270064E-01 a      1193     0    80     1     8
  1.5827359430917363E-02 a      1194     0    80     1     9
  1.8357871867944975E-01 a      1195     0    80     1    10
 -4.4912877759654235E-01 a      1196     0    80     1    11
 -5.0743892937975965E-01 a      1197     0    80     1    12
 -7.3332113049767977E-01 a      1198     0    80     1    13
 -5.6810086603592425E-01 a      1199     0    80     1    14
  1.7678683863988989E-01 a      1200     0    80     1    15
  3.4147277742043486E-01 a      1201     0    81     1     1
 -3.5447822177380905E-02 a      1202     0    81     1     2
 -4.7789281466180716E-01 a      1203     0    81     1     3
 -7.6445852106892254E-02 a      1204     0    81     1     4
  2.0689248802664106E-01 a      1205     0    81     1     5
  3.7878649441706419E-01 a      1206     0    81     1     6
  7.0375822663197929E-01 a      1207     0    81     1     7
  1.8300068269562353E-01 a      1208     0    81     1     8
  7.6151450756982075E-01 a      1209     0    81     1     9
 -1.3629738842408148E-01 a      1210     0    81     1    10
  8.0626609917327019E-01 a      1211     0    81     1    11
 -7.4242340235750093E-01 a      1212     0    81     1    12
 -2.5939029153622539E-01 a      1213     0    81     1    13
 -5.0955829955137005E-02 a      1214     0    81     1    14
 -3.1287211104886936E-01 a      1215     0    81     1    15
  2.1848831819243592E-02 a      1216     0    82     1     1
 -8.3901481767068992E-02 a      1217     0    82     1     2
 -1.0828778621168959E-01 a      1218     0    82     1     3
 -3.8182298546610510E-02 a      1219     0    82     1     4
  2.7279281217906515E-01 a      1220     0    82     1     5
  1.1714275376943710E-01 a      1221     0    82     1     6
  8.3323063108980674E-02 a      1222     0    82     1     7
 -2.3095288335737509E-02 a      1223     0    82     1     8
  3.7849177364751396E-01 a      1224     0    82     1     9
 -6.4473034739541898E-02 a      1225     0    82     1    10
  4.6331964808379589E-01 a      1226     0    82     1    11
 -2.8960954434757641E-01 a      1227     0    82     1    12
 -2.2173835679275222E-01 a      1228     0    82     1    13
  5.0644891063224409E-02 a      1229     0    82     1    14
 -1.4825827461384158E-01 a      1230     0    82     1    15
 -5.7592518036063212E-01 a      1231     0    83     1     1
 -4.4321096484038780E-01 a      1232     0    83     1     2
  1.2548811606559274E-01 a      1233     0    83     1     3
  4.9472821872080730E-01 a      1234     0    83     1     4
 -2.8721587338493115E-01 a      1235     0    83     1     5
 -1.4441533945903620E+00 a      1236     0    83     1     6
  3.7370945940741185E-01 a      1237     0    83     1     7
  7.5302977425527706E-01 a      1238     0    83     1     8
  8.1792478824153281E-01 a      1239     0    83     1     9
  1.1560021995664113E-01 a      1240     0    83     1    10
  1.1234335056753030E-01 a      1241     0    83     1    11
 -1.7818493028299954E-02 a      1242     0    83     1    12
  4.4598865888107059E-01 a      1243     0    83     1    13
  5.9640321976911237E-01 a      1244     0    83     1    14
 -8.0268520906597352E-01 a      1245     0    83     1    15
  1.3580529885340434E-01 b      1246     1     1
  2.5375883239487801E-01 b      1247     1     2
 -1.2164192242035357E+00 b      1248     1     3
  8.1889556866911617E-01 b      1249     1     4
  1.2734990798747687E+00 b      1250     1     5
 -1.1100033338822068E+00 b      1251     1     6
 -9.1735120172831724E-02 b      1252     1     7
 -7.5893295262100935E-01 b      1253     1     8
 -4.6610270955657740E-01 b      1254     1     9
  2.8286259934529734E-01 b      1255     1    10
 -1.2879308380828198E+00 b      1256     1    11
 -2.2301019435045569E-01 b      1257     1    12
  3.8138706272334572E-01 b      1258     1    13
 -3.4806178020739703E-01 b      1259     1    14
 -1.1903750379491882E+00 b      1260     1    15
  3.0644475508306229E-01 a      1261     1     1     2     1
 -4.4226828834512677E-01 a      1262     1     1     2     2
 -7.5047162297201164E-01 a      1263     1     1     2     3
 -7.2965860610913957E-01 a      1264     1     1     2     4
 -1.1588269745503262E-01 a      1265     1     1     2     5
  8.1912222988649663E-01 a      1266     1     1     2     6
  3.8943148417920387E-01 a      1267     1     1     2     7
 -4.4116580104164405E-01 a      1268     1     1     2     8
 -1.0784561597249044E-01 a      1269     1     1     2     9
 -3.7797724411688222E-01 a      1270     1     1     2    10
 -8.3829881124117589E-01 a      1271     1     1     2    11
  3.7838996500696737E-01 a      1272     1     1     2    12
 -3.6472366731362238E-01 a      1273     1     1     2    13
 -6.5819459252325974E-01 a      1274     1     1     2    14
 -3.3409198193130374E-01 a      1275     1     1     2    15
  5.6833861761663473E-01 a      1276     1     2     2     1
 -6.4877323129872055E-01 a      1277     1     2     2     2
  6.7894343153917291E-02 a      1278     1     2     2     3
 -1.3361074346510893E-01 a      1279     1     2     2     4
 -1.2589597287468443E-01 a      1280     1     2     2     5
 -1.4883885980260445E-01 a      1281     1     2     2     6
 -1.0881620067677215E-01 a      1282     1     2     2     7
  2.5685595719987780E-01 a      1283     1     2     2     8
  4.7038876554426856E-01 a      1284     1     2     2     9
  9.5662985037724663E-02 a      1285     1     2     2    10
 -4.9904060777389808E-01 a      1286     1     2     2    11
  7.6091819956039841E-01 a      1287     1     2     2    12
 -5.0413570229487537E-01 a      1288     1     2     2    13
  1.0936624401819812E+00 a      1289     1     2     2    14
 -3.0386205975191088E-01 a      1290     1     2     2    15
  2.1676743279622119E+00 a      1291     1     3     2     1
 -8.6406355212835084E-01 a      1292     1     3     2     2
  2.2331376873657355E-02 a      1293     1     3     2     3
 -5.4930508383878840E-01 a      1294     1     3     2     4
 -7.2812780367202712E-01 a      1295     1     3     2     5
  2.3968772853488723E-01 a      1296     1     3     2     6
  2.6717238446570829E-01 a      1297     1     3     2     7
 -7.4221577160613927E-01 a      1298     1     3     2     8
  1.0777009587460733E+00 a      1299     1     3     2     9
  2.8475322827495114E-01 a      1300     1     3     2    10
  3.2897266677486664E-01 a      1301     1     3     2    11
  1.0186972262900753E+00 a      1302     1     3     2    12
 -1.1497733782422737E+00 a      1303     1     3     2    13
 -1.1513825084844720E+00 a      1304     1     3     2    14
  6.3686488958101728E-01 a      1305     1     3     2    15
 -6.9459496750187733E-01 a      1306     1     4     2     1
 -2.7765953277850136E-01 a      1307     1     4     2     2
  5.1316689350806721E-01 a      1308     1     4     2     3
 -2.2602269187273055E-01 a      1309     1     4     2     4
 -2.4909803812571146E-01 a      1310     1     4     2     5
 -7.8223824828139144E-01 a      1311     1     4     2     6
 -9.1893814652797401E-01 a      1312     1     4     2     7
  5.6051337464402173E-01 a      1313     1     4     2     8
  7.7661983036135087E-03 a      1314     1     4     2     9
 -1.6131811099968410E-01 a      1315     1     4     2    10
  6.0072889393301254E-01 a      1316     1     4     2    11
  2.1105900850368500E-01 a      1317     1     4     2    12
 -2.9839473131505956E-01 a      1318     1     4     2    13
 -3.5638163277471713E-02 a      1319     1     4     2    14
 -4.9538811683434847E-01 a      1320     1     4     2    15
  3.3432218939848501E-01 a      1321     1     5     2     1
  5.7786784255633183E-01 a      1322     1     5     2     2
 -1.2009695848757000E+00 a      1323     1     5     2     3
  5.5481716693988292E-01 a      1324     1     5     2     4
 -1.6502721616718741E-01 a      1325     1     5     2     5
 -3.9290659379327643E-04 a      1326     1     5     2     6
 -2.6136565905350156E-01 a      1327     1     5     2     7
  1.4835933880809204E-01 a      1328     1     5     2     8
 -9.1719490330124498E-02 a      1329     1     5     2     9
 -2.6889229769655798E-01 a      1330     1     5     2    10
 -6.3249675181131948E-01 a      1331     1     5     2    11
 -8.3359243869269051E-01 a      1332     1     5     2    12
  4.2324472372110972E-01 a      1333     1     5     2    13
  4.4934417083180767E-01 a      1334     1     5     2    14
 -6.9033785417218696E-01 a      1335     1     5     2    15
 -1.4329619233939803E-01 a      1336     1     6     2     1
  8.8637193679182935E-01 a      1337     1     6     2     2
 -8.5278470859035538E-01 a      1338     1     6     2     3
 -4.9064727606717462E-01 a      1339     1     6     2     4
  6.1128227795918288E-01 a      1340     1     6     2     5
  8.3140394000198536E-01 a      1341     1     6     2     6
  1.2133254661834132E+00 a      1342     1     6     2     7
  7.4386674548226295E-01 a      1343     1     6     2     8
 -4.2345676955992989E-01 a      1344     1     6     2     9
 -1.7669440242015688E+00 a      1345     1     6     2    10
 -1.5007902130178909E-02 a      1346     1     6     2    11
 -2.5379484648519157E-01 a      1347     1     6     2    12
  4.2777622652706149E-01 a      1348     1     6     2    13
  3.6835817410242261E-01 a      1349     1     6     2    14
  7.7857662817280382E-01 a      1350     1     6     2    15
  8.0077973668155489E-01 a      1351     1     7     2     1
  5.7026374944574632E-01 a      1352     1     7     2     2
  4.1335809679313912E-01 a      1353     1     7     2     3
  4.9749796808841446E-01 a      1354     1     7     2     4
 -8.9284444826022047E-01 a      1355     1     7     2     5
 -2.5925726051585724E-01 a      1356     1     7     2     6
  3.7517141918007796E-01 a      1357     1     7     2     7
  5.9960538781984118E-01 a      1358     1     7     2     8
  1.9919713547093729E-01 a      1359     1     7     2     9
 -8.0876380212781165E-02 a      1360     1     7     2    10
 -3.3979822834688217E-01 a      1361     1     7     2    11
  7.9129879888127186E-01 a      1362     1     7     2    12
 -5.4754320205101381E-01 a      1363     1     7     2    13
 -4.0232946372580469E-01 a      1364     1     7     2    14
 -1.0979654316878789E-02 a      1365     1     7     2    15
 -1.2759270215288265E+00 a      1366     1     8     2     1
 -4.9327088965410965E-01 a      1367     1     8     2     2
 -9.2144634228763944E-01 a      1368     1     8     2     3
 -6.9473134675716730E-01 a      1369     1     8     2     4
  4.1555525454772840E-01 a      1370     1     8     2     5
  1.0519722635513451E+00 a      1371     1     8     2     6
  9.1823387607617912E-01 a      1372     1     8     2     7
  3.7949246179327817E-01 a      1373     1     8     2     8
 -7.5487690908272864E-01 a      1374     1     8     2     9
  5.3046263523657755E-01 a      1375     1     8     2    10
 -1.1315657646635689E-01 a      1376     1     8     2    11
 -1.5107200777260725E+00 a      1377     1     8     2    12
 -4.8187582592579364E-01 a      1378     1     8     2    13
  7.1009389464116113E-01 a      1379     1     8     2    14
  2.7218408120345811E-01 a      1380     1     8     2    15
  5.0886372761370380E-01 a      1381     1     9     2     1
  7.2544207420910711E-01 a      1382     1     9     2     2
 -3.7449204104123374E-01 a      1383     1     9     2     3
 -5.7628302683013743E-01 a      1384     1     9     2     4
  4.4803683554542634E-01 a      1385     1     9     2     5
 -1.1840230438707562E-01 a      1386     1     9     2     6
 -5.6633295245764692E-01 a      1387     1     9     2     7
  3.1441644294017362E-01 a      1388     1     9     2     8
  7.4948403241421391E-01 a      1389     1     9     2     9
 -4.7642182555018736E-01 a      1390     1     9     2    10
  5.3148868822154349E-01 a      1391     1     9     2    11
 -1.8679001877648124E-01 a      1392     1     9     2    12
 -4.1827765110307454E-02 a      1393     1     9     2    13
  1.0285105198962821E+00 a      1394     1     9     2    14
  5.9607986749142661E-01 a      1395     1     9     2    15
 -3.2472471339214226E-01 a      1396     1    10     2     1
  3.9143508549445996E-02 a      1397     1    10     2     2
 -3.6794994600639180E-01 a      1398     1    10     2     3
 -5.1703501245090133E-01 a      1399     1    10     2     4
  6.2621793871483689E-01 a      1400     1    10     2     5
 -7.0640063512823359E-01 a      1401     1    10     2     6
  3.0726335543547661E-01 a      1402     1    10     2     7
 -3.2424988543635225E-01 a      1403     1    10     2     8
 -1.8401111818119373E-01 a      1404     1    10     2     9
 -5.3168614582944407E-01 a      1405     1    10     2    10
  4.2684584096578487E-01 a      1406     1    10     2    11
 -6.0155740149599735E-01 a      1407     1    10     2    12
  1.9189585556258387E-01 a      1408     1    10     2    13
 -1.1014937056918184E+00 a      1409     1    10     2    14
  3.7397273549878413E-01 a      1410     1    10     2    15
  2.5703064460411089E-02 a      1411     1    11     2     1
 -6.6483107384169710E-02 a      1412     1    11     2     2
  6.9550003857185583E-01 a      1413     1    11     2     3
 -3.2390153917687808E-01 a      1414     1    11     2     4
 -7.9075908434018161E-01 a      1415     1    11     2     5
 -5.6536512371059811E-01 a      1416     1    11     2     6
 -9.3075478863059580E-01 a      1417     1    11     2     7
 -5.6286432790716689E-01 a      1418     1    11     2     8
  2.1140535326576903E-02 a      1419     1    11     2     9
 -8.1739875345393523E-02 a      1420     1    11     2    10
  6.4358340614669873E-01 a      1421     1    11     2    11
  2.4592021617414023E-01 a      1422     1    11     2    12
  7.6872667601674272E-01 a      1423     1    11     2    13
 -1.1022930551438490E-01 a      1424     1    11     2    14
 -2.3354230428296260E-02 a      1425     1    11     2    15
  5.3552908349186867E-01 a      1426     1    12     2     1
  7.5290266223116864E-01 a      1427     1    12     2     2
 -7.1493591580690818E-01 a      1428     1    12     2     3
 -4.6932401589992750E-01 a      1429     1    12     2     4
 -5.3454401745682660E-02 a      1430     1    12     2     5
  3.2982513235019423E-01 a      1431     1    12     2     6
 -5.5027376083850743E-01 a      1432     1    12     2     7
  3.3890974738044227E-01 a      1433     1    12     2     8
 -8.8172434088088047E-01 a      1434     1    12     2     9
  9.6621082945304826E-01 a      1435     1    12     2    10
  2.2199658287940030E-01 a      1436     1    12     2    11
 -3.3932429302560957E-01 a      1437     1    12     2    12
  1.0701298245068969E+00 a      1438     1    12     2    13
  6.7019406910063206E-01 a      1439     1    12     2    14
 -7.1543329548200502E-02 a      1440     1    12     2    15
 -2.3172020071997404E-01 a      1441     1    13     2     1
  1.3014588676675720E-01 a      1442     1    13     2     2
  1.3354886950861355E-01 a      1443     1    13     2     3
 -1.7767093200328968E-01 a      1444     1    13     2     4
  1.0666976782118434E-01 a      1445     1    13     2     5
 -8.5831217601511012E-01 a      1446     1    13     2     6
  7.0605834196657447E-01 a      1447     1    13     2     7
 -3.0698866712001166E-01 a      1448     1    13     2     8
  2.3508778987368556E-01 a      1449     1    13     2     9
 -8.3226972271188568E-02 a      1450     1    13     2    10
  8.6241889342060585E-01 a      1451     1    13     2    11
 -1.0894767642445811E-01 a      1452     1    13     2    12
 -3.9754586895661487E-01 a      1453     1    13     2    13
 -2.6510559882189200E-01 a      1454     1    13     2    14
  3.7270645805962993E-01 a      1455     1    13     2    15
 -3.8603987065404993E-01 a      1456     1    14     2     1
  6.2719927355116656E-01 a      1457     1    14     2     2
 -6.6318250392649569E-01 a      1458     1    14     2     3
 -4.4852926526276343E-01 a      1459     1    14     2     4
  2.7334568102221468E-01 a      1460     1    14     2     5
  8.3949131846287861E-01 a      1461     1    14     2     6
  8.6178788672722800E-02 a      1462     1    14     2     7
 -9.1520907557465325E-01 a      1463     1    14     2     8
  3.8192912303667725E-01 a      1464     1    14     2     9
 -4.1888371790994794E-01 a      1465     1    14     2    10
  2.9685962028808538E-01 a      1466     1    14     2    11
 -2.0902466276547566E-01 a      1467     1    14     2    12
  9.8383605208023805E-01 a      1468     1    14     2    13
  2.0395059814701141E-01 a      1469     1    14     2    14
  4.9327690612810926E-01 a      1470     1    14     2    15
  4.0182747962888693E-01 a      1471     1    15     2     1
 -5.4701702388708306E-01 a      1472     1    15     2     2
 -9.3140921835747376E-02 a      1473     1    15     2     3
  5.6420748419909669E-03 a      1474     1    15     2     4
 -6.2009912297020398E-01 a      1475     1    15     2     5
 -2.2077936977120691E-01 a      1476     1    15     2     6
  5.5987430431014318E-01 a      1477     1    15     2     7
  2.0743991706403969E-01 a      1478     1    15     2     8
  2.8660810368288991E-01 a      1479     1    15     2     9
  2.5974580322749180E-01 a      1480     1    15     2    10
 -9.5221330119235481E-01 a      1481     1    15     2    11
  4.2287705732910286E-01 a      1482     1    15     2    12
  6.0441620335068572E-02 a      1483     1    15     2    13
 -4.4507762812242085E-01 a      1484     1    15     2    14
  3.7362044873233990E-01 a      1485     1    15     2    15
  1.5094332770302836E+00 b      1486     2     1
  1.0190766435499701E+00 b      1487     2     2
 -5.1680686627875859E-02 b      1488     2     3
  1.5634640781747213E+00 b      1489     2     4
 -1.6759170365051146E-01 b      1490     2     5
  1.2387216466193471E+00 b      1491     2     6
  1.6306988991205648E-01 b      1492     2     7
 -1.5891870147582114E+00 b      1493     2     8
 -1.5230878499343672E-01 b      1494     2     9
 -1.6591924366615958E+00 b      1495     2    10
  1.0192559819745437E+00 b      1496     2    11
  4.6001600206133481E-01 b      1497     2    12
  1.6909966271857473E+00 b      1498     2    13
 -1.9565122738410203E+00 b      1499     2    14
 -1.0899364974176462E+00 b      1500     2    15
  3.1227880863721569E-01 a      1501     2     1     3     1
  7.7121174945206816E-01 a      1502     2     2     3     1
  2.6425092370975117E-01 a      1503     2     3     3     1
  1.2826204846567002E+00 a      1504     2     4     3     1
 -5.1823093102915008E-01 a      1505     2     5     3     1
  1.5578889288159716E+00 a      1506     2     6     3     1
  1.3490110510718387E+00 a      1507     2     7     3     1
 -6.3676403554487393E-01 a      1508     2     8     3     1
  2.3216532213252600E-01 a      1509     2     9     3     1
  9.1617866723318883E-02 a      1510     2    10     3     1
  6.0986550417900864E-01 a      1511     2    11     3     1
 -7.9339890028528814E-01 a      1512     2    12     3     1
 -1.1042202830041248E+00 a      1513     2    13     3     1
 -4.6105672099788514E-01 a      1514     2    14     3     1
 -2.4098732079496682E-01 a      1515     2    15     3     1
  3.5130784129306464E-01 b      1516     3     1
