################################################################################
# Neural network connection values (weights and biases).
################################################################################
# Col  Name       Description
################################################################################
# 1    connection Neural network connection value.
# 2    t          Connection type (a = weight, b = bias).
# 3    index      Index enumerating weights.
# 4    l_s        Starting point layer (end point layer for biases).
# 5    n_s        Starting point neuron in starting layer (end point neuron for biases).
# 6    l_e        End point layer.
# 7    n_e        End point neuron in end layer.
################################################################################
#                      1 2         3     4     5     6     7
#             connection t     index   l_s   n_s   l_e   n_e
############################################################
  2.4125466846710977E-01 a         1     0     1     1     1
 -1.3835715930873349E-01 a         2     0     1     1     2
  4.7320573634208378E-02 a         3     0     1     1     3
  4.3815332752079583E-01 a         4     0     1     1     4
  1.0277811662733836E-02 a         5     0     1     1     5
 -4.8718553936621495E-01 a         6     0     1     1     6
  2.7014564639534749E-01 a         7     0     1     1     7
 -1.8427244194374803E-01 a         8     0     1     1     8
 -5.9170567886379387E-02 a         9     0     1     1     9
 -2.2573004841481284E-01 a        10     0     1     1    10
  5.7475305835375204E-02 a        11     0     2     1     1
 -4.9819026101044506E-01 a        12     0     2     1     2
 -4.0479928579709451E-01 a        13     0     2     1     3
 -8.1199523045305699E-02 a        14     0     2     1     4
  1.1945045925271382E-01 a        15     0     2     1     5
  6.0684142831189475E-02 a        16     0     2     1     6
 -1.0181060755818093E-02 a        17     0     2     1     7
  4.2929679325460068E-01 a        18     0     2     1     8
  1.4649281148685892E-02 a        19     0     2     1     9
 -3.1622280339243092E-01 a        20     0     2     1    10
 -1.8042376702170054E-01 a        21     0     3     1     1
  3.8937336965024255E-01 a        22     0     3     1     2
 -9.7261263647150181E-02 a        23     0     3     1     3
 -7.7242829346633263E-02 a        24     0     3     1     4
  3.0771483609093064E-01 a        25     0     3     1     5
  2.4954081898966005E-01 a        26     0     3     1     6
 -2.6552475178633889E-01 a        27     0     3     1     7
  1.6926307741465929E-01 a        28     0     3     1     8
 -1.3091007975258123E-01 a        29     0     3     1     9
 -1.4252177017237561E-01 a        30     0     3     1    10
  1.3557507051998541E-01 a        31     0     4     1     1
 -2.0912989777748175E-01 a        32     0     4     1     2
  4.2413357866259482E-01 a        33     0     4     1     3
  3.7281118806489943E-01 a        34     0     4     1     4
 -2.0602266347145748E-01 a        35     0     4     1     5
 -2.3796631183133327E-01 a        36     0     4     1     6
  2.5250927247674027E-01 a        37     0     4     1     7
  4.1166166767622279E-03 a        38     0     4     1     8
 -3.9401084552333315E-01 a        39     0     4     1     9
 -5.0808089216648408E-02 a        40     0     4     1    10
  3.5912326803246811E-02 a        41     0     5     1     1
  2.2658897473960546E-01 a        42     0     5     1     2
 -2.5983787331891472E-01 a        43     0     5     1     3
 -3.5702069827068633E-01 a        44     0     5     1     4
 -2.3790052908707784E-01 a        45     0     5     1     5
 -6.4053164125708204E-02 a        46     0     5     1     6
  2.8763053636364183E-01 a        47     0     5     1     7
 -3.6918110358905221E-01 a        48     0     5     1     8
  2.0639716716300782E-01 a        49     0     5     1     9
  2.5641348500574892E-02 a        50     0     5     1    10
 -6.2702456004399207E-02 a        51     0     6     1     1
 -4.3089355368544852E-01 a        52     0     6     1     2
  1.8023685869312658E-01 a        53     0     6     1     3
  3.2504623610906461E-02 a        54     0     6     1     4
  1.0879649844759812E-01 a        55     0     6     1     5
  1.3523248042917635E-01 a        56     0     6     1     6
 -1.3800220254594099E-02 a        57     0     6     1     7
 -1.2636555294773222E-01 a        58     0     6     1     8
  2.4748186150773574E-01 a        59     0     6     1     9
  1.1329318976500952E-01 a        60     0     6     1    10
 -1.0899894388403718E-01 a        61     0     7     1     1
 -1.9773254883551669E-01 a        62     0     7     1     2
  1.7032306103705439E-01 a        63     0     7     1     3
 -4.3772029872169577E-02 a        64     0     7     1     4
 -4.0514009678566065E-01 a        65     0     7     1     5
 -7.7095500313883389E-02 a        66     0     7     1     6
  1.1564582821318355E-01 a        67     0     7     1     7
 -1.6622035523255965E-01 a        68     0     7     1     8
  1.8732776657585740E-01 a        69     0     7     1     9
 -1.7973610301755630E-01 a        70     0     7     1    10
 -6.1925151641463873E-02 a        71     0     8     1     1
  3.7867648454300948E-02 a        72     0     8     1     2
  2.3864150694305689E-01 a        73     0     8     1     3
  1.1425834701195499E-02 a        74     0     8     1     4
  4.6164127754637935E-01 a        75     0     8     1     5
  2.4475884699664777E-01 a        76     0     8     1     6
 -8.5259894336228811E-02 a        77     0     8     1     7
  2.7354490821607347E-01 a        78     0     8     1     8
  2.2115276463317796E-01 a        79     0     8     1     9
  2.6134462657384120E-02 a        80     0     8     1    10
 -1.8864486483774082E-01 a        81     0     9     1     1
  2.6648920812456339E-01 a        82     0     9     1     2
  2.1599701413925801E-01 a        83     0     9     1     3
  3.9597135766903507E-01 a        84     0     9     1     4
 -2.8721939551580555E-01 a        85     0     9     1     5
 -3.4320493622344733E-01 a        86     0     9     1     6
  2.1434887842765923E-01 a        87     0     9     1     7
 -3.5188880121488841E-01 a        88     0     9     1     8
  3.1455334576573685E-01 a        89     0     9     1     9
  2.1224764644447269E-01 a        90     0     9     1    10
  6.9874958017370412E-02 a        91     0    10     1     1
  1.4310393801035601E-01 a        92     0    10     1     2
  1.2695072559116142E-02 a        93     0    10     1     3
 -1.5080496064491805E-01 a        94     0    10     1     4
 -2.7598775427688393E-01 a        95     0    10     1     5
  7.9700903718723154E-02 a        96     0    10     1     6
 -9.5561846485494151E-02 a        97     0    10     1     7
 -1.9398089873657781E-01 a        98     0    10     1     8
 -5.5821884010868968E-02 a        99     0    10     1     9
  1.9163066104589696E-01 a       100     0    10     1    10
 -6.2714976670148345E-02 a       101     0    11     1     1
 -6.0604370626647641E-02 a       102     0    11     1     2
 -3.0032251652132337E-02 a       103     0    11     1     3
  4.2457601699348981E-03 a       104     0    11     1     4
  1.7137412476632774E-01 a       105     0    11     1     5
  1.0563514740268169E-01 a       106     0    11     1     6
  1.7787704230240575E-01 a       107     0    11     1     7
  2.1659596775330492E-01 a       108     0    11     1     8
 -1.8971470267454948E-02 a       109     0    11     1     9
 -1.6891540709617875E-01 a       110     0    11     1    10
  1.0988085312071116E-01 a       111     0    12     1     1
 -3.0632124985868069E-03 a       112     0    12     1     2
  1.6641391552801577E-01 a       113     0    12     1     3
 -1.4201891387553639E-01 a       114     0    12     1     4
 -1.2863458878088452E-01 a       115     0    12     1     5
  1.2215280913295172E-01 a       116     0    12     1     6
 -2.9371391961866750E-01 a       117     0    12     1     7
  1.3941202467834110E-01 a       118     0    12     1     8
  2.6501947735879455E-01 a       119     0    12     1     9
  2.9534161246973889E-01 a       120     0    12     1    10
 -1.1603357441105117E-01 a       121     0    13     1     1
 -2.6909332613194920E-02 a       122     0    13     1     2
 -2.3393291235073690E-01 a       123     0    13     1     3
 -3.0554332157489517E-01 a       124     0    13     1     4
  1.0046686056288907E-01 a       125     0    13     1     5
  1.0260343386877484E-01 a       126     0    13     1     6
 -1.6621564468490838E-02 a       127     0    13     1     7
  3.1554381801384107E-01 a       128     0    13     1     8
 -1.9712695103924704E-01 a       129     0    13     1     9
  2.6398664846468477E-02 a       130     0    13     1    10
 -9.1894183176566169E-02 a       131     0    14     1     1
  2.1690893096897573E-01 a       132     0    14     1     2
 -6.4722085735620494E-02 a       133     0    14     1     3
  1.4477557399771826E-01 a       134     0    14     1     4
 -2.9502586576100409E-01 a       135     0    14     1     5
  3.3854865913469878E-01 a       136     0    14     1     6
  1.0929466553695517E-01 a       137     0    14     1     7
 -1.7934508311319686E-01 a       138     0    14     1     8
  2.4257575660697281E-01 a       139     0    14     1     9
  2.7814304277011198E-01 a       140     0    14     1    10
 -1.7825134850067176E-01 a       141     0    15     1     1
  3.1346677747619689E-01 a       142     0    15     1     2
 -6.7765918724862441E-03 a       143     0    15     1     3
  2.1049809814520809E-01 a       144     0    15     1     4
  3.5345480062023404E-01 a       145     0    15     1     5
  1.1529084269345095E-01 a       146     0    15     1     6
  1.9978363672928931E-01 a       147     0    15     1     7
  1.2404814460486936E-01 a       148     0    15     1     8
 -8.6732024127356144E-02 a       149     0    15     1     9
 -5.9152297906852370E-02 a       150     0    15     1    10
  1.1796127010090464E-01 a       151     0    16     1     1
 -9.1809806385248119E-02 a       152     0    16     1     2
 -1.5605119471297535E-01 a       153     0    16     1     3
 -5.5597090807700622E-01 a       154     0    16     1     4
  3.6617686574606989E-01 a       155     0    16     1     5
  2.5695312316613672E-01 a       156     0    16     1     6
  2.3638371990774312E-01 a       157     0    16     1     7
 -4.4634542173783916E-05 a       158     0    16     1     8
  2.7685315758974333E-01 a       159     0    16     1     9
  2.7386236481307313E-01 a       160     0    16     1    10
 -1.1651037257299017E-01 a       161     0    17     1     1
 -1.5627259880515360E-01 a       162     0    17     1     2
 -9.1631783498148794E-02 a       163     0    17     1     3
  8.1298101066183282E-03 a       164     0    17     1     4
 -7.9491248889909605E-02 a       165     0    17     1     5
  3.9340400474780035E-01 a       166     0    17     1     6
 -9.7724874590464743E-03 a       167     0    17     1     7
 -2.8096977986556138E-02 a       168     0    17     1     8
 -2.3163287906491903E-01 a       169     0    17     1     9
 -1.2440482391017366E-01 a       170     0    17     1    10
 -2.6042893120369254E-02 a       171     0    18     1     1
 -7.2447439187598286E-02 a       172     0    18     1     2
  4.9327134138025280E-01 a       173     0    18     1     3
 -3.8756257939967606E-02 a       174     0    18     1     4
 -1.7158454340531482E-01 a       175     0    18     1     5
 -2.0273559986233369E-01 a       176     0    18     1     6
 -1.1054024735276961E-01 a       177     0    18     1     7
  3.1557054437336429E-01 a       178     0    18     1     8
  7.7424588407934300E-02 a       179     0    18     1     9
 -5.2807507556329303E-01 a       180     0    18     1    10
  3.2289665288571939E-01 a       181     0    19     1     1
 -2.3980356810680370E-01 a       182     0    19     1     2
 -1.1249652828598174E-01 a       183     0    19     1     3
 -3.7936288155543468E-01 a       184     0    19     1     4
  1.0465676340592817E-01 a       185     0    19     1     5
 -4.1937726746363069E-01 a       186     0    19     1     6
  3.1770244524061531E-01 a       187     0    19     1     7
  9.6071251901567914E-02 a       188     0    19     1     8
 -3.7713491001813121E-02 a       189     0    19     1     9
 -6.2014393102844574E-02 a       190     0    19     1    10
  1.2780876647987813E-01 a       191     0    20     1     1
 -2.6352829856753202E-01 a       192     0    20     1     2
 -3.8647337256827224E-01 a       193     0    20     1     3
 -2.9243277798376793E-01 a       194     0    20     1     4
 -7.2634038299450310E-02 a       195     0    20     1     5
 -6.9719636985583838E-02 a       196     0    20     1     6
 -2.8731835277536383E-02 a       197     0    20     1     7
  3.4123236148686793E-02 a       198     0    20     1     8
 -7.4061931371348672E-02 a       199     0    20     1     9
 -1.5323712397546652E-01 a       200     0    20     1    10
  1.6996993832198934E-01 a       201     0    21     1     1
 -3.4924630222882136E-01 a       202     0    21     1     2
 -3.2624776955221252E-01 a       203     0    21     1     3
  2.8163112186525650E-02 a       204     0    21     1     4
  2.8830418868135249E-01 a       205     0    21     1     5
 -1.7575729486518940E-01 a       206     0    21     1     6
  2.2229120268571689E-01 a       207     0    21     1     7
  1.2895275282379572E-02 a       208     0    21     1     8
  1.1248193007810843E-01 a       209     0    21     1     9
  1.2612364378670457E-01 a       210     0    21     1    10
  1.7462282848159977E-01 a       211     0    22     1     1
  2.4509669656822192E-01 a       212     0    22     1     2
 -3.2624815689580794E-01 a       213     0    22     1     3
 -3.2137941352336269E-01 a       214     0    22     1     4
  9.6384311640966350E-02 a       215     0    22     1     5
 -1.5909783742714093E-01 a       216     0    22     1     6
 -3.5181266233330788E-01 a       217     0    22     1     7
  8.8057967743170262E-02 a       218     0    22     1     8
 -2.2486505102059628E-01 a       219     0    22     1     9
  1.3372171350692494E-01 a       220     0    22     1    10
 -3.2758725266995425E-01 a       221     0    23     1     1
 -3.6646276468283923E-01 a       222     0    23     1     2
  1.6078040899961341E-01 a       223     0    23     1     3
  9.4382849803552063E-02 a       224     0    23     1     4
  3.1447497944028818E-01 a       225     0    23     1     5
 -3.9742938142508122E-01 a       226     0    23     1     6
 -4.2455785585558672E-03 a       227     0    23     1     7
 -1.1852726756908041E-01 a       228     0    23     1     8
 -5.5491417023794884E-02 a       229     0    23     1     9
 -4.3078220006730027E-03 a       230     0    23     1    10
  2.2297705182355579E-01 a       231     0    24     1     1
 -6.9786341687366735E-02 a       232     0    24     1     2
  1.7922642155063997E-01 a       233     0    24     1     3
 -1.1972272712819007E-01 a       234     0    24     1     4
  1.2414590733094100E-01 a       235     0    24     1     5
 -4.0344554767066765E-01 a       236     0    24     1     6
 -3.6051369039867592E-01 a       237     0    24     1     7
 -4.5606519903539972E-01 a       238     0    24     1     8
  7.3516658318286715E-02 a       239     0    24     1     9
  2.7334406611372325E-01 a       240     0    24     1    10
  2.4028352461403293E-01 a       241     0    25     1     1
  8.6919335070068118E-02 a       242     0    25     1     2
  2.4582811988559017E-01 a       243     0    25     1     3
 -2.1975507127358529E-01 a       244     0    25     1     4
 -1.0292679070143262E-01 a       245     0    25     1     5
  2.5824793388868905E-01 a       246     0    25     1     6
 -4.0201530046337158E-01 a       247     0    25     1     7
  7.2369554916474649E-02 a       248     0    25     1     8
  2.4966928134271105E-01 a       249     0    25     1     9
  2.0752909766530875E-01 a       250     0    25     1    10
  2.1363705569533498E-01 a       251     0    26     1     1
 -8.7921163444949699E-02 a       252     0    26     1     2
  4.5003032883149920E-02 a       253     0    26     1     3
  8.0190433577268169E-02 a       254     0    26     1     4
  8.6847786097098395E-02 a       255     0    26     1     5
  3.5483308151804860E-01 a       256     0    26     1     6
  5.1014739401976067E-02 a       257     0    26     1     7
  1.7078788342138765E-01 a       258     0    26     1     8
  2.3103554323437159E-01 a       259     0    26     1     9
 -2.3156142171991453E-02 a       260     0    26     1    10
  2.0315758899267741E-01 a       261     0    27     1     1
  5.3500695298824723E-02 a       262     0    27     1     2
  2.3947833442528657E-01 a       263     0    27     1     3
 -1.8710399808934761E-01 a       264     0    27     1     4
  3.3229139982536682E-01 a       265     0    27     1     5
  1.2469453250441229E-01 a       266     0    27     1     6
 -2.4469064568463009E-01 a       267     0    27     1     7
  1.3981805443252865E-01 a       268     0    27     1     8
  3.7803387388516968E-01 a       269     0    27     1     9
  2.3503093779562187E-01 a       270     0    27     1    10
 -3.1823181561672931E-01 a       271     0    28     1     1
  1.3509123411744293E-03 a       272     0    28     1     2
  3.1022578594077049E-01 a       273     0    28     1     3
  4.9474782341700130E-01 a       274     0    28     1     4
  2.9149376448542219E-01 a       275     0    28     1     5
 -3.6983151034524091E-02 a       276     0    28     1     6
  2.4737415661624480E-02 a       277     0    28     1     7
 -3.5395670539700247E-01 a       278     0    28     1     8
  2.2994717275753407E-01 a       279     0    28     1     9
 -3.8146456549884067E-01 a       280     0    28     1    10
  9.4143356811095244E-02 a       281     0    29     1     1
 -2.4828969899793742E-02 a       282     0    29     1     2
  1.3959554492323809E-01 a       283     0    29     1     3
  4.5845786439624892E-02 a       284     0    29     1     4
 -1.4574556701415514E-01 a       285     0    29     1     5
 -3.9399645281989998E-01 a       286     0    29     1     6
  3.5399286641079086E-01 a       287     0    29     1     7
 -1.2532451567660957E-01 a       288     0    29     1     8
 -7.8051355643158807E-02 a       289     0    29     1     9
 -6.5042350509791860E-02 a       290     0    29     1    10
 -7.6645933250285861E-02 a       291     0    30     1     1
  8.2666037394772948E-02 a       292     0    30     1     2
  2.5874943958925789E-01 a       293     0    30     1     3
 -1.8685697404821142E-01 a       294     0    30     1     4
  2.9424811739554649E-02 a       295     0    30     1     5
  1.3213424599016668E-01 a       296     0    30     1     6
 -1.8095097397281876E-01 a       297     0    30     1     7
  1.9019969836055808E-01 a       298     0    30     1     8
 -2.2667989287547469E-01 a       299     0    30     1     9
 -2.7168454603947806E-01 a       300     0    30     1    10
  1.9838270568331787E-01 a       301     0    31     1     1
  3.3537670015003279E-01 a       302     0    31     1     2
  2.1099660046668453E-01 a       303     0    31     1     3
  3.7726999138427386E-01 a       304     0    31     1     4
 -3.1549775957052423E-01 a       305     0    31     1     5
 -1.7589642416628043E-01 a       306     0    31     1     6
  4.2520793231447820E-02 a       307     0    31     1     7
  4.2766050248786841E-01 a       308     0    31     1     8
 -1.3672183357608841E-01 a       309     0    31     1     9
 -4.0147756564658515E-01 a       310     0    31     1    10
 -2.8894581774404900E-02 a       311     0    32     1     1
  1.1768542469056442E-01 a       312     0    32     1     2
  1.2778974495232522E-02 a       313     0    32     1     3
 -3.5218220800713818E-01 a       314     0    32     1     4
 -1.3910401371440909E-01 a       315     0    32     1     5
 -2.1087474155959143E-01 a       316     0    32     1     6
 -1.1285984974845183E-01 a       317     0    32     1     7
 -9.6829591340530125E-02 a       318     0    32     1     8
  2.2057216284383072E-01 a       319     0    32     1     9
  3.5634955450017508E-01 a       320     0    32     1    10
 -6.0968484535434166E-02 a       321     0    33     1     1
  2.7893557211532127E-01 a       322     0    33     1     2
 -3.9641835688842469E-01 a       323     0    33     1     3
 -8.6574341879066763E-02 a       324     0    33     1     4
 -2.8195555940301788E-02 a       325     0    33     1     5
 -6.6132765656619436E-02 a       326     0    33     1     6
  2.9715777697690066E-01 a       327     0    33     1     7
 -2.9799429472734967E-01 a       328     0    33     1     8
  9.6022138569034410E-02 a       329     0    33     1     9
 -3.5710170564637066E-02 a       330     0    33     1    10
 -1.1376742954016283E-01 a       331     0    34     1     1
  3.4741025883923568E-02 a       332     0    34     1     2
  6.0322342862818304E-02 a       333     0    34     1     3
  1.5712404376599093E-01 a       334     0    34     1     4
 -3.8986580229278339E-01 a       335     0    34     1     5
  6.3341401767501571E-01 a       336     0    34     1     6
 -1.8642740214287923E-01 a       337     0    34     1     7
  2.9491020064965023E-01 a       338     0    34     1     8
 -9.0557658880708894E-02 a       339     0    34     1     9
 -3.0950513681516915E-02 a       340     0    34     1    10
 -3.2001567517927870E-01 a       341     0    35     1     1
  8.6172741199496514E-02 a       342     0    35     1     2
  1.5710733583563549E-01 a       343     0    35     1     3
  4.2734542429781258E-01 a       344     0    35     1     4
 -2.1892621891573161E-01 a       345     0    35     1     5
 -5.0867820479786843E-02 a       346     0    35     1     6
 -2.0990762641309932E-01 a       347     0    35     1     7
 -1.7082426572020046E-01 a       348     0    35     1     8
 -2.2235318752432662E-01 a       349     0    35     1     9
  4.0365921711138802E-01 a       350     0    35     1    10
 -3.5015776848480279E-01 b       351     1     1
 -1.4413714662508841E+00 b       352     1     2
 -7.5479702657138339E-02 b       353     1     3
  1.4814979833271114E+00 b       354     1     4
 -9.3605643813520789E-01 b       355     1     5
  3.7714541985269912E-01 b       356     1     6
 -4.9549234610152953E-01 b       357     1     7
 -9.7621443544864650E-01 b       358     1     8
  2.1464155673797808E-01 b       359     1     9
  5.8764020858501376E-01 b       360     1    10
 -3.6530005701647150E-01 a       361     1     1     2     1
 -1.6683788189246312E-01 a       362     1     1     2     2
  5.4907256513723701E-01 a       363     1     1     2     3
  3.2793462161123987E-01 a       364     1     1     2     4
  6.4289593559775093E-01 a       365     1     1     2     5
  9.8365918207597469E-01 a       366     1     1     2     6
 -5.3121085851770011E-01 a       367     1     1     2     7
 -5.3337066213520934E-01 a       368     1     1     2     8
  9.4434399926462242E-01 a       369     1     1     2     9
  3.7874699664491368E-01 a       370     1     1     2    10
  4.0126070860748919E-01 a       371     1     2     2     1
 -1.0372653639263578E+00 a       372     1     2     2     2
  9.0511736651350469E-02 a       373     1     2     2     3
  3.9700630969118778E-01 a       374     1     2     2     4
 -4.7686483832348159E-01 a       375     1     2     2     5
 -2.3123260776776282E-02 a       376     1     2     2     6
  7.6397709586880203E-01 a       377     1     2     2     7
  9.5507014608530727E-01 a       378     1     2     2     8
  3.0531225109894694E-01 a       379     1     2     2     9
 -2.3930185839552301E-01 a       380     1     2     2    10
  7.5147819565886731E-01 a       381     1     3     2     1
 -3.5950265494228656E-01 a       382     1     3     2     2
  5.6526096571850193E-01 a       383     1     3     2     3
  9.2120917146104120E-01 a       384     1     3     2     4
  6.4080253154555372E-02 a       385     1     3     2     5
  1.4010122100556763E-01 a       386     1     3     2     6
  7.4848391049161356E-01 a       387     1     3     2     7
  5.3930811678158552E-01 a       388     1     3     2     8
  6.0539845348786037E-01 a       389     1     3     2     9
 -3.2761759699972703E-01 a       390     1     3     2    10
  6.0317530194242508E-01 a       391     1     4     2     1
 -6.6741449902805372E-01 a       392     1     4     2     2
  6.3540420682640997E-01 a       393     1     4     2     3
 -6.9668555070930782E-01 a       394     1     4     2     4
 -2.7596987214838070E-01 a       395     1     4     2     5
  1.3773857514638485E-01 a       396     1     4     2     6
  2.1347220276799399E-02 a       397     1     4     2     7
  3.8598787365509729E-02 a       398     1     4     2     8
 -6.2337855252213337E-01 a       399     1     4     2     9
  9.7046697235508583E-01 a       400     1     4     2    10
 -7.9374468639095630E-01 a       401     1     5     2     1
  4.5223153046009268E-02 a       402     1     5     2     2
 -6.8548804467335592E-02 a       403     1     5     2     3
 -5.0717044341066142E-01 a       404     1     5     2     4
 -7.3739314239083065E-01 a       405     1     5     2     5
  3.6059817678961137E-01 a       406     1     5     2     6
 -1.1134773682954710E-01 a       407     1     5     2     7
  3.4858479083142507E-01 a       408     1     5     2     8
  7.6307808736485322E-02 a       409     1     5     2     9
  5.6426707434044354E-01 a       410     1     5     2    10
 -5.9459342227701484E-01 a       411     1     6     2     1
  6.3390639727427922E-01 a       412     1     6     2     2
  4.2402939385225547E-02 a       413     1     6     2     3
  1.1705601868337631E-01 a       414     1     6     2     4
 -6.2853183979437377E-01 a       415     1     6     2     5
  3.9919691081921227E-01 a       416     1     6     2     6
 -5.1706102395970022E-01 a       417     1     6     2     7
 -2.3332881461418684E-01 a       418     1     6     2     8
  8.9344074069023960E-01 a       419     1     6     2     9
 -3.9376647798518000E-01 a       420     1     6     2    10
  3.4876903893697486E-01 a       421     1     7     2     1
  8.4135322628332887E-01 a       422     1     7     2     2
 -7.3628650861735578E-01 a       423     1     7     2     3
 -9.1825334900774547E-01 a       424     1     7     2     4
  5.5891024299032110E-01 a       425     1     7     2     5
  6.9930277023137144E-01 a       426     1     7     2     6
 -6.4165272368670778E-01 a       427     1     7     2     7
 -6.3192521537590141E-01 a       428     1     7     2     8
  5.0656615413482708E-01 a       429     1     7     2     9
  8.7889548117126404E-01 a       430     1     7     2    10
  4.8089965229664233E-01 a       431     1     8     2     1
  3.4248597790758908E-02 a       432     1     8     2     2
 -1.0072890621027952E+00 a       433     1     8     2     3
  6.5114634443205999E-01 a       434     1     8     2     4
  7.8507380639054269E-01 a       435     1     8     2     5
 -2.8218061825607449E-01 a       436     1     8     2     6
  6.7802185146600269E-01 a       437     1     8     2     7
 -8.6730256102476766E-01 a       438     1     8     2     8
 -5.4101197326326389E-01 a       439     1     8     2     9
 -4.7203377106786337E-01 a       440     1     8     2    10
  4.8671632047712288E-01 a       441     1     9     2     1
  1.0192708460759373E-01 a       442     1     9     2     2
 -5.6721807406049107E-01 a       443     1     9     2     3
 -2.0506154152844594E-01 a       444     1     9     2     4
 -2.5679402225192371E-01 a       445     1     9     2     5
 -9.6267725753751632E-01 a       446     1     9     2     6
  1.6633368413839156E-02 a       447     1     9     2     7
 -6.5533965796128213E-01 a       448     1     9     2     8
 -4.1435089218449012E-01 a       449     1     9     2     9
 -7.2406818613402391E-01 a       450     1     9     2    10
 -6.7478221427742935E-01 a       451     1    10     2     1
  4.8515305304364686E-01 a       452     1    10     2     2
 -3.5690313099283394E-01 a       453     1    10     2     3
 -1.5121448641745028E-01 a       454     1    10     2     4
  3.8210033906380675E-01 a       455     1    10     2     5
  4.0061708455535272E-01 a       456     1    10     2     6
  8.2598911764901661E-01 a       457     1    10     2     7
 -3.7110947282049184E-01 a       458     1    10     2     8
  2.1677596724049836E-01 a       459     1    10     2     9
 -6.1170363983100062E-01 a       460     1    10     2    10
 -7.7625595654128887E-01 b       461     2     1
  1.5927054323508993E+00 b       462     2     2
 -1.6191399677432032E+00 b       463     2     3
  7.5616664332940597E-01 b       464     2     4
  6.1596994936632909E-01 b       465     2     5
 -1.0168960646347864E+00 b       466     2     6
  1.3732464995491378E+00 b       467     2     7
  1.1202934153691815E+00 b       468     2     8
  1.2622031487357817E+00 b       469     2     9
 -1.5662999416983256E+00 b       470     2    10
  2.3981029983753802E-02 a       471     2     1     3     1
 -7.0760168286911063E-01 a       472     2     2     3     1
 -8.0986491062956067E-01 a       473     2     3     3     1
 -2.5440059226371409E-02 a       474     2     4     3     1
  2.5669135409116578E-01 a       475     2     5     3     1
 -4.2117872617787944E-01 a       476     2     6     3     1
  1.1147901349079488E-01 a       477     2     7     3     1
  5.8732714633167782E-01 a       478     2     8     3     1
  6.8155986795009782E-01 a       479     2     9     3     1
  2.2492423857851521E-01 a       480     2    10     3     1
  8.4089582085410230E-01 b       481     3     1
